<?xml version="1.0"?>
<opencv_storage>
<my_svm type_id="opencv-ml-svm">
  <svm_type>C_SVC</svm_type>
  <kernel><type>LINEAR</type></kernel>
  <C>1.0000000000000001e-001</C>
  <term_criteria><epsilon>2.2204460492503131e-016</epsilon>
    <iterations>10000000</iterations></term_criteria>
  <var_all>17</var_all>
  <var_count>17</var_count>
  <class_count>50</class_count>
  <class_labels type_id="opencv-matrix">
    <rows>1</rows>
    <cols>50</cols>
    <dt>i</dt>
    <data>
      1 2 4 5 6 8 9 10 15 17 19 20 21 22 23 24 27 28 29 31 35 45 49 50
      51 52 53 55 59 63 67 72 76 85 86 105 129 143 155 160 165 168 175
      195 209 210 212 218 219 230</data></class_labels>
  <sv_total>1225</sv_total>
  <support_vectors>
    <_>
      -7.67425518e-004 -4.69747745e-003 4.74380190e-003 -5.00736898e-003
      2.00513285e-003 -3.56769143e-003 1.61802454e-003 -2.99593830e-003
      -3.22441058e-003 -9.43099207e-004 -1.60958022e-002 1.15782325e-003
      5.42100111e-004 1.42496945e-002 4.22338862e-003 -1.43139646e-003
      -1.93032753e-002</_>
    <_>
      -2.81791523e-004 -3.82805476e-003 7.01504643e-004 -2.50146934e-003
      -1.59736315e-003 -2.39903433e-003 7.35197566e-004 -3.51883192e-003
      -1.37888259e-004 -1.57123187e-003 -1.43120419e-002 9.33595467e-004
      5.58742462e-003 7.20101036e-003 3.21094878e-003 -1.95440091e-003
      -7.89180119e-003</_>
    <_>
      -2.23971694e-003 -3.80045339e-003 -1.66852796e-003
      -2.41728430e-003 -1.33339316e-003 -2.15453771e-003
      -2.77912011e-004 -1.65822834e-003 -2.41670175e-003
      -1.83614530e-003 -1.09558972e-002 -1.53255451e-003 1.74109242e-003
      1.17623909e-004 6.99950906e-004 -5.30563004e-004 -4.88379644e-003</_>
    <_>
      -1.06786878e-003 -6.59099547e-003 8.24964882e-005 -4.75566182e-003
      -3.33853438e-003 -5.85852051e-003 -7.86783421e-005
      -3.42499674e-003 -1.65680319e-003 -1.31028413e-003
      -1.24636507e-002 -2.34229234e-003 6.01607328e-003 3.42339464e-003
      -4.16934548e-004 3.12976609e-003 -1.54445041e-002</_>
    <_>
      -7.77453417e-003 -7.87098426e-003 -4.98086156e-004
      -4.74044448e-003 -3.10622226e-003 1.94090733e-003 -4.28212015e-003
      -6.48077345e-004 -6.13133190e-003 4.72158846e-003 -1.31350141e-002
      1.48642268e-002 8.69006105e-003 3.84667976e-004 -5.18890098e-003
      1.31523851e-002 -1.51324831e-002</_>
    <_>
      -3.80131509e-003 -4.19527059e-003 -2.35735299e-003
      -3.46849812e-003 -1.99386501e-003 -1.97180547e-003
      -4.69099294e-004 -1.27831486e-003 -2.20296811e-003
      -1.76421297e-003 -1.07997740e-002 3.41474987e-003 4.48784232e-003
      2.46551959e-003 8.12369119e-003 2.22984847e-004 -4.93310904e-003</_>
    <_>
      -1.29730173e-003 -2.48247408e-003 -6.03043300e-004
      -2.03372329e-003 -8.31189274e-004 -1.87365827e-003 9.29753529e-004
      -1.74904789e-003 -9.59965051e-004 1.34536895e-004 -9.92476102e-003
      1.55862025e-003 5.86993108e-003 4.95525682e-003 4.87168273e-003
      4.20644600e-003 -1.10031227e-002</_>
    <_>
      -2.10486096e-003 -3.64460773e-003 -3.75343043e-005
      -3.21618305e-003 -2.40432378e-003 -3.20904609e-003 6.82327081e-004
      -1.79126137e-003 -9.71230838e-005 7.43248791e-004 -9.18223243e-003
      -1.08263819e-002 -2.10760441e-003 -9.84916557e-003
      -1.85692601e-003 2.76947580e-003 -1.31703541e-002</_>
    <_>
      -2.31790682e-003 -2.43402575e-003 4.44129138e-004 -2.04237294e-003
      -1.33917216e-004 -1.45769550e-003 -3.83331935e-004
      -8.86006630e-004 -2.72515323e-003 -2.41204794e-003
      -1.30918520e-002 3.73790413e-003 2.48493569e-004 6.98262965e-003
      4.75203712e-003 -4.71394695e-003 -3.26477340e-003</_>
    <_>
      -2.07562651e-003 -3.45071522e-003 -8.94762867e-004
      -1.04139920e-003 -4.54340370e-005 -7.09448301e-004 9.47126537e-004
      4.23362217e-004 -2.05325545e-003 2.28618970e-004 -7.23502785e-003
      -7.58824823e-003 5.49216289e-004 -2.40177312e-003 2.56732223e-003
      2.36365967e-003 -4.20969306e-003</_>
    <_>
      7.86305580e-004 -1.70941360e-003 6.43197389e-004 -9.00415704e-004
      -1.58081250e-003 -2.50640162e-003 -4.66538069e-004
      -1.78951421e-003 -9.04307875e-004 3.57263372e-004 -1.12669710e-002
      2.99019716e-003 1.87504152e-003 6.22373726e-003 5.29601064e-004
      3.12976656e-003 -7.74302566e-003</_>
    <_>
      1.52055500e-003 -4.31322900e-004 2.19676833e-004 -7.04734772e-003
      2.21439244e-004 -3.48512293e-003 1.12026650e-003 -8.60935717e-004
      1.33399630e-003 3.57973087e-003 -1.76301319e-002 3.44954804e-003
      2.67670560e-003 5.61074400e-003 6.52639614e-003 2.49038823e-003
      -7.16038095e-003</_>
    <_>
      -5.71622746e-004 -4.08619037e-003 5.42957510e-004 -3.73226567e-003
      4.57634422e-004 -7.60792755e-004 2.27464479e-003 -7.37941125e-004
      6.57626544e-004 -1.98251815e-004 -9.74914711e-003 -5.32907085e-004
      1.00052068e-002 1.17304933e-003 1.01622017e-002 2.48588552e-003
      -4.84503433e-003</_>
    <_>
      -1.96412276e-003 -3.08819395e-003 -5.77941479e-004
      -1.07813126e-003 -3.70193622e-004 -5.48832410e-004
      -6.78102195e-004 -1.41429435e-003 -1.67873909e-003
      -1.33361656e-003 -7.67264143e-003 -2.92667351e-003 3.26211128e-004
      1.89920189e-003 1.65315438e-003 -6.54665171e-004 -3.75286466e-003</_>
    <_>
      -2.89019488e-004 -1.51234423e-003 -2.63625028e-004
      -1.12490135e-003 -6.12973163e-005 -2.17152934e-004 5.68556658e-004
      -7.81038034e-005 7.82363175e-004 7.51635409e-004 -4.63968888e-003
      3.75564373e-003 5.70503389e-003 3.97500535e-003 5.21493703e-003
      5.48186712e-003 -1.07098790e-003</_>
    <_>
      -4.50834981e-004 -2.48938473e-003 -1.62392715e-003
      -3.88485380e-003 -1.69659103e-003 -3.81713174e-003
      -9.93360649e-004 -3.62401782e-003 -2.51335767e-003
      -1.84281624e-003 -1.19298324e-002 6.36932719e-003 2.40678783e-003
      5.51119307e-003 5.97047247e-003 -3.22534906e-004 -8.25055502e-003</_>
    <_>
      -2.21834378e-003 -2.25649565e-003 -2.20624707e-003
      -5.08174300e-003 -3.16529558e-003 -3.48750525e-003 1.13959875e-004
      -8.22807837e-004 -4.92821157e-004 2.12105364e-003 -1.22948382e-002
      5.73840458e-003 1.00787338e-002 -1.48198404e-003 7.72108033e-004
      1.34070627e-002 -2.36017513e-003</_>
    <_>
      -1.42857386e-003 -2.11982429e-003 -4.77303489e-004
      -2.43191025e-003 -1.03630486e-003 -2.18102429e-003
      -4.82316187e-004 -1.87860965e-003 -2.55297311e-003
      -1.64838659e-003 -1.00556035e-002 -5.32266777e-003 1.89082802e-003
      4.67993290e-004 5.89634432e-003 -3.58754862e-003 -6.59070350e-003</_>
    <_>
      -5.93961915e-003 -2.97476957e-003 1.77593192e-003 -5.97399287e-003
      -3.20171850e-004 -5.72914444e-003 4.36816970e-003 -2.90881586e-003
      1.62804604e-003 1.97024411e-003 -1.58236958e-002 2.41935928e-003
      7.33429380e-003 2.64209975e-003 1.81607599e-003 4.87785833e-003
      -2.18043998e-002</_>
    <_>
      -4.16016020e-003 -5.90232247e-003 2.37631495e-004 -3.26239434e-003
      -2.59726308e-003 -1.89317344e-003 9.18020145e-004 -3.98528948e-003
      -1.59929215e-003 -3.99917923e-003 -1.54061858e-002 3.93160479e-003
      7.13003613e-003 -1.97563018e-003 -2.02233251e-003 -3.05706100e-003
      -1.24911340e-002</_>
    <_>
      -3.45657114e-003 -4.48521227e-003 4.59008012e-003 -4.24698275e-003
      3.93671868e-003 1.13216741e-003 5.48540242e-003 4.93238855e-004
      3.23545747e-003 2.15022895e-003 -1.21971425e-002 -8.82316474e-003
      6.13375986e-003 1.25554772e-002 1.88838784e-002 5.09946188e-003
      -1.04562379e-003</_>
    <_>
      -2.04347260e-003 -3.70032224e-003 -2.12289277e-003
      -4.74083889e-003 -1.61596294e-003 -3.20672244e-003
      -3.79956036e-004 -1.59097475e-003 -5.65751747e-004
      -1.84708741e-004 -1.32752992e-002 -8.21974408e-003 3.83876916e-003
      -9.14116317e-005 3.75277968e-003 -9.38812373e-005 -6.66180812e-003</_>
    <_>
      -3.14666796e-003 -3.70696862e-003 3.50222777e-004 -1.36619213e-003
      -9.08990391e-004 -1.30022422e-003 2.53346749e-004 -1.88702624e-003
      -2.85474304e-003 -1.28577929e-003 -9.66031756e-003
      -4.87215491e-003 3.73833673e-003 6.26052823e-003 4.77760751e-003
      -2.12993659e-003 -8.70096218e-003</_>
    <_>
      -7.44719571e-003 -7.03691831e-003 -7.56338472e-004
      -3.61589273e-003 -7.23786769e-004 -2.58469395e-003
      -9.09841794e-004 -2.39441916e-003 -3.61065217e-003
      -1.21712510e-003 -1.46917310e-002 7.68417260e-003 2.59505236e-003
      7.91464094e-003 4.53654723e-003 1.74611353e-003 -3.19675962e-003</_>
    <_>
      -1.81221752e-003 -2.28485907e-003 -9.33106421e-005
      -1.41130574e-003 -1.00321695e-003 -1.33668142e-003
      -6.91872498e-004 -1.60499115e-003 -2.08067754e-003
      -1.10272528e-003 -7.76915811e-003 -3.55168758e-003 1.30539387e-003
      2.88169319e-003 5.20495279e-003 -2.15964229e-003 -4.46750550e-003</_>
    <_>
      -8.27517360e-003 -7.49876117e-003 -1.58169575e-003
      -3.76226404e-003 -3.23904282e-003 -3.19502992e-003
      -1.07387174e-003 -2.01550848e-003 -4.21939278e-003
      -2.89036892e-003 -1.06663648e-002 4.61376878e-003 9.71997250e-003
      1.76188187e-003 6.09126408e-003 2.36542910e-004 -1.20215639e-002</_>
    <_>
      -3.96006135e-003 -5.72458422e-003 -1.54211046e-003
      -7.85575807e-003 -2.98796827e-003 -3.79265798e-003
      -1.05833821e-003 -4.55853250e-003 -3.89412558e-003
      -6.60940539e-004 -1.61973201e-002 5.65642212e-003 3.87428165e-003
      6.70511881e-003 9.80081223e-003 4.46843076e-003 -1.21540073e-002</_>
    <_>
      -6.46585319e-003 -8.92970152e-003 -1.84836972e-003
      -4.87386528e-003 -3.01302481e-003 -4.77839028e-003 8.42668000e-004
      -1.44291378e-003 -3.28244548e-003 1.31034307e-004 -9.80041735e-003
      -3.92849324e-003 6.31139707e-003 6.65632170e-003 2.25271191e-003
      -3.42193153e-003 -1.80833433e-002</_>
    <_>
      -1.23930559e-003 -1.00731768e-003 -8.49865610e-004
      -1.52842468e-003 -1.12406409e-003 -1.33332098e-003
      -3.77776480e-004 -7.70028273e-004 -7.70632352e-004
      -6.60688034e-004 -8.19795765e-003 2.08359840e-003 6.67860091e-004
      -1.24100468e-003 -1.11385377e-003 -4.11093759e-004
      -2.71759159e-003</_>
    <_>
      -3.64730437e-003 -4.79521416e-003 -6.45176624e-004
      -2.69131549e-003 -1.66674043e-004 -3.44288792e-003
      -1.03576493e-003 -2.50156177e-003 -1.45639712e-003
      -1.87446698e-004 -1.05320690e-002 5.00761764e-003 1.11334200e-003
      4.05822834e-003 6.57847291e-003 1.58226257e-003 -7.00871274e-003</_>
    <_>
      -5.58859296e-003 -5.38823335e-003 -1.95134652e-003
      -3.18243820e-003 -1.12858973e-003 -2.23210687e-003 4.10435459e-004
      -2.07243371e-003 -1.62252376e-003 -7.73966778e-004
      -1.10877519e-002 4.11541061e-003 6.82136836e-003 1.15717226e-003
      2.24692817e-003 6.94901124e-003 -9.18980967e-003</_>
    <_>
      -3.01528582e-003 -3.89506458e-004 -1.49721408e-003
      -4.62817913e-003 -2.64699617e-003 -5.31179644e-003 4.74493398e-004
      -1.87444920e-003 -1.63457100e-003 -5.83665678e-005
      -1.41315050e-002 9.35035117e-004 -4.72486368e-004 -1.35389913e-003
      -3.53986956e-003 3.58956610e-003 -8.50833580e-003</_>
    <_>
      -1.29959860e-003 -1.14744471e-003 -5.50996861e-004
      -1.77034375e-003 -5.29467012e-004 -1.57245982e-003
      -5.21415895e-005 -1.39675254e-003 -2.08428857e-004
      -7.42030796e-004 -9.82655026e-003 2.85245758e-003 1.51303376e-003
      -1.35142822e-003 2.98567559e-003 -4.47022554e-004 -2.61978898e-003</_>
    <_>
      -1.42164738e-003 -3.10478359e-003 -1.29573004e-004
      -1.18945853e-003 -8.79944069e-004 -2.13286118e-003 1.19052776e-004
      -1.64106081e-003 -1.01793977e-003 -4.23036865e-004
      -9.11438093e-003 -1.85554556e-004 1.67402287e-003 2.29908642e-003
      2.90317135e-003 -2.27537254e-004 -5.58031630e-003</_>
    <_>
      -2.19329697e-004 -1.92270009e-003 1.42875337e-003 -4.62834351e-003
      1.84286106e-003 1.58612174e-003 3.25814495e-003 -1.64862559e-003
      3.25676892e-003 1.73208828e-003 -4.28957120e-003 1.18970843e-002
      5.80809917e-003 6.49435492e-003 7.29305437e-003 1.35542350e-002
      -5.50498771e-005</_>
    <_>
      -7.31572416e-003 -8.17302056e-003 -2.56701629e-003
      -5.77656319e-003 7.51955900e-004 -5.45728137e-004 5.11729065e-003
      -1.86284643e-003 2.69990205e-003 4.05884674e-003 -1.24838278e-002
      4.02461831e-003 1.85831990e-002 1.61065051e-004 4.96327830e-003
      8.87146685e-003 -7.24963518e-003</_>
    <_>
      -1.19832833e-003 -6.00024941e-004 -6.52624236e-004
      -2.01685354e-003 -4.79922630e-004 -1.20086782e-003 6.16538222e-004
      -1.07346405e-003 3.38230078e-004 -7.23773439e-004 -3.17474687e-003
      6.96564466e-003 8.74180719e-003 5.39183384e-003 7.29649514e-003
      6.10114681e-003 1.00658806e-004</_>
    <_>
      -1.31262490e-003 -1.64249318e-003 -8.42379930e-004
      -2.73812539e-003 -4.06827166e-004 -4.57716058e-004 1.30942115e-003
      -1.22693647e-003 1.96185458e-004 6.74057868e-004 -4.22488339e-003
      2.86110165e-003 1.07528558e-002 4.18932782e-003 6.97368151e-003
      7.80906528e-003 -4.12340323e-003</_>
    <_>
      -7.71316933e-003 -8.67860799e-004 4.41641430e-004 -3.23225511e-003
      -2.18876242e-003 -4.06294269e-003 9.00174084e-004 -1.93872547e-003
      -4.01522405e-003 1.43807847e-003 -1.45088127e-002 9.62241646e-003
      1.07899653e-002 7.85891805e-003 6.39684964e-003 2.94610392e-003
      -9.51525941e-003</_>
    <_>
      5.72638027e-003 1.01189353e-002 2.64484575e-003 -5.43721300e-003
      -1.02889733e-002 -8.57494399e-003 4.36942885e-003 -3.05851037e-003
      1.14119016e-002 4.48920159e-003 -1.46937976e-002 2.93150637e-002
      3.46012227e-002 -3.17284316e-002 8.04377627e-003 8.81382439e-004
      -1.10882316e-002</_>
    <_>
      -6.15062378e-003 -9.13342647e-003 1.51389674e-003 -8.32561217e-003
      -1.22239138e-003 -7.14997342e-003 3.35937995e-003 -4.51798318e-003
      2.15508044e-003 2.36532767e-003 -1.91206280e-002 1.78718846e-002
      9.85772163e-003 -3.55389988e-004 1.94911263e-003 5.55891125e-003
      -7.84130394e-003</_>
    <_>
      -5.90402959e-003 -5.86375315e-003 -2.67160707e-003
      -8.27001594e-003 -2.93391803e-003 -6.19036937e-003
      -1.86897442e-003 -7.38340989e-003 -1.44792569e-003 5.31944958e-003
      -1.89101566e-002 1.12304520e-002 2.38542142e-003 9.89526045e-003
      4.35461896e-003 1.73708592e-002 -1.27103375e-002</_>
    <_>
      -1.07341364e-003 -2.58695916e-003 -3.55655910e-004
      -1.55334664e-003 -1.87225419e-003 -1.03834656e-003
      -1.10517233e-003 -1.58233312e-003 -1.36043865e-003 8.41739384e-005
      -5.89806912e-003 4.81318496e-003 7.60840159e-003 7.56621221e-003
      7.59524526e-003 2.01429660e-003 -4.22210759e-003</_>
    <_>
      -1.20657636e-003 -2.64138496e-003 -7.02265766e-004
      -2.21854565e-003 9.61579717e-005 1.43309578e-003 1.15903051e-004
      -4.75391629e-004 -3.41098232e-004 3.08730778e-005 -8.48779082e-003
      2.01994414e-003 8.37707613e-003 7.77673151e-004 9.40992683e-003
      2.08000443e-003 -3.51680070e-003</_>
    <_>
      -2.19882769e-003 -5.22539625e-003 -1.78812700e-003
      -3.45700397e-003 2.89730233e-004 -5.07039309e-004 1.68300082e-003
      -3.28586291e-004 8.24562507e-004 1.67049677e-003 -2.52757664e-003
      2.40163156e-003 1.22282133e-002 -1.18538667e-003 1.00444425e-002
      4.34564333e-003 8.76186066e-004</_>
    <_>
      -1.84801465e-003 -2.73682806e-003 1.06656353e-003 -2.65239063e-003
      6.89328124e-004 2.39301880e-004 2.10094894e-003 6.62607781e-004
      2.44627753e-003 1.59107358e-003 -4.43750480e-003 4.21903649e-004
      9.30605736e-003 1.00814076e-002 1.14129828e-002 7.34003820e-003
      8.47502146e-004</_>
    <_>
      -1.76124077e-003 -3.28964973e-003 2.06237892e-004 -1.75039831e-003
      9.90463886e-005 -3.98652744e-004 1.55385979e-003 -8.22351547e-004
      9.37820878e-004 1.90127047e-003 -3.98038933e-003 3.50616669e-004
      1.11015895e-002 2.81041465e-003 8.17310903e-003 9.54526477e-003
      -9.47919267e-004</_>
    <_>
      -1.95636158e-003 -1.63764355e-003 8.48722819e-004 -1.32713676e-003
      7.92109757e-004 5.01808478e-004 1.89128111e-003 2.04859331e-004
      7.97901128e-004 1.62604032e-004 -1.54400268e-003 -1.97910541e-003
      9.21329111e-003 4.28149058e-003 1.17581561e-002 3.19444854e-003
      -1.91536470e-004</_>
    <_>
      -2.38444796e-003 -2.06969818e-003 3.74596595e-004 -1.11040263e-003
      7.10754248e-004 -2.96970305e-004 1.12713038e-004 -8.93271761e-004
      -1.40675297e-003 -1.39308081e-003 -7.41926627e-003
      -1.38791290e-003 2.20713811e-003 5.52655524e-003 6.56511402e-003
      -7.50458334e-004 -5.76649187e-003</_>
    <_>
      -4.34228266e-003 -1.40978834e-002 -3.98593582e-003
      -1.88324761e-004 -1.52147301e-002 -5.89410542e-003 7.21757460e-005
      -1.21698873e-002 6.71575777e-003 -4.98383306e-003 -2.44337171e-002
      1.25764054e-004 1.83831621e-002 2.17832159e-002 3.51311709e-003
      -9.62146651e-003 5.02099330e-003</_>
    <_>
      -5.65849757e-003 -7.74868345e-003 -7.39946961e-003
      -3.07540502e-003 -5.38692717e-003 -3.84998089e-003
      -1.60986988e-003 -2.94934330e-003 -5.40129608e-003
      -4.97039082e-003 -1.76813770e-002 -4.25158907e-003 6.74193585e-003
      -1.85235927e-003 8.25194991e-004 2.65243754e-004 -2.50556599e-003</_>
    <_>
      1.84676296e-003 -1.28843794e-002 -9.22678784e-003 -1.90126197e-003
      -3.62159833e-002 -2.52138413e-002 -8.08325410e-003
      -1.53902713e-002 -8.25517904e-003 -9.80645791e-003
      -1.51185167e-003 -1.48817999e-002 3.25412787e-002 -2.21987860e-003
      -2.86641102e-002 4.49329102e-003 -2.09453255e-002</_>
    <_>
      -1.40927033e-003 5.77780593e-004 -1.25759005e-004 3.34140542e-003
      -1.46039960e-003 3.76032200e-003 -1.41412835e-003 3.44541809e-003
      -2.91027885e-004 3.96220433e-003 8.76119081e-003 1.27799008e-002
      9.83856991e-003 3.60157719e-004 2.68096011e-003 1.18417460e-002
      4.68405290e-003</_>
    <_>
      -4.68437048e-003 -1.51510327e-003 -4.10845596e-003
      -7.43364799e-004 -3.89031833e-003 -1.22030743e-003
      -7.84618431e-004 1.42111356e-004 -2.18425645e-003 -1.77984731e-003
      -3.79846268e-003 1.02113001e-002 1.04121631e-002 4.72538406e-003
      1.46425748e-002 2.17488944e-003 3.50357010e-003</_>
    <_>
      -1.73530367e-003 1.54569757e-003 -1.58076733e-003 3.41061014e-003
      -3.42311920e-003 -1.28440605e-003 2.48397002e-003 -2.53696390e-003
      -5.37208864e-004 2.28608423e-003 -1.00962622e-002 -1.08987413e-004
      1.69718806e-002 1.40475137e-002 1.35398228e-002 1.04777338e-002
      -9.07111913e-003</_>
    <_>
      -1.00329693e-003 4.13903414e-004 -3.00797471e-003 9.84002370e-004
      -5.05641801e-003 -3.85186169e-004 6.90505840e-005 3.56767181e-004
      2.23517395e-003 2.08360027e-003 4.94059082e-003 -1.77872833e-002
      -3.16130673e-003 -2.21779272e-002 -2.20185588e-003 4.67258645e-003
      -2.06727814e-003</_>
    <_>
      -8.89549404e-003 -2.68584560e-003 -4.29417891e-003
      -1.58537319e-003 -3.89210857e-003 -1.16284110e-003
      -2.99915485e-003 7.03255064e-004 -4.31534741e-003 -6.14376832e-003
      -2.38178670e-002 9.68379993e-003 8.38773616e-004 9.37340315e-003
      7.80591555e-003 -1.15896109e-002 6.32958347e-003</_>
    <_>
      -2.76429299e-003 -3.77174164e-003 -2.10127397e-003 6.97652576e-004
      -3.28346563e-004 3.24430788e-004 1.41348829e-003 1.72576250e-003
      -3.34169483e-003 4.38291550e-004 -6.40183780e-003 -1.33230872e-002
      -3.39888211e-004 -4.96135373e-003 3.99827911e-003 3.54848569e-003
      -1.03584013e-003</_>
    <_>
      4.02628258e-003 1.57540990e-003 1.29618717e-003 4.00380790e-003
      -5.46487654e-003 -4.23076563e-003 -1.53670984e-003
      -2.93469639e-003 -5.56266052e-004 2.62736832e-003 -1.52706653e-002
      6.09954121e-003 6.32060645e-003 1.54954055e-002 -1.43266981e-003
      9.72114876e-003 -4.64229845e-003</_>
    <_>
      1.19036343e-002 1.60232298e-002 -5.72376698e-003 -1.41666271e-002
      -3.09085380e-003 -4.02862439e-003 -3.07197217e-003
      -2.71066139e-003 1.18939430e-002 1.54344141e-002 -2.79580541e-002
      1.65247582e-002 -4.58065607e-003 1.16691878e-002 1.18088778e-002
      1.92559906e-003 1.52463261e-002</_>
    <_>
      1.46530150e-003 -2.57975276e-004 3.72911192e-004 -1.09167217e-004
      7.75142165e-004 8.12498794e-004 2.46818224e-003 1.10867363e-003
      1.11587916e-003 -8.31014768e-006 -4.23824554e-003 5.72426105e-003
      1.28061790e-002 3.87170492e-003 1.30596915e-002 1.57754414e-003
      3.67589295e-003</_>
    <_>
      -3.83590511e-003 -5.17820241e-003 -2.04423955e-003
      -4.93743748e-004 -1.29935972e-003 -1.66128266e-005
      -1.91891671e-003 -2.32427381e-003 -2.91612674e-003
      -2.67067412e-003 -1.03415623e-002 -6.37015561e-003 6.85269013e-004
      3.82159487e-003 2.89365184e-003 -8.21385649e-004 -3.37462127e-003</_>
    <_>
      2.79971020e-004 5.41316949e-005 -1.04551378e-004 3.18831444e-004
      -3.02502776e-005 3.16222809e-004 5.38251887e-004 6.45994674e-004
      9.87620559e-004 8.87157279e-004 2.03663760e-004 4.24152100e-003
      5.29662240e-003 3.29376734e-003 4.50628391e-003 5.02774352e-003
      1.73849042e-003</_>
    <_>
      -7.43520155e-004 2.71718949e-004 -8.06184951e-003 -2.87601561e-003
      -7.84637220e-003 -9.15409811e-003 -5.20259282e-003
      -6.23289542e-003 -3.94195225e-003 -4.92515834e-003
      -1.15971733e-002 2.38200445e-002 5.06675709e-003 7.70165678e-003
      4.28940961e-003 1.16176752e-003 -2.47283652e-003</_>
    <_>
      -3.43173015e-004 3.97942308e-003 -1.23487297e-003 9.05502529e-004
      -3.45337274e-003 -1.04879052e-003 -4.12734662e-005 1.12120016e-003
      2.29254612e-004 2.44452246e-003 2.49282736e-003 8.67600925e-003
      1.10669844e-002 9.48107161e-004 4.50695748e-004 1.33466898e-002
      1.09179802e-002</_>
    <_>
      -2.69891345e-003 -6.28294831e-004 -4.09093592e-003
      -1.62612775e-003 -4.95509524e-003 -3.27504775e-003
      -2.87147984e-003 -3.27674509e-003 -5.61781414e-003
      -4.70476877e-003 -1.06020384e-002 -1.56693868e-002 3.98727600e-003
      -2.52941623e-003 1.21442061e-002 -1.15628233e-002 -3.71595030e-003</_>
    <_>
      -3.16452384e-002 4.78624180e-002 9.56892152e-004 1.95708424e-002
      -2.56467909e-002 -2.54575592e-002 2.90785376e-002 -5.47391269e-003
      3.70041542e-002 2.90214326e-002 -9.14069079e-003 -1.19632417e-002
      2.95944009e-002 -1.14640389e-002 -1.32498844e-002 -7.46568991e-003
      -1.95865855e-002</_>
    <_>
      -1.08547229e-002 -8.35865084e-003 -6.88014878e-003 7.32308300e-003
      -1.44536868e-002 6.62186509e-003 -2.21080641e-004 -1.05167292e-002
      1.27999228e-003 -1.57862231e-002 -3.90867097e-003 1.30859977e-002
      2.35229414e-002 -2.17444133e-002 -1.96258128e-002 -4.60165925e-003
      -1.91716908e-003</_>
    <_>
      -5.30246063e-004 6.50935806e-004 1.21605908e-003 1.46991888e-003
      1.39485067e-003 1.57484482e-003 2.93665356e-003 2.85390927e-003
      4.16009827e-003 2.72558117e-003 6.28731074e-003 -8.70647666e-004
      8.48917663e-003 3.15067009e-003 1.07414844e-002 8.96652974e-003
      8.66822898e-003</_>
    <_>
      -2.91061797e-003 -7.90038262e-004 -1.25766164e-002
      -7.92724919e-003 -9.06807929e-003 -6.20969059e-003
      -3.86403897e-003 -1.31642888e-003 1.16423797e-003 -3.72878421e-004
      -2.18641572e-002 -1.99207645e-002 1.13155153e-002 -7.47084990e-003
      7.98587501e-003 -4.91604768e-003 5.00968052e-003</_>
    <_>
      -6.75926451e-003 -2.26116972e-003 -1.54721469e-003 3.72708868e-003
      -5.09366160e-003 -1.93285150e-003 1.10903075e-005 -3.11083021e-003
      -6.32249517e-003 -2.58254912e-003 -1.28544513e-002
      -1.32131856e-002 8.79996549e-003 1.18704550e-002 1.03934370e-002
      -8.13742541e-003 -9.16966051e-003</_>
    <_>
      -1.51718874e-002 -8.35314300e-003 -4.57594264e-003 7.03468570e-004
      -4.72128671e-003 -3.58754676e-003 -4.27450566e-003
      -3.07095848e-004 -3.48656368e-003 -7.22461438e-004
      -1.46364570e-002 1.65912732e-002 7.80514022e-003 9.89838876e-003
      4.88934480e-003 2.02465313e-003 1.46763921e-002</_>
    <_>
      -3.38578317e-003 -2.76341662e-003 -1.20877568e-003
      -2.97670980e-004 -3.08969268e-003 -1.67986669e-003
      -2.35293829e-003 -2.82808929e-003 -3.71006690e-003
      -2.22743279e-003 -8.32715165e-003 -9.43866093e-003 1.42547151e-003
      5.20620774e-003 9.13254358e-003 -4.83671948e-003 -2.82332278e-003</_>
    <_>
      -2.11259685e-002 -3.74699035e-003 -5.88524947e-003 5.79198077e-003
      -1.52409943e-002 -2.82133184e-003 -5.69149526e-003
      -4.01854236e-003 -1.37925753e-002 -1.00228805e-002 7.37282680e-003
      1.45471469e-002 2.70562768e-002 -6.50259852e-003 7.07998499e-003
      -5.75920101e-003 4.14903602e-003</_>
    <_>
      -1.09085459e-002 3.82726570e-003 -1.26542971e-002 -6.46208273e-003
      -2.00017933e-002 -7.02899694e-003 -9.81096458e-003
      -1.55246202e-002 -1.66451037e-002 -7.82340951e-003
      -2.07515154e-002 1.97237693e-002 1.08820312e-002 6.60249591e-003
      2.32973378e-002 4.66179242e-003 2.75244340e-002</_>
    <_>
      -2.00643223e-002 -6.69938000e-003 -4.58747102e-003 5.39521594e-003
      -1.33795580e-002 -1.77941825e-002 5.69469586e-004 -4.98448266e-003
      -4.40416392e-003 5.37197897e-003 1.08897174e-002 -3.02661955e-002
      1.27922501e-002 1.05962520e-002 -8.71692144e-004 -1.78302377e-002
      -5.19944355e-003</_>
    <_>
      -1.99058675e-003 -6.95060124e-004 -2.25226791e-003
      -1.66634319e-003 -2.50302348e-003 -1.72948511e-003
      -9.17173689e-004 -8.09219317e-004 -7.42442498e-004
      -9.58911725e-004 -1.08667929e-002 4.17042151e-003 1.64413883e-003
      -3.18460073e-003 -2.64753192e-003 -1.45854443e-004
      -1.57830340e-003</_>
    <_>
      -1.02583189e-002 -7.09728897e-003 -4.62567201e-003
      -1.12860894e-003 -2.18367204e-003 -6.38809055e-003
      -5.24944067e-003 -5.28654782e-003 -3.03832674e-003
      -1.51071363e-004 -1.14900609e-002 1.91653185e-002 -9.94727598e-004
      6.46811258e-003 1.51729453e-002 1.39809924e-003 -9.97213996e-004</_>
    <_>
      -1.17188850e-002 -4.01813816e-003 -4.48288396e-003 2.54633697e-003
      -3.79149150e-003 -1.05096726e-003 1.22483599e-003 -2.26267846e-003
      -1.57842878e-003 5.21808804e-004 -4.80648683e-004 7.25358399e-003
      2.01745294e-002 4.94904025e-003 4.06903308e-003 1.99525952e-002
      1.66406704e-003</_>
    <_>
      -8.12676828e-003 9.06592235e-003 -9.10900254e-003 -5.92850894e-003
      -1.22860242e-002 -1.31986383e-002 3.12620919e-004 -2.16112472e-003
      2.51353544e-004 2.79857032e-003 -1.87774189e-002 8.84817727e-003
      1.34189299e-003 -2.80693732e-003 -6.23603910e-003 2.14585792e-002
      -4.06145770e-003</_>
    <_>
      -2.14796304e-003 -2.35430984e-004 -2.10405281e-003
      -1.65241316e-003 -1.59782881e-003 -1.94825395e-003
      -3.43602849e-004 -1.67063833e-003 7.75179709e-004 -1.07846886e-003
      -1.27911018e-002 6.64816285e-003 4.40863892e-003 -3.87694524e-003
      5.87197253e-003 -2.00096954e-004 -2.98239698e-004</_>
    <_>
      -3.19099729e-003 -6.41915994e-003 -2.07860232e-003
      -4.81303461e-004 -3.78026161e-003 -4.60661203e-003
      -1.93629137e-004 -3.52971046e-003 -1.11670583e-003
      -6.87303778e-004 -1.54320765e-002 -4.22897574e-004 5.50058298e-003
      4.06934228e-003 5.18231466e-003 6.44281798e-004 -7.33866775e-003</_>
    <_>
      3.81333288e-004 9.22162842e-004 1.22854384e-004 -8.17117616e-005
      5.89693722e-004 1.00116269e-003 1.26719126e-003 4.39389201e-004
      2.02779821e-003 7.59516843e-004 1.39864034e-003 1.02915131e-002
      4.64327075e-003 1.60026085e-003 4.50117094e-003 6.81115966e-003
      4.51832917e-003</_>
    <_>
      -2.53100484e-003 1.65876001e-003 -2.35033035e-003 9.51826951e-005
      1.47048908e-004 1.50186650e-003 3.89049272e-003 2.09749490e-003
      3.11776344e-003 4.41817474e-003 9.75611433e-003 6.18402055e-003
      1.25249550e-002 -4.32089146e-005 2.16000690e-003 7.39563769e-003
      9.31660552e-003</_>
    <_>
      -6.87005580e-004 -2.13248044e-004 -6.86602318e-004 1.87470796e-004
      -4.68593644e-004 -1.64599536e-004 4.88563615e-004 2.76718696e-004
      1.10413635e-003 1.29321576e-004 1.92153233e-003 5.69181563e-003
      6.38032285e-003 2.89211771e-003 4.73477645e-003 5.46139665e-003
      2.85594538e-003</_>
    <_>
      4.72782413e-005 9.71306930e-004 -3.31122690e-004 2.85192451e-004
      -2.08505051e-004 5.24323841e-004 9.69541958e-004 4.33519686e-004
      7.80075323e-004 9.41949489e-004 3.47002130e-003 4.14301129e-003
      8.12113099e-003 3.14038247e-003 5.22109075e-003 6.19943906e-003
      1.73731183e-003</_>
    <_>
      -3.05434433e-003 2.94212531e-003 -3.71554517e-004 2.07901094e-003
      -1.72077911e-003 -1.12961535e-003 1.05159741e-003 1.92185189e-003
      3.52813367e-004 2.33620382e-003 1.29682210e-003 1.06276292e-002
      1.30973961e-002 3.54272453e-003 6.84602885e-003 7.05498876e-003
      3.76267312e-003</_>
    <_>
      2.01756950e-003 4.09468077e-003 -4.53264714e-004 2.74778251e-003
      -1.45615207e-003 3.81395774e-004 1.03831559e-003 2.14342470e-003
      3.31325363e-003 1.81896624e-003 1.16439546e-002 6.62357034e-003
      7.82017037e-003 -6.26119971e-003 2.47360393e-003 5.07382164e-003
      8.46843887e-003</_>
    <_>
      -4.12103720e-003 1.65254774e-003 2.08103415e-006 1.64713105e-003
      -2.21504527e-003 -3.02004907e-003 3.70881613e-003 1.66726462e-003
      3.71493958e-003 3.62095493e-003 6.77574147e-003 2.07012650e-002
      1.45702893e-002 -3.44820763e-003 1.48716135e-004 5.19623235e-003
      1.21494904e-002</_>
    <_>
      -5.01415692e-004 3.03573231e-003 -1.92106469e-003 2.11486267e-003
      -1.71649258e-003 -1.27922627e-003 -4.63554316e-004 2.87318457e-004
      2.69300095e-003 4.60910238e-003 8.47923849e-003 1.23219118e-002
      7.60926865e-003 3.45502584e-003 5.08343428e-003 1.61472168e-002
      7.29809655e-003</_>
    <_>
      -3.28278431e-004 -6.33420015e-004 -7.83075404e-004 4.37520386e-004
      -1.92769559e-003 -5.76310442e-004 -1.00123906e-003
      -8.23649461e-005 -1.41647091e-004 5.77732630e-004 7.31423032e-004
      7.32568558e-003 8.52207746e-003 4.42767655e-003 7.22426875e-003
      3.90102435e-003 9.76788928e-004</_>
    <_>
      -2.70969787e-004 9.24677704e-004 -1.58090232e-004 9.28755151e-004
      2.02975687e-004 2.87826848e-003 3.02933768e-004 7.93929212e-004
      7.19367163e-005 3.78834317e-004 -3.45100474e-004 3.76270735e-003
      1.02269035e-002 2.28521181e-003 1.12999519e-002 3.34324897e-003
      2.83571589e-003</_>
    <_>
      -2.38993758e-004 -5.84662834e-004 -6.06886111e-004 1.86500707e-004
      2.22427989e-004 5.96065249e-004 1.04343274e-003 9.30584501e-004
      9.36577562e-004 1.31380942e-003 4.63172095e-003 3.68417404e-003
      7.65042938e-003 4.71350912e-004 6.13043131e-003 3.38290632e-003
      4.52471059e-003</_>
    <_>
      -3.12102231e-004 1.65183083e-005 8.18355838e-005 3.44338827e-004
      1.43104844e-004 5.80834050e-004 1.17063185e-003 1.60247181e-003
      2.36410694e-003 1.53460656e-003 3.57242418e-003 2.24720966e-003
      7.13351835e-003 3.54187773e-003 6.41885260e-003 6.62718061e-003
      4.50071041e-003</_>
    <_>
      -6.66630804e-005 3.26355163e-004 4.02685371e-004 1.05163711e-003
      1.22833342e-004 6.61190483e-004 1.02324376e-003 7.00451725e-004
      1.03651953e-003 1.50154065e-003 3.98461474e-003 2.63057533e-003
      7.44720316e-003 2.57835584e-003 5.42706065e-003 6.32399134e-003
      3.71176424e-003</_>
    <_>
      -4.96142835e-004 3.09163152e-004 2.55003979e-004 5.82900073e-004
      4.61534073e-004 7.12553796e-004 1.10324565e-003 9.26538429e-004
      1.25153246e-003 3.61601647e-004 2.78286566e-003 1.85342680e-003
      6.94417907e-003 2.15938711e-003 8.25674087e-003 3.19683738e-003
      2.62801279e-003</_>
    <_>
      -3.53307929e-003 -1.91294879e-003 -8.11134465e-004 1.62773911e-004
      4.30640124e-004 -3.04816844e-004 -3.64512409e-004 -8.55953374e-004
      -1.43326411e-003 -1.98390405e-003 -8.02951027e-003
      -3.74302431e-003 4.48702276e-003 9.28084645e-003 1.24999546e-002
      4.73875334e-005 -6.07514055e-003</_>
    <_>
      -1.60280894e-002 -1.04974760e-002 -1.64174400e-002
      -2.28195335e-003 -2.41074013e-003 -5.85536240e-003
      -5.58877923e-003 3.04725999e-003 -2.71763355e-002 -1.09764757e-002
      -1.28514385e-002 1.55103428e-003 2.87219463e-003 -5.69945527e-003
      4.14273748e-003 1.44165475e-002 -1.09043624e-002</_>
    <_>
      -3.45958699e-003 1.29255988e-002 9.26615961e-004 3.86796240e-003
      -6.43921259e-004 -7.82190170e-003 -5.52206440e-003 7.83277489e-003
      -1.65867005e-002 -2.93668243e-003 1.37707209e-002 -6.11503934e-003
      5.31615270e-003 -8.26264825e-003 -2.89485771e-002 1.76241770e-002
      -3.02255340e-002</_>
    <_>
      -3.19307437e-004 8.91197473e-004 5.68273361e-004 1.83492084e-003
      1.22235238e-003 3.20443395e-003 -4.63166303e-004 4.02822159e-003
      -4.68740880e-004 3.47919785e-003 1.06178718e-002 6.77440315e-003
      3.29430937e-003 1.77974638e-004 3.95387784e-003 9.05877352e-003
      2.44709314e-003</_>
    <_>
      -4.59586456e-003 -3.83318169e-004 -3.34946997e-003
      -8.88963812e-004 -6.48385438e-004 -1.04174447e-004
      -7.06989260e-004 3.66634573e-003 -2.82496749e-003 2.54882674e-004
      6.78315712e-003 9.16747749e-003 6.38467539e-003 2.74052122e-003
      1.61204133e-002 7.30050681e-003 2.92578153e-003</_>
    <_>
      -2.11748970e-003 2.59841885e-003 -1.21652300e-003 1.77501817e-003
      2.93540210e-003 1.89023674e-004 3.01429024e-003 4.71168663e-003
      -2.43467977e-004 6.54591527e-003 -1.95799861e-003 -3.11502093e-003
      1.22486819e-002 4.85818554e-003 1.75257288e-002 1.87252723e-002
      -1.29373828e-002</_>
    <_>
      -3.69522342e-004 3.47879506e-003 -5.08132180e-005 2.12671980e-003
      3.24022636e-004 9.60375182e-004 -2.30073740e-004 2.65023182e-003
      3.19439605e-005 2.39458750e-003 1.13895275e-002 -7.39911152e-003
      -7.59863248e-003 -1.34197194e-002 -4.79227258e-003 4.82860021e-003
      -3.17314104e-003</_>
    <_>
      -1.83532126e-002 9.40022990e-003 -3.64572136e-003 -3.98047065e-004
      9.06158611e-003 4.76012891e-003 -4.56830440e-003 1.60580818e-002
      -1.60691999e-002 -5.57182031e-003 -1.74907092e-002 2.23563835e-002
      -9.72478092e-003 -1.67480158e-003 1.87059920e-002 -4.24007839e-003
      8.38738214e-003</_>
    <_>
      -2.07782257e-003 -1.96282472e-003 -1.21241063e-003 1.84878393e-003
      2.10162671e-003 1.46537949e-003 1.75674097e-003 3.99672054e-003
      -3.91042698e-003 1.73192471e-003 1.93851220e-003 -1.16838505e-002
      -5.85214701e-004 -4.26481385e-003 6.17277855e-003 8.41584895e-003
      -1.59653334e-003</_>
    <_>
      3.65797081e-003 1.80608639e-003 1.91831612e-003 4.89468314e-003
      -2.97039282e-003 -6.62192143e-003 -3.27080628e-003 2.16688844e-003
      -1.67289388e-003 7.97304884e-003 -1.71883740e-002 9.01463628e-003
      5.77095605e-004 1.38927419e-002 -1.39755802e-003 1.98451281e-002
      -1.27584720e-002</_>
    <_>
      7.21745798e-003 1.80550944e-002 -7.91070226e-004 -1.07735032e-002
      1.01059135e-002 1.42836443e-003 -2.47245748e-003 9.23423655e-003
      1.59654731e-003 1.48735764e-002 -4.35034774e-004 1.13030579e-002
      -2.35637818e-002 -7.57317943e-003 1.44948503e-002 5.54357795e-003
      7.88759720e-003</_>
    <_>
      2.25676806e-003 7.33782304e-004 8.90716678e-004 -5.46394906e-004
      3.87011212e-003 1.82707701e-003 2.67141708e-003 4.35232604e-003
      9.87792519e-005 1.37455110e-003 1.53786922e-003 7.59829255e-003
      9.53062251e-003 3.63048050e-003 1.58896819e-002 3.25143989e-003
      3.70917376e-003</_>
    <_>
      -7.06059393e-003 -7.16501195e-003 -2.18874868e-003 7.69463659e-004
      1.24985573e-003 1.68361794e-003 -3.26802069e-003 -1.32986752e-003
      -7.20395334e-003 -3.59647023e-003 -8.71537998e-003
      -8.10404215e-003 -7.72890751e-004 6.96100201e-003 7.80451857e-003
      3.14669823e-003 -6.63046213e-003</_>
    <_>
      3.12138785e-004 2.05040473e-004 3.07566843e-005 2.05886608e-004
      5.34424558e-004 4.74020519e-004 5.24143979e-004 1.27085694e-003
      8.30497767e-004 1.23247493e-003 2.15948583e-003 3.81650194e-003
      4.15071286e-003 2.64611165e-003 4.40570246e-003 5.53503213e-003
      1.56021828e-003</_>
    <_>
      -6.28663343e-004 5.96080162e-003 -4.63581132e-003 -2.87586660e-003
      -8.42652109e-004 -7.34207919e-003 -6.43591303e-003 1.16524112e-003
      -9.54459235e-003 -2.68783187e-003 7.43841752e-003 2.80078761e-002
      -9.62998439e-003 1.18871937e-002 7.28825387e-003 4.62258793e-003
      -1.62516767e-003</_>
    <_>
      -4.16405528e-004 4.50246222e-003 1.12204274e-004 1.62369292e-003
      4.01108293e-004 4.97539761e-004 -6.61388476e-005 2.69788597e-003
      -6.67429820e-004 2.56323395e-003 8.51022638e-003 4.00272105e-003
      5.01278182e-003 2.88683223e-004 1.42845535e-003 1.34738293e-002
      6.42738678e-003</_>
    <_>
      -4.80764452e-003 7.99851771e-003 -2.62797088e-003 2.62296875e-003
      5.86430368e-004 -2.28544488e-003 -5.88282850e-003 1.92952587e-003
      -1.76021140e-002 -6.13558013e-003 1.11300265e-002 -1.59031004e-002
      -1.00575620e-002 -5.73074212e-003 1.62598379e-002 -1.37369893e-002
      -7.84389302e-003</_>
    <_>
      -1.58936046e-002 2.37948205e-002 1.00131677e-002 6.04676455e-003
      1.52961323e-002 -9.07249923e-004 1.17514729e-002 1.49274701e-002
      9.22448817e-004 1.47553915e-002 1.95063371e-002 1.21138571e-002
      -8.50168802e-003 -2.29296386e-002 -1.38601782e-002
      -5.43104066e-003 -1.28993727e-002</_>
    <_>
      -1.58365201e-002 8.96429829e-003 1.80307066e-003 9.99533851e-003
      2.58244504e-003 7.11878249e-003 1.79417117e-003 1.65091618e-003
      -1.02205183e-002 -1.05268648e-002 2.10087094e-002 4.14338708e-003
      4.96538868e-003 -2.17958931e-002 -1.95751879e-002 7.56197097e-003
      -5.73721249e-003</_>
    <_>
      2.17295034e-004 1.69169658e-003 1.65615208e-003 1.18436152e-003
      2.43634079e-003 1.79793336e-003 1.77195156e-003 3.31076118e-003
      1.64324464e-003 2.38580909e-003 9.62225068e-003 -6.52060771e-005
      2.07611010e-003 2.80977506e-003 6.85041724e-003 5.78345312e-003
      5.39397309e-003</_>
    <_>
      -7.62922037e-003 3.16868126e-002 -2.32922751e-002 -8.25796556e-003
      5.31901605e-003 -7.86487944e-003 -1.23734558e-002 2.40306463e-002
      -2.05905344e-002 8.26592464e-003 1.78201385e-002 -7.35248812e-003
      -1.22754229e-002 -3.15450281e-002 2.14516055e-002 5.68099972e-003
      1.28881820e-002</_>
    <_>
      -1.14574721e-002 5.38480643e-004 4.09875647e-004 4.96873492e-003
      5.42937370e-004 -2.27611017e-004 -2.96727900e-004 4.46676183e-003
      -1.51890516e-002 5.57476887e-004 3.19019123e-003 -2.31197160e-002
      -5.56457834e-003 9.59684979e-003 1.54014826e-002 -8.99800938e-003
      -1.57225151e-002</_>
    <_>
      -2.45337561e-002 4.27661883e-003 -3.52247409e-003 3.45104304e-003
      8.92979559e-003 -1.71407906e-003 -8.21462367e-003 1.09377801e-002
      -1.49868336e-002 2.98471819e-003 -9.32258088e-003 2.94042248e-002
      -2.04237062e-003 1.95056666e-003 8.70320946e-004 9.43202805e-003
      2.18564924e-002</_>
    <_>
      -6.52476959e-003 -1.06974214e-003 -1.08123095e-004 1.84935925e-003
      -8.06685421e-004 -9.52740258e-004 -3.99355730e-003
      -1.03559811e-003 -9.22652893e-003 -2.44133058e-003
      -2.76512513e-003 -1.32066123e-002 -4.40990366e-003 6.47810288e-003
      1.40607748e-002 -4.34753764e-003 -4.70260158e-003</_>
    <_>
      -1.33890519e-002 3.43604013e-003 -1.01537094e-003 5.39605832e-003
      -2.57392589e-004 1.54480757e-003 -4.13078535e-003 3.81893083e-003
      -1.14325061e-002 -3.33470688e-003 2.56832261e-002 5.89329749e-003
      3.41091654e-003 -1.06114512e-002 4.74224146e-003 9.56130214e-003
      -2.11569690e-003</_>
    <_>
      -9.36185010e-003 1.23496046e-002 -5.78460237e-003 -4.03079484e-003
      2.97839730e-003 8.14361847e-004 -8.81882291e-003 2.46747769e-003
      -2.00371314e-002 -1.75994181e-004 2.21835431e-002 1.99860870e-003
      -1.91512685e-002 -1.45015195e-002 1.68159250e-002 2.37635635e-002
      1.41079063e-002</_>
    <_>
      -8.20102170e-003 -3.60592478e-003 -5.90634008e-004 3.56203644e-003
      2.39148224e-003 3.10707459e-004 2.68081960e-004 1.20879980e-002
      -3.43144918e-003 7.57035520e-003 2.50000432e-002 -2.10803151e-002
      -3.56851961e-004 -1.38427989e-004 -1.45482353e-003
      -1.47842744e-003 -9.74745490e-003</_>
    <_>
      -3.56268906e-003 -6.16393925e-004 -2.90992064e-003
      -1.75387785e-003 -2.16193544e-003 -2.14122422e-003
      -1.14479312e-003 5.38229186e-004 -2.06431025e-003 -6.74538373e-004
      -1.23736123e-002 7.94170052e-003 2.19043694e-003 -5.13404142e-003
      -3.26199597e-003 1.72300206e-003 -3.66773619e-003</_>
    <_>
      -1.18698580e-002 -2.39280495e-003 -2.83863745e-003
      -8.37396801e-005 5.91192767e-003 -4.18033823e-003 -6.41193660e-003
      1.94404609e-004 -7.06803007e-003 2.51975236e-003 3.26826191e-003
      1.86925977e-002 -1.27065238e-002 -2.85806746e-004 1.73550677e-002
      9.83483251e-003 -4.24112985e-003</_>
    <_>
      -6.92844950e-003 5.43727772e-004 -1.07514614e-003 2.88481754e-003
      2.48124171e-003 1.28424366e-003 7.66072015e-004 2.18378077e-003
      -2.04879115e-003 1.98366260e-003 1.07997423e-002 1.64856284e-003
      7.80199235e-003 2.07917695e-003 5.04639884e-003 1.89533830e-002
      -1.26751373e-003</_>
    <_>
      -4.54692356e-003 2.02133749e-002 -2.24963436e-003 -5.98961138e-004
      8.41961766e-004 -5.20092295e-003 7.39723982e-005 4.44146106e-003
      -5.70056541e-003 4.16076323e-003 -7.28282332e-003 9.26277414e-003
      -1.28732659e-002 -5.03516383e-003 -1.47183414e-003 2.18293313e-002
      -7.85871595e-003</_>
    <_>
      -3.74389323e-003 2.80697132e-003 -1.57973380e-003 -1.07323541e-003
      9.98447416e-004 -1.52010436e-003 -5.59123117e-004 -9.15092533e-005
      -1.08708465e-003 -9.04732908e-004 -1.24488445e-002 1.23448549e-002
      2.17338209e-003 -7.00702565e-003 9.14349779e-003 1.85847690e-003
      -1.98446587e-003</_>
    <_>
      -6.55496679e-003 -9.21782758e-003 -2.24870932e-003 1.41396280e-003
      -2.18718685e-003 -9.17345006e-003 -3.15678190e-004
      -3.17400903e-003 -6.68557733e-003 6.70640788e-004 -1.74951199e-002
      6.08681235e-003 4.43763332e-003 4.50809952e-003 4.79692081e-003
      1.03045963e-002 -2.00133808e-002</_>
    <_>
      7.18522526e-004 1.82349817e-003 9.01700347e-004 3.34023585e-004
      1.57662516e-003 1.43399031e-003 9.75890376e-004 1.40568765e-003
      8.04359966e-004 9.84174432e-004 5.06418711e-003 8.23525526e-003
      1.26947870e-003 2.42350088e-003 3.83128808e-003 4.81289532e-003
      3.75440996e-003</_>
    <_>
      -1.45309791e-003 1.65290164e-003 -3.79619160e-004 1.04646303e-003
      2.26406148e-003 1.83317100e-003 2.32764194e-003 2.85111670e-003
      1.16906432e-003 3.05840769e-003 1.14799039e-002 3.56688630e-003
      6.37086108e-003 -6.61694867e-005 3.48507962e-003 7.44371861e-003
      5.02750557e-003</_>
    <_>
      -3.78879078e-004 3.65382002e-004 -1.86628298e-004 2.63601687e-004
      3.96626681e-004 2.56054482e-004 4.65238554e-004 1.08925498e-003
      6.47299690e-004 5.55984676e-004 4.56947973e-003 5.02834329e-003
      4.20475053e-003 2.74300016e-003 4.42317827e-003 5.23437653e-003
      2.61360034e-003</_>
    <_>
      1.04008897e-004 9.92750400e-004 -1.00482968e-004 8.88282666e-005
      6.34157972e-004 6.75869873e-004 8.23197188e-004 1.31729967e-003
      5.20812348e-004 1.35819567e-003 5.63740823e-003 3.17461207e-003
      5.52212633e-003 1.91170943e-003 4.55979118e-003 6.32266421e-003
      1.32078363e-003</_>
    <_>
      -1.59374706e-003 4.69411956e-003 1.08058448e-003 2.62044091e-003
      8.48866708e-004 4.63182834e-004 1.16319000e-003 4.57617408e-003
      -3.15648329e-004 3.00035952e-003 5.54964086e-003 9.61174536e-003
      8.33066460e-003 5.10084350e-003 7.76210707e-003 5.48912957e-003
      3.98679450e-003</_>
    <_>
      1.42023328e-003 3.29720019e-003 4.54824825e-004 1.77967234e-003
      7.44958874e-004 9.51071037e-004 6.43774110e-004 2.74944562e-003
      1.31283549e-003 1.82268606e-003 1.17873726e-002 3.62288114e-003
      2.09265412e-003 -3.27289943e-003 2.03707558e-003 4.22932627e-003
      4.81053442e-003</_>
    <_>
      -1.35478668e-003 2.93237809e-003 1.71961519e-003 1.66406471e-003
      2.72396882e-003 1.49081039e-004 2.29813647e-003 4.47725644e-003
      1.14724378e-003 4.15686285e-003 1.49177965e-002 1.16206855e-002
      4.46541188e-003 -1.28545449e-003 2.96607427e-003 7.43075134e-003
      7.00818468e-003</_>
    <_>
      3.13696510e-004 2.97625200e-003 1.12610680e-004 1.32272299e-003
      1.28187693e-003 4.18023148e-004 -1.14557792e-004 2.42409017e-003
      5.41857502e-004 3.50331608e-003 1.20362509e-002 6.48659794e-003
      3.55537806e-004 2.36525852e-003 3.45990807e-003 9.52610280e-003
      4.05243086e-003</_>
    <_>
      5.85740607e-004 7.21100194e-004 1.51155342e-004 7.25208200e-004
      -3.81216203e-004 4.74343960e-006 -5.22841874e-004 1.27151632e-003
      -6.86175772e-004 1.09744829e-003 4.82694525e-003 6.44616829e-003
      6.03106292e-003 5.48867695e-003 6.36056345e-003 3.82831204e-003
      1.37400173e-003</_>
    <_>
      -3.81117745e-004 8.95951351e-004 -8.71727243e-005 5.06656943e-004
      1.57728454e-003 2.86859740e-003 2.89288379e-004 2.29166890e-003
      3.82466933e-005 1.35545514e-003 3.94077506e-003 2.38786498e-003
      7.66959833e-003 7.94120351e-005 1.05811758e-002 6.09007245e-003
      1.92132895e-003</_>
    <_>
      -1.56932525e-004 1.06443527e-004 -1.29147942e-004 3.91227833e-004
      1.12197991e-003 9.00127518e-004 8.49224336e-004 1.52620138e-003
      4.63709905e-004 1.44018268e-003 6.39727153e-003 2.54333252e-003
      5.06106531e-003 3.28234164e-004 5.31947101e-003 3.92090203e-003
      3.42919887e-003</_>
    <_>
      1.05479710e-004 8.60350905e-004 6.75327494e-004 5.05023228e-004
      1.07860775e-003 9.90349916e-004 9.23669024e-004 2.16058712e-003
      1.27695652e-003 1.59895164e-003 6.23836182e-003 1.97520084e-003
      3.58767365e-003 3.38219968e-003 5.17458795e-003 5.15121128e-003
      3.63497855e-003</_>
    <_>
      -5.74678525e-005 3.03043256e-004 3.75020929e-004 6.06026151e-004
      8.25620256e-004 6.84872735e-004 8.26440169e-004 1.45634706e-003
      7.83393043e-004 1.76214136e-003 5.59910387e-003 1.73491403e-003
      4.93892096e-003 1.08103023e-003 4.51658573e-003 6.41364232e-003
      2.71565677e-003</_>
    <_>
      -1.58293973e-004 9.49911540e-004 7.29848281e-004 6.88977831e-004
      1.14020158e-003 1.06688030e-003 9.45818203e-004 1.56416593e-003
      5.98787214e-004 7.32370710e-004 5.20264870e-003 1.39787071e-003
      4.11159545e-003 2.35927850e-003 6.93901442e-003 2.71756994e-003
      2.40092399e-003</_>
    <_>
      -3.75064532e-003 -5.87467453e-004 7.43819051e-004 4.89264028e-004
      3.29976063e-003 1.37459929e-003 6.47773559e-005 2.15156330e-003
      -2.32182373e-003 -3.18561477e-004 1.36846537e-003 -5.36412746e-003
      1.82335149e-003 1.02236783e-002 1.47986626e-002 3.04343528e-003
      -5.54162031e-003</_>
    <_>
      1.07364459e-002 1.46317650e-002 1.41660320e-002 2.34294450e-003
      1.30188768e-003 -6.92369882e-004 1.42736756e-003 2.29900028e-003
      1.74180958e-002 1.00755431e-002 1.89693682e-002 -3.58732621e-004
      4.34337091e-003 -1.33600896e-002 -2.27499679e-002 1.09540159e-003
      -1.07111298e-002</_>
    <_>
      1.24738342e-003 1.99864688e-003 1.73325685e-003 1.78427564e-003
      9.08963964e-004 1.94730074e-003 1.46192484e-004 1.66824530e-003
      1.31484866e-003 2.18839315e-003 7.91299436e-003 4.19266801e-003
      1.94882636e-003 2.49419757e-003 1.62531843e-003 3.63276922e-003
      1.88493542e-003</_>
    <_>
      5.82349428e-004 2.10199063e-003 1.02355098e-003 1.13566697e-003
      4.33474808e-004 1.11465959e-003 4.97242901e-004 1.46802503e-003
      1.60351978e-003 1.41003821e-003 7.68779172e-003 5.74654713e-003
      3.96165904e-003 5.26678469e-003 7.74427364e-003 2.81621353e-003
      2.50499672e-003</_>
    <_>
      1.59319816e-003 3.88597394e-003 4.44846042e-003 2.65715760e-003
      2.57439679e-003 2.51731765e-003 3.80099216e-003 2.31389608e-003
      7.69523066e-003 6.47681952e-003 1.50778494e-003 -5.90649480e-003
      1.07597262e-002 5.43616107e-003 1.00181326e-002 9.86482855e-003
      -2.72121583e-003</_>
    <_>
      2.62959953e-003 3.94567382e-003 2.88196816e-003 1.78948964e-003
      8.46030191e-004 2.23709550e-003 1.73093099e-003 9.28657944e-004
      7.69688096e-003 4.53486014e-003 8.76509957e-003 -6.37159217e-003
      -4.59702732e-003 -1.23943975e-002 -4.29459615e-003 2.45941896e-003
      -4.86462406e-004</_>
    <_>
      -4.96736821e-003 1.38336765e-002 1.18618738e-002 1.88524113e-003
      9.64144152e-003 1.02864625e-002 2.49725929e-003 1.06778033e-002
      1.30878398e-002 8.64130445e-003 6.97022630e-003 1.49796586e-002
      -2.67840689e-003 1.15063204e-003 1.38721028e-002 -6.60286797e-003
      2.51347367e-002</_>
    <_>
      2.47032789e-004 -5.07954333e-004 1.54636137e-003 2.63410644e-003
      2.76479824e-003 2.62788520e-003 2.84956209e-003 4.14627185e-003
      3.22028563e-006 3.92211322e-003 4.78288764e-003 -1.38822766e-002
      -2.06584949e-003 -3.69925145e-003 6.01652730e-003 6.77999342e-003
      2.69412176e-005</_>
    <_>
      7.40430038e-003 6.05377136e-003 5.00177918e-003 3.95965250e-003
      3.64021864e-004 -2.20066533e-004 6.42433180e-004 1.16161292e-003
      5.94238145e-003 6.36433996e-003 2.68720207e-003 7.00849108e-003
      4.64443211e-003 1.13515183e-002 5.03944582e-004 9.65341553e-003
      -1.06667599e-003</_>
    <_>
      6.84990035e-003 9.98851284e-003 5.13113430e-003 2.16570639e-004
      3.37115070e-003 1.97336054e-003 8.88401933e-004 2.70279311e-003
      6.29713805e-003 6.97579514e-003 9.34830494e-003 7.14438781e-003
      -6.68520527e-003 4.38696286e-003 2.13930383e-003 -1.11152453e-003
      5.35212643e-003</_>
    <_>
      2.79992237e-003 2.29281676e-003 2.37042550e-003 1.19502808e-003
      2.06590444e-003 1.75197120e-003 1.62878272e-003 1.47287280e-003
      2.16343463e-003 1.51379034e-003 4.85641556e-003 4.50308993e-003
      4.62311134e-003 5.01626823e-003 6.72592456e-003 1.09138316e-003
      2.55270768e-003</_>
    <_>
      -8.34547728e-003 -1.22224651e-002 2.54868320e-003 1.52935216e-003
      3.34920385e-003 7.49623310e-003 -4.06259531e-003 -6.28216751e-003
      -1.87742466e-003 -1.39283796e-003 -9.02817957e-003
      -1.97706427e-002 -3.82973609e-004 1.25420578e-002 9.12348088e-003
      2.49248138e-003 -5.29893907e-003</_>
    <_>
      8.82202061e-004 8.47765768e-004 7.28822954e-004 6.17037818e-004
      5.59074862e-004 6.56808901e-004 5.38775581e-004 7.63332937e-004
      1.23559404e-003 1.09539076e-003 2.74412078e-003 2.93956441e-003
      2.91869696e-003 2.94372905e-003 3.08825891e-003 3.34236096e-003
      1.32913701e-003</_>
    <_>
      3.48795555e-003 5.65215480e-003 2.55426206e-003 1.97315239e-003
      6.95007213e-004 -1.25357430e-004 -8.22275528e-004 -3.01815715e-004
      1.11467275e-003 7.93052197e-004 9.32904426e-003 1.06871547e-002
      -3.28039541e-003 8.73315521e-003 1.66379672e-004 -1.64482009e-003
      1.48409442e-003</_>
    <_>
      1.63186924e-003 2.92665698e-003 1.36844290e-003 1.11100124e-003
      3.39946157e-004 6.81349833e-004 5.94750105e-004 1.44499121e-003
      2.26244959e-003 2.53474270e-003 7.37608969e-003 3.64470389e-003
      3.71233444e-003 1.81980466e-003 1.36845815e-003 6.50303857e-003
      4.01808694e-003</_>
    <_>
      8.64664186e-003 1.67175718e-002 9.15263221e-003 3.86375934e-003
      3.39011685e-003 3.20131239e-003 1.42179150e-003 -2.47966452e-003
      7.67653249e-003 1.64623011e-003 1.93289164e-002 -1.32636195e-002
      -1.44093856e-003 -7.00905267e-003 1.39437281e-002 -1.96506735e-002
      3.27142584e-003</_>
    <_>
      1.55903690e-003 8.31798278e-003 9.26261209e-003 3.35990312e-003
      4.36082669e-003 1.71978818e-003 6.48933137e-003 1.81486807e-003
      1.45948213e-002 9.28431563e-003 1.55319897e-002 1.92973658e-003
      -2.17768480e-003 -6.68076891e-003 -6.66763866e-003
      -6.57075783e-003 1.51794287e-003</_>
    <_>
      2.99840653e-003 7.26399664e-003 7.38071371e-003 9.52901412e-003
      1.61918299e-003 6.30398933e-003 3.21692624e-003 -1.74850528e-003
      7.81378523e-003 -1.66123675e-004 2.05055121e-002 2.12941738e-003
      -1.25298183e-003 -2.96730222e-003 -1.43705662e-002 4.54562902e-003
      1.31421979e-003</_>
    <_>
      1.27656001e-003 1.95927755e-003 1.92580605e-003 1.34552107e-003
      1.42748002e-003 1.38848042e-003 1.12078909e-003 1.36389676e-003
      1.93735072e-003 1.58253056e-003 6.50787354e-003 9.50150425e-004
      1.46835612e-003 3.43183102e-003 3.51941632e-003 2.29540793e-003
      2.91459798e-003</_>
    <_>
      1.03957336e-002 2.05983911e-002 5.46361133e-003 -2.00973824e-003
      4.56756540e-003 2.55504553e-003 7.44893972e-004 5.38876513e-003
      1.86637230e-002 1.30956732e-002 1.36978598e-002 -8.54230672e-003
      -4.81506065e-003 -1.20051494e-002 4.74578189e-003 -9.92878620e-003
      1.51408911e-002</_>
    <_>
      8.86168331e-004 4.24451614e-003 5.60891302e-003 4.97257616e-003
      1.63080869e-003 2.71911873e-003 1.72988046e-003 5.67695010e-004
      2.02902011e-003 3.64065357e-003 1.46615617e-002 -8.45815893e-003
      2.08160304e-003 1.11692771e-002 4.58953669e-003 -1.00059411e-003
      -1.79726325e-004</_>
    <_>
      -7.27206841e-003 3.60047142e-003 8.47407524e-003 3.44722136e-003
      3.84717411e-003 -8.21288384e-004 -1.47894968e-003 1.40482897e-003
      9.51389316e-003 8.84404127e-003 4.40463331e-003 2.34975759e-002
      -8.73741880e-003 5.63587947e-003 -7.51794875e-003 -1.48359756e-003
      1.82921216e-002</_>
    <_>
      -3.21434252e-003 1.94566255e-003 6.37717731e-003 2.92534498e-003
      -4.09084780e-004 1.80371339e-003 -2.81565660e-003 -4.42013238e-003
      -6.22141524e-004 1.82140793e-003 2.66165216e-003 -2.12716982e-002
      -5.37406374e-003 7.40793720e-003 1.48133980e-002 -1.00325132e-002
      6.28261245e-004</_>
    <_>
      2.26175631e-004 3.63490195e-003 3.19313956e-003 3.00658867e-003
      4.63341916e-004 1.82531518e-003 2.06440804e-004 1.65636255e-003
      2.52065877e-003 2.15187483e-003 1.72051731e-002 6.36317488e-003
      4.46857791e-003 1.40480930e-003 3.42051522e-003 3.63715505e-003
      1.91958807e-003</_>
    <_>
      4.29305946e-003 7.18137808e-003 4.49689245e-003 1.93398457e-003
      1.85696885e-003 2.56184163e-003 2.12071827e-004 7.28733838e-004
      3.93540272e-003 4.08272538e-003 1.75641663e-002 6.20879745e-003
      -5.42346679e-004 5.72436908e-003 6.25580736e-003 5.01266541e-003
      6.74456637e-003</_>
    <_>
      1.71353295e-003 3.05299787e-003 4.34306916e-003 3.44378757e-003
      1.57355750e-003 1.34321756e-003 1.46743178e-003 1.77694135e-003
      4.85069025e-003 4.61602956e-003 1.86548326e-002 -2.38521770e-003
      -2.18324759e-003 4.06735949e-003 -2.35703564e-003 -2.51976051e-003
      -8.58333369e-004</_>
    <_>
      -1.98948337e-003 1.57095375e-003 -1.01569947e-003 -2.12039216e-003
      -2.69982847e-003 -9.19295941e-004 -6.57041746e-005 1.18150446e-003
      2.96478486e-003 2.49386951e-003 -1.33227864e-002 1.59012787e-002
      6.62432658e-003 -6.70750253e-003 -5.16710011e-003 -2.45295196e-005
      -1.90914085e-003</_>
    <_>
      -9.19417434e-005 2.19740043e-003 3.47216311e-003 2.01652688e-003
      3.36999656e-003 -1.99754395e-005 -1.02183502e-003 2.51036661e-004
      4.08207532e-003 4.67947219e-003 1.19057866e-002 1.27527760e-002
      -2.91064731e-003 6.67264592e-003 9.35161766e-003 4.08203062e-003
      1.35189330e-003</_>
    <_>
      -1.60602998e-004 1.62649748e-003 1.69966195e-003 1.95498927e-003
      1.36909005e-003 1.36740552e-003 1.28277997e-003 1.16752542e-003
      3.10931914e-003 2.93315644e-003 1.04129370e-002 3.19635868e-003
      5.32761915e-003 3.67401377e-003 2.98545999e-003 8.56846943e-003
      1.23125059e-003</_>
    <_>
      2.61143502e-003 1.58812106e-002 4.90617892e-003 5.38320513e-004
      1.03402021e-003 -5.47414995e-004 3.22471350e-003 4.43768641e-003
      1.01500712e-002 1.13009717e-002 3.73883033e-003 1.12252394e-002
      -7.99704343e-003 -1.03756017e-003 -8.24242085e-003 1.36675527e-002
      4.63318836e-004</_>
    <_>
      -1.16624753e-004 5.55475568e-003 1.87651569e-003 -8.95414501e-004
      1.10511924e-003 -2.56370928e-004 1.05112244e-003 -1.23218319e-003
      6.92980969e-003 3.01741879e-003 -5.65151079e-003 1.76908150e-002
      4.80494322e-003 -8.37675389e-003 7.23729096e-003 3.85572748e-005
      1.70653290e-003</_>
    <_>
      9.10962175e-004 -9.73194651e-003 1.61833148e-002 4.79163695e-003
      -2.73286155e-003 -1.26815150e-002 7.09392084e-003 -1.14700049e-002
      1.62304044e-002 1.74437352e-002 -1.14042871e-002 2.45842375e-002
      6.03030063e-003 9.59849730e-003 -4.21905611e-003 3.25502479e-003
      -2.88095046e-002</_>
    <_>
      1.23324885e-003 1.83415308e-003 1.37935695e-003 7.84523203e-004
      1.08232663e-003 1.19950296e-003 7.87160418e-004 6.79894583e-004
      1.40829419e-003 9.72103619e-004 4.55787312e-003 4.67605097e-003
      1.15711137e-003 2.80024949e-003 2.31987238e-003 2.54256371e-003
      2.38502771e-003</_>
    <_>
      6.42232713e-004 1.85106555e-003 6.39384205e-004 5.40134672e-004
      1.21291797e-003 1.22491713e-003 1.63612305e-003 1.54652935e-003
      2.79124430e-003 2.85321590e-003 8.22283514e-003 2.21989420e-003
      3.61513416e-003 9.25692962e-004 1.35002134e-003 4.15846799e-003
      3.05799721e-003</_>
    <_>
      5.79001440e-004 1.03527098e-003 7.11997971e-004 7.11671135e-004
      4.84866789e-004 5.61406545e-004 5.07503923e-004 5.83470915e-004
      1.19322597e-003 6.92809117e-004 4.18914296e-003 3.48737859e-003
      2.76027992e-003 3.04185110e-003 2.89616617e-003 2.83790962e-003
      1.88672938e-003</_>
    <_>
      9.32287599e-004 1.46112696e-003 8.47259769e-004 6.70721172e-004
      6.36922894e-004 8.31819838e-004 7.23036879e-004 6.89991459e-004
      1.20101427e-003 1.16499723e-003 4.87887580e-003 2.46600481e-003
      3.46449669e-003 2.70242570e-003 2.95023154e-003 3.34918709e-003
      1.18275813e-003</_>
    <_>
      9.93269845e-004 3.38584115e-003 2.02875375e-003 2.08990928e-003
      8.34579521e-004 1.00305316e-003 9.18538310e-004 1.62733870e-003
      1.53660239e-003 1.86374539e-003 5.26813418e-003 4.85031912e-003
      3.85298813e-003 4.86666150e-003 3.66890617e-003 1.80266832e-003
      2.29671854e-003</_>
    <_>
      1.88845652e-003 2.69356882e-003 1.41379016e-003 1.59131095e-003
      6.99556025e-004 1.02969992e-003 6.86368672e-004 1.25928712e-003
      1.97123224e-003 1.48936908e-003 7.94132426e-003 2.72919633e-003
      1.63497496e-003 6.01035135e-004 1.54641527e-003 1.85050606e-003
      2.88487249e-003</_>
    <_>
      1.64529856e-003 2.57503870e-003 2.42990768e-003 1.60895800e-003
      1.45131024e-003 9.39399702e-004 1.40501105e-003 1.51425309e-003
      2.77656130e-003 2.56897067e-003 8.73700343e-003 5.61233237e-003
      2.85062683e-003 2.71686353e-003 2.16145418e-003 2.54237163e-003
      3.39116645e-003</_>
    <_>
      1.58104277e-003 2.67995917e-003 1.54865580e-003 1.54936814e-003
      9.77776013e-004 9.30169364e-004 4.07627900e-004 8.82885186e-004
      1.73584593e-003 2.05546827e-003 7.63410842e-003 3.71679734e-003
      8.58502928e-004 3.67203029e-003 2.08401959e-003 3.48355179e-003
      2.33194721e-003</_>
    <_>
      1.30571192e-003 1.41859974e-003 1.12848857e-003 1.07656873e-003
      1.54310852e-004 5.41241956e-004 6.54672840e-005 5.72813442e-004
      7.40309479e-004 1.01848913e-003 4.40892996e-003 3.94738372e-003
      3.40771815e-003 4.57453402e-003 3.58284102e-003 1.69861712e-003
      1.19637477e-003</_>
    <_>
      1.34026969e-003 1.79346988e-003 1.35819253e-003 1.07761577e-003
      1.22442830e-003 2.17596185e-003 6.09511801e-004 1.21843105e-003
      1.60103280e-003 1.49038120e-003 4.58819745e-003 2.38764961e-003
      4.93087200e-003 2.66446779e-003 6.46415073e-003 3.00673791e-003
      1.62907853e-003</_>
    <_>
      7.52449327e-004 6.50230329e-004 6.38738042e-004 5.67378418e-004
      8.04970507e-004 8.25057272e-004 7.70156796e-004 9.26461245e-004
      1.33407267e-003 1.37039938e-003 5.35081327e-003 2.25038081e-003
      3.48691875e-003 1.29678124e-003 3.45234317e-003 2.30110483e-003
      2.45446479e-003</_>
    <_>
      8.80753039e-004 1.30545243e-003 1.19799923e-003 8.45897244e-004
      8.24475603e-004 9.41814564e-004 7.28508399e-004 1.07368489e-003
      1.51764508e-003 1.21392729e-003 4.87580802e-003 1.69319636e-003
      2.24352046e-003 3.29140737e-003 3.06865061e-003 2.51908810e-003
      2.29159463e-003</_>
    <_>
      8.22091592e-004 1.05544971e-003 1.08825311e-003 9.41539533e-004
      7.45785190e-004 8.33245052e-004 7.34258385e-004 7.96606939e-004
      1.34506403e-003 1.41426304e-003 4.91590984e-003 1.69333967e-003
      3.22983088e-003 2.20914115e-003 2.99655669e-003 3.52511532e-003
      1.98875531e-003</_>
    <_>
      5.91697462e-004 1.25508965e-003 1.14978559e-003 8.98439030e-004
      8.54762446e-004 1.00263429e-003 7.76469300e-004 8.54336598e-004
      1.15904759e-003 8.13535473e-004 4.26705740e-003 1.16044912e-003
      2.75712414e-003 2.63677700e-003 4.47920850e-003 1.41780532e-003
      1.69676542e-003</_>
    <_>
      -2.17657245e-004 1.14622922e-003 2.50276062e-003 1.20866299e-003
      2.17179884e-003 2.28330307e-003 1.08789885e-003 9.75006784e-004
      2.02899333e-003 1.88020931e-003 6.62602345e-003 -2.87744752e-003
      3.89747741e-003 7.63311610e-003 7.42347166e-003 4.05603461e-003
      -1.72713224e-003</_>
    <_>
      -4.55598230e-004 2.60850112e-003 1.29793945e-003 3.02666612e-003
      1.77015923e-003 4.47159214e-003 -4.66626021e-004 3.53738666e-003
      -1.57573886e-004 3.13079287e-003 9.14690085e-003 1.04522817e-002
      3.67147033e-003 3.29503231e-003 3.55840940e-003 6.21590670e-003
      5.68435388e-003</_>
    <_>
      -2.85029807e-003 1.64483299e-005 -1.71434297e-003 1.17857591e-004
      3.06766829e-004 1.50473462e-003 3.38854908e-004 1.52768055e-003
      -8.98529543e-004 -3.83622159e-004 -4.64035955e-004 7.59501196e-003
      5.92793664e-003 5.92882419e-003 1.43353669e-002 1.93062413e-003
      4.84011322e-003</_>
    <_>
      -7.98315450e-004 2.09662644e-003 -5.82110777e-004 3.60037456e-003
      4.14358685e-003 4.75874310e-003 4.03331313e-003 -2.42274808e-004
      3.85612599e-003 5.38329734e-003 -1.06592178e-002 5.51120378e-003
      8.38417374e-003 6.75447099e-003 2.62789112e-002 1.32249743e-002
      -3.82764684e-003</_>
    <_>
      2.16964213e-003 8.08750000e-003 1.59778888e-003 4.67563840e-003
      1.46653503e-003 5.47942799e-003 1.58857065e-003 2.84637208e-003
      2.73681409e-003 4.03383980e-003 1.53783029e-002 -5.42183453e-003
      -1.98232140e-002 -1.73192713e-002 -3.08310916e-003
      -4.22569516e-004 3.78007186e-003</_>
    <_>
      -8.60054698e-003 -1.68994744e-003 -1.01282704e-003
      -2.57149746e-004 4.88820439e-003 6.01025997e-003 4.90748789e-004
      5.21107949e-003 -9.29084956e-004 -1.14873634e-003 -7.51634967e-003
      8.99252202e-003 -8.60924739e-003 1.27507029e-002 2.16251686e-002
      -6.99979952e-003 1.50512364e-002</_>
    <_>
      -2.34157732e-003 -2.25663558e-003 -8.91680596e-004 4.80721425e-003
      3.89805250e-003 4.65700962e-003 4.08995245e-003 5.67242550e-003
      -5.89045649e-003 2.85377214e-003 1.20267540e-003 -1.64222494e-002
      -6.00107759e-003 -6.71231770e-004 1.12299379e-002 7.55613949e-003
      2.65367376e-003</_>
    <_>
      7.79866055e-003 3.59454006e-003 2.72611185e-004 2.52148230e-003
      -3.13428463e-004 -8.52219644e-004 -4.65512625e-004
      -2.25800512e-004 2.90958979e-003 5.67921856e-003 -1.40839992e-002
      1.52838454e-002 3.49803898e-003 1.04565900e-002 4.67581907e-003
      1.29558519e-002 1.76321587e-003</_>
    <_>
      5.21778641e-003 1.08321887e-002 1.03089109e-003 -4.44809441e-003
      6.94407243e-003 4.60555544e-003 1.50302192e-003 3.33984452e-003
      5.47221163e-003 9.23830178e-003 -7.13903038e-003 9.12579056e-003
      -1.06921457e-002 6.02406822e-003 1.52474158e-002 -2.46121525e-003
      1.51811428e-002</_>
    <_>
      1.47089316e-003 1.23610126e-003 1.29451102e-003 6.12600357e-004
      2.72502541e-003 2.42193323e-003 2.19946424e-003 1.72036909e-003
      1.03478914e-003 5.61936526e-004 -4.24913538e-004 5.14036091e-003
      6.91894116e-003 5.07115526e-003 1.15609085e-002 5.82827895e-004
      4.26161103e-003</_>
    <_>
      -4.33066627e-003 -5.98084927e-003 -1.39986794e-003 3.99710174e-004
      1.50337571e-003 2.84321583e-003 -1.92042137e-003 -2.40744930e-003
      -4.29941015e-003 -3.37182614e-003 -1.10704852e-002
      -4.97525930e-003 -1.90104940e-003 7.43047567e-003 9.54703148e-003
      -2.33276817e-003 -1.55006582e-003</_>
    <_>
      3.82197992e-004 4.92507883e-004 2.37327899e-004 4.73034655e-004
      6.87121239e-004 8.57513398e-004 6.23009691e-004 8.45000613e-004
      8.77540268e-004 8.84728273e-004 7.21943623e-004 3.92848486e-003
      3.87236918e-003 3.57327634e-003 4.65490529e-003 3.88796185e-003
      2.00119172e-003</_>
    <_>
      8.94393830e-004 4.80231084e-003 -9.46734042e-004 1.28261384e-003
      9.38568788e-004 -4.33197274e-004 -1.88894314e-003 -1.54898036e-003
      -3.04564228e-003 -2.06925441e-003 2.30530603e-003 1.69219896e-002
      -5.30713843e-003 1.51853468e-002 7.75994640e-003 -4.30632383e-003
      5.30390255e-003</_>
    <_>
      -1.79013092e-004 3.71053629e-003 -4.69876832e-004 7.74756831e-004
      3.10851407e-004 1.28598814e-003 7.61193864e-004 2.35891738e-003
      1.31293572e-003 2.95034703e-003 2.80391378e-003 7.62621174e-003
      7.66493054e-003 1.49771129e-003 4.55028564e-003 1.16446698e-002
      1.02524469e-002</_>
    <_>
      3.29627190e-004 6.62537524e-003 8.76377308e-005 1.32859009e-003
      -2.81156390e-004 7.03489117e-004 -2.20430852e-003 -2.52016820e-003
      -7.50172418e-003 -4.08200361e-003 -7.82415329e-004
      -2.13592891e-002 -1.11090606e-002 4.88856714e-003 1.65135209e-002
      -1.98116880e-002 2.21844041e-003</_>
    <_>
      -2.22686362e-002 3.00104711e-002 1.26687735e-002 1.06272884e-002
      2.11546570e-002 9.21624526e-003 2.25114804e-002 8.56426638e-003
      2.33637914e-002 2.29370203e-002 5.01597160e-003 2.66973395e-003
      -1.60149056e-002 -6.33404776e-003 6.95209065e-003 -1.37589751e-002
      1.85421221e-002</_>
    <_>
      -2.52279788e-002 -7.98963942e-004 -3.46770859e-003 2.99710501e-002
      8.92875192e-004 2.74057873e-002 1.92043371e-002 -1.39794052e-002
      2.73725786e-003 -2.65173484e-002 6.70928927e-003 9.89234075e-003
      1.83156133e-002 -1.35904402e-002 -1.97379030e-002 -3.36711964e-004
      3.09960134e-002</_>
    <_>
      4.64686163e-004 2.30512233e-003 2.01620511e-003 1.79974397e-003
      2.72601540e-003 2.72371061e-003 1.99161936e-003 2.25490355e-003
      1.83511851e-003 1.61450554e-003 5.59265492e-003 1.35282660e-003
      2.37517362e-003 5.65245608e-003 8.06376338e-003 2.62127607e-003
      6.40821736e-003</_>
    <_>
      3.32542951e-003 1.75277218e-002 -1.21526914e-002 -4.66711028e-003
      4.48768726e-003 5.17879007e-003 7.20373471e-004 6.56927936e-003
      1.89135643e-003 2.81377416e-003 -3.27015482e-003 -7.04180263e-003
      -1.65795360e-003 3.10443854e-003 2.47661006e-002 -2.70687863e-002
      3.38580906e-002</_>
    <_>
      -6.21201098e-003 -9.32905998e-004 2.20298115e-003 6.56427257e-003
      2.72215437e-003 5.52417384e-003 4.70215717e-004 -2.90305028e-003
      -6.92063710e-003 -5.11649181e-004 -2.14001257e-003
      -1.81724783e-002 -6.25112234e-003 1.64156966e-002 1.77395679e-002
      -1.52984764e-002 3.63039249e-003</_>
    <_>
      -1.54041434e-002 -9.12961550e-003 -2.61082407e-003
      -4.78037517e-004 2.64843344e-003 -5.50472934e-004 -1.56851881e-003
      5.84772613e-004 -9.31008544e-005 3.54494364e-003 -8.83219019e-003
      1.06962901e-002 -5.55236312e-003 4.89414670e-003 1.05910879e-002
      2.88575841e-003 2.30310559e-002</_>
    <_>
      -3.07832356e-003 -1.01703044e-003 1.40740231e-004 7.49793253e-004
      -1.44898106e-004 9.48905596e-004 -2.10384768e-003 -2.17487733e-003
      -4.54453798e-003 -1.89539581e-003 -6.42803032e-003
      -6.83019916e-003 -4.28257650e-003 5.64994011e-003 1.44614354e-002
      -8.12578201e-003 8.28415970e-004</_>
    <_>
      -1.87251307e-002 5.99546765e-004 -3.36286030e-003 4.72329045e-003
      -2.97402818e-004 6.69768732e-003 -2.28169397e-003 2.20897654e-003
      -8.28225445e-003 -5.30405669e-003 7.40363821e-003 2.35270262e-002
      1.43721905e-002 -7.35595636e-003 2.17840895e-002 -2.79386691e-003
      1.13702603e-002</_>
    <_>
      -5.67841530e-003 6.54386031e-003 -3.56693030e-003 -2.77375034e-003
      3.67338816e-003 6.70905644e-003 -2.19411612e-003 -2.78359046e-003
      -6.59137452e-003 -1.42390048e-003 -1.20129976e-002 1.33226225e-002
      -6.56730728e-003 5.42446133e-003 2.81421896e-002 -1.01671997e-003
      2.49447934e-002</_>
    <_>
      -1.58363786e-002 -5.77984191e-003 -2.97745783e-003 5.23151085e-003
      6.30088989e-003 1.66897298e-004 4.72867535e-003 4.59238468e-003
      6.02116052e-004 1.58115868e-002 2.28431169e-002 6.66651409e-004
      -1.79771371e-002 1.76929552e-002 2.38382444e-002 -3.48229706e-002
      1.55501915e-002</_>
    <_>
      -4.02797898e-003 -1.49408099e-003 -4.05788841e-003
      -3.13958875e-003 -2.43991846e-003 -1.15165417e-003
      -2.95258971e-004 2.68891541e-004 3.21212428e-004 5.73259196e-004
      -1.55752301e-002 9.00103152e-003 4.43245936e-003 -5.09495800e-003
      2.90669058e-003 5.66809345e-003 1.44789484e-003</_>
    <_>
      -7.50233931e-003 -3.53864976e-003 -1.86908094e-003
      -4.13604168e-004 4.14021639e-003 -4.95597953e-004 -2.33871792e-003
      -1.38027361e-003 -9.95902461e-004 1.69995183e-003 -6.61940826e-003
      1.53938821e-002 -5.01699978e-003 5.37762092e-003 1.82586052e-002
      1.12330646e-003 3.70931183e-003</_>
    <_>
      -7.74478493e-003 -1.37891422e-003 -2.26026750e-003 2.46679620e-003
      3.18663055e-003 3.58637865e-003 2.21525459e-003 9.39434802e-004
      1.04918482e-003 2.48802407e-003 4.20139544e-003 1.04506528e-002
      1.16086295e-002 4.95377835e-003 1.14296079e-002 1.72781944e-002
      5.14622824e-003</_>
    <_>
      -8.84064659e-003 1.95472725e-002 -6.92725182e-003 -5.61823277e-003
      -8.65869340e-004 -5.08682430e-003 6.15731068e-003 5.18582389e-003
      2.87744054e-003 1.00817122e-002 -9.16862860e-003 1.42511083e-002
      -1.42968502e-002 -6.23689033e-003 -4.18198586e-004 2.65788175e-002
      1.27976686e-002</_>
    <_>
      -1.77989271e-003 1.46685389e-003 -1.19183061e-003 -6.93909125e-004
      9.92231769e-004 -1.43158759e-004 8.79369385e-004 -3.22317414e-004
      2.35513854e-003 3.19743500e-004 -8.07773415e-003 1.08908983e-002
      4.22340166e-003 -1.63429475e-003 1.38897384e-002 1.58033625e-004
      2.12884811e-003</_>
    <_>
      -5.69414068e-003 -1.48481736e-002 -2.57329852e-003
      -9.05745139e-004 -3.31983110e-003 -8.25603958e-003 3.08941817e-003
      -7.63039663e-003 6.29647635e-004 1.40165701e-003 -2.46293787e-002
      2.23396416e-003 2.19127466e-003 1.07907364e-002 8.37796181e-003
      7.18893856e-003 -8.89021996e-003</_>
    <_>
      4.85743425e-004 1.84097188e-003 1.01399363e-003 5.18471177e-004
      1.68098346e-003 1.98719534e-003 1.23899744e-003 8.69849406e-004
      1.30251492e-003 8.36530176e-004 3.68765322e-003 6.68144226e-003
      1.97817874e-003 3.09907505e-003 4.15677251e-003 4.57462110e-003
      4.55175852e-003</_>
    <_>
      -1.95259880e-003 1.79003587e-003 -1.66205049e-003 -2.93851626e-004
      2.64775148e-003 2.80625513e-003 3.58486129e-003 2.95713823e-003
      3.50681134e-003 4.51677572e-003 7.89851416e-003 4.60792566e-003
      8.06626678e-003 -1.80416624e-004 4.50374279e-003 7.05447001e-003
      8.25238600e-003</_>
    <_>
      -2.00770854e-004 7.21201999e-004 1.02281389e-004 6.05076842e-004
      6.25855289e-004 7.86410819e-004 6.16598991e-004 6.11985510e-004
      7.57472124e-004 2.32552658e-004 2.54272460e-003 5.17098978e-003
      3.99174215e-003 4.00860049e-003 4.89600562e-003 3.36540677e-003
      3.11309681e-003</_>
    <_>
      2.67337338e-004 1.44697458e-003 2.33107246e-004 5.42886904e-004
      9.49291396e-004 1.34105072e-003 1.04529376e-003 8.34089413e-004
      7.27942563e-004 9.89246531e-004 3.57613969e-003 3.93549027e-003
      5.64879086e-003 3.78374499e-003 5.59522910e-003 4.52386960e-003
      2.25178013e-003</_>
    <_>
      -4.85032331e-004 4.49915044e-003 1.19697780e-003 2.44080392e-003
      1.27808098e-003 1.67770102e-003 1.34232885e-003 2.28926539e-003
      5.84157126e-004 1.93805108e-003 2.41921050e-003 7.90358894e-003
      6.83687394e-003 5.91134513e-003 7.01542990e-003 2.02485267e-003
      4.85753920e-003</_>
    <_>
      1.97790260e-003 4.52097738e-003 1.01357244e-003 2.72451993e-003
      1.42062153e-003 2.35475646e-003 1.27462647e-003 2.40989658e-003
      2.16321158e-003 1.60709629e-003 9.88037046e-003 6.08212966e-003
      3.23381438e-003 -4.48251289e-004 4.74144332e-003 1.90021959e-003
      7.63915712e-003</_>
    <_>
      -1.20522152e-003 4.06354479e-003 2.25071050e-003 2.46528606e-003
      3.13719152e-003 2.10833596e-003 3.17546213e-003 2.81389896e-003
      2.22399621e-003 2.86377664e-003 7.64493737e-003 1.45984925e-002
      4.86715976e-003 4.26090276e-003 5.86665189e-003 7.12145993e-004
      1.05148228e-002</_>
    <_>
      7.27193314e-004 4.19921288e-003 9.27082729e-004 2.45764572e-003
      2.12103548e-003 2.11873883e-003 5.03293413e-004 1.36052025e-003
      1.10061106e-003 2.73133186e-003 7.51083111e-003 8.67430586e-003
      1.14582782e-003 7.15944683e-003 6.42611459e-003 5.69210388e-003
      6.48547942e-003</_>
    <_>
      6.23503467e-004 1.06687145e-003 4.63998469e-004 1.03646284e-003
      6.52007002e-005 7.31084845e-004 -1.34199581e-004 5.09008125e-004
      -2.85862014e-004 4.98303794e-004 1.71617162e-003 5.84194204e-003
      4.94189514e-003 6.23786543e-003 6.11769408e-003 1.25629257e-003
      2.08095252e-003</_>
    <_>
      1.39685057e-004 1.23623235e-003 2.72903650e-004 8.90342519e-004
      1.67306559e-003 3.25769628e-003 5.49780554e-004 1.24720752e-003
      5.21331967e-004 7.56410009e-004 9.51137743e-004 3.98194743e-003
      6.49747951e-003 2.31340271e-003 1.03712548e-002 2.70330720e-003
      3.11559252e-003</_>
    <_>
      -3.59508049e-005 2.96296548e-005 -1.17829550e-004 3.50601214e-004
      1.19216857e-003 1.27266964e-003 1.08111079e-003 1.19861937e-003
      9.30982875e-004 1.30011770e-003 4.25405754e-003 3.40595329e-003
      5.44581935e-003 1.26413652e-003 6.19456545e-003 2.57661054e-003
      4.29152651e-003</_>
    <_>
      2.51942780e-004 1.23232638e-003 9.16698307e-004 8.83738510e-004
      1.28516322e-003 1.53727853e-003 1.06476340e-003 1.52560591e-003
      1.35752303e-003 1.13096472e-003 3.83764645e-003 2.59298482e-003
      3.51867592e-003 4.86033829e-003 5.76654729e-003 3.13263224e-003
      4.18071216e-003</_>
    <_>
      1.04308790e-004 7.59152870e-004 6.84788974e-004 1.03318621e-003
      1.14457193e-003 1.34644331e-003 1.07019965e-003 1.03006093e-003
      1.01212936e-003 1.45115843e-003 3.75338248e-003 2.58682249e-003
      5.24693634e-003 2.93879560e-003 5.66827599e-003 4.86416183e-003
      3.66493687e-003</_>
    <_>
      -1.04581493e-004 1.05462701e-003 8.19192093e-004 8.71981843e-004
      1.19618140e-003 1.40327460e-003 1.09672989e-003 1.17113348e-003
      8.15158593e-004 5.94891899e-004 3.68089415e-003 1.22115517e-003
      4.20607952e-003 3.12944804e-003 6.51938794e-003 1.99793396e-003
      3.15388083e-003</_>
    <_>
      -2.11812695e-003 1.88217120e-004 1.38808670e-003 1.28008402e-003
      3.57328355e-003 3.42337345e-003 5.25774900e-004 6.20756880e-004
      -5.49255288e-004 -2.88998679e-004 -9.61670885e-005
      -1.11687928e-003 1.50336546e-003 1.01346672e-002 1.51943788e-002
      7.38208415e-004 -2.62396969e-003</_>
    <_>
      -1.00938240e-002 -6.78485166e-003 -9.51006636e-003
      -9.96463560e-003 -6.95646834e-003 -1.60604175e-002
      -9.13638854e-004 -5.58489515e-003 -2.94464338e-003
      -1.06076756e-002 -1.04979118e-002 -3.38875194e-004 3.78415314e-003
      3.01251374e-003 1.25624379e-002 -9.92320012e-003 9.02400119e-004</_>
    <_>
      8.95570556e-004 1.81321625e-003 -2.95502692e-003 -3.33699514e-003
      -2.33882479e-003 -1.11722797e-002 1.96851557e-003 -6.87535666e-003
      4.11790330e-004 -3.48550407e-003 -1.30453631e-002 -1.05607091e-002
      -1.32023182e-003 3.48756136e-003 -6.60803029e-003 -7.46504962e-003
      -1.58125032e-002</_>
    <_>
      -2.04805488e-004 -4.97052679e-004 -7.76004919e-004
      -1.23374257e-003 -7.10690627e-004 -1.53581402e-003 4.43160941e-004
      -1.37741573e-003 4.99825808e-004 -1.02176459e-003 -4.18498414e-003
      -8.26618355e-003 -4.89333645e-003 -6.57029962e-003
      -2.60686222e-003 -3.56157008e-003 -2.65159062e-003</_>
    <_>
      -1.18753384e-003 -4.29400156e-004 -6.48966699e-004
      -1.63674331e-003 -2.68732576e-004 -2.21929606e-003
      -4.85399796e-004 -1.53073575e-003 -1.52675388e-003
      -3.38325067e-003 -8.78764875e-003 -2.03934661e-003
      -5.85068017e-003 4.04737395e-004 -1.94901379e-003 -9.23570804e-003
      4.07076906e-004</_>
    <_>
      -1.09698134e-003 -1.78026536e-003 -1.04982557e-003
      -7.76538684e-004 -4.72904176e-005 -1.07375113e-003 6.07463357e-004
      -1.50918233e-004 -1.15916168e-003 -6.76826632e-004
      -4.86960215e-003 -7.64890015e-003 -2.47730291e-003
      -3.65444017e-003 -4.47132275e-004 -1.04657630e-003
      -1.51772448e-003</_>
    <_>
      2.05241749e-003 -9.99017735e-004 -1.50416861e-003 -2.75644031e-003
      -3.16055678e-003 -8.71303771e-003 -2.45105766e-004
      -3.74455657e-003 1.10925490e-003 -5.87078801e-004 -1.41433533e-002
      -7.71121634e-003 2.69445038e-004 2.76423292e-003 -6.85069896e-003
      3.14852083e-003 -6.86725834e-003</_>
    <_>
      3.48357810e-003 4.24299203e-003 -2.42645200e-003 -7.78374681e-003
      7.28238316e-004 -7.76201906e-003 5.10205755e-005 -3.10336263e-003
      2.46711727e-003 -2.41482724e-003 -1.48365228e-002 -5.24560967e-003
      -4.72277170e-003 -1.95112941e-003 5.58746839e-003 -1.41865751e-002
      -2.93878978e-003</_>
    <_>
      3.12697235e-003 -1.67410774e-003 2.81539309e-004 -9.89835430e-003
      1.53878168e-003 -1.25420354e-002 7.99029972e-003 -3.09638632e-003
      6.16724929e-003 -6.20975858e-003 -9.94456001e-003 -1.43006640e-002
      1.72428470e-002 -6.73749577e-003 9.37172212e-003 -1.04189757e-002
      2.63615488e-003</_>
    <_>
      -1.73909357e-003 -2.05900893e-003 -8.88107985e-004
      -1.06616679e-003 -2.94286292e-004 -1.19085831e-003
      -6.98453514e-004 -1.53537781e-003 -1.20168354e-003
      -1.82566373e-003 -6.45710668e-003 -4.66750702e-003
      -1.74817059e-003 -1.13548373e-003 -4.23873716e-004
      -2.93312152e-003 -1.92058913e-003</_>
    <_>
      1.35278224e-003 -8.80078471e-004 -1.26994972e-003 -2.15509278e-003
      -3.44590921e-006 -2.80083134e-003 1.76829298e-003 -7.25244521e-004
      3.49924271e-003 1.41064738e-004 -7.87215773e-003 4.94936993e-003
      9.94941592e-003 5.82865300e-003 7.98054226e-003 9.68339760e-003
      3.45929759e-003</_>
    <_>
      1.68543623e-003 9.02779633e-004 -5.92633942e-003 -9.47735645e-003
      -4.70296619e-003 -1.70092452e-002 -1.93984318e-003
      -9.84289683e-003 -1.63436960e-003 -9.24263243e-003
      -1.55086285e-002 9.11709270e-004 -3.05517367e-003 3.01403739e-003
      -2.32431293e-003 -9.85945947e-003 -5.90494554e-003</_>
    <_>
      6.16720121e-004 2.29249266e-003 -5.24640549e-003 -7.45156221e-003
      -4.80374834e-003 -1.11035220e-002 2.98398081e-003 -4.15080972e-003
      3.71148344e-003 -1.66447309e-003 -1.74039192e-002 -1.07325148e-002
      8.79314356e-003 -8.29892606e-003 -2.82881642e-003 1.13772014e-002
      1.02806697e-002</_>
    <_>
      -9.54458374e-004 -4.79072653e-004 -1.28142734e-003
      -2.28810683e-003 -9.92857269e-004 -3.04799224e-003
      -5.75104146e-004 -1.88575033e-003 -1.20852946e-003
      -2.14144867e-003 -5.49407862e-003 -8.47482029e-003
      -2.13100994e-003 -4.55406494e-003 4.31083230e-004 -6.03546528e-003
      -2.73310649e-003</_>
    <_>
      -1.43501710e-003 2.37454544e-003 5.94080921e-005 -4.54670237e-003
      5.92838391e-004 -8.92318971e-003 6.11760654e-003 -5.42135630e-003
      5.48449578e-003 -2.39204988e-003 -1.48611376e-002 -1.35902492e-002
      -2.26428779e-003 -3.78630031e-003 -4.95903753e-003
      -1.12870317e-002 -9.46838502e-003</_>
    <_>
      -2.85149598e-003 -2.76642968e-003 -1.88107765e-003
      -3.28915194e-003 -1.78986415e-003 -3.35808098e-003 2.04458577e-003
      -3.72971944e-003 9.67797881e-004 -4.87826345e-003 -1.17164571e-002
      -8.12500250e-003 2.10694643e-003 -7.26506580e-003 -2.32628337e-003
      -6.17196830e-003 -4.42675827e-003</_>
    <_>
      3.04262107e-003 5.32703567e-003 3.69351031e-003 -2.77667283e-003
      4.92357370e-003 -5.42324595e-003 7.97467027e-003 3.90599482e-004
      9.08059999e-003 -1.73789763e-003 7.97246676e-003 -2.16028187e-002
      -1.40343548e-003 4.47386410e-003 8.77546333e-003 -2.83594546e-003
      1.62733514e-002</_>
    <_>
      -5.03993244e-004 -8.00921465e-004 -2.11300794e-003
      -2.72370037e-003 -8.50095821e-004 -2.48670788e-003 3.12984223e-004
      -1.34069333e-003 1.68331200e-004 -1.58366899e-003 -7.87169859e-003
      -7.99292047e-003 -7.66477548e-004 -4.49136598e-003
      -1.19291339e-003 -5.20655327e-003 -1.38599426e-003</_>
    <_>
      -3.46663781e-003 -3.11432453e-003 -4.01713514e-005
      -1.22911728e-003 -1.30087906e-003 -5.51257748e-003 1.08618825e-003
      -3.46742035e-003 -1.26110727e-003 -2.90400907e-003
      -2.87235016e-003 -1.67652611e-002 4.24057432e-003 6.82420284e-003
      6.61753060e-004 -4.59970208e-003 -6.55073952e-003</_>
    <_>
      -1.48345232e-002 -7.70689361e-003 -3.13873682e-003
      -5.78248501e-003 -4.91944433e-004 -1.56263709e-002 4.08418928e-005
      -7.54783815e-003 -4.78559267e-003 -1.05138030e-002
      -1.38910031e-002 5.75933093e-003 -8.96642823e-003 1.27835143e-002
      -2.68072356e-003 -1.24958009e-002 1.33369043e-002</_>
    <_>
      -1.77629280e-003 -1.32267561e-003 -8.14325467e-004
      -1.63853727e-003 -1.31888222e-003 -2.62849429e-003
      -9.50465852e-004 -2.05941079e-003 -1.65345124e-003
      -1.98191684e-003 -6.19001500e-003 -6.96701650e-003
      -2.25744909e-003 -1.03538099e-003 2.07633086e-004 -5.25723724e-003
      -2.37193494e-003</_>
    <_>
      -9.87140648e-003 -7.00747920e-003 -4.21872223e-003
      -4.04546410e-003 -3.87983513e-003 -7.84876011e-003
      -5.05847711e-005 -4.72878944e-003 -1.43022521e-003
      -6.75887428e-003 -8.07707757e-003 -1.52491527e-002 1.95049460e-003
      -4.78528254e-003 -3.06583242e-005 -1.16497101e-002
      -4.76937927e-003</_>
    <_>
      -1.87827775e-003 5.60232392e-003 -5.35592204e-003 -1.78289190e-002
      -6.84419554e-003 -3.03467568e-002 3.35933873e-004 -1.78270303e-002
      -3.38863669e-004 -1.13209002e-002 6.68260828e-003 -2.12120973e-002
      -2.45245639e-003 1.50841465e-002 4.35137143e-003 -1.29658338e-002
      1.88493723e-004</_>
    <_>
      -2.51456583e-003 -3.89672280e-003 -2.20743706e-003
      -2.50701117e-003 -1.58510753e-003 -5.22114104e-003 1.73704035e-003
      -2.46838364e-003 4.11399407e-004 -1.74957083e-003 -3.58784664e-003
      -1.68564171e-002 -1.61575584e-003 3.40216589e-004 -2.09694030e-003
      -8.52830149e-003 -5.76908235e-003</_>
    <_>
      -7.42165023e-004 -4.10590263e-004 -9.34979704e-004
      -1.25473866e-003 -8.49595875e-004 -1.23770873e-003
      -2.59005756e-004 -9.38755984e-004 -4.86931182e-004
      -1.12092600e-003 -7.29596009e-003 1.40486707e-004 -1.24241563e-003
      -2.14159442e-003 -1.67643186e-003 -2.35429499e-003
      -1.36115425e-003</_>
    <_>
      -1.09648211e-002 -8.15531518e-003 -6.79481588e-003
      -9.62442067e-003 -3.39051895e-003 -1.63052995e-002 5.67835523e-004
      -9.85454489e-003 -1.50141050e-003 -7.07336329e-003
      -1.69650074e-002 5.77547541e-003 5.50636603e-003 -1.45251839e-003
      -2.25705025e-003 -4.35887882e-003 -8.12130049e-003</_>
    <_>
      -7.71214673e-003 -3.00323404e-003 -5.61312959e-003
      -6.28404878e-003 -3.11166188e-003 -1.37665095e-002 2.70601595e-003
      -6.48136996e-003 2.22200970e-003 -5.17458376e-003 -1.45587148e-002
      -9.98795312e-003 1.03808958e-002 -4.39483626e-003 -4.27691080e-003
      6.62985910e-003 -1.10957250e-002</_>
    <_>
      -1.28267985e-003 4.94361913e-004 -1.61676994e-003 -2.82985810e-003
      -1.35628309e-003 -3.92686063e-003 5.29729412e-004 -2.32362724e-003
      -7.05828570e-005 -1.57918362e-003 -1.14909150e-002
      -4.44647856e-003 -5.38953301e-003 -2.81351781e-003
      -1.84774376e-003 -2.82550673e-003 -3.43536213e-003</_>
    <_>
      -1.67866913e-003 -4.70341183e-004 -1.40484702e-003
      -2.50496482e-003 -7.20018172e-004 -2.73676706e-003 5.50543373e-005
      -1.42561772e-003 1.09881046e-004 -1.61093217e-003 -9.32976324e-003
      -2.08315803e-004 1.00679572e-004 -4.69584623e-003 -1.08190801e-003
      -2.85472861e-003 -2.87913298e-003</_>
    <_>
      -1.58591976e-003 -2.23088078e-003 -9.17984173e-004
      -1.51998713e-003 -1.23101624e-003 -3.56062525e-003
      -2.77300918e-004 -2.26930436e-003 -8.98374477e-004
      -1.54366717e-003 -8.56510736e-003 -3.55931115e-003
      -2.69469153e-003 -1.77446811e-003 -1.81037071e-003
      -4.27243905e-003 -3.96518828e-003</_>
    <_>
      1.33469040e-002 7.54914340e-003 2.68572685e-003 -9.08124447e-003
      7.00902706e-003 -9.41929175e-004 1.07646827e-002 -7.26118311e-003
      1.53509555e-002 -1.09427422e-003 -1.18233077e-003 1.05799213e-002
      -9.43568349e-003 4.47142869e-003 1.36495288e-003 8.65447428e-003
      2.36559827e-002</_>
    <_>
      -5.30987931e-003 -4.54691099e-003 -6.33075135e-003
      -7.12994486e-003 3.82588268e-003 -1.12703862e-002 1.66099146e-002
      -6.98931701e-003 1.17662624e-002 -3.66376899e-003 2.67068460e-003
      -1.18008340e-002 2.39584669e-002 -9.21249390e-003 7.69622449e-004
      -1.23858294e-002 1.72166713e-002</_>
    <_>
      -1.32168934e-003 -4.16455267e-004 -4.42788703e-003
      -4.94643673e-003 -1.79496338e-003 -7.71766063e-003 2.26279348e-003
      -5.77659626e-003 4.41473955e-003 -7.07528880e-003 -8.98703933e-003
      1.04434062e-002 1.28207300e-002 7.13178096e-003 1.00172218e-002
      6.12428645e-003 1.27476547e-002</_>
    <_>
      3.18928226e-003 4.63411910e-003 -4.60612308e-003 -8.16776231e-003
      -5.48642594e-004 -8.15757457e-003 5.73123619e-003 -8.86839628e-003
      3.70342331e-003 -4.57371771e-003 -1.01779662e-002 -2.51326477e-004
      2.53388621e-002 5.44636836e-003 1.35922451e-002 1.08115552e-002
      3.08913086e-003</_>
    <_>
      -1.85678042e-002 2.25818735e-002 6.67050073e-004 -3.29519319e-003
      -6.01604255e-003 -3.48155163e-002 1.06102685e-002 -8.91383085e-003
      -4.25086962e-003 -8.35178327e-003 -6.78731594e-003 3.97101324e-003
      1.42994346e-002 1.21914353e-002 -1.10307898e-004 -2.39618253e-002
      4.78432421e-003</_>
    <_>
      1.01187751e-002 1.07627269e-002 -3.23567815e-006 1.55743025e-003
      1.61586097e-004 -4.94123856e-003 7.10709859e-003 -1.53698947e-003
      9.91244055e-003 -3.63993063e-003 1.18454639e-002 -9.04450659e-003
      1.58080063e-003 -1.31073128e-002 8.50015972e-003 -1.28218010e-002
      1.38602136e-002</_>
    <_>
      4.28446056e-003 -1.17159914e-003 4.84727928e-003 -1.07036708e-002
      4.18279739e-003 -2.87001468e-002 1.91201456e-002 -1.21372240e-002
      2.27681920e-002 -6.61745481e-003 -3.23893758e-003 1.29708946e-002
      4.10173525e-005 -8.42734240e-003 6.30992046e-003 -1.68095939e-002
      2.48879679e-002</_>
    <_>
      7.63295079e-003 1.13281105e-002 -1.02401730e-002 -1.24273989e-002
      -1.54301664e-003 -3.41228098e-002 7.12721562e-003 -2.31563188e-002
      1.79132205e-002 7.69083563e-004 5.39167412e-003 -1.69720352e-002
      -2.73604430e-002 1.33273127e-002 9.79611930e-003 1.25604924e-002
      2.55824495e-002</_>
    <_>
      1.06101611e-003 -2.09182338e-003 -3.26188421e-003 -3.87814525e-003
      -7.41806952e-003 -1.08590201e-002 -3.57151800e-003
      -7.56879756e-003 -9.44891130e-004 -4.21830593e-003
      -6.60153059e-003 2.03128392e-003 1.86820459e-002 1.79597642e-002
      1.36596886e-002 -2.90194200e-003 -1.01817095e-005</_>
    <_>
      -1.30285116e-004 1.58439169e-003 -3.98466969e-003 -6.39138976e-003
      5.80777007e-004 -2.49571260e-003 1.62093050e-003 -1.93456316e-003
      2.81964871e-003 -5.09311166e-003 -1.05142659e-002 -3.83072067e-004
      2.27575116e-002 -7.79534597e-003 2.03103442e-002 -5.60107687e-003
      3.58005939e-003</_>
    <_>
      -1.79000999e-004 -4.21286607e-003 -4.12577251e-003
      -5.08634839e-003 9.42129758e-004 -3.98879871e-003 3.47743626e-003
      -1.35426840e-003 3.40037281e-003 2.49343779e-004 2.26282165e-003
      -4.09081625e-003 1.37634911e-002 -1.01439832e-002 9.36570577e-003
      -1.45048765e-003 1.21347252e-002</_>
    <_>
      1.48002594e-003 2.22615851e-003 1.44250644e-003 -4.19290364e-003
      2.34373542e-003 -4.83748503e-003 5.94483269e-003 1.21496705e-004
      9.72338580e-003 -1.30336010e-003 2.39755827e-004 -1.31969191e-002
      7.88853411e-003 1.20008700e-002 1.27735306e-002 2.85217143e-003
      1.95983369e-002</_>
    <_>
      3.11408076e-003 6.16665115e-004 3.04794637e-004 -2.13352428e-003
      1.95013068e-003 -5.18799620e-003 5.60300006e-003 -4.58435062e-003
      5.62959956e-003 6.84177619e-004 -5.61241200e-003 -3.96361481e-003
      1.96388047e-002 -7.68186816e-004 1.42463921e-002 1.05581777e-002
      1.57277435e-002</_>
    <_>
      -6.22261490e-004 1.93398737e-003 1.42808119e-003 -8.80442036e-004
      2.17425660e-003 -1.57183199e-003 3.73260793e-003 -6.18553662e-004
      2.76146154e-003 -3.01922439e-003 2.88676284e-003 -8.23923294e-003
      9.08397790e-003 3.40677216e-003 1.60820857e-002 -3.95515654e-003
      7.25475093e-003</_>
    <_>
      -2.93578580e-003 -1.19262235e-003 -2.56765896e-004
      -2.01446936e-003 6.65397965e-004 -3.24748550e-003 6.07172042e-005
      -2.07970873e-003 -9.80878482e-004 -3.32247792e-003
      -6.59396779e-003 -1.11618768e-002 -7.62650743e-004 5.83694689e-003
      4.54677129e-003 -4.71234787e-003 -6.71613635e-003</_>
    <_>
      1.15509592e-002 7.26553751e-003 6.73800753e-003 6.14520488e-003
      5.12506021e-003 1.12390891e-003 4.23614122e-003 -2.89288163e-003
      4.46339743e-003 6.51806407e-003 -2.84236879e-003 -9.90659837e-003
      -1.62067020e-003 8.52038618e-003 -1.33650964e-002 3.78145371e-003
      -1.96547639e-002</_>
    <_>
      9.68822569e-004 1.13295892e-003 6.95011404e-004 2.95322650e-004
      1.32655941e-005 5.12023398e-005 -6.16313919e-005 -3.47713038e-004
      6.50508795e-004 6.09091891e-004 5.67511772e-004 -5.12759434e-003
      -5.65880444e-003 -6.70297584e-003 -7.21136713e-003
      -1.87774899e-003 -2.02580611e-003</_>
    <_>
      5.78515930e-004 1.00199366e-003 2.14004074e-003 1.40770702e-004
      1.86677638e-003 5.44333889e-004 -7.82396994e-004 -2.59182241e-004
      -1.24952116e-003 -1.80368486e-003 -9.10879765e-003
      -2.49420502e-003 -1.07356599e-002 -1.71445473e-003
      -1.02787120e-002 -1.05082141e-002 9.35465796e-004</_>
    <_>
      7.06898427e-005 -3.18334613e-004 4.63760844e-005 5.96463389e-004
      8.66964052e-004 5.01534436e-004 5.93997480e-004 5.13813982e-004
      -1.85230840e-003 3.76480864e-004 -4.55547217e-003 -8.27284250e-003
      -5.98618155e-003 -5.19037619e-003 -4.33762139e-003
      -2.11075973e-003 -2.68112007e-003</_>
    <_>
      8.14486202e-003 2.85862410e-003 3.96893593e-003 2.02342262e-003
      7.38844665e-006 -2.86874012e-003 -6.86799176e-005 -1.59230991e-003
      2.44946824e-003 4.25920309e-003 -1.09984493e-002 -5.16347447e-003
      -4.29201842e-004 6.23844704e-003 -1.38456766e-002 6.33171154e-003
      -1.02680065e-002</_>
    <_>
      2.09935289e-002 1.51004968e-002 8.25578254e-003 -3.48653528e-003
      1.19709717e-002 4.15433664e-003 2.97148083e-003 1.60192593e-003
      1.10349357e-002 1.03515368e-002 -1.06021101e-002 -6.98503479e-003
      -9.64187086e-003 -5.10843005e-004 3.86621291e-003 -7.96581805e-003
      -4.22901101e-003</_>
    <_>
      2.27996595e-002 1.08152153e-002 1.62354950e-002 2.47825054e-003
      1.49138747e-002 7.91707635e-003 1.22791911e-002 3.36234295e-003
      1.09526077e-002 5.21576777e-003 -3.75299691e-003 -7.14310724e-003
      1.39061483e-002 -3.31119401e-003 -2.57719355e-003 -1.01668555e-002
      2.36037117e-003</_>
    <_>
      -1.27976481e-003 -2.33396026e-003 -7.24446654e-005
      -3.60016944e-004 6.01084204e-004 4.49040817e-004 -9.97434254e-004
      -1.76020805e-003 -1.62877503e-003 -1.56868540e-003
      -8.64720158e-003 -6.14847848e-003 -3.00763478e-003
      -1.48733624e-003 -2.06210511e-003 -3.71437380e-003
      -3.32666445e-003</_>
    <_>
      3.30061466e-003 1.35819754e-003 1.73685944e-003 1.02147681e-003
      1.77363399e-003 1.39637652e-003 1.88282039e-003 1.71932182e-003
      3.98360565e-003 3.50187719e-003 8.33848142e-004 4.17333236e-003
      8.54142010e-003 4.19923849e-003 1.68010616e-003 1.25875194e-002
      2.88396887e-003</_>
    <_>
      3.83422226e-002 1.92162804e-002 1.26547571e-002 -1.47151377e-003
      1.10650649e-002 -1.13710510e-002 -2.56840605e-003 -1.67654827e-002
      4.56780894e-003 2.54229666e-003 -2.22387398e-003 -8.36565811e-003
      -1.42075866e-002 1.61835551e-002 -2.09194310e-002 1.44791119e-002
      -2.21702978e-002</_>
    <_>
      9.60121211e-003 1.14006773e-002 4.06055432e-003 9.88435233e-004
      2.15753843e-003 1.06702582e-003 2.86568771e-003 1.88252248e-003
      3.52269248e-003 4.33443254e-003 1.87068689e-003 7.53896916e-003
      7.52017461e-003 -6.68623531e-003 -1.21825254e-002 8.91093165e-003
      1.10063693e-002</_>
    <_>
      2.18573376e-003 2.15887069e-003 1.30390725e-003 -6.34194526e-004
      7.97384651e-004 -3.47351393e-004 -8.60913424e-004 -1.90823537e-003
      -1.48431829e-003 -6.52770977e-004 -5.37955714e-003
      -1.30893569e-002 -5.39529417e-003 -6.71463460e-003
      -1.12493499e-003 -9.28085670e-003 -5.70249930e-003</_>
    <_>
      4.78293281e-003 7.53726065e-003 6.96117431e-003 2.09519034e-003
      4.67495527e-003 -3.22418840e-004 4.92911227e-003 -3.19883751e-004
      6.66755205e-003 5.11277607e-003 6.88658503e-004 9.36962533e-006
      -2.80752964e-003 -5.87014342e-003 -2.13009082e-002
      -2.14192225e-003 -7.21437111e-003</_>
    <_>
      -3.03982932e-004 1.15391612e-003 1.87548145e-003 -1.77319034e-005
      -3.23373883e-004 4.35164566e-006 1.40030356e-003 -1.89897872e-003
      2.18987279e-003 -1.31310837e-003 -1.33129291e-003 -4.48587257e-003
      -1.95856948e-004 -1.24057522e-002 -1.76308397e-002
      -2.51993979e-003 -4.68409946e-003</_>
    <_>
      6.26204023e-003 8.65883753e-003 6.90479437e-003 3.69036384e-003
      5.56770107e-003 4.16009268e-003 5.25115151e-003 3.56923486e-003
      6.06317725e-003 4.87176096e-003 1.23028895e-002 -3.67834396e-003
      -1.96089502e-003 7.25255115e-004 -7.01890746e-003 3.43825109e-003
      8.09903909e-003</_>
    <_>
      1.61101832e-003 1.61839335e-003 -6.33416581e-004 -1.58017920e-003
      7.75004955e-005 -8.74714227e-004 -1.46429709e-004 -4.81276918e-004
      7.54375593e-004 3.98845528e-004 -5.04903076e-003 -8.74081720e-003
      -3.39684193e-003 -8.13979842e-003 -9.79456771e-003
      -5.81680331e-003 -1.71248429e-003</_>
    <_>
      2.67829164e-003 4.41311486e-003 7.49021722e-003 5.49873756e-003
      2.81486078e-003 2.19778554e-003 3.44468351e-003 -2.19067582e-003
      -3.56970180e-004 2.80258758e-003 1.34893542e-003 -1.89288538e-002
      5.15983114e-003 9.49814729e-003 -1.22603839e-002 -2.40155193e-003
      -1.51057485e-002</_>
    <_>
      -6.23894669e-003 -4.33971034e-003 1.09643079e-002 6.17842749e-003
      9.88554582e-003 1.92797498e-003 1.53822708e-004 9.58182965e-004
      1.68817700e-003 6.21128595e-003 2.84401095e-003 1.88604550e-004
      -1.51341287e-002 6.49780082e-003 -3.22783254e-002 4.48649237e-003
      1.52626671e-002</_>
    <_>
      -5.77771512e-004 -5.24762261e-004 1.10093644e-003 -4.81197902e-004
      -5.72609948e-004 -8.74920108e-004 -1.42000138e-003
      -2.51467992e-003 -2.34691380e-003 -1.01780274e-003
      -8.51627346e-003 -1.12106893e-002 -4.52186633e-003
      -1.32572395e-003 -1.38299901e-003 -6.98817195e-003
      -4.79976228e-003</_>
    <_>
      5.82672190e-004 7.38473237e-003 7.16918102e-003 6.45305170e-003
      1.18677015e-003 4.56790440e-003 -6.29668299e-004 2.57919164e-004
      -4.49924817e-004 1.23768882e-003 2.01191735e-002 -1.31266396e-002
      5.39907301e-003 -4.96832607e-003 -2.28159335e-002 -8.13426264e-003
      -1.39392447e-002</_>
    <_>
      1.68245714e-002 1.47957308e-002 1.35739269e-002 4.66856261e-004
      9.49555356e-003 3.53660900e-003 2.34912545e-003 -6.37945719e-003
      6.42939704e-003 7.53976265e-003 2.59394627e-002 -8.50208756e-003
      -1.63570419e-002 2.19518272e-003 -2.61136219e-002 1.16452035e-002
      2.85949791e-003</_>
    <_>
      1.68148626e-003 2.22754548e-003 4.87998733e-003 3.62225948e-003
      2.40021455e-003 -9.16605408e-004 1.67536875e-003 1.12307991e-003
      2.71662162e-003 4.64621466e-003 3.41603253e-003 -1.61578432e-002
      -4.02489491e-003 1.55841024e-003 -1.62811931e-002 -9.10237525e-003
      -7.80515047e-003</_>
    <_>
      -2.97405553e-004 1.76518733e-004 -3.23571177e-004 -8.13547755e-004
      -6.81083067e-004 -7.74805725e-004 -5.85393340e-004
      -6.43267354e-004 -4.94151318e-004 -5.34207502e-004
      -7.23916898e-003 1.09827099e-003 -2.26682541e-003 -3.52053693e-003
      -5.14951535e-003 -1.86267914e-003 -1.39772554e-003</_>
    <_>
      -2.62723351e-003 -8.13122839e-003 1.77622400e-002 5.92915481e-003
      2.25768611e-002 -3.31886858e-003 1.04739796e-003 -2.01353207e-002
      -4.30811988e-003 7.40974257e-003 -2.27679033e-002 1.54591864e-002
      1.29898614e-003 1.72466896e-002 -3.33411060e-002 2.52875257e-002
      -2.44710613e-002</_>
    <_>
      3.45416111e-003 8.55732895e-003 6.70498284e-003 5.88186132e-003
      6.19943859e-003 3.11595621e-004 5.49519900e-003 -2.73327506e-003
      7.80618563e-003 6.97747618e-003 -6.58098096e-003 6.98349997e-003
      8.25531967e-003 -4.76231013e-004 -2.38486640e-002 1.75595861e-002
      -2.03871652e-002</_>
    <_>
      3.76989803e-004 2.62269960e-003 5.70302189e-004 -1.18726119e-003
      -3.47413647e-004 -2.45197816e-003 2.08482888e-004 -1.19249383e-003
      7.73875508e-004 1.26728124e-003 -7.07410602e-003 -4.30830009e-003
      -8.84669088e-003 -6.20735856e-003 -1.14362910e-002 1.15345628e-003
      -3.72040737e-003</_>
    <_>
      -6.66342734e-004 2.37517408e-004 -4.50090665e-005 -2.14051548e-003
      6.42517989e-004 -1.30071212e-003 5.25444513e-004 -1.13327545e-003
      1.24148582e-003 -1.96629815e-004 -1.32152652e-002 5.70271630e-004
      4.76650108e-004 -8.08215979e-003 -3.47801484e-003 -1.19887642e-003
      -5.14305057e-003</_>
    <_>
      -1.09282773e-004 -3.32283531e-003 1.31346215e-003 1.12924128e-004
      -2.16071257e-005 -2.41909712e-003 5.39829125e-005 -2.78619188e-003
      -5.89953386e-004 2.68209114e-004 -1.24318600e-002 -6.29948778e-003
      -5.03187487e-003 -2.07434711e-003 -4.49589407e-003
      -3.70843941e-003 -7.78283179e-003</_>
    <_>
      6.33724174e-003 6.08333433e-003 5.80813317e-003 1.48157938e-003
      5.59720909e-003 4.43957886e-003 4.01406176e-003 7.66391866e-004
      5.24360919e-003 2.52047228e-003 4.65709064e-003 9.97648295e-003
      -4.23805555e-003 -1.77870889e-003 -1.00916820e-002 7.54355732e-003
      9.55146737e-003</_>
    <_>
      5.52041503e-003 6.81194710e-003 4.95169312e-003 5.17502474e-003
      5.66328783e-003 4.63691540e-003 6.58423314e-003 1.05883111e-003
      6.07636292e-003 5.79759339e-003 1.48372063e-002 1.25543668e-003
