<?xml version="1.0"?>
<opencv_storage>
<my_svm type_id="opencv-ml-svm">
  <svm_type>C_SVC</svm_type>
  <kernel><type>LINEAR</type></kernel>
  <C>1.0000000000000001e-001</C>
  <term_criteria><epsilon>2.2204460492503131e-016</epsilon>
    <iterations>10000000</iterations></term_criteria>
  <var_all>17</var_all>
  <var_count>17</var_count>
  <class_count>50</class_count>
  <class_labels type_id="opencv-matrix">
    <rows>1</rows>
    <cols>50</cols>
    <dt>i</dt>
    <data>
      1 2 4 5 6 8 9 10 15 17 19 20 21 22 23 24 27 28 29 31 35 45 49 50
      51 52 53 55 59 63 67 72 76 85 86 105 129 143 155 160 165 168 175
      195 209 210 212 218 219 230</data></class_labels>
  <sv_total>1225</sv_total>
  <support_vectors>
    <_>
      -7.67425518e-004 -4.69747745e-003 4.74380190e-003 -5.00736898e-003
      2.00513285e-003 -3.56769143e-003 1.61802454e-003 -2.99593830e-003
      -3.22441058e-003 -9.43099207e-004 -1.60958022e-002 1.15782325e-003
      5.42100111e-004 1.42496945e-002 4.22338862e-003 -1.43139646e-003
      -1.93032753e-002</_>
    <_>
      -6.29610207e-004 -4.31949552e-003 6.84639672e-004 -3.22598289e-003
      -2.17122328e-003 -3.43123637e-003 5.59136155e-004 -4.96996148e-003
      -5.86406502e-004 -1.97426812e-003 -1.57947671e-002
      -5.16714528e-003 3.72927403e-003 6.51445519e-003 -7.70441315e-004
      -2.25840253e-003 -8.20850488e-003</_>
    <_>
      -2.23971694e-003 -3.80045339e-003 -1.66852796e-003
      -2.41728430e-003 -1.33339316e-003 -2.15453771e-003
      -2.77912011e-004 -1.65822834e-003 -2.41670175e-003
      -1.83614530e-003 -1.09558972e-002 -1.53255451e-003 1.74109242e-003
      1.17623909e-004 6.99950906e-004 -5.30563004e-004 -4.88379644e-003</_>
    <_>
      -1.06786878e-003 -6.59099547e-003 8.24964882e-005 -4.75566182e-003
      -3.33853438e-003 -5.85852051e-003 -7.86783421e-005
      -3.42499674e-003 -1.65680319e-003 -1.31028413e-003
      -1.24636507e-002 -2.34229234e-003 6.01607328e-003 3.42339464e-003
      -4.16934548e-004 3.12976609e-003 -1.54445041e-002</_>
    <_>
      -5.67477290e-003 -4.11708700e-003 1.95116817e-003 -1.23658206e-003
      -1.97864557e-003 1.78797799e-003 -4.70371777e-003 1.15834409e-003
      -6.21125149e-003 3.53032909e-003 -9.82045941e-003 1.88009981e-002
      7.38156913e-003 7.63695687e-003 -2.95901974e-003 8.60566553e-003
      -1.39693683e-002</_>
    <_>
      -3.40501801e-003 -4.02892614e-003 -1.71972136e-003
      -2.75870203e-003 -1.48734939e-003 -1.96603267e-003
      -4.17180156e-004 -8.89394723e-004 -2.49765953e-003
      -1.66211359e-003 -9.02869646e-003 3.26872757e-003 5.19931829e-003
      5.01651270e-003 9.28516686e-003 1.04700899e-004 -4.78723366e-003</_>
    <_>
      -1.30446604e-003 -2.46441946e-003 -4.70146886e-004
      -1.89797813e-003 -7.50141975e-004 -1.90888147e-003 9.43509105e-004
      -1.64786726e-003 -1.03107723e-003 1.60736396e-004 -9.37829446e-003
      1.40969967e-003 6.13290025e-003 5.51568996e-003 5.08292671e-003
      4.32172604e-003 -1.09857358e-002</_>
    <_>
      -2.10486096e-003 -3.64460773e-003 -3.75343043e-005
      -3.21618305e-003 -2.40432378e-003 -3.20904609e-003 6.82327081e-004
      -1.79126137e-003 -9.71230838e-005 7.43248791e-004 -9.18223243e-003
      -1.08263819e-002 -2.10760441e-003 -9.84916557e-003
      -1.85692601e-003 2.76947580e-003 -1.31703541e-002</_>
    <_>
      -2.31790682e-003 -2.43402575e-003 4.44129138e-004 -2.04237294e-003
      -1.33917216e-004 -1.45769550e-003 -3.83331935e-004
      -8.86006630e-004 -2.72515323e-003 -2.41204794e-003
      -1.30918520e-002 3.73790413e-003 2.48493569e-004 6.98262965e-003
      4.75203712e-003 -4.71394695e-003 -3.26477340e-003</_>
    <_>
      -2.39797402e-003 -3.31641897e-003 -1.00823084e-003
      -1.12237071e-003 -2.21299430e-004 -7.68390484e-004 8.99512786e-004
      4.66172962e-004 -1.81736436e-003 4.96461405e-004 -6.51241560e-003
      -7.91314151e-003 1.08090555e-003 -3.27305985e-003 1.73067779e-003
      2.55726208e-003 -4.05262178e-003</_>
    <_>
      7.86305580e-004 -1.70941360e-003 6.43197389e-004 -9.00415704e-004
      -1.58081250e-003 -2.50640162e-003 -4.66538069e-004
      -1.78951421e-003 -9.04307875e-004 3.57263372e-004 -1.12669710e-002
      2.99019716e-003 1.87504152e-003 6.22373726e-003 5.29601064e-004
      3.12976656e-003 -7.74302566e-003</_>
    <_>
      1.51096017e-003 -4.07696381e-004 4.43885801e-005 -7.21513201e-003
      2.24400108e-004 -3.60148679e-003 1.12065824e-003 -5.88252617e-004
      1.19705300e-003 3.65473493e-003 -1.78152099e-002 3.37156770e-003
      2.57139537e-003 5.39799221e-003 6.33368781e-003 1.82873337e-003
      -7.32099917e-003</_>
    <_>
      -3.33340868e-004 -2.88298191e-003 1.20311324e-003 -2.75355880e-003
      6.38699159e-004 -6.85502717e-004 1.84556900e-003 -6.28913171e-004
      1.33989015e-004 -3.55590746e-004 -9.75168310e-003 7.69372622e-004
      9.59020201e-003 4.30176267e-003 9.99033358e-003 1.27482566e-003
      -4.99849068e-003</_>
    <_>
      -1.64370972e-003 -2.84059509e-003 -6.86770014e-004
      -1.21330225e-003 -2.44790979e-004 -5.26109303e-004
      -5.25526470e-004 -1.47661206e-003 -1.82861579e-003
      -1.54987338e-003 -8.39759130e-003 5.55170060e-004 2.28718901e-003
      2.30343477e-003 4.64266026e-003 -3.39104387e-004 -4.49508755e-003</_>
    <_>
      -1.24094513e-004 -7.30662956e-004 1.13654940e-004 -5.33753890e-004
      3.36024168e-005 4.58023278e-005 3.11552198e-004 -4.35597794e-005
      4.54717083e-004 4.83171112e-004 -4.20421455e-003 4.16161399e-003
      4.85394383e-003 4.88560880e-003 5.17902058e-003 3.89082520e-003
      -1.06751069e-003</_>
    <_>
      -1.59849631e-004 -1.57581491e-003 -1.19211769e-003
      -3.10176006e-003 -1.26890629e-003 -3.03279562e-003
      -9.31513612e-004 -2.97667179e-003 -2.21941457e-003
      -1.42869505e-003 -1.03280777e-002 6.74852962e-003 3.14187305e-003
      5.88550558e-003 6.94446545e-003 3.05703247e-006 -7.41542364e-003</_>
    <_>
      -1.82040385e-003 -1.58360088e-003 -1.25259697e-003
      -4.78761224e-003 -3.13003967e-003 -4.88219084e-003
      -3.28706752e-004 -9.42047976e-004 -2.15594401e-003 2.37087859e-003
      -1.33294649e-002 7.85052031e-003 1.28847789e-002 5.58171328e-003
      2.63299793e-003 1.32545559e-002 -3.65857547e-003</_>
    <_>
      -1.42857386e-003 -2.11982429e-003 -4.77303489e-004
      -2.43191025e-003 -1.03630486e-003 -2.18102429e-003
      -4.82316187e-004 -1.87860965e-003 -2.55297311e-003
      -1.64838659e-003 -1.00556035e-002 -5.32266777e-003 1.89082802e-003
      4.67993290e-004 5.89634432e-003 -3.58754862e-003 -6.59070350e-003</_>
    <_>
      -5.86656295e-003 -2.95395288e-003 2.05524522e-003 -5.69011178e-003
      -1.24368060e-004 -5.95150469e-003 4.19216137e-003 -3.11725610e-003
      1.24517479e-003 1.92715076e-003 -1.58406496e-002 1.07633253e-003
      6.87792711e-003 4.14944347e-003 1.69668067e-003 3.43390438e-003
      -2.23076008e-002</_>
    <_>
      -3.60526098e-003 -5.87151293e-003 3.54797725e-004 -2.73347972e-003
      -2.13404046e-003 -1.21892372e-003 5.71156503e-004 -4.21857927e-003
      -1.89393503e-003 -4.21141600e-003 -1.58164538e-002 5.05582849e-003
      4.74891625e-003 -1.82792905e-003 -3.26570380e-003 -3.14582861e-003
      -1.20048840e-002</_>
    <_>
      -2.69813533e-003 -1.17557542e-003 5.22243883e-003 -1.74099451e-003
      3.44325183e-003 1.24941103e-003 3.89793771e-003 7.56361987e-004
      2.12517893e-003 1.65569794e-003 -1.08227469e-002 -3.63849383e-003
      5.83544327e-003 1.60829537e-002 1.61677822e-002 3.74866743e-003
      -1.32213370e-003</_>
    <_>
      -2.04347260e-003 -3.70032224e-003 -2.12289277e-003
      -4.74083889e-003 -1.61596294e-003 -3.20672244e-003
      -3.79956036e-004 -1.59097475e-003 -5.65751747e-004
      -1.84708741e-004 -1.32752992e-002 -8.21974408e-003 3.83876916e-003
      -9.14116317e-005 3.75277968e-003 -9.38812373e-005 -6.66180812e-003</_>
    <_>
      -5.14083821e-003 -5.48103824e-003 2.18736124e-004 -2.35455018e-003
      -1.54830015e-003 -2.21269601e-003 7.71788822e-004 -2.01403163e-003
      -2.43704533e-003 -8.50616139e-004 -9.91657376e-003
      -8.91458988e-003 6.67789485e-003 5.88291278e-003 4.17139381e-003
      2.15286578e-004 -8.47330410e-003</_>
    <_>
      -6.24926342e-003 -5.85239008e-003 -6.03802328e-005
      -2.56607030e-003 -5.62484434e-004 -2.33468087e-003
      -9.34786454e-004 -6.86341489e-004 -3.58402287e-003
      -1.23692467e-003 -1.24375671e-002 8.41148663e-003 2.97038467e-003
      9.33590531e-003 5.91232767e-003 4.21281642e-004 -4.21108911e-003</_>
    <_>
      -1.81221752e-003 -2.28485907e-003 -9.33106421e-005
      -1.41130574e-003 -1.00321695e-003 -1.33668142e-003
      -6.91872498e-004 -1.60499115e-003 -2.08067754e-003
      -1.10272528e-003 -7.76915811e-003 -3.55168758e-003 1.30539387e-003
      2.88169319e-003 5.20495279e-003 -2.15964229e-003 -4.46750550e-003</_>
    <_>
      -7.77220167e-003 -7.16713397e-003 -9.77995689e-004
      -3.28963995e-003 -3.24928993e-003 -3.95478075e-003
      -1.32176129e-003 -2.74852896e-003 -4.88579599e-003
      -3.06921126e-003 -1.07468925e-002 3.68126016e-003 9.23119020e-003
      3.49982758e-003 5.76121779e-003 -1.04220049e-003 -1.28563866e-002</_>
    <_>
      -3.20571312e-003 -4.27000411e-003 -1.13745558e-003
      -6.03833003e-003 -1.70740986e-003 -3.15592112e-003
      -6.15171331e-004 -3.24614393e-003 -3.82963335e-003
      -1.89727871e-003 -1.57930516e-002 4.19621356e-003 4.72909492e-003
      6.13499340e-003 9.76474583e-003 7.77026406e-004 -9.53088794e-003</_>
    <_>
      -6.46585319e-003 -8.92970152e-003 -1.84836972e-003
      -4.87386528e-003 -3.01302481e-003 -4.77839028e-003 8.42668000e-004
      -1.44291378e-003 -3.28244548e-003 1.31034307e-004 -9.80041735e-003
      -3.92849324e-003 6.31139707e-003 6.65632170e-003 2.25271191e-003
      -3.42193153e-003 -1.80833433e-002</_>
    <_>
      -1.23930559e-003 -1.00731768e-003 -8.49865610e-004
      -1.52842468e-003 -1.12406409e-003 -1.33332098e-003
      -3.77776480e-004 -7.70028273e-004 -7.70632352e-004
      -6.60688034e-004 -8.19795765e-003 2.08359840e-003 6.67860091e-004
      -1.24100468e-003 -1.11385377e-003 -4.11093759e-004
      -2.71759159e-003</_>
    <_>
      -3.63044138e-003 -4.77999821e-003 -6.28062582e-004
      -2.67679570e-003 -1.53570087e-004 -3.45036690e-003
      -1.04028685e-003 -2.49865651e-003 -1.46287074e-003
      -1.86195219e-004 -1.05056632e-002 5.03514288e-003 1.08767184e-003
      4.10549203e-003 6.60758931e-003 1.55866437e-003 -7.00445287e-003</_>
    <_>
      -5.86150214e-003 -5.85109089e-003 -1.52334035e-003
      -2.74553662e-003 -8.00878275e-004 -2.85355630e-003 7.09915039e-005
      -2.65440857e-003 -2.54397723e-003 -8.91648757e-004
      -1.17645906e-002 1.48975721e-003 6.73515862e-003 4.70509147e-003
      2.42811954e-003 4.82406747e-003 -1.07862186e-002</_>
    <_>
      -3.01528582e-003 -3.89506458e-004 -1.49721408e-003
      -4.62817913e-003 -2.64699617e-003 -5.31179644e-003 4.74493398e-004
      -1.87444920e-003 -1.63457100e-003 -5.83665678e-005
      -1.41315050e-002 9.35035117e-004 -4.72486368e-004 -1.35389913e-003
      -3.53986956e-003 3.58956610e-003 -8.50833580e-003</_>
    <_>
      -1.39308814e-003 -1.00681547e-003 -5.89379633e-004
      -1.72966730e-003 -5.26044460e-004 -1.55949523e-003 2.19528483e-005
      -1.08674204e-003 -1.63206030e-004 -6.95571536e-004
      -9.25569236e-003 2.77961697e-003 2.10483838e-003 -1.25380640e-003
      2.79126898e-003 -8.83316738e-004 -3.60764703e-003</_>
    <_>
      -1.68791576e-003 -3.37740849e-003 -3.24413268e-004
      -1.41069270e-003 -1.03913003e-003 -2.14435859e-003 7.37558148e-005
      -1.83427951e-003 -9.85009247e-004 -5.17531938e-004
      -9.36908461e-003 -7.35275855e-004 1.33802264e-003 7.68019934e-004
      9.57098207e-004 -9.75452713e-005 -5.32686897e-003</_>
    <_>
      1.37382781e-003 2.10369399e-005 2.60277488e-003 -2.88674701e-003
      1.88195519e-003 1.66155549e-003 2.42662570e-003 -1.07046391e-003
      2.41163606e-003 1.59542379e-003 -7.76242046e-003 5.59689943e-003
      4.89203865e-003 1.36572486e-002 8.54731817e-003 7.96897523e-003
      -1.71788060e-003</_>
    <_>
      -9.04733688e-003 -8.96773394e-003 -5.79807768e-003
      -1.05303619e-002 8.15857900e-004 -3.13463784e-003 6.94259442e-003
      4.08019900e-004 2.32235924e-003 8.04004446e-003 -7.02795759e-003
      9.96098854e-003 1.89854819e-002 3.28678591e-003 2.19770125e-003
      8.86452757e-003 -8.57516471e-003</_>
    <_>
      -8.52458819e-004 3.64547857e-004 -4.67065220e-005 -1.03097432e-003
      -2.94987141e-004 -8.33824335e-004 3.23093001e-004 -6.88498141e-004
      9.49682653e-005 -6.12638483e-004 -2.55436101e-003 7.00055901e-003
      7.29451841e-003 6.17613131e-003 6.14284026e-003 4.76739137e-003
      -2.31093509e-005</_>
    <_>
      -1.31224666e-003 -7.59639894e-004 -1.04362764e-004
      -1.79824908e-003 -8.24112853e-004 -1.32915238e-003 1.07737223e-003
      -1.07486651e-003 7.86090604e-005 8.74789606e-004 -3.68685625e-003
      2.69725197e-003 1.14302449e-002 5.32481214e-003 6.41573966e-003
      7.49832625e-003 -3.69816972e-003</_>
    <_>
      -5.18120220e-003 1.46088551e-003 1.47546153e-003 -8.58871907e-004
      -1.32662803e-003 -2.55874055e-003 2.20120404e-004 -9.54598538e-004
      -3.25826602e-003 9.25549481e-004 -1.02793332e-002 1.03378277e-002
      8.40182602e-003 1.01531707e-002 5.30811911e-003 1.83825067e-003
      -6.95782946e-003</_>
    <_>
      5.30744344e-003 1.57214068e-002 5.55076078e-003 -1.93723780e-003
      -9.69690084e-003 -8.41903593e-003 2.29291269e-003 -2.38332874e-003
      7.95435905e-003 2.39709346e-003 -1.54923340e-002 3.76218595e-002
      3.08963209e-002 -1.99991204e-002 6.51159696e-003 -2.09291466e-003
      -1.25720259e-002</_>
    <_>
      -5.64088020e-003 -3.50566767e-003 2.95957341e-003 -4.16372484e-003
      -6.48846035e-004 -5.93942078e-003 3.20375641e-003 -2.33003753e-003
      -6.52003393e-004 1.21152739e-003 -1.56739913e-002 1.76489130e-002
      9.92786419e-003 8.34768359e-003 1.68392621e-003 -2.25445558e-003
      -8.47239047e-003</_>
    <_>
      -3.58773069e-003 -1.48327192e-004 3.00458720e-004 -3.10366764e-003
      -1.60224806e-003 -3.84014240e-003 -2.11898331e-003
      -4.53038793e-003 -1.85193797e-003 3.32820206e-003 -1.41391428e-002
      1.37862721e-002 2.31006625e-003 1.52687067e-002 4.10045544e-003
      1.09392107e-002 -9.64952074e-003</_>
    <_>
      -7.52021209e-004 -1.27017265e-003 1.65707563e-004 -6.62296428e-004
      -1.33986596e-003 -6.40587939e-004 -9.40750062e-004
      -9.99574433e-004 -1.07764720e-003 1.79553812e-004 -4.51956596e-003
      4.84333141e-003 6.71738293e-003 7.93284830e-003 6.41009724e-003
      2.08559004e-003 -3.44874826e-003</_>
    <_>
      -1.22579921e-003 -1.46289845e-003 -1.00977326e-004
      -1.39843579e-003 2.96945393e-004 1.27443380e-003 -1.29886073e-004
      -5.31597121e-004 -8.51367367e-004 -3.23978631e-004
      -8.26096348e-003 1.67407619e-003 7.68894656e-003 2.61977687e-003
      9.35158506e-003 1.32141961e-003 -3.78526328e-003</_>
    <_>
      -1.93520542e-003 -3.70697444e-003 -9.92588117e-004
      -2.42375699e-003 4.05780709e-004 -2.97494553e-004 1.34755124e-003
      -6.27749978e-005 5.22856601e-004 1.53358467e-003 -2.43566069e-003
      4.43847524e-003 1.20997922e-002 1.67264591e-003 1.00263860e-002
      3.98375746e-003 6.78185781e-004</_>
    <_>
      -1.28914509e-003 -8.13750608e-004 1.58941944e-003 -1.16935023e-003
      6.80712750e-004 3.84011277e-004 1.38393510e-003 7.86092365e-004
      1.64540368e-003 1.19386974e-003 -3.52447969e-003 2.62761279e-003
      7.82966148e-003 1.09013282e-002 9.48632509e-003 5.61526744e-003
      5.02084848e-004</_>
    <_>
      -1.48684159e-003 -1.85247289e-003 8.32833524e-004 -7.85991724e-004
      1.94057880e-004 -1.99365633e-004 1.15431705e-003 -5.03823336e-004
      5.99795021e-004 1.66451908e-003 -3.62762879e-003 2.10914714e-003
      1.04264636e-002 5.10900281e-003 7.74275418e-003 8.49790405e-003
      -1.01692369e-003</_>
    <_>
      -1.61564886e-003 -4.95286018e-004 1.28317357e-003 -5.19466994e-004
      7.94103427e-004 5.80150809e-004 1.48021942e-003 3.76098265e-004
      5.11067687e-004 1.12390961e-004 -1.37508346e-003 -1.36965915e-004
      8.51584505e-003 5.89181064e-003 1.07285501e-002 2.74275988e-003
      -2.77547399e-004</_>
    <_>
      -1.97573029e-003 -1.69357855e-003 3.12352262e-004 -1.26300624e-003
      5.57795924e-004 -1.95478060e-004 1.16035644e-005 -7.24108191e-004
      -1.52137491e-003 -1.24323391e-003 -7.11367046e-003
      -1.57414551e-003 1.39017846e-003 5.71995834e-003 5.98996785e-003
      -1.14819861e-003 -6.56470982e-003</_>
    <_>
      2.75329035e-003 -6.99736131e-003 -5.24930470e-003 3.19646788e-004
      -1.87354628e-002 -5.05804364e-003 9.89318825e-004 -1.88817717e-002
      8.82145390e-003 -4.78824880e-003 -2.25761682e-002 -1.28932688e-002
      2.71529965e-002 2.11141016e-002 -9.60868131e-003 -5.13228495e-003
      1.09196259e-002</_>
    <_>
      -6.04633987e-003 -8.16229545e-003 -7.73975486e-003
      -3.07058776e-003 -5.43413777e-003 -3.31392954e-003
      -1.40004442e-003 -3.14452895e-003 -5.10617997e-003
      -4.27682931e-003 -1.75789502e-002 -3.10387416e-003 7.83735607e-003
      -2.39496259e-003 1.72843295e-003 3.16605996e-003 -2.74974830e-003</_>
    <_>
      1.84676296e-003 -1.28843794e-002 -9.22678784e-003 -1.90126197e-003
      -3.62159833e-002 -2.52138413e-002 -8.08325410e-003
      -1.53902713e-002 -8.25517904e-003 -9.80645791e-003
      -1.51185167e-003 -1.48817999e-002 3.25412787e-002 -2.21987860e-003
      -2.86641102e-002 4.49329102e-003 -2.09453255e-002</_>
    <_>
      -2.08352925e-003 -3.05938942e-004 1.09730945e-005 3.66474479e-003
      -1.45119196e-003 4.22536582e-003 1.17722254e-006 4.60872613e-003
      -1.96693163e-005 4.70058527e-003 6.54843822e-003 1.35735245e-002
      1.21973511e-002 1.32187619e-003 5.30124735e-003 1.05575388e-002
      5.01606287e-003</_>
    <_>
      -4.68437048e-003 -1.51510327e-003 -4.10845596e-003
      -7.43364799e-004 -3.89031833e-003 -1.22030743e-003
      -7.84618431e-004 1.42111356e-004 -2.18425645e-003 -1.77984731e-003
      -3.79846268e-003 1.02113001e-002 1.04121631e-002 4.72538406e-003
      1.46425748e-002 2.17488944e-003 3.50357010e-003</_>
    <_>
      -1.73530367e-003 1.54569757e-003 -1.58076733e-003 3.41061014e-003
      -3.42311920e-003 -1.28440605e-003 2.48397002e-003 -2.53696390e-003
      -5.37208864e-004 2.28608423e-003 -1.00962622e-002 -1.08987413e-004
      1.69718806e-002 1.40475137e-002 1.35398228e-002 1.04777338e-002
      -9.07111913e-003</_>
    <_>
      -1.00329693e-003 4.13903414e-004 -3.00797471e-003 9.84002370e-004
      -5.05641801e-003 -3.85186169e-004 6.90505840e-005 3.56767181e-004
      2.23517395e-003 2.08360027e-003 4.94059082e-003 -1.77872833e-002
      -3.16130673e-003 -2.21779272e-002 -2.20185588e-003 4.67258645e-003
      -2.06727814e-003</_>
    <_>
      -1.00805601e-002 -3.20333801e-003 -5.15394798e-003
      -1.46257400e-003 -3.99769563e-003 -1.06377265e-004
      -3.30689992e-003 2.49915669e-004 -4.19790484e-003 -5.15424646e-003
      -2.47344635e-002 1.46228485e-002 1.02111232e-003 9.03375540e-003
      9.22347885e-003 -7.19044777e-003 5.91247622e-003</_>
    <_>
      -3.35453451e-003 -2.95632798e-003 -2.02561985e-003 4.30298824e-004
      -7.01722747e-004 1.58595809e-004 1.17179926e-003 1.53803243e-003
      -2.47740559e-003 1.11925078e-003 -4.25986107e-003 -1.26113044e-002
      8.79060419e-004 -6.70198584e-003 1.29929685e-003 3.56278475e-003
      -5.85551781e-004</_>
    <_>
      4.02628258e-003 1.57540990e-003 1.29618717e-003 4.00380790e-003
      -5.46487654e-003 -4.23076563e-003 -1.53670984e-003
      -2.93469639e-003 -5.56266052e-004 2.62736832e-003 -1.52706653e-002
      6.09954121e-003 6.32060645e-003 1.54954055e-002 -1.43266981e-003
      9.72114876e-003 -4.64229845e-003</_>
    <_>
      1.00065619e-002 1.53569514e-002 -4.96399915e-003 -1.21281240e-002
      -2.99852574e-003 -2.15914962e-003 -2.99425214e-003
      -3.39548709e-003 1.10532697e-002 1.58359297e-002 -2.68436242e-002
      1.98832639e-002 -7.06613576e-003 8.82897992e-003 1.15793152e-002
      4.97635221e-003 1.31756738e-002</_>
    <_>
      1.66425167e-003 -6.06825110e-004 -1.02559708e-004 -8.45572911e-004
      1.70179439e-004 6.21462706e-004 2.37780414e-003 1.05756905e-003
      5.22529939e-004 -1.28309627e-003 -9.21381824e-003 8.92171822e-003
      1.37042040e-002 4.89948038e-003 1.27017507e-002 1.08938002e-004
      3.93902138e-003</_>
    <_>
      -3.99364810e-003 -5.18816756e-003 -2.79896799e-003
      -2.65535404e-004 -1.41448947e-003 6.26409659e-004 -2.09568487e-003
      -2.85822083e-003 -3.61040258e-003 -3.27289011e-003
      -1.22209061e-002 -2.68487405e-004 4.00774553e-003 4.86658607e-003
      8.64033774e-003 3.27009999e-004 -4.22042422e-003</_>
    <_>
      2.76172126e-004 -4.72391112e-005 -1.67081846e-004 3.05861904e-004
      -4.01267353e-005 3.87394393e-004 4.79551032e-004 5.95514604e-004
      1.00079388e-003 8.18975910e-004 -1.51458997e-004 4.28033760e-003
      5.35872113e-003 3.32910498e-003 5.03146695e-003 4.74273507e-003
      1.61004218e-003</_>
    <_>
      8.03683710e-004 7.12667417e-004 -4.10902826e-003 -2.27289554e-003
      -4.11638943e-003 -4.52261791e-003 -2.02717865e-003
      -3.27389897e-003 -1.43321778e-003 -1.23418600e-003
      -6.54317252e-003 1.72160510e-002 9.03384294e-003 6.71744160e-003
      1.22774066e-002 6.39960496e-003 -7.34679679e-006</_>
    <_>
      -3.43173015e-004 3.97942308e-003 -1.23487297e-003 9.05502529e-004
      -3.45337274e-003 -1.04879052e-003 -4.12734662e-005 1.12120016e-003
      2.29254612e-004 2.44452246e-003 2.49282736e-003 8.67600925e-003
      1.10669844e-002 9.48107161e-004 4.50695748e-004 1.33466898e-002
      1.09179802e-002</_>
    <_>
      -3.62179917e-003 -8.98571685e-004 -5.04697394e-003
      -1.78176747e-003 -5.86180575e-003 -3.13389767e-003
      -3.24783055e-003 -4.23135469e-003 -6.31228369e-003
      -4.74487431e-003 -1.24021703e-002 -1.65290479e-002 4.27755201e-003
      -4.26624576e-003 1.31733511e-002 -1.09008653e-002 -4.51774476e-003</_>
    <_>
      -3.57206464e-002 3.12413499e-002 5.49422670e-003 1.45877283e-002
      -1.97014119e-002 -2.40796879e-002 2.69744359e-002 -7.16261659e-003
      2.92383377e-002 2.25601178e-002 -4.21180390e-003 -1.30707864e-002
      4.18327563e-002 -6.15775445e-003 -1.84178855e-002 -1.58465039e-002
      -7.60536594e-003</_>
    <_>
      -1.04231983e-002 -8.14272743e-003 -7.00375298e-003 8.12897924e-003
      -1.37914503e-002 7.84370676e-003 2.00823881e-004 -1.12821870e-002
      6.06889720e-004 -1.44578610e-002 -6.46322174e-003 1.46550713e-002
      2.09659990e-002 -2.19732951e-002 -1.96603332e-002 -3.84624512e-003
      -1.82129955e-003</_>
    <_>
      -5.30246063e-004 6.50935806e-004 1.21605908e-003 1.46991888e-003
      1.39485067e-003 1.57484482e-003 2.93665356e-003 2.85390927e-003
      4.16009827e-003 2.72558117e-003 6.28731074e-003 -8.70647666e-004
      8.48917663e-003 3.15067009e-003 1.07414844e-002 8.96652974e-003
      8.66822898e-003</_>
    <_>
      -3.60146887e-003 1.84252422e-004 -1.35409487e-002 -7.73631036e-003
      -8.58846027e-003 -4.49034665e-003 -3.65765626e-003
      -1.78907858e-003 1.54718454e-003 1.32905808e-003 -2.40076873e-002
      -1.58298891e-002 1.46372085e-002 -6.75094966e-003 1.61238611e-002
      -1.36930705e-003 3.96078266e-003</_>
    <_>
      -8.64511076e-003 -2.61944789e-003 -5.97016362e-004 4.34591947e-003
      -5.36502711e-003 -1.62226509e-003 5.60584886e-004 -3.27578722e-003
      -6.49654586e-003 -2.05259747e-003 -1.03694927e-002
      -1.81450844e-002 1.10342242e-002 1.30145298e-002 9.26207658e-003
      -7.10534072e-003 -5.36187645e-003</_>
    <_>
      -1.52263436e-002 -7.76033662e-003 -4.11994057e-003 9.39846563e-004
      -4.00764868e-003 -2.59192195e-003 -3.59781226e-003 3.49978276e-004
      -3.48480279e-003 -3.02095024e-004 -1.51964528e-002 1.63447261e-002
      8.34874529e-003 8.45136680e-003 5.40924212e-003 5.06889715e-004
      1.52744288e-002</_>
    <_>
      -3.87456035e-003 -3.11444933e-003 -1.40558160e-003
      -2.59087130e-004 -3.35346535e-003 -1.51830632e-003
      -2.55471072e-003 -3.28735099e-003 -3.90657363e-003
      -2.06242129e-003 -9.02121887e-003 -9.76468995e-003 1.17522606e-003
      5.02349855e-003 9.64733772e-003 -4.09833528e-003 -3.23136221e-003</_>
    <_>
      -2.11259685e-002 -3.74699035e-003 -5.88524947e-003 5.79198077e-003
      -1.52409943e-002 -2.82133184e-003 -5.69149526e-003
      -4.01854236e-003 -1.37925753e-002 -1.00228805e-002 7.37282680e-003
      1.45471469e-002 2.70562768e-002 -6.50259852e-003 7.07998499e-003
      -5.75920101e-003 4.14903602e-003</_>
    <_>
      -1.04792351e-002 3.64519120e-003 -1.28201153e-002 -6.03749231e-003
      -1.94588453e-002 -5.52932546e-003 -9.84481070e-003
      -1.66523214e-002 -1.66738909e-002 -8.29086080e-003
      -2.18342859e-002 1.83512606e-002 9.35269054e-003 6.90963026e-003
      2.25347131e-002 4.86862147e-003 2.70829219e-002</_>
    <_>
      -1.99937895e-002 -6.69098645e-003 -4.51994780e-003 5.42260474e-003
      -1.33552607e-002 -1.80041865e-002 4.81997122e-004 -5.22122253e-003
      -4.11216775e-003 5.50233247e-003 1.12553015e-002 -3.03681009e-002
      1.23337265e-002 1.06482152e-002 -8.10410071e-004 -1.75165087e-002
      -5.49938623e-003</_>
    <_>
      -2.01863027e-003 -6.78842596e-004 -2.24389951e-003
      -1.61457469e-003 -2.46627885e-003 -1.53694034e-003
      -8.66860675e-004 -8.33610538e-004 -6.48994232e-004
      -7.51331332e-004 -1.07887546e-002 4.69004037e-003 1.84173207e-003
      -3.24767735e-003 -2.40177056e-003 5.62613306e-004 -1.58217794e-003</_>
    <_>
      -1.01803858e-002 -6.57761423e-003 -4.32206597e-003
      -9.81501420e-004 -2.02904548e-003 -5.79514960e-003
      -5.07455645e-003 -5.38631808e-003 -3.25975753e-003 2.22587119e-006
      -1.19649963e-002 1.95541214e-002 -1.96320284e-003 5.49102621e-003
      1.41873807e-002 1.14857708e-003 -8.81938555e-004</_>
    <_>
      -1.17188850e-002 -4.01813816e-003 -4.48288396e-003 2.54633697e-003
      -3.79149150e-003 -1.05096726e-003 1.22483599e-003 -2.26267846e-003
      -1.57842878e-003 5.21808804e-004 -4.80648683e-004 7.25358399e-003
      2.01745294e-002 4.94904025e-003 4.06903308e-003 1.99525952e-002
      1.66406704e-003</_>
    <_>
      -7.38951517e-003 8.08118563e-003 -9.15869325e-003 -6.21819682e-003
      -1.09109869e-002 -1.14105335e-002 3.56320117e-004 -2.02286616e-003
      -8.51014804e-004 2.26103608e-003 -2.16641277e-002 7.73341162e-003
      1.18817331e-003 -6.52327947e-003 -3.57202068e-003 1.84737612e-002
      -2.19002599e-003</_>
    <_>
      -2.32206238e-003 -1.61234293e-005 -2.18369067e-003
      -1.45564904e-003 -1.61697064e-003 -1.77421421e-003
      -3.13213648e-004 -1.46695087e-003 9.91890556e-004 -7.64418917e-004
      -1.19805522e-002 7.12006958e-003 4.57262667e-003 -4.37109591e-003
      5.51303383e-003 -6.66370965e-004 -1.62935781e-003</_>
    <_>
      -4.09081765e-003 -7.12010683e-003 -2.33734865e-003
      -8.43250134e-004 -3.76582611e-003 -3.86602338e-003
      -7.01921090e-005 -3.93787306e-003 -8.94185214e-004
      -2.34409701e-004 -1.54217351e-002 -8.17804132e-004 5.35459211e-003
      4.93761152e-004 2.49258406e-003 3.03169177e-003 -7.01751746e-003</_>
    <_>
      1.45716127e-003 7.89170095e-004 2.76584906e-004 -2.49006785e-004
      7.85841141e-004 1.54002360e-003 2.02714046e-003 1.00223173e-003
      3.57127492e-003 2.13125930e-003 3.35644069e-003 5.70481597e-003
      6.86802110e-003 3.90355778e-003 6.61238609e-003 9.96364187e-003
      5.38631715e-003</_>
    <_>
      -4.19386569e-003 3.65469023e-004 -4.02636547e-003 -1.13472086e-003
      -8.50639713e-004 1.06107385e-003 4.15159017e-003 2.10064696e-003
      3.25656659e-003 5.42719848e-003 1.03581343e-002 8.11714772e-003
      1.16641922e-002 -1.52774865e-003 -1.13098533e-003 8.15066602e-003
      1.10118706e-002</_>
    <_>
      -2.00775889e-004 4.80702962e-004 -6.16976060e-004 5.76713064e-005
      -3.83232429e-004 -2.62369023e-004 4.41143755e-004 3.00885295e-004
      9.77001502e-004 8.79643267e-005 1.92956638e-003 5.81365265e-003
      6.36226824e-003 2.20300700e-003 4.60975477e-003 5.08761080e-003
      2.71756528e-003</_>
    <_>
      6.48488494e-005 1.11683190e-003 -1.45754166e-004 5.44728478e-004
      -5.16256841e-004 2.31632985e-005 1.08231464e-003 4.18118289e-004
      7.99562433e-004 1.14377995e-003 4.47959825e-003 3.31837311e-003
      8.83547217e-003 3.02744936e-003 5.12957340e-003 6.28611911e-003
      2.43917154e-003</_>
    <_>
      -3.05434433e-003 2.94212531e-003 -3.71554517e-004 2.07901094e-003
      -1.72077911e-003 -1.12961535e-003 1.05159741e-003 1.92185189e-003
      3.52813367e-004 2.33620382e-003 1.29682210e-003 1.06276292e-002
      1.30973961e-002 3.54272453e-003 6.84602885e-003 7.05498876e-003
      3.76267312e-003</_>
    <_>
      2.01756950e-003 4.09468077e-003 -4.53264714e-004 2.74778251e-003
      -1.45615207e-003 3.81395774e-004 1.03831559e-003 2.14342470e-003
      3.31325363e-003 1.81896624e-003 1.16439546e-002 6.62357034e-003
      7.82017037e-003 -6.26119971e-003 2.47360393e-003 5.07382164e-003
      8.46843887e-003</_>
    <_>
      -4.12103720e-003 1.65254774e-003 2.08103415e-006 1.64713105e-003
      -2.21504527e-003 -3.02004907e-003 3.70881613e-003 1.66726462e-003
      3.71493958e-003 3.62095493e-003 6.77574147e-003 2.07012650e-002
      1.45702893e-002 -3.44820763e-003 1.48716135e-004 5.19623235e-003
      1.21494904e-002</_>
    <_>
      -5.01415692e-004 3.03573231e-003 -1.92106469e-003 2.11486267e-003
      -1.71649258e-003 -1.27922627e-003 -4.63554316e-004 2.87318457e-004
      2.69300095e-003 4.60910238e-003 8.47923849e-003 1.23219118e-002
      7.60926865e-003 3.45502584e-003 5.08343428e-003 1.61472168e-002
      7.29809655e-003</_>
    <_>
      -2.19206238e-004 -6.95690745e-004 -8.37466214e-004 3.98925506e-004
      -1.94507069e-003 -8.35717830e-004 -8.03133473e-004
      -1.61575750e-004 -2.68809999e-005 4.56399343e-004 1.42984558e-004
      7.03343749e-003 9.14583076e-003 4.48049279e-003 6.65592775e-003
      4.25396813e-003 7.89566489e-004</_>
    <_>
      -2.70969787e-004 9.24677704e-004 -1.58090232e-004 9.28755151e-004
      2.02975687e-004 2.87826848e-003 3.02933768e-004 7.93929212e-004
      7.19367163e-005 3.78834317e-004 -3.45100474e-004 3.76270735e-003
      1.02269035e-002 2.28521181e-003 1.12999519e-002 3.34324897e-003
      2.83571589e-003</_>
    <_>
      -2.38993758e-004 -5.84662834e-004 -6.06886111e-004 1.86500707e-004
      2.22427989e-004 5.96065249e-004 1.04343274e-003 9.30584501e-004
      9.36577562e-004 1.31380942e-003 4.63172095e-003 3.68417404e-003
      7.65042938e-003 4.71350912e-004 6.13043131e-003 3.38290632e-003
      4.52471059e-003</_>
    <_>
      -3.12102231e-004 1.65183083e-005 8.18355838e-005 3.44338827e-004
      1.43104844e-004 5.80834050e-004 1.17063185e-003 1.60247181e-003
      2.36410694e-003 1.53460656e-003 3.57242418e-003 2.24720966e-003
      7.13351835e-003 3.54187773e-003 6.41885260e-003 6.62718061e-003
      4.50071041e-003</_>
    <_>
      -6.66630804e-005 3.26355163e-004 4.02685371e-004 1.05163711e-003
      1.22833342e-004 6.61190483e-004 1.02324376e-003 7.00451725e-004
      1.03651953e-003 1.50154065e-003 3.98461474e-003 2.63057533e-003
      7.44720316e-003 2.57835584e-003 5.42706065e-003 6.32399134e-003
      3.71176424e-003</_>
    <_>
      -4.96142835e-004 3.09163152e-004 2.55003979e-004 5.82900073e-004
      4.61534073e-004 7.12553796e-004 1.10324565e-003 9.26538429e-004
      1.25153246e-003 3.61601647e-004 2.78286566e-003 1.85342680e-003
      6.94417907e-003 2.15938711e-003 8.25674087e-003 3.19683738e-003
      2.62801279e-003</_>
    <_>
      -3.53307929e-003 -1.91294879e-003 -8.11134465e-004 1.62773911e-004
      4.30640124e-004 -3.04816844e-004 -3.64512409e-004 -8.55953374e-004
      -1.43326411e-003 -1.98390405e-003 -8.02951027e-003
      -3.74302431e-003 4.48702276e-003 9.28084645e-003 1.24999546e-002
      4.73875334e-005 -6.07514055e-003</_>
    <_>
      -1.65260211e-002 -1.16532529e-002 -1.55384690e-002
      -1.75457739e-003 -2.02329713e-003 -5.48851211e-003
      -4.63658851e-003 2.96940445e-003 -2.49397364e-002 -1.01673296e-002
      -1.07563268e-002 3.24455323e-003 4.91808122e-003 -3.64315789e-003
      7.25849951e-003 1.69526860e-002 -1.01798652e-002</_>
    <_>
      -9.48488899e-003 1.11185678e-003 -1.10063248e-003 -1.10341900e-003
      -2.98800017e-003 -1.18064918e-002 -6.97459700e-003 1.32633941e-002
      -1.67615525e-002 -5.54684899e-004 1.17334742e-002 8.43664675e-005
      1.77439069e-003 -2.24292073e-002 -1.83255617e-002 2.34881826e-002
      -4.28320095e-002</_>
    <_>
      -1.41830335e-003 4.43494966e-004 7.07303407e-004 2.57890625e-003
      1.76779029e-003 3.80956032e-003 6.19427592e-004 5.39238378e-003
      -3.54419812e-004 4.32061590e-003 9.78933461e-003 6.73437677e-003
      5.58099337e-003 1.09387307e-004 6.00228878e-003 1.01239057e-002
      2.13813665e-003</_>
    <_>
      -4.59586456e-003 -3.83318169e-004 -3.34946997e-003
      -8.88963812e-004 -6.48385438e-004 -1.04174447e-004
      -7.06989260e-004 3.66634573e-003 -2.82496749e-003 2.54882674e-004
      6.78315712e-003 9.16747749e-003 6.38467539e-003 2.74052122e-003
      1.61204133e-002 7.30050681e-003 2.92578153e-003</_>
    <_>
      -2.11748970e-003 2.59841885e-003 -1.21652300e-003 1.77501817e-003
      2.93540210e-003 1.89023674e-004 3.01429024e-003 4.71168663e-003
      -2.43467977e-004 6.54591527e-003 -1.95799861e-003 -3.11502093e-003
      1.22486819e-002 4.85818554e-003 1.75257288e-002 1.87252723e-002
      -1.29373828e-002</_>
    <_>
      -1.53638446e-003 1.42773264e-003 -7.98518071e-004 6.15260913e-004
      1.26472267e-004 8.64442845e-004 1.32825560e-004 4.40477347e-003
      6.72296854e-004 3.36457323e-003 9.51860938e-003 -4.79932223e-003
      -6.64678123e-003 -1.89445317e-002 -2.57321721e-004 6.04802836e-003
      -4.80024889e-003</_>
    <_>
      -2.12699678e-002 2.72427802e-003 -4.60438011e-003 -1.00374466e-003
      7.31894886e-003 2.78871902e-003 -4.80938191e-003 1.46513609e-002
      -1.45674748e-002 -3.76718398e-003 -1.31087219e-002 2.15531103e-002
      -1.09336171e-002 -3.48910433e-003 1.85090732e-002 9.55507043e-004
      9.50224046e-003</_>
    <_>
      -2.96264654e-003 -1.74159184e-003 -1.22772006e-003 1.29842001e-003
      1.27934676e-003 9.99303767e-004 1.24624919e-003 3.15633276e-003
      -3.29480739e-003 1.77900598e-003 1.50672895e-005 -1.20579423e-002
      -2.17224425e-003 -5.25096897e-003 4.04583057e-003 7.31101958e-003
      -1.95951969e-003</_>
    <_>
      3.65797081e-003 1.80608639e-003 1.91831612e-003 4.89468314e-003
      -2.97039282e-003 -6.62192143e-003 -3.27080628e-003 2.16688844e-003
      -1.67289388e-003 7.97304884e-003 -1.71883740e-002 9.01463628e-003
      5.77095605e-004 1.38927419e-002 -1.39755802e-003 1.98451281e-002
      -1.27584720e-002</_>
    <_>
      6.88052177e-003 1.76117104e-002 -1.13767071e-003 -9.35601443e-003
      1.02634691e-002 2.30159238e-003 -3.24019510e-003 9.62237548e-003
      -1.74700297e-004 1.49468044e-002 -2.75680376e-003 1.04737757e-002
      -2.47715302e-002 -6.97331363e-003 1.32382549e-002 1.05723692e-002
      4.84889699e-003</_>
    <_>
      3.01196217e-003 9.62870894e-004 9.94457980e-004 -1.68534985e-003
      4.64463420e-003 2.40586512e-003 3.14210705e-003 6.44978695e-003
      -8.34350416e-004 6.94212038e-004 7.44596182e-004 1.28371436e-002
      1.10005969e-002 5.23823546e-003 1.81737375e-002 4.13267082e-003
      4.99292882e-003</_>
    <_>
      -7.24461256e-003 -6.93633221e-003 -3.41748353e-003 3.49351263e-004
      1.37233036e-003 1.83203048e-003 -4.05533332e-003 -1.27280783e-003
      -8.76421854e-003 -4.52799303e-003 -1.06277373e-002 2.07424571e-004
      -1.18533906e-004 6.25416730e-003 1.36794578e-002 3.28460336e-003
      -8.34174082e-003</_>
    <_>
      3.75233125e-004 2.64131726e-004 7.75612789e-005 2.84625043e-004
      5.82023058e-004 6.21935527e-004 4.81192255e-004 1.25484192e-003
      7.68614234e-004 1.16191211e-003 2.07405211e-003 4.01032297e-003
      4.10288945e-003 3.02405073e-003 4.98162257e-003 5.11278864e-003
      1.54870644e-003</_>
    <_>
      -2.31912982e-005 1.72264560e-003 -2.53748964e-003 -3.94523377e-003
      -7.08295032e-004 -4.54836385e-003 -3.25004919e-003 1.24118011e-003
      -2.17270572e-003 1.71708234e-003 1.20384700e-003 1.73933674e-002
      9.32499999e-004 8.23526923e-003 1.05907004e-002 1.65803470e-002
      -1.80453225e-003</_>
    <_>
      -4.16405528e-004 4.50246222e-003 1.12204274e-004 1.62369292e-003
      4.01108293e-004 4.97539761e-004 -6.61388476e-005 2.69788597e-003
      -6.67429820e-004 2.56323395e-003 8.51022638e-003 4.00272105e-003
      5.01278182e-003 2.88683223e-004 1.42845535e-003 1.34738293e-002
      6.42738678e-003</_>
    <_>
      -3.89713002e-003 1.07406760e-002 -1.88727467e-003 4.70349379e-003
      5.86505106e-004 -2.03951425e-003 -4.99326410e-003 1.69448752e-003
      -1.82245318e-002 -6.60934439e-003 4.11325553e-003 -1.59209222e-002
      -2.63255998e-003 -4.01356677e-003 1.71075668e-002 -1.94061976e-002
      -1.36296013e-002</_>
    <_>
      -2.35514939e-002 2.65523512e-002 1.08708879e-002 4.02507419e-003
      1.81987509e-002 -5.99805359e-003 1.25352340e-002 1.54458936e-002
      1.30845373e-003 1.55566102e-002 1.51626533e-002 5.91851678e-003
      -2.65733991e-003 -2.40433887e-002 1.79279072e-003 -9.00239684e-003
      -2.26151496e-002</_>
    <_>
      -1.24692861e-002 -1.74968422e-003 -3.01328697e-003 1.27864955e-002
      -8.81617190e-004 5.66297490e-003 1.82891800e-003 4.13004833e-004
      -8.66044872e-003 -1.15232784e-002 8.36805999e-003 1.51882097e-002
      -1.06007443e-003 -2.26538777e-002 -2.38646995e-002 7.45052332e-003
      -1.20810568e-002</_>
    <_>
      2.17295034e-004 1.69169658e-003 1.65615208e-003 1.18436152e-003
      2.43634079e-003 1.79793336e-003 1.77195156e-003 3.31076118e-003
      1.64324464e-003 2.38580909e-003 9.62225068e-003 -6.52060771e-005
      2.07611010e-003 2.80977506e-003 6.85041724e-003 5.78345312e-003
      5.39397309e-003</_>
    <_>
      -8.08684248e-003 3.04653645e-002 -2.38896478e-002 -9.14216228e-003
      5.00629842e-003 -8.23681708e-003 -1.24269677e-002 2.44452488e-002
      -2.01072805e-002 8.54266249e-003 1.57238599e-002 -6.00859383e-003
      -1.17064463e-002 -3.32186706e-002 2.24439725e-002 5.27941436e-003
      1.24563398e-002</_>
    <_>
      -1.19407577e-002 -6.21720465e-005 5.83714631e-004 5.14417514e-003
      7.59935414e-004 -3.53316614e-006 1.03274702e-004 5.06100431e-003
      -1.44763496e-002 1.17693807e-003 5.06993197e-003 -2.34627891e-002
      -2.58900132e-003 1.05631137e-002 1.73985250e-002 -6.43260032e-003
      -1.50069650e-002</_>
    <_>
      -2.93024071e-002 -5.62865427e-003 -2.62760161e-003 3.04257474e-003
      6.76024286e-003 -1.33371353e-003 -7.20087020e-003 1.02782361e-002
      -1.26315588e-002 3.38149536e-003 -2.00527930e-003 1.59713645e-002
      -1.14887776e-002 3.24135344e-003 3.13000311e-003 8.89191031e-003
      2.08991673e-002</_>
    <_>
      -5.68492338e-003 -1.19663449e-003 -1.49621501e-005 1.68115995e-003
      -1.09431951e-003 -1.25275995e-003 -4.35057748e-003
      -1.61136640e-003 -9.11915302e-003 -2.49139313e-003
      -1.60595006e-003 -1.17563773e-002 -5.32068033e-003 7.77280983e-003
      1.39512606e-002 -4.75512631e-003 -5.54993888e-003</_>
    <_>
      -1.33890519e-002 3.43604013e-003 -1.01537094e-003 5.39605832e-003
      -2.57392589e-004 1.54480757e-003 -4.13078535e-003 3.81893083e-003
      -1.14325061e-002 -3.33470688e-003 2.56832261e-002 5.89329749e-003
      3.41091654e-003 -1.06114512e-002 4.74224146e-003 9.56130214e-003
      -2.11569690e-003</_>
    <_>
      -1.09958192e-002 1.07849995e-002 -5.71024371e-003 -3.94221349e-003
      2.92648934e-003 8.52030236e-004 -8.95779952e-003 2.84580584e-003
      -2.03012042e-002 -2.20803544e-004 2.04411671e-002 5.66788949e-003
      -1.97618715e-002 -1.34711200e-002 1.99060701e-002 2.33657490e-002
      1.34545872e-002</_>
    <_>
      -1.34568475e-002 -4.33776248e-003 -9.77883581e-004 3.59872542e-003
      1.78929826e-003 -6.26229588e-003 -4.17242321e-004 1.06434086e-002
      -4.86833416e-003 8.99112504e-003 3.18007655e-002 -3.38548329e-003
      -7.52862170e-003 -2.62531429e-003 7.65736820e-003 -5.52017568e-003
      -1.70262810e-002</_>
    <_>
      -3.56268906e-003 -6.16393925e-004 -2.90992064e-003
      -1.75387785e-003 -2.16193544e-003 -2.14122422e-003
      -1.14479312e-003 5.38229186e-004 -2.06431025e-003 -6.74538373e-004
      -1.23736123e-002 7.94170052e-003 2.19043694e-003 -5.13404142e-003
      -3.26199597e-003 1.72300206e-003 -3.66773619e-003</_>
    <_>
      -1.33532416e-002 -3.11076455e-003 -2.69199372e-003 2.61272246e-004
      5.63882478e-003 -3.92558565e-003 -5.88188972e-003 1.16313349e-004
      -7.42204068e-003 2.37171818e-003 3.02495598e-003 1.83906760e-002
      -1.17287962e-002 4.81437979e-004 1.70314722e-002 1.10277859e-002
      -3.85911507e-003</_>
    <_>
      -6.92844950e-003 5.43727772e-004 -1.07514614e-003 2.88481754e-003
      2.48124171e-003 1.28424366e-003 7.66072015e-004 2.18378077e-003
      -2.04879115e-003 1.98366260e-003 1.07997423e-002 1.64856284e-003
      7.80199235e-003 2.07917695e-003 5.04639884e-003 1.89533830e-002
      -1.26751373e-003</_>
    <_>
      -7.57782441e-003 1.61553826e-002 -1.84997707e-003 3.78530851e-004
      3.21724568e-004 -5.25931921e-003 -1.47974468e-004 4.45953803e-003
      -5.79931447e-003 4.28648759e-003 -6.26759976e-003 1.07992720e-002
      -1.60940774e-002 -2.75501329e-003 -3.39728664e-003 2.08975542e-002
      -6.98859943e-003</_>
    <_>
      -3.89747298e-003 3.00729205e-003 -1.68911612e-003 -1.01564208e-003
      8.87179456e-004 -1.65129779e-003 -5.18807501e-004 3.04535963e-004
      -9.78706288e-004 -8.88868992e-004 -1.18384082e-002 1.24622779e-002
      2.88993563e-003 -7.01648509e-003 8.73035565e-003 5.43530565e-004
      -3.73116671e-003</_>
    <_>
      -8.67415406e-003 -1.11958394e-002 -2.21288484e-003 1.47797063e-003
      -2.38771411e-003 -8.68711062e-003 -3.55755212e-004
      -3.38640576e-003 -6.83372375e-003 9.34214215e-004 -1.53883770e-002
      5.99167310e-003 3.51789291e-003 2.79600825e-003 3.26990685e-003
      1.22897597e-002 -1.89755820e-002</_>
    <_>
      1.41521310e-003 1.78913341e-003 1.07576465e-003 2.42482754e-004
      1.87095185e-003 1.80779281e-003 1.39559829e-003 1.97403762e-003
      1.60733156e-003 1.95583189e-003 7.10088387e-003 4.69255028e-003
      2.09300290e-003 3.73990252e-003 4.94844280e-003 6.66035200e-003
      4.04025801e-003</_>
    <_>
      -2.63312529e-003 2.04432453e-003 -1.31485832e-003 5.12298429e-004
      2.29501748e-003 1.94009417e-003 2.49202666e-003 3.09631717e-003
      1.08313793e-003 4.00065165e-003 1.29643017e-002 3.10734822e-003
      4.63720225e-003 -8.63519090e-004 7.31292414e-004 8.85797758e-003
      5.59428381e-003</_>
    <_>
      6.13489392e-005 6.09119423e-004 -2.03032221e-004 9.22427498e-005
      3.90520290e-004 1.71924490e-004 3.93993250e-004 1.00368075e-003
      5.25349053e-004 3.64793581e-004 3.65667162e-003 6.49202988e-003
      4.08140244e-003 2.25094613e-003 4.36273729e-003 4.46343375e-003
      2.04491708e-003</_>
    <_>
      3.90139176e-005 9.47690627e-004 -4.35867478e-005 2.00934272e-004
      4.21187200e-004 2.11576888e-004 8.79357511e-004 1.34124479e-003
      5.92583965e-004 1.55118224e-003 6.30496815e-003 2.22660415e-003
      5.96616603e-003 1.34226121e-003 4.34530620e-003 6.61400286e-003
      1.69072417e-003</_>
    <_>
      -1.59374706e-003 4.69411956e-003 1.08058448e-003 2.62044091e-003
      8.48866708e-004 4.63182834e-004 1.16319000e-003 4.57617408e-003
      -3.15648329e-004 3.00035952e-003 5.54964086e-003 9.61174536e-003
      8.33066460e-003 5.10084350e-003 7.76210707e-003 5.48912957e-003
      3.98679450e-003</_>
    <_>
      1.42023328e-003 3.29720019e-003 4.54824825e-004 1.77967234e-003
      7.44958874e-004 9.51071037e-004 6.43774110e-004 2.74944562e-003
      1.31283549e-003 1.82268606e-003 1.17873726e-002 3.62288114e-003
      2.09265412e-003 -3.27289943e-003 2.03707558e-003 4.22932627e-003
      4.81053442e-003</_>
    <_>
      -1.35478668e-003 2.93237809e-003 1.71961519e-003 1.66406471e-003
      2.72396882e-003 1.49081039e-004 2.29813647e-003 4.47725644e-003
      1.14724378e-003 4.15686285e-003 1.49177965e-002 1.16206855e-002
      4.46541188e-003 -1.28545449e-003 2.96607427e-003 7.43075134e-003
      7.00818468e-003</_>
    <_>
      3.13696510e-004 2.97625200e-003 1.12610680e-004 1.32272299e-003
      1.28187693e-003 4.18023148e-004 -1.14557792e-004 2.42409017e-003
      5.41857502e-004 3.50331608e-003 1.20362509e-002 6.48659794e-003
      3.55537806e-004 2.36525852e-003 3.45990807e-003 9.52610280e-003
      4.05243086e-003</_>
    <_>
      4.78563394e-004 6.73730683e-004 1.62509677e-004 7.95739878e-004
      -3.96399206e-004 -1.88962207e-004 -4.20941040e-004 1.14205095e-003
      -6.57613331e-004 9.01821419e-004 4.76605538e-003 6.76828157e-003
      6.64463034e-003 5.71158295e-003 6.15182333e-003 4.40985197e-003
      1.07526302e-003</_>
    <_>
      -3.81117745e-004 8.95951351e-004 -8.71727243e-005 5.06656943e-004
      1.57728454e-003 2.86859740e-003 2.89288379e-004 2.29166890e-003
      3.82466933e-005 1.35545514e-003 3.94077506e-003 2.38786498e-003
      7.66959833e-003 7.94120351e-005 1.05811758e-002 6.09007245e-003
      1.92132895e-003</_>
    <_>
      -1.56932525e-004 1.06443527e-004 -1.29147942e-004 3.91227833e-004
      1.12197991e-003 9.00127518e-004 8.49224336e-004 1.52620138e-003
      4.63709905e-004 1.44018268e-003 6.39727153e-003 2.54333252e-003
      5.06106531e-003 3.28234164e-004 5.31947101e-003 3.92090203e-003
      3.42919887e-003</_>
    <_>
      1.05479710e-004 8.60350905e-004 6.75327494e-004 5.05023228e-004
      1.07860775e-003 9.90349916e-004 9.23669024e-004 2.16058712e-003
      1.27695652e-003 1.59895164e-003 6.23836182e-003 1.97520084e-003
      3.58767365e-003 3.38219968e-003 5.17458795e-003 5.15121128e-003
      3.63497855e-003</_>
    <_>
      -5.74678525e-005 3.03043256e-004 3.75020929e-004 6.06026151e-004
      8.25620256e-004 6.84872735e-004 8.26440169e-004 1.45634706e-003
      7.83393043e-004 1.76214136e-003 5.59910387e-003 1.73491403e-003
      4.93892096e-003 1.08103023e-003 4.51658573e-003 6.41364232e-003
      2.71565677e-003</_>
    <_>
      -1.58293973e-004 9.49911540e-004 7.29848281e-004 6.88977831e-004
      1.14020158e-003 1.06688030e-003 9.45818203e-004 1.56416593e-003
      5.98787214e-004 7.32370710e-004 5.20264870e-003 1.39787071e-003
      4.11159545e-003 2.35927850e-003 6.93901442e-003 2.71756994e-003
      2.40092399e-003</_>
    <_>
      -3.51512316e-003 -2.80273089e-004 6.97511889e-004 3.38854850e-004
      3.23518459e-003 1.38074346e-003 1.22108147e-004 2.23325519e-003
      -2.32850946e-003 -2.70695688e-004 1.17958360e-003 -5.39814681e-003
      1.73516280e-003 1.01835420e-002 1.47064431e-002 2.89668352e-003
      -6.07880997e-003</_>
    <_>
      1.12032127e-002 1.67843141e-002 1.36130378e-002 4.73114895e-003
      1.41302671e-003 1.50483000e-004 9.67826403e-004 3.29744490e-003
      1.20664900e-002 7.84041081e-003 2.11172905e-002 4.83108405e-003
      2.10607378e-003 2.72734265e-004 -1.93702951e-002 -4.37879236e-004
      -8.07863660e-003</_>
    <_>
      1.17201346e-003 1.52108970e-003 1.84908812e-003 1.89045258e-003
      1.11229590e-003 2.29243073e-003 8.39470304e-004 2.34020478e-003
      2.02596816e-003 2.90523260e-003 7.60795828e-003 4.44689021e-003
      3.47263110e-003 2.53159553e-003 3.32940579e-003 4.28570760e-003
      1.87408063e-003</_>
    <_>
      5.82349428e-004 2.10199063e-003 1.02355098e-003 1.13566697e-003
      4.33474808e-004 1.11465959e-003 4.97242901e-004 1.46802503e-003
      1.60351978e-003 1.41003821e-003 7.68779172e-003 5.74654713e-003
      3.96165904e-003 5.26678469e-003 7.74427364e-003 2.81621353e-003
      2.50499672e-003</_>
    <_>
      1.59319816e-003 3.88597394e-003 4.44846042e-003 2.65715760e-003
      2.57439679e-003 2.51731765e-003 3.80099216e-003 2.31389608e-003
      7.69523066e-003 6.47681952e-003 1.50778494e-003 -5.90649480e-003
      1.07597262e-002 5.43616107e-003 1.00181326e-002 9.86482855e-003
      -2.72121583e-003</_>
    <_>
      2.09397520e-003 3.52951186e-003 2.77497945e-003 2.28070188e-003
      7.64583296e-004 2.47817952e-003 7.89289770e-004 1.71541539e-003
      4.48709540e-003 3.89104872e-003 1.12800691e-002 -5.82073024e-003
      -6.48032874e-003 -9.23148822e-003 -4.94704023e-003
      -1.49654737e-003 2.82839639e-004</_>
    <_>
      -5.00035146e-003 1.37074199e-002 1.14932209e-002 1.88490783e-003
      9.77976341e-003 1.02173137e-002 2.24234234e-003 1.05691645e-002
      1.27452388e-002 8.60981271e-003 6.58031041e-003 1.50998561e-002
      -2.51091109e-003 5.89988369e-004 1.45484731e-002 -5.96361421e-003
      2.50363797e-002</_>
    <_>
      -3.45621491e-004 4.93490661e-004 1.47551124e-003 2.37267441e-003
      1.98947662e-003 2.32550036e-003 2.14786688e-003 2.88397516e-003
      -5.43331116e-005 3.46695445e-003 3.73915490e-003 -1.40912021e-002
      -3.45927011e-003 -3.30973766e-003 3.46893631e-003 5.73828258e-003
      -9.03649707e-005</_>
    <_>
      7.40430038e-003 6.05377136e-003 5.00177918e-003 3.95965250e-003
      3.64021864e-004 -2.20066533e-004 6.42433180e-004 1.16161292e-003
      5.94238145e-003 6.36433996e-003 2.68720207e-003 7.00849108e-003
      4.64443211e-003 1.13515183e-002 5.03944582e-004 9.65341553e-003
      -1.06667599e-003</_>
    <_>
      6.84990035e-003 9.98851284e-003 5.13113430e-003 2.16570639e-004
      3.37115070e-003 1.97336054e-003 8.88401933e-004 2.70279311e-003
      6.29713805e-003 6.97579514e-003 9.34830494e-003 7.14438781e-003
      -6.68520527e-003 4.38696286e-003 2.13930383e-003 -1.11152453e-003
      5.35212643e-003</_>
    <_>
      3.39056575e-003 2.87384191e-003 2.88359798e-003 1.27933128e-003
      2.18674704e-003 2.05988996e-003 1.72811141e-003 1.76228909e-003
      2.42427317e-003 1.45307824e-003 5.53677417e-003 5.91324922e-003
      4.58593946e-003 6.24038419e-003 6.52654329e-003 9.99468961e-004
      2.90283561e-003</_>
    <_>
      -7.38391420e-003 -1.23826684e-002 4.86067729e-003 5.03779901e-003
      3.98121309e-003 1.10477163e-002 -6.19650958e-003 -1.14829512e-002
      1.14647402e-004 2.64359522e-004 -2.13581952e-003 -6.36742124e-003
      9.16973746e-004 2.64848303e-002 2.10256539e-002 1.55483102e-002
      -6.24080515e-003</_>
    <_>
      9.27587913e-004 8.92597076e-004 7.68235419e-004 6.70123554e-004
      5.84830181e-004 7.46537524e-004 5.09340258e-004 7.36924005e-004
      1.19880470e-003 1.04195916e-003 2.68690893e-003 3.01778968e-003
      2.84196273e-003 3.16062104e-003 3.38799204e-003 3.01313191e-003
      1.30792928e-003</_>
    <_>
      3.04702553e-003 3.55739915e-003 2.31989054e-003 4.83057287e-004
      5.74222766e-004 -2.07034172e-004 -2.67540658e-004 3.45728185e-004
      2.82884296e-003 2.28230143e-003 6.02283282e-003 8.81442614e-003
      1.77715393e-003 8.80964845e-003 4.77200747e-003 5.87950740e-003
      9.18023696e-004</_>
    <_>
      1.63186924e-003 2.92665698e-003 1.36844290e-003 1.11100124e-003
      3.39946157e-004 6.81349833e-004 5.94750105e-004 1.44499121e-003
      2.26244959e-003 2.53474270e-003 7.37608969e-003 3.64470389e-003
      3.71233444e-003 1.81980466e-003 1.36845815e-003 6.50303857e-003
      4.01808694e-003</_>
    <_>
      8.77192058e-003 1.65513363e-002 8.44033994e-003 3.98693932e-003
      -7.03100595e-005 1.33169349e-003 9.67700267e-004 -3.46816587e-003
      5.83826378e-003 5.24398452e-003 2.01197825e-002 -1.59663316e-002
      8.37433792e-004 -9.23269615e-003 2.36356305e-003 -1.66472588e-002
      2.44025607e-003</_>
    <_>
      1.64694118e-003 1.14995176e-002 1.01393173e-002 3.29194148e-003
      4.92460001e-003 3.40281957e-004 4.94407676e-003 2.71078805e-003
      1.22182649e-002 9.24965926e-003 1.79740060e-002 -2.34067393e-003
      -3.99352424e-003 -1.58189517e-003 -3.20595969e-003
      -8.18440691e-003 -7.56925903e-004</_>
    <_>
      2.01638089e-003 1.03438292e-002 8.48562829e-003 8.86114407e-003
      1.76498236e-003 8.13226495e-003 4.71259374e-003 -3.13250843e-004
      1.15480330e-002 4.23836813e-004 1.59363784e-002 4.93772188e-003
      4.88450285e-003 -1.35051385e-002 -1.63528807e-002 9.91710112e-004
      3.05896532e-003</_>
    <_>
      1.27656001e-003 1.95927755e-003 1.92580605e-003 1.34552107e-003
      1.42748002e-003 1.38848042e-003 1.12078909e-003 1.36389676e-003
      1.93735072e-003 1.58253056e-003 6.50787354e-003 9.50150425e-004
      1.46835612e-003 3.43183102e-003 3.51941632e-003 2.29540793e-003
      2.91459798e-003</_>
    <_>
      1.21683562e-002 2.18017865e-002 5.67671144e-003 -1.28645648e-003
      3.83556541e-003 2.33335025e-003 -2.14431391e-004 5.90031315e-003
      1.46310860e-002 1.17476322e-002 1.52905202e-002 -5.17855724e-003
      -8.59178882e-003 -7.50743551e-003 1.73074054e-003 -1.34656532e-002
      1.32790757e-002</_>
    <_>
      1.19554845e-003 4.57604462e-003 5.61811822e-003 5.00111189e-003
      1.52359158e-003 2.45534978e-003 1.87181029e-003 6.26974972e-004
      2.31099850e-003 3.85097880e-003 1.47655681e-002 -8.29998497e-003
      2.23180116e-003 1.09848492e-002 4.76772850e-003 -2.41608141e-004
      -5.42196358e-005</_>
    <_>
      -6.88653346e-003 4.25338000e-003 8.36867839e-003 3.77241476e-003
      3.49659403e-003 -7.88930280e-004 -2.42602825e-003 2.02195230e-003
      7.32072955e-003 8.08656309e-003 5.39359497e-003 2.08574608e-002
      -1.23382006e-002 6.76892372e-003 -8.85640364e-003 -4.77576163e-003
      1.70596931e-002</_>
    <_>
      -1.33218069e-003 2.82834168e-003 7.06734834e-003 2.92365672e-003
      -2.46775709e-003 -6.51875307e-005 -3.96709703e-003
      -6.66428078e-003 -4.88202000e-004 3.33485706e-003 9.69923008e-003
      -2.12891586e-002 -8.70157219e-003 9.33020562e-003 1.31473867e-002
      -7.73473550e-003 1.33442192e-003</_>
    <_>
      2.26175631e-004 3.63490195e-003 3.19313956e-003 3.00658867e-003
      4.63341916e-004 1.82531518e-003 2.06440804e-004 1.65636255e-003
      2.52065877e-003 2.15187483e-003 1.72051731e-002 6.36317488e-003
      4.46857791e-003 1.40480930e-003 3.42051522e-003 3.63715505e-003
      1.91958807e-003</_>
    <_>
      4.29305946e-003 7.18137808e-003 4.49689245e-003 1.93398457e-003
      1.85696885e-003 2.56184163e-003 2.12071827e-004 7.28733838e-004
      3.93540272e-003 4.08272538e-003 1.75641663e-002 6.20879745e-003
      -5.42346679e-004 5.72436908e-003 6.25580736e-003 5.01266541e-003
      6.74456637e-003</_>
    <_>
      1.40044396e-003 3.61142424e-003 4.22649086e-003 3.28134466e-003
      1.30442251e-003 2.80119508e-004 8.92848766e-004 1.52276654e-003
      3.75977089e-003 4.38561710e-003 1.79900378e-002 -3.06535047e-003
      -3.74954217e-003 4.38199891e-003 -2.32691900e-003 -3.16489302e-003
      -6.15461729e-004</_>
    <_>
      -1.98948337e-003 1.57095375e-003 -1.01569947e-003 -2.12039216e-003
      -2.69982847e-003 -9.19295941e-004 -6.57041746e-005 1.18150446e-003
      2.96478486e-003 2.49386951e-003 -1.33227864e-002 1.59012787e-002
      6.62432658e-003 -6.70750253e-003 -5.16710011e-003 -2.45295196e-005
      -1.90914085e-003</_>
    <_>
      -9.19417434e-005 2.19740043e-003 3.47216311e-003 2.01652688e-003
      3.36999656e-003 -1.99754395e-005 -1.02183502e-003 2.51036661e-004
      4.08207532e-003 4.67947219e-003 1.19057866e-002 1.27527760e-002
      -2.91064731e-003 6.67264592e-003 9.35161766e-003 4.08203062e-003
      1.35189330e-003</_>
    <_>
      -1.60602998e-004 1.62649748e-003 1.69966195e-003 1.95498927e-003
      1.36909005e-003 1.36740552e-003 1.28277997e-003 1.16752542e-003
      3.10931914e-003 2.93315644e-003 1.04129370e-002 3.19635868e-003
      5.32761915e-003 3.67401377e-003 2.98545999e-003 8.56846943e-003
      1.23125059e-003</_>
    <_>
      2.77212588e-003 1.60817504e-002 4.86329710e-003 3.40303755e-004
      1.15932210e-003 -8.99235194e-004 3.23689007e-003 4.41596936e-003
      1.02711134e-002 1.14239724e-002 2.43179174e-003 1.18234949e-002
      -7.16442242e-003 -1.87648216e-003 -6.66484889e-003 1.44644678e-002
      2.74355116e-004</_>
    <_>
      -2.04861033e-004 5.63337700e-003 1.82919833e-003 -8.89597868e-004
      1.07504404e-003 -3.03767796e-004 1.06625014e-003 -1.08629593e-003
      6.94179954e-003 3.00659263e-003 -5.53669827e-003 1.77004170e-002
      5.07490057e-003 -8.40988290e-003 7.10343709e-003 -4.32379777e-004
      1.02497963e-003</_>
    <_>
      -1.76394905e-003 -1.43624777e-002 1.78561769e-002 6.03844039e-003
      -1.82659354e-003 -1.08053321e-002 8.47819075e-003 -1.17902793e-002
      1.64813511e-002 1.94091033e-002 -1.02159791e-002 2.31980253e-002
      1.05995191e-002 6.47599669e-003 -4.20889817e-003 5.61172096e-003
      -3.00862361e-002</_>
    <_>
      1.63748860e-003 1.84599916e-003 1.51251256e-003 8.16171116e-004
      1.17112533e-003 1.33965781e-003 9.39172867e-004 8.53062258e-004
      1.77217403e-003 1.36469421e-003 5.24057075e-003 2.89647211e-003
      1.44058792e-003 3.56992288e-003 2.73776893e-003 2.87141325e-003
      2.33811536e-003</_>
    <_>
      3.26807029e-004 1.60000124e-003 2.90853321e-004 1.62332959e-004
      1.05101557e-003 1.16243877e-003 1.73782581e-003 1.67075533e-003
      3.10577475e-003 3.40260938e-003 9.11956001e-003 2.77979160e-003
      3.05219810e-003 4.99761605e-004 2.31637430e-004 4.65014437e-003
      3.51355434e-003</_>
    <_>
      8.20129062e-004 1.09422684e-003 6.70255569e-004 5.90498094e-004
      4.74594039e-004 5.09415055e-004 4.64885641e-004 5.39907196e-004
      1.12755876e-003 5.65071299e-004 3.54927848e-003 4.65945480e-003
      2.72710621e-003 2.77099479e-003 2.93458882e-003 2.41680979e-003
      1.49643794e-003</_>
    <_>
      9.48712113e-004 1.46093755e-003 9.16577585e-004 7.43210665e-004
      5.24552888e-004 5.90066891e-004 7.71310995e-004 7.07994564e-004
      1.31311896e-003 1.30848843e-003 5.34123089e-003 1.99551019e-003
      3.74518125e-003 2.43868819e-003 2.85095070e-003 3.51367844e-003
      1.41499005e-003</_>
    <_>
      9.93269845e-004 3.38584115e-003 2.02875375e-003 2.08990928e-003
      8.34579521e-004 1.00305316e-003 9.18538310e-004 1.62733870e-003
      1.53660239e-003 1.86374539e-003 5.26813418e-003 4.85031912e-003
      3.85298813e-003 4.86666150e-003 3.66890617e-003 1.80266832e-003
      2.29671854e-003</_>
    <_>
      1.88845652e-003 2.69356882e-003 1.41379016e-003 1.59131095e-003
      6.99556025e-004 1.02969992e-003 6.86368672e-004 1.25928712e-003
      1.97123224e-003 1.48936908e-003 7.94132426e-003 2.72919633e-003
      1.63497496e-003 6.01035135e-004 1.54641527e-003 1.85050606e-003
      2.88487249e-003</_>
    <_>
      1.64529856e-003 2.57503870e-003 2.42990768e-003 1.60895800e-003
      1.45131024e-003 9.39399702e-004 1.40501105e-003 1.51425309e-003
      2.77656130e-003 2.56897067e-003 8.73700343e-003 5.61233237e-003
      2.85062683e-003 2.71686353e-003 2.16145418e-003 2.54237163e-003
      3.39116645e-003</_>
    <_>
      1.58104277e-003 2.67995917e-003 1.54865580e-003 1.54936814e-003
      9.77776013e-004 9.30169364e-004 4.07627900e-004 8.82885186e-004
      1.73584593e-003 2.05546827e-003 7.63410842e-003 3.71679734e-003
      8.58502928e-004 3.67203029e-003 2.08401959e-003 3.48355179e-003
      2.33194721e-003</_>
    <_>
      1.31073222e-003 1.45376869e-003 1.19473820e-003 1.14737847e-003
      1.69744380e-004 4.81061928e-004 1.36205184e-004 4.99837624e-004
      8.21727910e-004 9.46522981e-004 4.46710270e-003 4.10230923e-003
      3.68383992e-003 4.75334935e-003 3.46787274e-003 1.93763128e-003
      1.07614952e-003</_>
    <_>
      1.34026969e-003 1.79346988e-003 1.35819253e-003 1.07761577e-003
      1.22442830e-003 2.17596185e-003 6.09511801e-004 1.21843105e-003
      1.60103280e-003 1.49038120e-003 4.58819745e-003 2.38764961e-003
      4.93087200e-003 2.66446779e-003 6.46415073e-003 3.00673791e-003
      1.62907853e-003</_>
    <_>
      7.52449327e-004 6.50230329e-004 6.38738042e-004 5.67378418e-004
      8.04970507e-004 8.25057272e-004 7.70156796e-004 9.26461245e-004
      1.33407267e-003 1.37039938e-003 5.35081327e-003 2.25038081e-003
      3.48691875e-003 1.29678124e-003 3.45234317e-003 2.30110483e-003
      2.45446479e-003</_>
    <_>
      8.80753039e-004 1.30545243e-003 1.19799923e-003 8.45897244e-004
      8.24475603e-004 9.41814564e-004 7.28508399e-004 1.07368489e-003
      1.51764508e-003 1.21392729e-003 4.87580802e-003 1.69319636e-003
      2.24352046e-003 3.29140737e-003 3.06865061e-003 2.51908810e-003
      2.29159463e-003</_>
    <_>
      8.22091592e-004 1.05544971e-003 1.08825311e-003 9.41539533e-004
      7.45785190e-004 8.33245052e-004 7.34258385e-004 7.96606939e-004
      1.34506403e-003 1.41426304e-003 4.91590984e-003 1.69333967e-003
      3.22983088e-003 2.20914115e-003 2.99655669e-003 3.52511532e-003
      1.98875531e-003</_>
    <_>
      5.91697462e-004 1.25508965e-003 1.14978559e-003 8.98439030e-004
      8.54762446e-004 1.00263429e-003 7.76469300e-004 8.54336598e-004
      1.15904759e-003 8.13535473e-004 4.26705740e-003 1.16044912e-003
      2.75712414e-003 2.63677700e-003 4.47920850e-003 1.41780532e-003
      1.69676542e-003</_>
    <_>
      -2.17657245e-004 1.14622922e-003 2.50276062e-003 1.20866299e-003
      2.17179884e-003 2.28330307e-003 1.08789885e-003 9.75006784e-004
      2.02899333e-003 1.88020931e-003 6.62602345e-003 -2.87744752e-003
      3.89747741e-003 7.63311610e-003 7.42347166e-003 4.05603461e-003
      -1.72713224e-003</_>
    <_>
      -8.94262339e-004 1.26772642e-003 1.07071083e-003 2.96095246e-003
      2.13260390e-003 5.13646239e-003 7.70895043e-004 4.37933207e-003
      5.89555479e-004 3.84468702e-003 6.10704068e-003 1.02891466e-002
      6.16399571e-003 3.47080175e-003 7.53146596e-003 6.63270894e-003
      5.45729697e-003</_>
    <_>
      -2.85029807e-003 1.64483299e-005 -1.71434297e-003 1.17857591e-004
      3.06766829e-004 1.50473462e-003 3.38854908e-004 1.52768055e-003
      -8.98529543e-004 -3.83622159e-004 -4.64035955e-004 7.59501196e-003
      5.92793664e-003 5.92882419e-003 1.43353669e-002 1.93062413e-003
      4.84011322e-003</_>
    <_>
      -7.98315450e-004 2.09662644e-003 -5.82110777e-004 3.60037456e-003
      4.14358685e-003 4.75874310e-003 4.03331313e-003 -2.42274808e-004
      3.85612599e-003 5.38329734e-003 -1.06592178e-002 5.51120378e-003
      8.38417374e-003 6.75447099e-003 2.62789112e-002 1.32249743e-002
      -3.82764684e-003</_>
    <_>
      3.73320247e-004 2.30773771e-003 -3.85674532e-004 1.19669072e-003
      4.00984689e-004 3.42797814e-003 8.70485499e-004 1.77417789e-003
      2.90360511e-003 3.94973438e-003 8.60362500e-003 -8.78774468e-003
      -1.68650895e-002 -2.01121997e-002 -2.03807419e-003 1.12436654e-004
      3.34163429e-003</_>
    <_>
      -8.60140659e-003 -1.85085903e-003 -1.53642416e-003
      -2.09508784e-004 5.07632550e-003 5.74196968e-003 -2.03597534e-004
      4.68655257e-003 -1.60344888e-003 -1.06762745e-003 -7.66784465e-003
      9.36153904e-003 -8.64328165e-003 1.12577733e-002 2.15852838e-002
      -5.68894297e-003 1.49823697e-002</_>
    <_>
      -3.26407840e-003 -2.84489058e-003 -2.18673865e-003 1.44687959e-003
      2.02804827e-003 2.59624352e-003 1.88133144e-003 3.17476364e-003
      -3.40502174e-003 2.37517734e-003 -1.78964145e-003 -1.31707229e-002
      -4.85325651e-003 -1.12130269e-002 4.93564829e-003 3.79531039e-003
      1.65322598e-003</_>
    <_>
      8.02089460e-003 2.97152298e-003 1.04500644e-003 3.11385212e-003
      -9.35439952e-004 -1.64315477e-003 -6.85628504e-004
      -5.08467667e-004 2.56217341e-003 5.65606076e-003 -1.33290440e-002
      1.35617051e-002 1.08156051e-003 1.64779443e-002 2.83218222e-003
      1.23090232e-002 9.24304069e-004</_>
    <_>
      5.43827284e-003 1.09774889e-002 1.08994276e-003 -4.52503469e-003
      6.27995795e-003 3.66548449e-003 1.96738355e-003 4.57482785e-003
      5.47599327e-003 9.64011252e-003 -6.49265060e-003 1.02686733e-002
      -1.09058525e-002 7.83901289e-003 1.40252449e-002 -2.66309083e-003
      1.49406111e-002</_>
    <_>
      1.82273670e-003 1.54563738e-003 1.41855620e-003 4.96998895e-004
      2.94911652e-003 2.82410416e-003 2.17022095e-003 1.87611452e-003
      4.15993476e-004 -2.71110126e-004 -2.99128960e-003 7.54591357e-003
      6.09755190e-003 7.55580049e-003 1.16393082e-002 -1.40316144e-003
      4.84148366e-003</_>
    <_>
      -4.30790754e-003 -6.09560777e-003 -2.22777063e-003 4.85522207e-004
      1.59831636e-003 3.32609378e-003 -2.52468395e-003 -2.83670076e-003
      -4.61235875e-003 -3.52997123e-003 -1.03609785e-002
      -4.93408479e-005 -2.45584757e-003 7.38359289e-003 1.43160885e-002
      -1.59809750e-003 -1.69951771e-003</_>
    <_>
      4.26835701e-004 5.37344196e-004 2.76748731e-004 5.34580729e-004
      7.12020439e-004 9.70295165e-004 5.70812845e-004 7.92436535e-004
      7.99900678e-004 7.86892255e-004 5.81590051e-004 3.97974998e-003
      3.70659283e-003 3.81833129e-003 5.01496531e-003 3.35848704e-003
      1.94541411e-003</_>
    <_>
      7.31348409e-004 2.44793599e-003 -7.12547975e-004 -1.01746037e-003
      7.07139843e-004 -3.55902885e-004 -9.09866067e-004 -6.48580201e-004
      -3.31337709e-004 6.90078377e-005 -5.15338127e-003 1.38978753e-002
      2.23469501e-003 1.07853413e-002 1.12756183e-002 4.27408703e-003
      2.61190813e-003</_>
    <_>
      -1.79013092e-004 3.71053629e-003 -4.69876832e-004 7.74756831e-004
      3.10851407e-004 1.28598814e-003 7.61193864e-004 2.35891738e-003
      1.31293572e-003 2.95034703e-003 2.80391378e-003 7.62621174e-003
      7.66493054e-003 1.49771129e-003 4.55028564e-003 1.16446698e-002
      1.02524469e-002</_>
    <_>
      -8.09567398e-004 2.23403261e-003 -1.87550264e-003 4.12777532e-004
      9.03052336e-004 1.77377055e-003 -1.21834909e-003 -1.98873621e-003
      -4.98750480e-003 -2.88480497e-003 -2.68860883e-003
      -1.50547354e-002 -4.76346491e-003 -4.09451500e-003 1.94655377e-002
      -1.71907265e-002 2.90806056e-003</_>
    <_>
      -2.22031847e-002 2.63829064e-002 1.25136860e-002 7.83345569e-003
      2.16050036e-002 7.37829367e-003 2.29376182e-002 7.56758219e-003
      2.46774312e-002 2.38284655e-002 3.31964390e-003 2.15380540e-004
      -1.65367275e-002 -4.71020071e-003 1.47866709e-002 -1.76896676e-002
      1.93257350e-002</_>
    <_>
      -2.96664294e-002 -1.43012442e-002 2.46552262e-003 2.33149715e-002
      2.00051768e-003 3.28214914e-002 1.44241424e-002 -1.07595595e-002
      8.49901419e-003 -2.48317122e-002 1.03125889e-002 7.34338164e-003
      -1.17761001e-003 -1.44920163e-002 -2.07139421e-002 8.04219162e-004
      3.03173233e-002</_>
    <_>
      4.64686163e-004 2.30512233e-003 2.01620511e-003 1.79974397e-003
      2.72601540e-003 2.72371061e-003 1.99161936e-003 2.25490355e-003
      1.83511851e-003 1.61450554e-003 5.59265492e-003 1.35282660e-003
      2.37517362e-003 5.65245608e-003 8.06376338e-003 2.62127607e-003
      6.40821736e-003</_>
    <_>
      7.68422149e-004 7.28609692e-003 -1.42408432e-002 -8.64183065e-003
      2.23587616e-003 2.31979671e-003 4.68833256e-004 5.98491868e-003
      2.36918638e-003 3.46938823e-003 -1.84560625e-003 -2.07480378e-002
      -2.33778497e-003 -8.68876185e-003 2.48005129e-002 -2.63432655e-002
      2.69205309e-002</_>
    <_>
      -7.31654186e-003 -1.07641541e-003 2.57115485e-003 7.12592760e-003
      3.12572694e-003 6.25430606e-003 1.53930450e-003 -2.10016849e-003
      -5.98309934e-003 7.81779119e-004 1.60246401e-003 -1.85574908e-002
      -2.39384291e-003 1.86923966e-002 2.11100206e-002 -1.23804472e-002
      7.60677410e-003</_>
    <_>
      -1.62259042e-002 -1.04780812e-002 -2.20075366e-003
      -2.85348622e-004 2.19244859e-003 -1.24251901e-003 -1.86428137e-003
      3.02247441e-004 -4.61036892e-004 3.42440628e-003 -7.57812336e-003
      8.42734892e-003 -8.28206446e-003 8.69002566e-003 9.21185873e-003
      1.78511185e-003 2.30331793e-002</_>
    <_>
      -3.13042267e-003 -1.94418861e-003 -3.09831987e-004 1.38689167e-004
      -2.25079464e-004 9.40529746e-004 -2.48104963e-003 -2.34624627e-003
      -4.27523768e-003 -1.60715589e-003 -7.28130760e-003
      -7.42846960e-003 -3.18698445e-003 4.00734087e-003 1.48061709e-002
      -8.24941043e-003 1.25699793e-004</_>
    <_>
      -1.86367389e-002 -7.56630252e-005 -2.88238563e-003 5.37680462e-003
      -4.70576866e-004 6.66324794e-003 -2.21385201e-003 2.32886476e-003
      -8.15211423e-003 -5.02031762e-003 1.25786439e-002 2.24159174e-002
      1.40569052e-002 -3.64131248e-003 2.28395965e-002 -1.59910927e-003
      1.17328465e-002</_>
    <_>
      -5.27117541e-003 6.22802321e-003 -2.74498272e-003 -2.08127243e-003
      3.28832422e-003 6.43230695e-003 -2.66317185e-003 -3.37318773e-003
      -7.30481977e-003 -1.70680694e-003 -7.49665126e-003 1.33742662e-002
      -1.08719785e-002 1.14761572e-002 2.77414899e-002 -2.34317500e-003
      2.56539788e-002</_>
    <_>
      -1.58363786e-002 -5.77984191e-003 -2.97745806e-003 5.23151085e-003
      6.30088989e-003 1.66897313e-004 4.72867535e-003 4.59238468e-003
      6.02115993e-004 1.58115868e-002 2.28431169e-002 6.66651293e-004
      -1.79771371e-002 1.76929552e-002 2.38382444e-002 -3.48229706e-002
      1.55501915e-002</_>
    <_>
      -4.10846248e-003 -1.61494769e-003 -4.01215488e-003
      -3.17586120e-003 -2.45652604e-003 -1.17845717e-003
      -3.74020805e-004 2.48435972e-004 2.35370258e-004 5.21118403e-004
      -1.58884246e-002 8.71981215e-003 4.13203286e-003 -5.15881041e-003
      2.87380256e-003 5.38589619e-003 1.49984914e-003</_>
    <_>
      -7.39029283e-003 -3.82336695e-003 -1.47884642e-003
      -8.50750366e-005 3.94868245e-003 -8.04805080e-004 -2.60146311e-003
      -1.65736617e-003 -1.29303359e-003 1.52981572e-003 -5.06815221e-003
      1.55722694e-002 -7.10001728e-003 7.86994211e-003 1.74959246e-002
      1.90590625e-004 3.43349949e-003</_>
    <_>
      -7.74478493e-003 -1.37891422e-003 -2.26026750e-003 2.46679620e-003
      3.18663055e-003 3.58637865e-003 2.21525459e-003 9.39434802e-004
      1.04918482e-003 2.48802407e-003 4.20139544e-003 1.04506528e-002
      1.16086295e-002 4.95377835e-003 1.14296079e-002 1.72781944e-002
      5.14622824e-003</_>
    <_>
      -8.92951153e-003 1.84775945e-002 -6.02890179e-003 -4.38730698e-003
      -1.45023735e-003 -5.23277931e-003 7.46820914e-003 6.77613774e-003
      5.00005437e-003 1.32083166e-002 -8.32277443e-003 1.04622263e-002
      -2.29764450e-002 4.15571686e-003 -5.75493183e-003 2.74679791e-002
      1.36014083e-002</_>
    <_>
      -3.36750993e-003 3.58812918e-004 -1.48269173e-003 -1.69577019e-003
      6.56655815e-004 -9.56780103e-004 5.72696910e-004 -8.59040360e-004
      1.75968232e-003 -4.19879245e-004 -1.34363761e-002 1.06170205e-002
      2.33863783e-003 -1.54517323e-003 1.33437980e-002 -2.30557867e-003
      1.58331575e-004</_>
    <_>
      -5.72489388e-003 -1.63488947e-002 -3.76530783e-003
      -1.71009800e-003 -2.63113482e-003 -6.89714961e-003 2.21100659e-003
      -7.20158918e-003 1.21825875e-003 2.04111007e-003 -2.34851222e-002
      -4.25070641e-004 2.53529451e-003 1.60753855e-003 1.08371181e-002
      5.75643219e-003 -7.23791821e-003</_>
    <_>
      1.52505760e-003 2.09121313e-003 1.34876487e-003 7.40561984e-004
      2.05782545e-003 2.47170823e-003 1.59113528e-003 1.23755343e-003
      1.84030051e-003 1.47429202e-003 4.15294478e-003 4.15208936e-003
      2.38624006e-003 5.79142058e-003 5.87323448e-003 4.17124620e-003
      4.71182400e-003</_>
    <_>
      -3.55069665e-003 7.19215721e-004 -3.27151897e-003 -1.60996348e-003
      2.30975542e-003 2.77255336e-003 3.99443740e-003 3.31408950e-003
      3.95843759e-003 5.81410713e-003 8.59437045e-003 6.27652230e-003
      6.88402634e-003 -1.75439718e-003 1.98065978e-003 8.21909215e-003
      1.01159606e-002</_>
    <_>
      1.81898693e-004 1.14407274e-003 1.36507922e-004 4.90449311e-004
      6.31059287e-004 6.85568666e-004 5.56024374e-004 5.82709734e-004
      6.25307206e-004 1.41030992e-004 2.28842371e-003 5.62568428e-003
      3.90133215e-003 3.49849812e-003 4.72112466e-003 2.89169350e-003
      2.83117522e-003</_>
    <_>
      2.21778289e-004 1.44944654e-003 2.91177683e-004 6.63928920e-004
      7.80358852e-004 9.56652744e-004 1.17504271e-003 8.86607100e-004
      8.82995606e-004 1.23750744e-003 4.29225201e-003 3.24670365e-003
      6.43773796e-003 3.43224290e-003 5.73414238e-003 4.97779017e-003
      2.81184632e-003</_>
    <_>
      -4.85032331e-004 4.49915044e-003 1.19697780e-003 2.44080392e-003
      1.27808098e-003 1.67770102e-003 1.34232885e-003 2.28926539e-003
      5.84157126e-004 1.93805108e-003 2.41921050e-003 7.90358894e-003
      6.83687394e-003 5.91134513e-003 7.01542990e-003 2.02485267e-003
      4.85753920e-003</_>
    <_>
      1.97790260e-003 4.52097738e-003 1.01357244e-003 2.72451993e-003
      1.42062153e-003 2.35475646e-003 1.27462647e-003 2.40989658e-003
      2.16321158e-003 1.60709629e-003 9.88037046e-003 6.08212966e-003
      3.23381438e-003 -4.48251289e-004 4.74144332e-003 1.90021959e-003
      7.63915712e-003</_>
    <_>
      -1.20522152e-003 4.06354479e-003 2.25071050e-003 2.46528606e-003
      3.13719152e-003 2.10833596e-003 3.17546213e-003 2.81389896e-003
      2.22399621e-003 2.86377664e-003 7.64493737e-003 1.45984925e-002
      4.86715976e-003 4.26090276e-003 5.86665189e-003 7.12145993e-004
      1.05148228e-002</_>
    <_>
      7.27193314e-004 4.19921288e-003 9.27082729e-004 2.45764572e-003
      2.12103548e-003 2.11873883e-003 5.03293413e-004 1.36052025e-003
      1.10061106e-003 2.73133186e-003 7.51083111e-003 8.67430586e-003
      1.14582782e-003 7.15944683e-003 6.42611459e-003 5.69210388e-003
      6.48547942e-003</_>
    <_>
      5.52948914e-004 1.06568297e-003 4.97074041e-004 1.12255989e-003
      8.00820490e-005 6.35575794e-004 -3.63734944e-005 3.74150812e-004
      -2.45302566e-004 3.22300766e-004 1.51636789e-003 6.13506511e-003
      5.41628944e-003 6.53845724e-003 6.03154348e-003 1.56946853e-003
      1.92352640e-003</_>
    <_>
      1.39685057e-004 1.23623235e-003 2.72903650e-004 8.90342519e-004
      1.67306559e-003 3.25769628e-003 5.49780554e-004 1.24720752e-003
      5.21331967e-004 7.56410009e-004 9.51137743e-004 3.98194743e-003
      6.49747951e-003 2.31340271e-003 1.03712548e-002 2.70330720e-003
      3.11559252e-003</_>
    <_>
      -3.59508049e-005 2.96296548e-005 -1.17829550e-004 3.50601214e-004
      1.19216857e-003 1.27266964e-003 1.08111079e-003 1.19861937e-003
      9.30982875e-004 1.30011770e-003 4.25405754e-003 3.40595329e-003
      5.44581935e-003 1.26413652e-003 6.19456545e-003 2.57661054e-003
      4.29152651e-003</_>
    <_>
      2.51942780e-004 1.23232638e-003 9.16698307e-004 8.83738510e-004
      1.28516322e-003 1.53727853e-003 1.06476340e-003 1.52560591e-003
      1.35752303e-003 1.13096472e-003 3.83764645e-003 2.59298482e-003
      3.51867592e-003 4.86033829e-003 5.76654729e-003 3.13263224e-003
      4.18071216e-003</_>
    <_>
      1.04308790e-004 7.59152870e-004 6.84788974e-004 1.03318621e-003
      1.14457193e-003 1.34644331e-003 1.07019965e-003 1.03006093e-003
      1.01212936e-003 1.45115843e-003 3.75338248e-003 2.58682249e-003
      5.24693634e-003 2.93879560e-003 5.66827599e-003 4.86416183e-003
      3.66493687e-003</_>
    <_>
      -1.04581493e-004 1.05462701e-003 8.19192093e-004 8.71981843e-004
      1.19618140e-003 1.40327460e-003 1.09672989e-003 1.17113348e-003
      8.15158593e-004 5.94891899e-004 3.68089415e-003 1.22115517e-003
      4.20607952e-003 3.12944804e-003 6.51938794e-003 1.99793396e-003
      3.15388083e-003</_>
    <_>
      -1.78061728e-003 5.14970219e-004 1.37314235e-003 1.20481872e-003
      3.47517454e-003 3.46874492e-003 4.29464446e-004 6.95176772e-004
      -7.14557420e-004 -2.61044508e-004 5.25853720e-005 -1.01715024e-003
      7.87499826e-004 1.05447909e-002 1.48615362e-002 2.16124958e-004
      -3.24082328e-003</_>
    <_>
      -7.80474721e-003 -5.99207915e-003 -8.18059407e-003
      -8.11029319e-003 -5.45965042e-003 -1.22327162e-002
      -1.44168665e-003 -6.90278504e-003 -3.69111612e-003
      -1.10025052e-002 -1.12557681e-002 -3.42668686e-003 1.66596868e-003
      5.04459627e-003 1.64713115e-002 -8.44088756e-003 2.97699822e-004</_>
    <_>
      3.33513785e-003 4.07442870e-003 -1.65930099e-003 -2.18036212e-003
      -1.21264218e-003 -9.52829141e-003 1.45833241e-003 -9.64484643e-003
      -1.67566715e-004 -5.04217716e-003 -1.14596598e-002
      -1.38696060e-002 -1.12697622e-003 1.19018024e-002 -3.64563923e-004
      -3.57669708e-003 -1.72245745e-002</_>
    <_>
      -9.06659698e-005 -2.16858261e-005 -6.82462356e-004
      -1.14429288e-003 -7.79034977e-004 -1.62778900e-003 6.42403684e-005
      -1.54862914e-003 2.79453001e-004 -1.16000569e-003 -3.06689739e-003
      -8.05491861e-003 -5.62689500e-003 -6.64980104e-003
      -3.74557776e-003 -3.56434984e-003 -2.45889416e-003</_>
    <_>
      -9.46802145e-004 7.23525649e-004 -9.17336147e-004 -2.34000757e-003
      -3.66029941e-004 -2.39948067e-003 -9.45886364e-004
      -2.27882294e-003 -1.81268691e-003 -4.06159135e-003
      -1.16134230e-002 -7.57246919e-004 -5.27908513e-003 5.61862835e-004
      -8.32987076e-004 -9.04330704e-003 -1.56147720e-003</_>
    <_>
      -1.27080211e-003 -1.30044261e-003 -1.07004796e-003
      -6.87989232e-004 -1.38261152e-004 -1.01707957e-003 3.04608693e-004
      -3.62662540e-004 -1.33154436e-003 -5.88211173e-004
      -3.56579316e-003 -8.99625476e-003 -2.67508836e-003
      -4.28749481e-003 -1.44512765e-003 -6.45120803e-004
      -1.35508948e-003</_>
    <_>
      3.64354649e-003 1.02360826e-003 3.28570226e-004 -9.64586507e-004
      -2.36977637e-003 -6.33112155e-003 -1.46454608e-003
      -5.21946605e-003 -5.29855140e-004 -2.27766833e-003
      -1.33336196e-002 -7.27016013e-003 -3.86100542e-003 7.72072840e-003
      -5.08139981e-003 -1.03477482e-003 -7.20782764e-003</_>
    <_>
      8.94118566e-003 8.53183400e-003 -3.95875284e-003 -9.99555178e-003
      2.08602007e-003 -8.10457300e-003 7.32670014e-004 -2.19535059e-003
      3.02880490e-003 -1.97701724e-004 -2.09509358e-002 -1.11400262e-002
      -5.88946743e-003 2.31565605e-003 1.16324434e-002 -1.93599216e-003
      -5.40688029e-003</_>
    <_>
      6.36904407e-003 -1.59212832e-005 1.73616607e-003 -8.70275591e-003
      3.04304413e-003 -9.03556589e-003 6.93005882e-003 -6.13053888e-003
      4.15571593e-003 -9.49945580e-003 -1.19954003e-002 -1.61068998e-002
      1.26755424e-002 6.65008789e-004 1.57314539e-002 -1.18657043e-002
      2.54963362e-003</_>
    <_>
      -1.40283990e-003 -1.91285845e-003 -1.55825214e-003
      -1.57507625e-003 -3.12469958e-004 -1.34900108e-003
      -1.47994526e-003 -3.29019688e-003 -2.59515154e-003
      -3.94077273e-003 -1.00083640e-002 -2.87414435e-003
      -2.70216167e-003 -8.46991534e-005 2.00528186e-003 -5.28417621e-003
      -3.62794870e-003</_>
    <_>
      1.39203353e-003 -6.45558175e-004 -1.07805408e-003 -1.86496892e-003
      7.57990929e-005 -2.59148562e-003 1.60724530e-003 -8.88050185e-004
      3.27372411e-003 -3.09348194e-004 -7.37270014e-003 5.73797058e-003
      9.83712450e-003 7.41773238e-003 9.73735191e-003 7.91799650e-003
      3.21120722e-003</_>
    <_>
      5.01453457e-003 2.60421354e-003 -5.33947675e-003 -8.40680394e-003
      -3.80166783e-003 -1.48346592e-002 -2.89223040e-003
      -1.25069208e-002 -2.69704848e-003 -1.07428804e-002
      -1.45520614e-002 2.31958949e-003 -5.88885369e-003 7.20387278e-003
      2.42415606e-003 -9.57292225e-003 -6.04075240e-003</_>
    <_>
      5.76418545e-003 1.15261469e-002 -5.01372665e-003 -7.62249716e-003
      -4.93047293e-003 -1.33955209e-002 1.00490777e-003 -6.95842691e-003
      2.48496234e-003 -4.72253608e-003 -9.74792056e-003 -9.03031789e-003
      9.37640946e-003 -5.49193146e-003 -8.25495366e-003 1.61450952e-002
      1.92095079e-002</_>
    <_>
      -4.23741840e-005 3.94488685e-004 -9.01671126e-004 -2.00696825e-003
      -6.13523414e-004 -2.38548033e-003 -9.69544984e-004
      -2.74813827e-003 -1.80644460e-003 -2.86283880e-003
      -5.65823168e-003 -9.57274344e-003 -3.05458647e-003
      -2.47187517e-003 3.15303029e-003 -6.90242043e-003 -3.00986599e-003</_>
    <_>
      4.91269631e-004 8.26449599e-003 1.72357168e-003 -4.33527445e-003
      1.10796967e-003 -1.07416585e-002 4.81076585e-003 -8.92452151e-003
      4.94923117e-003 -4.60201455e-003 -1.04111172e-002 -1.29764341e-002
      -8.22632853e-003 -7.46598700e-004 -1.14911413e-002
      -1.47964107e-002 -1.05385128e-002</_>
    <_>
      -1.95155386e-003 -1.55658356e-003 -1.39829423e-003
      -1.93021365e-003 -1.08107273e-003 -1.73800322e-003
      -7.73250591e-004 -5.77329239e-003 -4.38435236e-004
      -6.58065965e-003 -9.10351519e-003 -5.79841621e-003
      -5.62389893e-003 -9.24717542e-003 -9.14535671e-003
      -1.55414233e-003 -3.47482576e-003</_>
    <_>
      2.44007260e-003 4.40465659e-003 3.29980510e-003 -2.68091145e-003
      4.90015745e-003 -5.63037302e-003 8.13477859e-003 2.62207650e-005
      8.62579513e-003 -2.04293057e-003 7.90991355e-003 -2.26942543e-002
      -1.09891233e-003 3.48347425e-003 8.59670993e-003 -1.87894970e-003
      1.55819422e-002</_>
    <_>
      -1.11207679e-004 4.13107511e-004 -2.30439613e-003 -3.05740745e-003
      -1.10854697e-003 -3.08618369e-003 -6.45871798e-004
      -2.20002350e-003 -4.49805026e-004 -2.40522530e-003
      -6.87549543e-003 -9.21643712e-003 -2.72087101e-003
      -5.01148775e-003 -3.72739951e-003 -6.46347832e-003
      -1.10837340e-003</_>
    <_>
      -2.31436361e-003 -2.33026291e-003 3.73559538e-004 -4.94903245e-004
      -7.09954707e-004 -3.84820439e-003 6.60749385e-004 -4.02874174e-003
      -1.77778117e-003 -3.31688183e-003 -3.32066626e-003
      -1.59002841e-002 2.41699582e-003 7.94624165e-003 2.90026865e-003
      -4.70798183e-003 -6.26497669e-003</_>
    <_>
      -1.42628076e-002 -6.68266462e-003 -2.70389393e-003
      -5.29435929e-003 -2.61416455e-004 -1.51849277e-002
      -6.77950564e-004 -8.17783456e-003 -5.39271487e-003
      -1.10174827e-002 -1.20143909e-002 6.43372443e-003 -1.03270514e-002
      1.44274263e-002 -2.78908224e-003 -1.23658367e-002 1.38925109e-002</_>
    <_>
      -1.12965750e-003 -7.68822094e-004 -4.34718066e-004
      -1.26545387e-003 -1.00734015e-003 -1.93344767e-003
      -1.20906229e-003 -2.60785874e-003 -2.05393601e-003
      -2.38521025e-003 -6.21499773e-003 -7.25867040e-003
      -2.78425659e-003 1.05936371e-003 2.31269817e-003 -5.53410733e-003
      -2.43192795e-003</_>
    <_>
      -1.10288085e-002 -3.95741081e-003 -4.18270146e-003
      -3.97592317e-003 -5.04238904e-003 -9.84267518e-003
      -3.78735573e-003 -8.77275504e-003 -4.53777378e-003
      -1.11458423e-002 6.02864719e-004 -1.98488086e-002 -1.99741544e-003
      -2.47318670e-003 -5.19803120e-003 -1.36169670e-002
      -4.34068497e-003</_>
    <_>
      -3.12928506e-003 4.84010496e-004 -5.52184135e-003 -1.58102326e-002
      -4.58179228e-003 -2.55870875e-002 8.95594945e-004 -1.85403395e-002
      -8.04062176e-004 -1.31308660e-002 -7.42573902e-005
      -2.37853844e-002 1.05469720e-003 1.11203464e-002 1.24604302e-002
      -1.00430921e-002 -2.00214214e-003</_>
    <_>
      -2.05697585e-003 -8.87855887e-004 -1.17351068e-003
      -2.03048205e-003 -1.47078850e-003 -7.25554628e-003 2.45573283e-005
      -4.78754658e-003 -6.10949821e-004 -2.70903762e-003 9.14253178e-005
      -1.75908171e-002 -5.10209799e-003 2.72637210e-003 -3.90906772e-003
      -9.59615223e-003 -4.83936537e-003</_>
    <_>
      -7.80885399e-004 -3.98042503e-005 -1.02434866e-003
      -1.36085239e-003 -1.05467148e-003 -1.51267403e-003
      -6.88339409e-004 -1.23350089e-003 -7.45183264e-004
      -1.36437418e-003 -6.94486499e-003 3.48574162e-004 -2.01947754e-003
      -2.53791548e-003 -3.13172792e-003 -2.47308076e-003
      -1.36872847e-003</_>
    <_>
      -9.78420116e-003 -6.55787811e-003 -6.22320361e-003
      -9.27095860e-003 -1.81134685e-003 -1.54242925e-002
      -2.57050782e-003 -1.56396348e-002 -2.39141565e-003
      -1.00726737e-002 -1.77143235e-002 6.44257339e-003 -9.92336310e-004
      9.83496290e-003 1.07969074e-002 -4.55534697e-004 -9.52703599e-003</_>
    <_>
      -8.09342880e-003 6.30419527e-004 -6.06187014e-003 -5.68356970e-003
      -1.82313088e-003 -1.45313451e-002 9.29332862e-004 -1.51279401e-002
      -4.52025590e-004 -1.14576146e-002 -1.85853187e-002
      -1.43884486e-002 7.36115221e-003 7.46151712e-003 -8.85190850e-004
      9.23652574e-003 -1.57968458e-002</_>
    <_>
      -1.00060576e-003 2.28404673e-003 -1.47716049e-003 -2.87939329e-003
      -1.71310117e-003 -4.69002686e-003 -6.82910031e-004
      -3.26654525e-003 -8.81348038e-004 -2.28370656e-003
      -9.48587898e-003 -3.95445758e-003 -8.50056577e-003
      -2.82573444e-003 -5.45924855e-003 -3.07769561e-003
      -3.21408943e-003</_>
    <_>
      -1.32953771e-003 2.13027044e-004 -1.33655488e-003 -2.70126923e-003
      -5.14655258e-004 -2.63293670e-003 -2.18038578e-004
      -2.27655470e-003 -1.84283985e-004 -2.36854772e-003
      -1.12862708e-002 1.63521618e-004 -3.87106673e-004 -3.86033184e-003
      4.25883278e-004 -3.51152220e-003 -3.53058544e-003</_>
    <_>
      -1.08208030e-003 -1.93589751e-003 -7.39086536e-004
      -1.31594448e-003 -1.05568347e-003 -2.63093784e-003
      -4.75207402e-004 -2.73575541e-003 -1.00449298e-003
      -1.76783127e-003 -8.13254621e-003 -3.62181151e-003
      -3.11357062e-003 -1.60401757e-003 -2.57920148e-003
      -3.58747761e-003 -3.42276320e-003</_>
    <_>
      1.23645263e-002 1.01880021e-002 4.40502912e-003 -1.12551181e-002
      7.70389009e-003 -6.66192919e-003 1.20073734e-002 -8.29264801e-003
      1.59896202e-002 -4.66243410e-003 4.57180286e-004 8.98738566e-004
      -1.16627412e-002 1.39297098e-002 -2.12164107e-003 5.35729807e-003
      2.52370108e-002</_>
    <_>
      -7.84152828e-004 2.53094151e-003 -6.23293687e-003 -7.28348875e-003
      6.61793118e-003 -1.05987601e-002 1.71122570e-002 -1.38910953e-002
      1.29265571e-002 -7.16913631e-003 1.42399846e-002 -1.64434500e-002
      1.95174403e-002 -5.97241800e-003 -1.89289672e-003 -1.60808787e-002
      2.69574672e-002</_>
    <_>
      1.73966389e-003 4.83727921e-003 -3.42753483e-003 -4.76929219e-003
      -1.02299557e-003 -7.08168279e-003 2.08072294e-003 -5.21988934e-003
      3.43394722e-003 -6.65129349e-003 -7.18348194e-003 8.65360443e-003
      1.33125242e-002 4.97792149e-003 1.08144330e-002 4.73671593e-003
      1.40877618e-002</_>
    <_>
      3.58103518e-003 4.57237102e-003 -3.52121796e-003 -6.96762325e-003
      -2.00629514e-003 -1.22575508e-002 5.48881432e-003 -1.03113391e-002
      3.32770403e-003 -4.61486122e-003 -9.56777483e-003 -1.46930735e-003
      2.60888673e-002 5.01797162e-003 1.32923909e-002 8.30976386e-003
      5.38766431e-003</_>
    <_>
      -1.85678042e-002 2.25818735e-002 6.67050073e-004 -3.29519319e-003
      -6.01604255e-003 -3.48155163e-002 1.06102685e-002 -8.91383085e-003
      -4.25086962e-003 -8.35178327e-003 -6.78731594e-003 3.97101324e-003
      1.42994346e-002 1.21914353e-002 -1.10307898e-004 -2.39618253e-002
      4.78432421e-003</_>
    <_>
      1.02164652e-002 1.08746653e-002 4.16164075e-005 1.64246792e-003
      1.82943098e-004 -4.91070561e-003 7.12927803e-003 -1.52875541e-003
      9.89913195e-003 -3.62234307e-003 1.18432688e-002 -8.78086872e-003
      1.71747745e-003 -1.27378320e-002 8.51239450e-003 -1.29700797e-002
      1.40698552e-002</_>
    <_>
      8.23463127e-003 2.96791550e-003 6.79223891e-003 -1.14768259e-002
      5.61511610e-003 -2.78486684e-002 1.52613940e-002 -1.61379818e-002
      1.85871813e-002 -8.65945406e-003 -4.59373090e-003 1.48032997e-002
      -4.17238194e-003 -3.03227594e-003 3.91009962e-003 -2.44669411e-002
      2.42456887e-002</_>
    <_>
      7.63295079e-003 1.13281105e-002 -1.02401730e-002 -1.24273989e-002
      -1.54301664e-003 -3.41228098e-002 7.12721562e-003 -2.31563188e-002
      1.79132205e-002 7.69083563e-004 5.39167412e-003 -1.69720352e-002
      -2.73604430e-002 1.33273127e-002 9.79611930e-003 1.25604924e-002
      2.55824495e-002</_>
    <_>
      1.06101611e-003 -2.09182338e-003 -3.26188421e-003 -3.87814525e-003
      -7.41806952e-003 -1.08590201e-002 -3.57151800e-003
      -7.56879756e-003 -9.44891130e-004 -4.21830593e-003
      -6.60153059e-003 2.03128392e-003 1.86820459e-002 1.79597642e-002
      1.36596886e-002 -2.90194200e-003 -1.01817095e-005</_>
    <_>
      -3.11650278e-004 -1.19234808e-003 -3.68407206e-003
      -5.70009788e-003 7.76971749e-004 -1.38513686e-003 1.29359891e-003
      -1.92145386e-003 2.48013274e-003 -4.69706114e-003 -7.73734041e-003
      -1.07426161e-003 2.22904850e-002 -7.74433045e-003 2.02613082e-002
      -2.51558493e-003 2.65605841e-003</_>
    <_>
      7.21318938e-004 -3.64214554e-003 -3.78954131e-003 -4.67758346e-003
      1.52800372e-003 -2.99117132e-003 3.36325471e-003 -1.96864572e-003
      3.37961060e-003 -7.45001380e-005 3.01344180e-003 -3.91721353e-003
      1.36659630e-002 -7.87206460e-003 1.23838540e-002 -1.54404098e-003
      1.30492281e-002</_>
    <_>
      1.42511644e-003 2.13998323e-003 1.43376412e-003 -4.19201143e-003
      2.34791706e-003 -4.81943088e-003 5.91322314e-003 1.60757918e-004
      9.70224757e-003 -1.24585757e-003 4.27388935e-004 -1.36261731e-002
      7.65766902e-003 1.18938340e-002 1.25308279e-002 2.80544139e-003
      1.96076520e-002</_>
    <_>
      3.40570835e-003 1.98387774e-003 1.39493830e-004 -2.14006030e-003
      1.91924430e-003 -5.09547861e-003 5.68653271e-003 -4.72650304e-003
      6.11396646e-003 6.90163579e-004 -5.75002609e-003 -3.57512967e-003
      1.92827526e-002 -3.06429272e-003 1.37252957e-002 1.09986430e-002
      1.53519791e-002</_>
    <_>
      -6.22261490e-004 1.93398737e-003 1.42808119e-003 -8.80442036e-004
      2.17425660e-003 -1.57183211e-003 3.73260793e-003 -6.18553662e-004
      2.76146154e-003 -3.01922439e-003 2.88676284e-003 -8.23923294e-003
      9.08397790e-003 3.40677216e-003 1.60820857e-002 -3.95515654e-003
      7.25475093e-003</_>
    <_>
      -2.44618580e-003 -1.29485072e-003 -2.05331598e-004
      -1.63128716e-003 7.30689149e-004 -2.51502753e-003 -3.50604350e-005
      -2.21945648e-003 -1.08514249e-003 -3.23590101e-003
      -6.42918376e-003 -1.05653387e-002 -1.19894044e-003 5.24964742e-003
      4.80796909e-003 -4.22040466e-003 -6.35181833e-003</_>
    <_>
      1.16905505e-002 7.57074356e-003 7.23001035e-003 6.08706800e-003
      5.38018439e-003 1.01560785e-003 4.64625470e-003 -2.48003867e-003
      5.17525477e-003 6.85284752e-003 -4.13555000e-003 -8.81151669e-003
      4.49925079e-004 9.57613625e-003 -1.33554637e-002 4.54586791e-003
      -1.95107535e-002</_>
    <_>
      9.68822569e-004 1.13295892e-003 6.95011404e-004 2.95322650e-004
      1.32655941e-005 5.12023398e-005 -6.16313919e-005 -3.47713038e-004
      6.50508795e-004 6.09091891e-004 5.67511772e-004 -5.12759434e-003
      -5.65880444e-003 -6.70297584e-003 -7.21136713e-003
      -1.87774899e-003 -2.02580611e-003</_>
    <_>
      6.47508656e-004 1.27926841e-003 1.92605495e-003 -1.11465168e-003
      2.02647247e-003 3.12738994e-004 -1.53047862e-004 -1.02071186e-004
      -5.43539820e-004 -1.50718575e-003 -1.67783573e-002
      -7.68047234e-004 -8.11672863e-003 -3.80745227e-003
      -9.64845810e-003 -9.95679293e-003 -3.28560802e-003</_>
    <_>
      -4.81673254e-004 -1.71823209e-004 -1.24299142e-004 4.27247403e-004
      5.21209266e-004 3.33254808e-004 5.26575197e-004 5.61207882e-004
      -1.31682842e-003 8.31010228e-004 -3.03964503e-003 -8.36955942e-003
      -4.39852802e-003 -6.01277873e-003 -5.08642569e-003
      -1.36431714e-003 -2.27200938e-003</_>
    <_>
      7.22146500e-003 1.75473839e-003 4.08483762e-003 1.93475746e-003
      1.31228357e-004 -2.66037183e-003 1.64105913e-005 -1.51978119e-003
      2.02087499e-003 3.40483803e-003 -1.25291562e-002 -7.00991089e-003
      -4.33767826e-004 6.16578851e-003 -1.27220731e-002 3.73169617e-003
      -1.05798952e-002</_>
    <_>
      1.90632232e-002 1.48277087e-002 5.39346039e-003 -1.84987427e-003
      9.55496822e-003 3.93190747e-003 3.45740234e-003 6.57653389e-003
      8.93913675e-003 1.38866846e-002 -9.87584330e-003 -3.81154055e-003
      -6.81485562e-003 -2.27349345e-003 -4.14448325e-003 9.22156405e-003
      -7.87566882e-003</_>
    <_>
      2.57352460e-002 8.41318909e-003 1.82067454e-002 1.33885175e-003
      1.65895857e-002 8.64638947e-003 1.36583820e-002 4.11220035e-003
      1.16181085e-002 3.84550798e-003 -9.41129681e-003 -5.70300501e-003
      1.39914481e-002 1.84079792e-004 -7.77328340e-003 -6.46832492e-003
      3.26222577e-003</_>
    <_>
      -9.50266549e-004 -3.99078941e-003 -3.46908317e-004
      -4.89589293e-004 1.40858581e-003 1.04247336e-003 -1.76670030e-003
      -3.41624138e-003 -3.05899954e-003 -3.17529263e-003
      -1.52037358e-002 -5.34906238e-003 -3.95120354e-003
      -3.61122075e-003 -1.90822966e-003 -4.89502493e-003
      -7.23066693e-003</_>
    <_>
      3.84098873e-003 1.31446379e-003 2.06258358e-003 1.30212109e-003
      2.12219730e-003 2.00963696e-003 2.03012535e-003 1.82373717e-003
      4.40043071e-003 3.71214398e-003 1.21148354e-004 3.69440624e-003
      9.47049912e-003 5.10043046e-003 3.22142337e-003 1.29990606e-002
      3.18886782e-003</_>
    <_>
      3.83422226e-002 1.92162804e-002 1.26547571e-002 -1.47151377e-003
      1.10650649e-002 -1.13710510e-002 -2.56840605e-003 -1.67654827e-002
      4.56780894e-003 2.54229666e-003 -2.22387398e-003 -8.36565811e-003
      -1.42075866e-002 1.61835551e-002 -2.09194310e-002 1.44791119e-002
      -2.21702978e-002</_>
    <_>
      8.70372355e-003 1.07318033e-002 3.12295998e-003 1.83003605e-003
      1.81484642e-003 1.06776459e-003 2.42111576e-003 2.03843368e-003
      3.77689302e-003 4.57012421e-003 3.45373806e-003 6.49828929e-003
      5.83787030e-003 -5.06267603e-003 -1.36953210e-002 9.23435576e-003
      9.25042294e-003</_>
    <_>
      2.18573376e-003 2.15887069e-003 1.30390725e-003 -6.34194526e-004
      7.97384651e-004 -3.47351393e-004 -8.60913424e-004 -1.90823537e-003
      -1.48431829e-003 -6.52770977e-004 -5.37955714e-003
      -1.30893569e-002 -5.39529417e-003 -6.71463460e-003
      -1.12493499e-003 -9.28085670e-003 -5.70249930e-003</_>
    <_>
      4.78293281e-003 7.53726065e-003 6.96117431e-003 2.09519034e-003
      4.67495527e-003 -3.22418840e-004 4.92911227e-003 -3.19883751e-004
      6.66755205e-003 5.11277607e-003 6.88658503e-004 9.36962533e-006
      -2.80752964e-003 -5.87014342e-003 -2.13009082e-002
      -2.14192225e-003 -7.21437111e-003</_>
    <_>
      2.39544737e-004 -3.02621804e-004 1.33168371e-003 8.52713187e-004
      7.59194139e-004 1.90643780e-003 1.29389198e-004 -2.40581809e-003
      1.21032028e-003 -1.78763841e-003 -3.86377471e-003 -2.32449686e-003
      -4.67596622e-003 -1.04136309e-002 -1.37341684e-002 1.77390850e-003
      -3.35636619e-003</_>
    <_>
      5.92508120e-003 9.11600515e-003 7.13557890e-003 3.67952255e-003
      5.89982467e-003 4.37520118e-003 5.19030262e-003 3.57081136e-003
      6.47789519e-003 5.10482443e-003 1.19919041e-002 -5.44865662e-003
      -2.64775357e-003 1.72584565e-004 -6.94202492e-003 4.00055479e-003
      8.32526665e-003</_>
    <_>
      1.47192040e-003 1.28117763e-003 -1.59757939e-004 -1.40871317e-003
      8.10806989e-004 -6.40996324e-004 -4.48347506e-004 -7.70185899e-004
      3.41338076e-004 2.67372059e-004 -7.03634880e-003 -9.72350501e-003
      -5.53492224e-003 -7.43847806e-003 -7.61843938e-003
      -6.47545373e-003 -2.02436838e-003</_>
    <_>
      1.96963176e-003 3.99984466e-003 7.22533651e-003 5.37056895e-003
      2.80200038e-003 2.28512497e-003 2.59520556e-003 -2.41304166e-003
      -4.46450780e-004 2.51309574e-003 1.15604466e-003 -1.91969275e-002
      3.66968010e-003 1.06072417e-002 -9.94506385e-003 -3.09369876e-003
      -1.42909084e-002</_>
    <_>
      -4.83484147e-003 -4.02096007e-003 1.01638548e-002 6.34159381e-003
      9.63135995e-003 2.11328035e-003 -9.73530769e-005 2.47552874e-003
      3.08331242e-003 7.19287805e-003 5.10293199e-003 -7.01881654e-004
      -1.36813661e-002 5.85953053e-003 -3.26283462e-002 2.63592717e-003
      1.57104712e-002</_>
    <_>
      -4.97670611e-004 -7.60284660e-004 1.31861982e-003 -2.37573215e-004
      -4.12905472e-004 -7.24304351e-004 -1.48749852e-003
      -2.53565190e-003 -2.37843138e-003 -1.01947901e-003
      -7.89157022e-003 -1.14889778e-002 -4.70622862e-003
      -1.24091675e-004 -4.94196080e-004 -7.23962998e-003
      -4.62899869e-003</_>
    <_>
      -1.10246369e-003 7.13776099e-003 5.20108733e-003 4.93180193e-003
      1.02964696e-003 2.44105933e-003 -1.01776363e-003 -4.60224459e-004
      2.22425706e-006 1.18456059e-003 1.43759139e-002 -1.35760950e-002
      3.28595005e-003 -7.31121236e-003 -2.58794874e-002 -7.84892496e-003
      -1.02400556e-002</_>
    <_>
      1.69191342e-002 1.68314241e-002 1.37627320e-002 5.43975562e-004
      9.65427142e-003 3.79805476e-003 2.11465941e-003 -6.33439142e-003
      7.12094922e-003 8.31710733e-003 2.42517125e-002 -7.72455614e-003
      -1.62427891e-002 1.54354912e-003 -2.60327440e-002 1.35121625e-002
      2.35531898e-003</_>
    <_>
      1.13643752e-003 3.07455403e-003 4.23839083e-003 2.45795981e-003
      1.69133337e-003 -4.46639815e-003 1.11876929e-003 -2.22086487e-003
      2.22141389e-003 4.17861016e-003 6.56451657e-003 -1.50432568e-002
      -7.15207914e-003 -4.63000033e-004 -1.48430271e-002
      -7.45472452e-003 -5.99709433e-003</_>
    <_>
      -2.97405553e-004 1.76518733e-004 -3.23571177e-004 -8.13547755e-004
      -6.81083067e-004 -7.74805725e-004 -5.85393340e-004
      -6.43267354e-004 -4.94151318e-004 -5.34207502e-004
      -7.23916898e-003 1.09827099e-003 -2.26682541e-003 -3.52053693e-003
      -5.14951535e-003 -1.86267914e-003 -1.39772554e-003</_>
    <_>
      -2.64332490e-003 -8.12614709e-003 1.77326500e-002 5.83102601e-003
      2.25100107e-002 -3.31914914e-003 1.03511265e-003 -2.03725249e-002
      -4.42657061e-003 7.44107086e-003 -2.26744749e-002 1.56092066e-002
      1.47693802e-003 1.71436854e-002 -3.35077159e-002 2.50781793e-002
      -2.43869536e-002</_>
    <_>
      3.35369888e-003 8.30506533e-003 6.64400449e-003 5.77592105e-003
      6.19797641e-003 2.23089752e-004 5.56769036e-003 -2.70105968e-003
      7.87041243e-003 6.98828930e-003 -7.34993396e-003 6.90286653e-003
      8.19091685e-003 -7.84769189e-004 -2.38700937e-002 1.73507966e-002
      -2.04302147e-002</_>
    <_>
      3.76989803e-004 2.62269960e-003 5.70302189e-004 -1.18726119e-003
      -3.47413647e-004 -2.45197816e-003 2.08482888e-004 -1.19249383e-003
      7.73875508e-004 1.26728124e-003 -7.07410602e-003 -4.30830009e-003
      -8.84669088e-003 -6.20735856e-003 -1.14362910e-002 1.15345628e-003
      -3.72040737e-003</_>
    <_>
      -6.66342734e-004 2.37517408e-004 -4.50090665e-005 -2.14051548e-003
      6.42517989e-004 -1.30071212e-003 5.25444513e-004 -1.13327545e-003
      1.24148582e-003 -1.96629815e-004 -1.32152652e-002 5.70271630e-004
      4.76650108e-004 -8.08215979e-003 -3.47801484e-003 -1.19887642e-003
      -5.14305057e-003</_>
    <_>
      -5.54910395e-004 -2.66746408e-003 3.47450725e-004 -4.83192678e-004
      -4.48190665e-004 -1.74460514e-003 -5.14984131e-005
      -2.13666796e-003 -3.02748376e-004 -8.39071363e-005
      -8.54599010e-003 -4.66087181e-003 -3.47284670e-003
      -3.81071889e-003 -6.33915979e-003 -2.06020498e-003
      -4.56133159e-003</_>
    <_>
      7.20657269e-003 6.02949550e-003 6.20827870e-003 1.28291070e-003
      5.98726980e-003 4.85939998e-003 4.58867010e-003 1.11993041e-003
      6.43230276e-003 3.57943540e-003 6.27215952e-003 4.56813723e-003
      -3.87604488e-003 -1.68048940e-003 -1.08855199e-002 9.86192282e-003
      9.94277839e-003</_>
    <_>
      4.09150636e-003 4.85119503e-003 4.42885840e-003 4.28855186e-003
      5.38000418e-003 4.16569924e-003 5.80360508e-003 9.88919637e-004
      5.72794583e-003 5.14967460e-003 1.51377926e-002 2.65485491e-003
