<?xml version="1.0"?>
<opencv_storage>
<my_svm type_id="opencv-ml-svm">
  <svm_type>C_SVC</svm_type>
  <kernel><type>LINEAR</type></kernel>
  <C>1.0000000000000001e-001</C>
  <term_criteria><epsilon>2.2204460492503131e-016</epsilon>
    <iterations>10000000</iterations></term_criteria>
  <var_all>17</var_all>
  <var_count>17</var_count>
  <class_count>50</class_count>
  <class_labels type_id="opencv-matrix">
    <rows>1</rows>
    <cols>50</cols>
    <dt>i</dt>
    <data>
      1 2 4 5 6 8 9 10 15 17 19 20 21 22 23 24 27 28 29 31 35 45 49 50
      51 52 53 55 59 63 67 72 76 85 86 105 129 143 155 160 165 168 175
      195 209 210 212 218 219 230</data></class_labels>
  <sv_total>1225</sv_total>
  <support_vectors>
    <_>
      -7.81899085e-004 -4.66123549e-003 4.80268802e-003 -4.96830232e-003
      2.00264691e-003 -3.59434076e-003 1.63116737e-003 -3.01773730e-003
      -3.23810219e-003 -9.28937981e-004 -1.60843823e-002 1.09607144e-003
      5.03545394e-004 1.43054938e-002 4.09868266e-003 -1.45657291e-003
      -1.92932673e-002</_>
    <_>
      -6.79753779e-004 -4.48184460e-003 5.46030991e-004 -3.42521304e-003
      -2.27808300e-003 -3.57058784e-003 5.21903392e-004 -4.99416236e-003
      -5.44082432e-004 -1.92347378e-003 -1.57682765e-002
      -5.69083448e-003 3.45843798e-003 5.92286931e-003 -1.30067882e-003
      -2.21494306e-003 -8.08149297e-003</_>
    <_>
      -1.85165217e-003 -2.94183381e-003 -1.33910682e-003
      -1.98319252e-003 -1.14348694e-003 -2.01437925e-003
      -5.01764880e-004 -1.22641167e-003 -2.50364770e-003
      -1.84285908e-003 -1.03187598e-002 -1.71377196e-003 3.11934273e-004
      4.77379101e-004 6.39598526e-004 -1.70183112e-003 -4.78557590e-003</_>
    <_>
      -1.06786878e-003 -6.59099547e-003 8.24964882e-005 -4.75566182e-003
      -3.33853438e-003 -5.85852051e-003 -7.86783421e-005
      -3.42499674e-003 -1.65680319e-003 -1.31028413e-003
      -1.24636507e-002 -2.34229234e-003 6.01607328e-003 3.42339464e-003
      -4.16934548e-004 3.12976609e-003 -1.54445041e-002</_>
    <_>
      -7.39116594e-003 -8.14839639e-003 6.63379324e-004 -3.63793923e-003
      -2.77531263e-003 1.75026769e-003 -5.18887816e-003 8.00705166e-004
      -7.00004678e-003 4.47626878e-003 -1.21144522e-002 1.78261343e-002
      7.88660720e-003 2.49533122e-003 -4.89256298e-003 1.09785739e-002
      -1.68337971e-002</_>
    <_>
      -3.73694347e-003 -4.34049778e-003 -2.11337511e-003
      -3.20160529e-003 -1.77917781e-003 -2.12067226e-003
      -5.61595487e-004 -1.29409542e-003 -2.52454635e-003
      -1.79132645e-003 -1.04720555e-002 2.42350600e-003 4.51396033e-003
      3.87147721e-003 8.51815566e-003 -5.03903662e-004 -5.14933234e-003</_>
    <_>
      -1.42010150e-003 -2.59107025e-003 -4.95230663e-004
      -1.95557834e-003 -7.74849497e-004 -1.95628568e-003 9.46039567e-004
      -1.64504733e-003 -9.55377764e-004 1.90012739e-004 -9.41548869e-003
      9.38348589e-004 6.24678889e-003 5.34212636e-003 4.88112867e-003
      4.49898792e-003 -1.08577190e-002</_>
    <_>
      -2.10486096e-003 -3.64460773e-003 -3.75343043e-005
      -3.21618305e-003 -2.40432378e-003 -3.20904609e-003 6.82327081e-004
      -1.79126137e-003 -9.71230838e-005 7.43248791e-004 -9.18223243e-003
      -1.08263819e-002 -2.10760441e-003 -9.84916557e-003
      -1.85692601e-003 2.76947580e-003 -1.31703541e-002</_>
    <_>
      -2.31790682e-003 -2.43402575e-003 4.44129138e-004 -2.04237294e-003
      -1.33917216e-004 -1.45769550e-003 -3.83331935e-004
      -8.86006630e-004 -2.72515323e-003 -2.41204794e-003
      -1.30918520e-002 3.73790413e-003 2.48493569e-004 6.98262965e-003
      4.75203712e-003 -4.71394695e-003 -3.26477340e-003</_>
    <_>
      -2.07562651e-003 -3.45071522e-003 -8.94762867e-004
      -1.04139920e-003 -4.54340370e-005 -7.09448301e-004 9.47126537e-004
      4.23362217e-004 -2.05325545e-003 2.28618970e-004 -7.23502785e-003
      -7.58824823e-003 5.49216289e-004 -2.40177312e-003 2.56732223e-003
      2.36365967e-003 -4.20969306e-003</_>
    <_>
      7.86305580e-004 -1.70941360e-003 6.43197389e-004 -9.00415704e-004
      -1.58081250e-003 -2.50640162e-003 -4.66538069e-004
      -1.78951421e-003 -9.04307875e-004 3.57263372e-004 -1.12669710e-002
      2.99019716e-003 1.87504152e-003 6.22373726e-003 5.29601064e-004
      3.12976656e-003 -7.74302566e-003</_>
    <_>
      8.28126969e-004 -5.57392996e-005 5.12118393e-004 -5.83319226e-003
      -3.40470637e-004 -3.82116111e-003 6.02688175e-004 -5.79999469e-004
      1.05641710e-004 2.42241495e-003 -1.82721745e-002 3.14844330e-003
      -3.38622252e-004 4.19244124e-003 5.13213826e-003 -1.21814455e-003
      -7.14329770e-003</_>
    <_>
      1.47001454e-004 -2.60208757e-003 2.82890484e-004 -2.74316664e-003
      3.42006329e-004 -7.32764194e-004 1.11363817e-003 -8.94235622e-004
      -8.07155098e-004 -1.32336363e-003 -1.22505892e-002 2.49195355e-003
      5.09199174e-003 4.02664719e-003 6.11067750e-003 -1.96894351e-003
      -4.16265195e-003</_>
    <_>
      -1.64370972e-003 -2.84059509e-003 -6.86770014e-004
      -1.21330225e-003 -2.44790979e-004 -5.26109303e-004
      -5.25526470e-004 -1.47661206e-003 -1.82861579e-003
      -1.54987338e-003 -8.39759130e-003 5.55170060e-004 2.28718901e-003
      2.30343477e-003 4.64266026e-003 -3.39104387e-004 -4.49508755e-003</_>
    <_>
      -2.43028597e-004 -1.47178536e-003 -2.22845250e-004
      -1.06460217e-003 -3.61514394e-005 -9.84601575e-005 5.13652631e-004
      -1.36716044e-004 7.00514589e-004 6.47900510e-004 -4.81276074e-003
      3.81958415e-003 5.54414839e-003 4.24918951e-003 5.61621785e-003
      4.92854556e-003 -1.13978155e-003</_>
    <_>
      -4.50834981e-004 -2.48938473e-003 -1.62392715e-003
      -3.88485380e-003 -1.69659103e-003 -3.81713174e-003
      -9.93360649e-004 -3.62401782e-003 -2.51335767e-003
      -1.84281624e-003 -1.19298324e-002 6.36932719e-003 2.40678783e-003
      5.51119307e-003 5.97047247e-003 -3.22534906e-004 -8.25055502e-003</_>
    <_>
      -1.84814923e-003 -1.62776746e-003 -1.28637394e-003
      -4.82460065e-003 -3.14963539e-003 -4.88617877e-003
      -3.26915528e-004 -9.61020181e-004 -2.13220366e-003 2.38134083e-003
      -1.34128062e-002 7.73055991e-003 1.28651448e-002 5.44473529e-003
      2.57283216e-003 1.32982256e-002 -3.66306771e-003</_>
    <_>
      -1.42857386e-003 -2.11982429e-003 -4.77303489e-004
      -2.43191025e-003 -1.03630486e-003 -2.18102429e-003
      -4.82316187e-004 -1.87860965e-003 -2.55297311e-003
      -1.64838659e-003 -1.00556035e-002 -5.32266777e-003 1.89082802e-003
      4.67993290e-004 5.89634432e-003 -3.58754862e-003 -6.59070350e-003</_>
    <_>
      -5.86656295e-003 -2.95395288e-003 2.05524522e-003 -5.69011178e-003
      -1.24368060e-004 -5.95150469e-003 4.19216137e-003 -3.11725610e-003
      1.24517479e-003 1.92715076e-003 -1.58406496e-002 1.07633253e-003
      6.87792711e-003 4.14944347e-003 1.69668067e-003 3.43390438e-003
      -2.23076008e-002</_>
    <_>
      -4.16016020e-003 -5.90232247e-003 2.37631495e-004 -3.26239434e-003
      -2.59726308e-003 -1.89317344e-003 9.18020145e-004 -3.98528948e-003
      -1.59929215e-003 -3.99917923e-003 -1.54061858e-002 3.93160479e-003
      7.13003613e-003 -1.97563018e-003 -2.02233251e-003 -3.05706100e-003
      -1.24911340e-002</_>
    <_>
      -3.45657114e-003 -4.48521227e-003 4.59008012e-003 -4.24698275e-003
      3.93671868e-003 1.13216741e-003 5.48540242e-003 4.93238855e-004
      3.23545747e-003 2.15022895e-003 -1.21971425e-002 -8.82316474e-003
      6.13375986e-003 1.25554772e-002 1.88838784e-002 5.09946188e-003
      -1.04562379e-003</_>
    <_>
      -1.68743543e-003 -2.96375505e-003 -2.15497799e-003
      -4.50323196e-003 -1.48240745e-003 -3.19333375e-003 3.51752416e-004
      -1.05302199e-003 -7.32672866e-004 -4.26355284e-004
      -1.32782096e-002 -5.68563491e-003 6.59016520e-003 -1.00219960e-003
      3.61146708e-003 -9.38918267e-004 -6.47346815e-003</_>
    <_>
      -5.14083821e-003 -5.48103824e-003 2.18736124e-004 -2.35455018e-003
      -1.54830015e-003 -2.21269601e-003 7.71788822e-004 -2.01403163e-003
      -2.43704533e-003 -8.50616139e-004 -9.91657376e-003
      -8.91458988e-003 6.67789485e-003 5.88291278e-003 4.17139381e-003
      2.15286578e-004 -8.47330410e-003</_>
    <_>
      -7.45775690e-003 -7.03694159e-003 -7.39757146e-004
      -3.59740853e-003 -7.50622654e-004 -2.58686836e-003
      -9.31429851e-004 -2.35941680e-003 -3.66390008e-003
      -1.24906201e-003 -1.46582667e-002 7.68705318e-003 2.50195269e-003
      7.94484932e-003 4.54662601e-003 1.77294307e-003 -3.25560430e-003</_>
    <_>
      -2.09636195e-003 -2.23185518e-003 -2.24596326e-004
      -1.22080685e-003 -9.12189833e-004 -1.28922251e-003
      -6.68066030e-004 -1.42930343e-003 -1.93619623e-003
      -1.06844516e-003 -7.92975724e-003 -5.00714500e-003 1.80542294e-004
      1.21081586e-003 2.87815859e-003 -2.31803465e-003 -3.58087500e-003</_>
    <_>
      -9.21150018e-003 -7.91579206e-003 -1.54841063e-003
      -3.45686148e-003 -2.97751627e-003 -3.09148361e-003
      -1.40572456e-003 -1.76932453e-003 -4.48819948e-003
      -2.71921745e-003 -9.97958425e-003 4.27046930e-003 9.10158549e-003
      3.98980826e-003 6.16095448e-003 -1.83883356e-003 -1.17719881e-002</_>
    <_>
      -3.82305263e-003 -5.65344328e-003 -1.26553793e-003
      -7.56314304e-003 -2.80620088e-003 -3.94705357e-003
      -1.19726732e-003 -4.67982423e-003 -4.22668876e-003
      -6.80467347e-004 -1.59543101e-002 4.79948148e-003 3.67647363e-003
      8.24806187e-003 9.97712184e-003 3.41894547e-003 -1.24656893e-002</_>
    <_>
      -6.46585319e-003 -8.92970152e-003 -1.84836972e-003
      -4.87386528e-003 -3.01302481e-003 -4.77839028e-003 8.42668000e-004
      -1.44291378e-003 -3.28244548e-003 1.31034307e-004 -9.80041735e-003
      -3.92849324e-003 6.31139707e-003 6.65632170e-003 2.25271191e-003
      -3.42193153e-003 -1.80833433e-002</_>
    <_>
      -1.23930559e-003 -1.00731768e-003 -8.49865610e-004
      -1.52842468e-003 -1.12406409e-003 -1.33332098e-003
      -3.77776480e-004 -7.70028273e-004 -7.70632352e-004
      -6.60688034e-004 -8.19795765e-003 2.08359840e-003 6.67860091e-004
      -1.24100468e-003 -1.11385377e-003 -4.11093759e-004
      -2.71759159e-003</_>
    <_>
      -3.64730437e-003 -4.79521416e-003 -6.45176624e-004
      -2.69131549e-003 -1.66674043e-004 -3.44288792e-003
      -1.03576493e-003 -2.50156177e-003 -1.45639712e-003
      -1.87446698e-004 -1.05320690e-002 5.00761764e-003 1.11334200e-003
      4.05822834e-003 6.57847291e-003 1.58226257e-003 -7.00871274e-003</_>
    <_>
      -3.61202518e-003 -4.05157683e-003 -8.05342162e-004
      -1.91740273e-003 -4.97844303e-004 -1.89654378e-003 4.08864231e-004
      -1.72806589e-003 -1.25651935e-003 -2.34421881e-004
      -6.37238007e-003 -3.50780756e-004 8.82121269e-003 5.00459969e-003
      5.52845001e-003 8.16571806e-003 -8.25183559e-003</_>
    <_>
      -2.88122171e-003 -1.30125445e-005 -1.83281384e-003
      -4.73475829e-003 -2.76438543e-003 -5.21904742e-003 4.15435876e-004
      -1.63940340e-003 -1.86914927e-003 -2.29568643e-004
      -1.19619332e-002 1.06131993e-005 -1.03894551e-003 -3.88771133e-003
      -7.14794779e-003 2.45970162e-003 -7.41245737e-003</_>
    <_>
      -1.29959860e-003 -1.14744471e-003 -5.50996861e-004
      -1.77034375e-003 -5.29467012e-004 -1.57245982e-003
      -5.21415895e-005 -1.39675254e-003 -2.08428857e-004
      -7.42030796e-004 -9.82655026e-003 2.85245758e-003 1.51303376e-003
      -1.35142822e-003 2.98567559e-003 -4.47022554e-004 -2.61978898e-003</_>
    <_>
      -1.50657620e-003 -3.15182167e-003 -1.17570911e-004
      -1.18614454e-003 -8.57525039e-004 -2.06949096e-003 1.20710196e-004
      -1.65252516e-003 -1.05202349e-003 -4.14420065e-004
      -9.12995357e-003 -2.59425928e-004 1.67384022e-003 2.16469658e-003
      2.94464687e-003 -1.61000004e-004 -5.56676555e-003</_>
    <_>
      6.51903159e-004 -2.81046377e-003 1.95009878e-003 -6.21172786e-003
      2.29237857e-003 1.88331527e-003 3.97755858e-003 -2.11372692e-003
      4.04418120e-003 2.26487801e-003 -9.70336515e-003 4.89576254e-003
      6.26620324e-003 1.08338455e-002 9.96892806e-003 1.41237341e-002
      -1.35656062e-003</_>
    <_>
      -9.04840603e-003 -9.01124626e-003 -5.77515829e-003
      -1.05064278e-002 8.09095218e-004 -3.11584258e-003 6.93919882e-003
      3.62343795e-004 2.32583121e-003 7.98572786e-003 -7.16254534e-003
      9.86883882e-003 1.90287977e-002 3.20503861e-003 2.25284602e-003
      8.84712022e-003 -8.57183617e-003</_>
    <_>
      -1.19832833e-003 -6.00024941e-004 -6.52624236e-004
      -2.01685354e-003 -4.79922630e-004 -1.20086782e-003 6.16538222e-004
      -1.07346405e-003 3.38230078e-004 -7.23773439e-004 -3.17474687e-003
      6.96564466e-003 8.74180719e-003 5.39183384e-003 7.29649514e-003
      6.10114681e-003 1.00658806e-004</_>
    <_>
      -1.64270843e-003 -2.21282500e-003 -8.80342501e-004
      -2.95333075e-003 -1.06871850e-003 -1.69501605e-003 1.48394459e-003
      -1.47929322e-003 3.69858637e-004 1.04202400e-003 -4.11204621e-003
      7.04238715e-004 1.23411240e-002 2.96862563e-003 6.69616042e-003
      8.59526359e-003 -3.99598386e-003</_>
    <_>
      -7.71316933e-003 -8.67860799e-004 4.41641430e-004 -3.23225511e-003
      -2.18876242e-003 -4.06294269e-003 9.00174084e-004 -1.93872547e-003
      -4.01522405e-003 1.43807847e-003 -1.45088127e-002 9.62241646e-003
      1.07899653e-002 7.85891805e-003 6.39684964e-003 2.94610392e-003
      -9.51525941e-003</_>
    <_>
      9.03128274e-003 8.48643295e-003 2.08105170e-003 -7.27613969e-003
      -9.41986404e-003 -1.05046434e-002 6.25073537e-003 -2.84732250e-003
      9.54909716e-003 3.48287867e-003 -4.33896389e-003 3.21269296e-002
      3.38828079e-002 -3.48921195e-002 1.03530278e-002 -6.24919962e-003
      -9.34314076e-003</_>
    <_>
      -5.96554345e-003 -8.45654681e-003 2.04412220e-003 -7.90511165e-003
      -8.79293773e-004 -7.27376482e-003 3.27423261e-003 -4.33850056e-003
      1.33303029e-003 2.07481137e-003 -1.87017247e-002 2.00193226e-002
      9.47760697e-003 1.96096790e-003 2.26062071e-003 3.05382581e-003
      -8.43843166e-003</_>
    <_>
      -5.55106020e-003 -5.30765811e-003 -2.28603650e-003
      -7.85106979e-003 -2.67250952e-003 -6.20233454e-003
      -1.89549173e-003 -7.26236310e-003 -1.70882198e-003 5.20088663e-003
      -1.84741821e-002 1.22046974e-002 2.21733865e-003 1.15446514e-002
      4.91941627e-003 1.66412629e-002 -1.29642636e-002</_>
    <_>
      -7.23598292e-004 -2.52501899e-003 -4.46204038e-004
      -1.56396721e-003 -1.74070185e-003 -1.19614869e-003
      -7.35865673e-004 -1.38007035e-003 -1.01515034e-003 2.11669787e-004
      -6.04641484e-003 3.74963786e-003 8.24430957e-003 7.32262246e-003
      6.74699899e-003 2.66860053e-003 -3.98110831e-003</_>
    <_>
      -1.20657636e-003 -2.64138496e-003 -7.02265766e-004
      -2.21854565e-003 9.61579717e-005 1.43309578e-003 1.15903051e-004
      -4.75391629e-004 -3.41098232e-004 3.08730778e-005 -8.48779082e-003
      2.01994414e-003 8.37707613e-003 7.77673151e-004 9.40992683e-003
      2.08000443e-003 -3.51680070e-003</_>
    <_>
      -2.20197625e-003 -5.25146071e-003 -1.80279487e-003
      -3.47484532e-003 2.87003757e-004 -5.10864367e-004 1.68819563e-003
      -3.33773758e-004 8.29969125e-004 1.67156861e-003 -2.52679759e-003
      2.35663820e-003 1.22178569e-002 -1.24366500e-003 1.00341132e-002
      4.34855092e-003 8.79377185e-004</_>
    <_>
      -1.84801465e-003 -2.73682806e-003 1.06656353e-003 -2.65239063e-003
      6.89328124e-004 2.39301880e-004 2.10094894e-003 6.62607781e-004
      2.44627753e-003 1.59107358e-003 -4.43750480e-003 4.21903649e-004
      9.30605736e-003 1.00814076e-002 1.14129828e-002 7.34003820e-003
      8.47502146e-004</_>
    <_>
      -1.76124077e-003 -3.28964973e-003 2.06237892e-004 -1.75039831e-003
      9.90463886e-005 -3.98652744e-004 1.55385979e-003 -8.22351547e-004
      9.37820878e-004 1.90127047e-003 -3.98038933e-003 3.50616669e-004
      1.11015895e-002 2.81041465e-003 8.17310903e-003 9.54526477e-003
      -9.47919267e-004</_>
    <_>
      -1.96335441e-003 -1.64831674e-003 8.43171554e-004 -1.33264263e-003
      7.86794873e-004 4.98049718e-004 1.89444656e-003 2.10403043e-004
      8.04370677e-004 1.73308945e-004 -1.52791687e-003 -2.02199956e-003
      9.22956504e-003 4.25428199e-003 1.17360633e-002 3.23231658e-003
      -1.81185824e-004</_>
    <_>
      -2.43449374e-003 -2.23937561e-003 1.74282148e-004 -1.48554635e-003
      5.10752201e-004 -1.89529965e-004 1.59434698e-004 -6.14224817e-004
      -1.14128820e-003 -9.73015558e-004 -7.32621597e-003
      -2.75044376e-003 2.41696835e-003 4.40134108e-003 5.83654968e-003
      1.10632413e-004 -6.38325186e-003</_>
    <_>
      -3.32915946e-003 -1.49334995e-002 -6.57199277e-003
      -7.33041088e-004 -1.88907385e-002 -5.85813774e-003 7.26645347e-004
      -1.77535769e-002 1.09273335e-002 -2.22001155e-003 -1.69242341e-002
      -1.70158129e-002 2.41322666e-002 2.00567134e-002 -6.04290282e-003
      6.01301249e-003 9.20534041e-003</_>
    <_>
      -5.05827321e-003 -5.99645078e-003 -6.48830039e-003
      -2.32817023e-003 -4.79005603e-003 -3.45688080e-003
      -2.18174048e-003 -2.05498026e-003 -5.99878142e-003
      -4.67645284e-003 -1.84305795e-002 -4.13363753e-003 2.64122360e-003
      -8.34799604e-004 1.52800011e-003 -1.61402335e-003 -4.35359869e-003</_>
    <_>
      3.11905495e-003 -1.14083458e-002 -8.64030048e-003 -2.59725098e-003
      -1.92265101e-002 -1.31604644e-002 -2.98429304e-003
      -5.86021319e-003 4.03469778e-004 -2.95390608e-003 2.31900695e-003
      -1.11438548e-002 3.83648835e-002 1.35789928e-003 4.84877033e-003
      1.98038835e-002 -1.12044886e-002</_>
    <_>
      -2.05306895e-003 -1.76240236e-003 -1.58883468e-003 1.59663113e-003
      -1.71693845e-003 2.39206222e-003 -1.21115521e-003 2.98516150e-003
      9.90065513e-004 3.90418805e-003 4.70509659e-003 9.25306510e-003
      1.06690275e-002 -4.20848746e-003 2.64369021e-003 1.38348108e-002
      2.61147530e-003</_>
    <_>
      -4.52864775e-003 -3.40321846e-003 -4.78700781e-003
      -1.83953485e-003 -3.62836430e-003 -1.95622165e-003
      -6.43634761e-004 2.34459163e-004 -3.61695653e-004 -8.51500547e-004
      -4.66642855e-003 6.51095808e-003 1.09637463e-002 -2.21733470e-004
      1.20065147e-002 5.89034986e-003 1.48174167e-003</_>
    <_>
      -3.17334016e-005 -7.45652476e-004 -2.97327014e-003 4.30867978e-004
      -2.18577706e-003 -2.33531999e-003 1.27105939e-003 -1.05812564e-003
      1.96749764e-003 2.22469028e-003 -8.21237266e-003 5.59963472e-003
      1.41492188e-002 3.47012887e-003 8.51320475e-003 9.88393836e-003
      -8.01637769e-003</_>
    <_>
      -1.00329693e-003 4.13903414e-004 -3.00797471e-003 9.84002370e-004
      -5.05641801e-003 -3.85186169e-004 6.90505840e-005 3.56767181e-004
      2.23517395e-003 2.08360027e-003 4.94059082e-003 -1.77872833e-002
      -3.16130673e-003 -2.21779272e-002 -2.20185588e-003 4.67258645e-003
      -2.06727814e-003</_>
    <_>
      -1.02018686e-002 -3.24339699e-003 -4.81978618e-003
      -1.60415447e-003 -4.43595834e-003 -2.25368960e-004
      -2.89762416e-003 4.33954730e-004 -3.82871204e-003 -5.33859478e-003
      -2.53414195e-002 1.37131102e-002 1.03581208e-003 9.81425960e-003
      8.44292715e-003 -8.37175827e-003 5.52750193e-003</_>
    <_>
      -2.41826382e-003 -3.98105662e-003 -2.19445140e-003 6.63455052e-004
      -3.00857879e-004 3.00749904e-004 1.51085877e-003 1.91805465e-003
      -2.49235588e-003 8.07169999e-004 -4.38312721e-003 -1.29470024e-002
      1.47973071e-003 -3.78233497e-003 5.14122425e-003 5.48660522e-003
      -1.13602693e-003</_>
    <_>
      2.36431346e-003 -1.37783110e-003 -3.81505030e-004 2.46954686e-003
      -4.53218352e-003 -4.06210311e-003 -1.18308258e-003
      -2.24748929e-003 1.60972960e-003 2.66629737e-003 -1.31962858e-002
      4.54806071e-003 7.50294700e-003 1.03009045e-002 1.72768987e-003
      1.16451597e-002 -5.70078334e-003</_>
    <_>
      1.06859291e-002 1.69961173e-002 -4.84559219e-003 -1.18994508e-002
      -4.39431006e-003 -5.32275438e-003 -2.59268703e-003 3.70491034e-004
      9.76771209e-003 1.43936044e-002 -2.79711131e-002 1.74898040e-002
      -6.45328825e-003 1.06195025e-002 1.31169688e-002 -2.70344317e-003
      1.45162232e-002</_>
    <_>
      9.92984278e-004 -2.24692817e-003 -1.40281289e-003 -1.80787616e-003
      -2.73513229e-004 -2.65734561e-004 1.91386126e-003 9.48575675e-004
      1.27866527e-003 -1.00460520e-003 -1.07521079e-002 7.25909835e-003
      1.35303540e-002 1.71337149e-003 1.09322304e-002 2.44776020e-003
      2.22324603e-003</_>
    <_>
      -4.00880538e-003 -5.42066526e-003 -2.85737682e-003
      -2.62092624e-004 -1.44502090e-003 6.16298465e-004 -2.08369270e-003
      -2.81360722e-003 -3.39407171e-003 -3.11571592e-003
      -1.16974218e-002 -7.56119902e-004 4.30772081e-003 5.27397636e-003
      8.72654654e-003 1.09471998e-003 -4.33074310e-003</_>
    <_>
      1.00736957e-004 -4.52346605e-004 -4.43024997e-004 4.97847577e-005
      -1.38591829e-004 1.84477525e-004 4.53471264e-004 5.83494664e-004
      1.20227505e-003 8.86130962e-004 -6.22495834e-004 3.86543362e-003
      5.60741127e-003 2.36404128e-003 4.84969234e-003 5.29564498e-003
      1.31976744e-003</_>
    <_>
      -7.43520155e-004 2.71718949e-004 -8.06184951e-003 -2.87601561e-003
      -7.84637220e-003 -9.15409811e-003 -5.20259282e-003
      -6.23289542e-003 -3.94195225e-003 -4.92515834e-003
      -1.15971733e-002 2.38200445e-002 5.06675709e-003 7.70165678e-003
      4.28940961e-003 1.16176752e-003 -2.47283652e-003</_>
    <_>
      -5.69847005e-004 6.15130586e-004 -2.06642575e-003 -4.11504210e-004
      -2.46442761e-003 -1.28797186e-003 7.19837553e-005 9.88002168e-004
      1.45926652e-003 2.14427058e-003 7.00184202e-004 3.99873406e-003
      1.01708109e-002 -1.98453153e-003 2.07744399e-003 1.26188099e-002
      6.11479022e-003</_>
    <_>
      -3.62179917e-003 -8.98571685e-004 -5.04697394e-003
      -1.78176747e-003 -5.86180575e-003 -3.13389767e-003
      -3.24783055e-003 -4.23135469e-003 -6.31228369e-003
      -4.74487431e-003 -1.24021703e-002 -1.65290479e-002 4.27755201e-003
      -4.26624576e-003 1.31733511e-002 -1.09008653e-002 -4.51774476e-003</_>
    <_>
      -3.16452384e-002 4.78624180e-002 9.56892152e-004 1.95708424e-002
      -2.56467909e-002 -2.54575592e-002 2.90785376e-002 -5.47391269e-003
      3.70041542e-002 2.90214326e-002 -9.14069079e-003 -1.19632417e-002
      2.95944009e-002 -1.14640389e-002 -1.32498844e-002 -7.46568991e-003
      -1.95865855e-002</_>
    <_>
      -1.10243456e-002 -7.27209728e-003 -7.04576354e-003 7.30043417e-003
      -1.50690675e-002 5.46020688e-003 7.79913680e-004 -1.02817081e-002
      9.92498477e-004 -1.43338097e-002 -3.24518420e-003 1.17792664e-002
      2.51518041e-002 -2.02684272e-002 -1.93460993e-002 -7.66736828e-003
      -2.04684678e-003</_>
    <_>
      -7.91459810e-004 2.54936162e-006 7.60468189e-004 1.05753564e-003
      1.22091023e-003 1.24756829e-003 2.87414622e-003 2.81829410e-003
      4.45772242e-003 2.82351975e-003 5.46131376e-003 -1.37776451e-003
      8.94590653e-003 1.69562281e-003 1.04809497e-002 9.87738278e-003
      8.15359969e-003</_>
    <_>
      -2.85341009e-003 1.48244284e-003 -1.28089860e-002 -7.39382999e-003
      -8.13626125e-003 -4.62032482e-003 -3.10721388e-003
      -1.58176362e-003 5.03434159e-004 3.94799456e-004 -2.67736800e-002
      -9.87642165e-003 1.43227344e-002 -7.57517014e-003 1.44132739e-002
      -4.77090478e-003 3.57154058e-003</_>
    <_>
      -7.35513447e-003 -3.41243460e-003 -2.10900884e-003 3.63245094e-003
      -5.27895894e-003 -1.71049300e-003 4.15956310e-004 -3.02678812e-003
      -5.17112250e-003 -1.42644893e-003 -1.14048570e-002
      -1.38694625e-002 1.21555040e-002 1.15445154e-002 1.23348115e-002
      -3.09644174e-003 -9.57912300e-003</_>
    <_>
      -1.50238471e-002 -8.42776708e-003 -4.51677106e-003 1.64493496e-004
      -5.78149641e-003 -4.98649245e-003 -4.39985702e-003
      -1.22194516e-003 -4.32804832e-003 -1.71901379e-003
      -1.35886641e-002 1.68326646e-002 4.49125236e-003 1.11738937e-002
      1.78094301e-003 3.33491154e-003 1.26972413e-002</_>
    <_>
      -4.34077205e-003 -2.73897103e-003 -1.50785455e-003
      -3.15218989e-004 -2.75865593e-003 -1.21673744e-003
      -2.03143875e-003 -2.47555273e-003 -3.54471523e-003
      -1.95765728e-003 -1.02362065e-002 -1.05066877e-002 2.03685166e-004
      1.45868387e-003 6.31062360e-003 -4.21161810e-003 -1.90480868e-003</_>
    <_>
      -1.03056552e-002 -7.04128109e-003 -4.72536124e-003 3.17861210e-004
      -5.14322845e-003 -1.92105758e-003 -1.39583449e-003 6.26247202e-004
      -4.01961559e-004 -3.77227581e-004 4.12539067e-003 1.67936948e-003
      1.84487402e-002 -3.00048431e-003 8.66634119e-003 8.65151919e-003
      1.45631400e-003</_>
    <_>
      -5.39260684e-003 -4.67616739e-003 -7.84995593e-003
      -3.65500036e-003 -8.59812461e-003 -4.24270052e-003
      -7.83512834e-003 -6.57656929e-003 -2.26508040e-004
      -8.38710926e-004 -1.62750129e-002 1.09774349e-002 3.49144475e-003
      6.11362047e-003 2.45299302e-002 1.70761868e-002 1.17742186e-002</_>
    <_>
      -1.58023573e-002 -1.40596014e-002 -8.67864769e-003 3.21955420e-003
      -1.28393797e-002 -9.88747366e-003 -1.78393617e-003
      -3.41020315e-003 -2.77334359e-003 2.76407669e-003 1.26096196e-002
      -2.41030175e-002 1.30129438e-002 1.14037888e-002 -5.31396875e-003
      -1.56500190e-002 -1.30439494e-002</_>
    <_>
      -2.01863027e-003 -6.78842596e-004 -2.24389951e-003
      -1.61457469e-003 -2.46627885e-003 -1.53694034e-003
      -8.66860675e-004 -8.33610538e-004 -6.48994232e-004
      -7.51331332e-004 -1.07887546e-002 4.69004037e-003 1.84173207e-003
      -3.24767735e-003 -2.40177056e-003 5.62613306e-004 -1.58217794e-003</_>
    <_>
      -9.37587675e-003 -8.59563425e-003 -5.53097017e-003
      -1.89401419e-003 -2.28645070e-003 -6.44111773e-003
      -4.43781773e-003 -4.18977393e-003 -5.44323993e-004 9.52584553e-004
      -8.49638972e-003 1.55353406e-002 4.03519114e-003 4.57610143e-003
      1.60660371e-002 7.82924891e-003 -2.10645446e-003</_>
    <_>
      -2.67928373e-003 -1.79932348e-003 -2.16791942e-003 1.10212619e-004
      -1.34867744e-003 -1.30002853e-003 8.30103003e-004 -1.75137359e-007
      1.43236434e-003 9.71548026e-004 -3.57161346e-003 2.82624667e-003
      1.19502759e-002 1.06287620e-003 6.16178382e-003 1.06657315e-002
      -1.81383535e-003</_>
    <_>
      -4.32035374e-003 6.27876958e-003 -6.43804483e-003 -4.15285723e-003
      -7.45426072e-003 -7.16127129e-003 5.59391570e-004 -5.74642654e-005
      -9.53112540e-005 1.51172560e-003 -1.40850330e-002 3.71945463e-003
      6.41527322e-006 -9.38882772e-003 -1.76029895e-002 7.69829052e-003
      -1.30793115e-003</_>
    <_>
      -2.09367322e-003 -3.09876079e-004 -2.06674403e-003
      -1.67243974e-003 -1.55920442e-003 -1.89606717e-003
      -3.21996573e-004 -1.73011341e-003 7.63719028e-004 -1.05278334e-003
      -1.27998656e-002 6.60128519e-003 4.38120635e-003 -3.76473181e-003
      6.00703247e-003 2.68489646e-004 9.08006405e-005</_>
    <_>
      -3.72719695e-003 -6.70052553e-003 -2.01032846e-003
      -4.14130714e-004 -3.59399267e-003 -4.04734537e-003
      -1.19444303e-004 -3.59831564e-003 -1.20507891e-003
      -4.23422433e-004 -1.52770774e-002 -5.39956673e-004 5.70315123e-003
      3.20496201e-003 5.72221726e-003 1.71696173e-003 -7.26690749e-003</_>
    <_>
      1.36926654e-003 6.26449648e-004 1.56101494e-004 -3.49842885e-004
      7.43263983e-004 1.45047356e-003 2.00946280e-003 9.91609879e-004
      3.64023983e-003 2.13841489e-003 3.09946691e-003 5.72936749e-003
      6.99201040e-003 3.49636935e-003 6.56611193e-003 1.01829441e-002
      5.27839037e-003</_>
    <_>
      -2.92433985e-003 -2.33382685e-003 -3.26359621e-003
      -9.56609088e-004 -6.84507657e-004 -5.96302380e-005 2.67631654e-003
      1.25723542e-003 3.35907098e-003 3.16832261e-003 4.20658663e-003
      4.41007456e-003 1.25508606e-002 -4.24524443e-003 2.70708837e-003
      9.20694042e-003 5.66777261e-003</_>
    <_>
      -8.25878000e-004 -5.61162073e-004 -9.19901126e-004
      -3.02004883e-005 -5.49009652e-004 -3.31066869e-004 4.68968734e-004
      2.73633603e-004 1.28306146e-003 2.00071590e-004 1.49112893e-003
      5.34496736e-003 6.61702966e-003 2.08532088e-003 4.61278763e-003
      5.96006028e-003 2.60173110e-003</_>
    <_>
      -3.95355630e-004 -1.13658738e-004 -8.84565408e-004
      -1.75923458e-004 -7.12778477e-004 -5.11663209e-004 9.01144231e-004
      3.51418537e-004 1.30635081e-003 1.23096863e-003 2.63633928e-003
      2.39369133e-003 8.90231691e-003 3.97141528e-004 4.51387279e-003
      7.41232140e-003 1.44224125e-003</_>
    <_>
      -3.34032462e-003 2.07660790e-003 -9.15863726e-004 1.53431855e-003
      -1.87862385e-003 -1.49656727e-003 9.95579641e-004 1.87484594e-003
      7.69891427e-004 2.46674754e-003 4.84631688e-004 9.77957342e-003
      1.35137849e-002 1.67885364e-003 6.53255777e-003 8.25755671e-003
      3.17784026e-003</_>
    <_>
      1.28671655e-003 2.34366651e-003 -1.42919342e-003 1.66179531e-003
      -1.70397724e-003 -3.51983821e-004 9.10441799e-004 1.98812783e-003
      3.87764606e-003 2.00181291e-003 9.02340468e-003 5.04798535e-003
      8.62325728e-003 -8.92819650e-003 1.99808553e-003 7.02078734e-003
      6.98726671e-003</_>
    <_>
      -4.07853397e-003 -1.06565154e-003 -1.64460461e-003 5.03088813e-005
      -2.27062008e-003 -3.43971536e-003 3.17672384e-003 1.64721266e-003
      4.69838222e-003 3.71756963e-003 4.05516569e-003 1.54260276e-002
      1.56788994e-002 -6.81657298e-003 1.60255528e-003 9.21177492e-003
      8.98324419e-003</_>
    <_>
      -1.13693194e-003 1.29924575e-003 -2.90983333e-003 1.03351951e-003
      -2.01488705e-003 -1.97307835e-003 -5.03615302e-004 2.72577046e-004
      3.41780274e-003 4.69839806e-003 6.19862089e-003 1.04108779e-002
      8.60802643e-003 -2.17504858e-004 4.51033749e-003 1.78437997e-002
      5.92016615e-003</_>
    <_>
      -8.06762328e-005 -7.59870280e-004 -8.89350078e-004 3.44070140e-004
      -1.93117536e-003 -1.14053639e-003 -5.44168346e-004
      -2.56353291e-004 1.15179580e-004 2.98436207e-004 -5.85494214e-004
      6.54517766e-003 9.74915735e-003 4.46426542e-003 5.83394431e-003
      4.61208401e-003 5.44272771e-004</_>
    <_>
      -9.78370081e-004 -1.07041677e-003 -1.37690688e-003
      -3.68633802e-004 -2.80326349e-004 1.44910556e-003 1.71004649e-004
      6.40429847e-004 1.04961172e-003 6.79915713e-004 -2.39900639e-003
      1.56579481e-003 9.84581839e-003 -2.17279233e-003 8.75638146e-003
      5.59822423e-003 1.13441236e-003</_>
    <_>
      -6.37658988e-004 -1.53653417e-003 -1.24387210e-003
      -4.46745951e-004 -4.20105061e-005 6.25844259e-005 9.12344025e-004
      8.49789008e-004 1.40263035e-003 1.40637485e-003 3.05896648e-003
      2.55316100e-003 7.86732696e-003 -1.78656215e-003 5.40009839e-003
      4.69079008e-003 3.49536864e-003</_>
    <_>
      -3.87059030e-004 -1.64343175e-004 -4.27275263e-005 2.32297258e-004
      9.85821098e-005 4.92679421e-004 1.16075960e-003 1.59895525e-003
      2.45763711e-003 1.56850531e-003 3.35346325e-003 2.09598802e-003
      7.27677532e-003 3.13427043e-003 6.36904407e-003 6.90148585e-003
      4.37604124e-003</_>
    <_>
      -4.93038446e-004 -7.36368995e-004 -3.44268017e-004 3.21488915e-004
      -1.40835502e-004 1.05466926e-004 8.89960385e-004 6.37788849e-004
      1.50802697e-003 1.58021250e-003 2.42145942e-003 1.55910326e-003
      7.68924784e-003 6.23911401e-005 4.73737391e-003 7.40918983e-003
      2.72359839e-003</_>
    <_>
      -7.23679026e-004 -3.49892143e-005 7.25376012e-005 4.00041899e-004
      2.76950363e-004 6.00701140e-004 1.15157617e-003 1.03045977e-003
      1.40219962e-003 6.56835909e-004 2.86948378e-003 4.59394912e-004
      7.15235388e-003 1.29209389e-003 7.59875169e-003 3.99845280e-003
      2.72982218e-003</_>
    <_>
      -3.53703648e-003 -2.70648766e-003 -9.11406823e-004
      -7.47820886e-004 1.08066080e-004 1.35616108e-004 2.12218161e-004
      5.67651441e-005 5.10502396e-005 -3.19875922e-004 -5.59983216e-003
      -7.07451208e-003 6.34596311e-003 4.44691256e-003 9.11702123e-003
      4.07170737e-003 -5.42327436e-003</_>
    <_>
      -1.28453560e-002 -6.61671720e-003 -1.23676118e-002
      -2.48789118e-004 -1.40025071e-003 -6.15405338e-003
      -5.97387413e-003 5.09635732e-003 -2.45515276e-002 -1.07953548e-002
      -1.60719045e-002 8.12350074e-004 -4.62607015e-003 1.61053275e-003
      9.31738038e-003 4.91106231e-003 -1.42027140e-002</_>
    <_>
      -6.15874026e-003 5.55285625e-003 -1.07427896e-003 9.30690614e-004
      6.97535812e-004 -5.84184751e-003 -4.38605063e-003 1.00597935e-002
      -1.19712288e-002 1.21751963e-003 1.95046552e-002 -6.77191978e-003
      7.07099028e-003 -2.72632614e-002 -8.89883470e-003 2.86355428e-002
      -2.72276271e-002</_>
    <_>
      -1.27491984e-003 1.75574224e-003 1.43823388e-003 3.64783872e-003
      2.26193899e-003 4.33486141e-003 5.63832407e-004 4.92531527e-003
      -9.96996998e-004 3.69874039e-003 1.00274095e-002 6.29316038e-003
      4.90331231e-003 2.31221574e-003 6.13396708e-003 9.20810085e-003
      2.02274392e-003</_>
    <_>
      -3.92773421e-003 2.45343545e-003 -1.43217505e-003 1.61519449e-003
      5.68080868e-004 1.25025073e-003 -7.16633222e-004 2.65086000e-003
      -3.92580172e-003 -8.17605411e-004 7.22090527e-003 7.74745690e-003
      4.66823485e-003 7.13009108e-003 1.51805701e-002 5.27072372e-003
      2.52559222e-003</_>
    <_>
      -2.88323220e-003 6.21702289e-003 1.71471084e-003 5.10177761e-003
      4.42812918e-003 2.40485556e-003 2.60614837e-003 2.99061090e-003
      -2.20815139e-003 3.47398408e-003 -4.66303434e-003 -7.19034625e-003
      9.38655157e-003 1.00201424e-002 1.55078191e-002 1.35199726e-002
      -1.07206935e-002</_>
    <_>
      -1.53638446e-003 1.42773264e-003 -7.98518071e-004 6.15260913e-004
      1.26472267e-004 8.64442845e-004 1.32825560e-004 4.40477347e-003
      6.72296854e-004 3.36457323e-003 9.51860938e-003 -4.79932223e-003
      -6.64678123e-003 -1.89445317e-002 -2.57321721e-004 6.04802836e-003
      -4.80024889e-003</_>
    <_>
      -1.60032976e-002 1.23450020e-002 -2.86937831e-003 7.06254679e-004
      9.89263505e-003 5.83247887e-003 -4.18071868e-003 1.58668216e-002
      -1.60186235e-002 -5.83034335e-003 -1.65509563e-002 2.25464143e-002
      -6.87606074e-003 5.78662206e-004 1.99119411e-002 -4.28778073e-003
      8.08054488e-003</_>
    <_>
      -2.71965913e-003 -2.99210381e-003 -1.47853978e-003 1.44477654e-003
      1.94272376e-003 1.29727554e-003 1.75494293e-003 4.23500035e-003
      -3.87309236e-003 1.81586423e-003 3.48095229e-004 -1.11516137e-002
      -8.95585166e-004 -5.17024007e-003 6.92498963e-003 8.14040191e-003
      -1.98249565e-003</_>
    <_>
      4.43382701e-003 7.89489038e-003 2.51009176e-003 6.34769863e-003
      -8.45385948e-005 -3.19588906e-003 -2.54567270e-003 1.22059870e-003
      -3.54521745e-003 5.07483911e-003 -1.57308597e-002 3.56294913e-003
      1.18893269e-003 1.39487712e-002 -3.35882348e-003 1.90759413e-002
      -8.81411880e-003</_>
    <_>
      5.15810447e-003 2.17362009e-002 2.68551824e-003 -2.22672429e-003
      9.35933646e-003 2.60888855e-003 -1.16200163e-003 1.04846694e-002
      -2.67975777e-003 1.10955881e-002 -2.61121721e-004 1.06118117e-002
      -2.12015584e-002 1.05324748e-003 1.27368821e-002 3.61794280e-003
      5.27348882e-003</_>
    <_>
      2.59005744e-003 4.80611622e-003 3.06454580e-003 2.24772957e-003
      5.18931914e-003 3.77666601e-003 2.25889217e-003 3.92039120e-003
      -2.63996166e-003 -1.00157643e-003 2.17397395e-003 8.94714985e-003
      6.72804005e-003 1.07478444e-002 1.46773588e-002 1.21298712e-003
      3.60977044e-003</_>
    <_>
      -5.43698994e-003 -4.26168879e-003 -2.69483263e-003 1.33511587e-003
      2.09277845e-003 2.76749954e-003 -3.92791675e-003 -1.45255425e-003
      -9.01489798e-003 -4.91539249e-003 -1.05581023e-002
      -9.96758114e-004 1.20401348e-003 8.56903102e-003 1.34555446e-002
      2.68460065e-003 -8.68564937e-003</_>
    <_>
      4.05678700e-004 9.29427391e-004 4.59102419e-004 8.55717051e-004
      8.28283548e-004 9.12449090e-004 4.33743757e-004 1.02222804e-003
      3.88214015e-004 8.39157146e-004 2.22159014e-003 3.64979333e-003
      3.59818875e-003 3.98028176e-003 4.84756939e-003 4.49469918e-003
      1.43080007e-003</_>
    <_>
      -1.09893277e-004 8.70178640e-003 1.40920965e-004 1.71537255e-003
      1.18971663e-003 -2.60195951e-003 -4.60886164e-003 -8.05918418e-004
      -7.66315637e-003 -2.55579595e-003 3.84330284e-003 1.78250019e-002
      -8.57653935e-003 1.62362810e-002 4.72493982e-003 5.11503825e-003
      -2.18684040e-003</_>
    <_>
      -4.08608699e-004 4.60206298e-003 1.69103019e-004 1.71006809e-003
      4.42368153e-004 5.45651827e-004 -6.89701119e-005 2.67396751e-003
      -7.16764422e-004 2.52524717e-003 8.54844134e-003 3.98350367e-003
      4.97293938e-003 4.55703150e-004 1.45144272e-003 1.34245595e-002
      6.42228639e-003</_>
    <_>
      -4.16436465e-003 1.03579015e-002 -2.01790058e-003 4.46322560e-003
      4.60466254e-004 -2.20880751e-003 -4.96318843e-003 1.77384948e-003
      -1.79279521e-002 -6.29045116e-003 4.73035360e-003 -1.77931506e-002
      -2.28037336e-003 -5.01700165e-003 1.69251487e-002 -1.82518419e-002
      -1.37243699e-002</_>
    <_>
      -2.37895511e-002 2.46069822e-002 1.17181363e-002 6.43149018e-003
      1.86999273e-002 -3.39638512e-003 1.27143087e-002 1.65455434e-002
      1.12370797e-003 1.54991951e-002 1.50993280e-002 5.48746670e-003
      -4.48871031e-003 -2.22685095e-002 5.13493968e-003 -1.06002288e-002
      -2.24987790e-002</_>
    <_>
      -1.66438669e-002 2.79205339e-003 -1.97834824e-003 1.05525358e-002
      2.37964741e-005 5.97247807e-003 2.79526645e-003 2.26748129e-003
      -9.29460581e-003 -1.19412765e-002 1.12145236e-002 1.10665392e-002
      7.71203917e-003 -2.90014893e-002 -2.04368234e-002 8.25961865e-003
      -1.17737958e-002</_>
    <_>
      2.91983219e-004 2.85480754e-003 2.19687098e-003 2.23571644e-003
      2.61835731e-003 2.18827883e-003 1.42838492e-003 2.40622321e-003
      6.47439389e-004 1.43530057e-003 8.55345931e-003 -3.22316337e-004
      1.15758949e-003 4.74708714e-003 6.01717969e-003 4.11639595e-003
      4.41518612e-003</_>
    <_>
      -8.08684248e-003 3.04653645e-002 -2.38896478e-002 -9.14216228e-003
      5.00629842e-003 -8.23681708e-003 -1.24269677e-002 2.44452488e-002
      -2.01072805e-002 8.54266249e-003 1.57238599e-002 -6.00859383e-003
      -1.17064463e-002 -3.32186706e-002 2.24439725e-002 5.27941436e-003
      1.24563398e-002</_>
    <_>
      -6.97137043e-003 2.54634605e-003 2.66782893e-003 6.65622018e-003
      2.39804434e-003 2.45073531e-003 7.95505533e-004 3.89982318e-003
      -9.27889999e-003 3.46049957e-004 5.28380321e-003 -7.92977680e-003
      3.64779308e-003 1.58394203e-002 1.91716012e-002 -2.81095388e-003
      -1.00052981e-002</_>
    <_>
      -1.90353449e-002 6.51986338e-003 -2.32810271e-003 2.48122076e-003
      7.17586465e-003 -2.52662599e-003 -7.03105237e-003 6.21469552e-003
      -1.47145120e-002 4.72601998e-004 -1.35525651e-002 2.98299603e-002
      -3.47280200e-003 6.58490870e-004 -2.67553842e-003 7.32570281e-003
      1.67541392e-002</_>
    <_>
      -7.22789299e-003 -1.09807053e-003 -3.69081157e-004 1.70907413e-003
      -6.66695181e-004 -8.30680015e-004 -3.69996787e-003
      -6.68540131e-004 -9.09036864e-003 -2.50682351e-003
      -4.85809334e-003 -1.46778533e-002 -4.80742613e-003 3.80623899e-003
      1.20548885e-002 -4.73193591e-003 -3.77170183e-003</_>
    <_>
      -9.34630632e-003 9.39318386e-004 2.37143409e-004 4.67434619e-003
      1.06921291e-003 2.08545453e-003 -1.56908098e-003 3.72396060e-003
      -4.86843986e-003 -2.07957546e-005 1.96057707e-002 1.21303124e-003
      6.53565582e-003 3.32946447e-003 7.65659148e-003 7.58622773e-003
      1.29921769e-003</_>
    <_>
      -1.93660054e-003 7.58073200e-003 2.03306065e-003 3.51489848e-003
      3.95111926e-003 3.43522686e-003 -5.09626092e-003 9.38877813e-004
      -6.78170752e-003 -3.44948727e-004 8.21819901e-003 8.01588688e-003
      -1.48811638e-002 1.16839735e-002 1.66467875e-002 6.51249662e-003
      7.15703284e-003</_>
    <_>
      -1.31424461e-002 -7.29246764e-003 -2.33794868e-004 5.62497042e-003
      2.80988822e-003 3.71097121e-004 -3.21852625e-004 1.60153899e-002
      -5.40432381e-003 8.67889728e-003 2.79169213e-002 -4.46494948e-003
      -5.00790868e-003 2.36050808e-003 6.60263607e-003 -1.02984216e-002
      -1.98770352e-002</_>
    <_>
      -3.43309087e-003 2.24508418e-004 -3.02523095e-003 -1.89135270e-003
      -2.14843731e-003 -2.10987078e-003 -1.32289855e-003 4.29920387e-004
      -2.09502061e-003 -5.35368803e-004 -1.09670013e-002 8.73748399e-003
      9.64331033e-004 -5.72648551e-003 -3.97385471e-003 3.09280679e-003
      -3.29144555e-003</_>
    <_>
      -1.21204443e-002 -4.77474750e-005 -1.13053329e-003 2.45273975e-003
      6.62580784e-003 -2.55162572e-003 -5.86397154e-003 -4.53568733e-004
      -8.31861515e-003 1.35917903e-003 4.13262378e-003 1.74312182e-002
      -1.23679899e-002 4.71870042e-003 1.72236599e-002 9.13653616e-003
      -3.93323880e-003</_>
    <_>
      -2.83483998e-003 3.02484795e-003 4.04808758e-004 3.02058947e-003
      2.22083158e-003 1.00058061e-003 1.10097602e-003 2.08663382e-003
      -1.00972201e-003 1.47352042e-003 5.30924322e-003 4.83991578e-003
      8.64846632e-003 6.28248695e-003 8.77271034e-003 1.29008042e-002
      -2.43742764e-003</_>
    <_>
      -3.43030575e-003 1.26722045e-002 -2.26254924e-003 7.90123653e-004
      3.11021402e-004 -2.28278292e-003 1.32235698e-003 6.39774883e-003
      -2.60484498e-003 4.87494515e-003 -6.69815345e-003 1.43657206e-002
      -6.82104938e-003 -5.39665436e-003 -1.43151861e-002 1.37632648e-002
      -3.70723312e-003</_>
    <_>
      -3.71764414e-003 2.65707262e-003 -1.49333838e-003 -1.17673771e-003
      1.10630179e-003 -1.38009433e-003 -4.95824614e-004 -2.17790832e-004
      -1.17876753e-003 -9.05958295e-004 -1.28076850e-002 1.18503300e-002
      2.12471094e-003 -6.84248889e-003 9.29159764e-003 2.73803389e-003
      -1.39876758e-003</_>
    <_>
      -8.32037535e-003 -9.76262055e-003 -1.69696473e-003 1.67964341e-003
      -1.36285916e-003 -7.10686715e-003 -2.44260678e-004
      -3.16996360e-003 -7.38765718e-003 9.50657821e-004 -1.68045443e-002
      4.45850380e-003 4.40362515e-003 1.81598635e-003 7.04275025e-003
      1.15196900e-002 -1.89594850e-002</_>
    <_>
      1.31192862e-003 2.72463635e-003 1.60076597e-003 1.23727194e-003
      2.09752494e-003 2.12701038e-003 1.16744102e-003 1.41870696e-003
      8.00630718e-004 1.24291307e-003 6.58711791e-003 3.72793386e-003
      1.34202954e-003 5.20531693e-003 4.52514691e-003 5.17933024e-003
      3.41443508e-003</_>
    <_>
      -2.63312529e-003 2.04432453e-003 -1.31485832e-003 5.12298429e-004
      2.29501748e-003 1.94009417e-003 2.49202666e-003 3.09631717e-003
      1.08313793e-003 4.00065165e-003 1.29643017e-002 3.10734822e-003
      4.63720225e-003 -8.63519090e-004 7.31292414e-004 8.85797758e-003
      5.59428381e-003</_>
    <_>
      -1.96976427e-004 1.19893078e-003 2.82323890e-004 9.19978949e-004
      7.11534231e-004 6.20831794e-004 3.98302480e-004 8.12833838e-004
      1.77306458e-004 1.64437151e-004 4.38320776e-003 5.02315396e-003
      3.61776375e-003 3.86124128e-003 4.36507538e-003 4.36890777e-003
      2.27512512e-003</_>
    <_>
      1.11945519e-004 1.87741709e-003 5.06848446e-004 1.02824124e-003
      8.02808907e-004 6.67764340e-004 8.16914195e-004 1.06160168e-003
      9.22896579e-005 1.12733385e-003 6.43594842e-003 1.95912528e-003
      5.35247428e-003 2.89934920e-003 4.39607305e-003 5.89736365e-003
      1.58462441e-003</_>
    <_>
      -1.09529321e-003 5.84112434e-003 2.06288020e-003 3.91122559e-003
      1.54862355e-003 1.38973852e-003 8.58802465e-004 3.11780185e-003
      -1.29972957e-003 1.57325587e-003 5.22763329e-003 7.20155751e-003
      5.75473020e-003 7.57947331e-003 6.62716944e-003 3.33934068e-003
      3.06512462e-003</_>
    <_>
      1.45432691e-003 4.46634879e-003 1.18573336e-003 2.84025026e-003
      1.25578418e-003 1.54284691e-003 5.75320853e-004 2.30733515e-003
      5.95978578e-004 1.23865856e-003 1.17466189e-002 3.20398319e-003
      1.47660275e-003 -9.06576985e-004 2.24659871e-003 3.40503035e-003
      4.52678651e-003</_>
    <_>
      -1.47667353e-003 5.58321923e-003 2.92451424e-003 3.70503822e-003
      3.19512095e-003 1.18849485e-003 2.00385810e-003 3.42973298e-003
      -4.30610031e-004 2.56744237e-003 1.53689701e-002 1.00390995e-002
      2.09800620e-003 2.85394466e-003 2.05093413e-003 4.74084029e-003
      6.29389472e-003</_>
    <_>
      4.16741794e-004 4.49081138e-003 1.22418255e-003 2.83031561e-003
      1.89653668e-003 1.30752195e-003 -1.52600522e-004 1.56969565e-003
      -5.26395161e-004 2.19620275e-003 1.08930841e-002 5.07843588e-003
      -4.75448149e-004 5.30174142e-003 3.36609618e-003 7.06577394e-003
      3.32287559e-003</_>
    <_>
      5.03197429e-004 1.80416787e-003 8.35731451e-004 1.74043654e-003
      1.67644626e-004 4.28854371e-004 -3.94191797e-004 6.87718100e-004
      -1.16695266e-003 3.10067669e-004 4.55462141e-003 5.55146718e-003
      5.19541092e-003 6.92219334e-003 5.53665543e-003 3.18945828e-003
      8.68831179e-004</_>
    <_>
      -2.65557028e-004 2.14396697e-003 6.46381115e-004 1.59571960e-003
      2.03891937e-003 3.36241745e-003 2.40325302e-004 1.89165596e-003
      -5.97404258e-004 8.15285312e-004 4.27861884e-003 2.04679277e-003
      6.83769537e-003 2.21807975e-003 1.04211187e-002 5.22393407e-003
      1.78668101e-003</_>
    <_>
      -1.26004132e-004 4.93167725e-004 9.15023193e-005 7.23024947e-004
      1.27368991e-003 1.07990648e-003 8.32311227e-004 1.42493914e-003
      2.69562210e-004 1.28511991e-003 6.50560949e-003 2.45395815e-003
      4.87510907e-003 9.70955007e-004 5.37194777e-003 3.71202920e-003
      3.38970730e-003</_>
    <_>
      1.63370263e-004 1.66889396e-003 1.11306773e-003 1.22951437e-003
      1.33111246e-003 1.31453143e-003 7.95474974e-004 1.70924549e-003
      6.89683598e-004 1.08304957e-003 5.90267777e-003 1.58878602e-003
      2.83789448e-003 4.51159989e-003 4.80912067e-003 4.15569916e-003
      3.19506903e-003</_>
    <_>
      1.34144966e-005 1.18382054e-003 8.66816379e-004 1.35337899e-003
      1.16167124e-003 1.08734204e-003 7.69745675e-004 1.19235867e-003
      3.13973782e-004 1.36124389e-003 5.73874032e-003 1.50409201e-003
      4.40440886e-003 2.52533262e-003 4.55137948e-003 5.75192226e-003
      2.57668737e-003</_>
    <_>
      -1.86266232e-004 1.46987883e-003 1.01161108e-003 1.20380067e-003
      1.26521394e-003 1.28581922e-003 8.65190348e-004 1.28442515e-003
      2.48424098e-004 5.01673960e-004 5.04035177e-003 5.73735393e-004
      3.59594310e-003 3.05268075e-003 6.27483986e-003 2.46152515e-003
      2.20664241e-003</_>
    <_>
      -3.16703739e-003 8.82343156e-004 1.32986484e-003 1.30067603e-003
      2.95081781e-003 2.06479314e-003 3.22799926e-004 1.43409090e-003
      -1.97495869e-003 -3.09743889e-004 8.36237101e-004 -7.22067477e-003
      2.31222622e-003 8.10656697e-003 1.04661155e-002 3.61296837e-003
      -5.12491120e-003</_>
    <_>
      3.40446713e-003 3.22298007e-003 4.13075974e-003 1.59832256e-004
      1.09134044e-003 1.57880562e-003 1.71534810e-003 1.80873054e-003
      8.49910360e-003 7.03549571e-003 1.82316061e-002 -1.99965877e-003
      1.00461356e-002 -1.20888744e-002 -4.59886296e-003 9.07527562e-003
      9.71607049e-004</_>
    <_>
      8.58140353e-004 1.00967113e-003 1.51135970e-003 1.54635590e-003
      8.69458541e-004 2.10840092e-003 8.22713191e-004 1.82125100e-003
      1.90522545e-003 2.75214342e-003 7.54594244e-003 4.08089720e-003
      3.52097745e-003 1.74472667e-003 2.22305907e-003 4.50396538e-003
      2.20641959e-003</_>
    <_>
      2.94539088e-004 1.51064992e-003 7.78745336e-004 8.83144909e-004
      2.36951382e-004 1.15874922e-003 5.71771525e-004 1.00559450e-003
      1.64950476e-003 1.57085061e-003 8.34101345e-003 5.64085552e-003
      4.31260746e-003 4.22343332e-003 6.17225934e-003 3.59517499e-003
      3.11671034e-003</_>
    <_>
      9.72306821e-004 2.67609395e-003 3.85633926e-003 2.14578002e-003
      2.10212544e-003 2.64174421e-003 3.86326551e-003 1.44405046e-003
      7.67142093e-003 6.72165910e-003 3.92037816e-003 -5.17689483e-003
      1.16132004e-002 3.66779184e-003 7.33743422e-003 1.15646739e-002
      -9.19639133e-004</_>
    <_>
      2.62959953e-003 3.94567382e-003 2.88196816e-003 1.78948964e-003
      8.46030191e-004 2.23709550e-003 1.73093099e-003 9.28657944e-004
      7.69688096e-003 4.53486014e-003 8.76509957e-003 -6.37159217e-003
      -4.59702732e-003 -1.23943975e-002 -4.29459615e-003 2.45941896e-003
      -4.86462435e-004</_>
    <_>
      -5.61242877e-003 1.07561313e-002 1.03536034e-002 1.05061301e-003
      8.13343935e-003 1.01237493e-002 2.75542308e-003 8.12993757e-003
      1.28760515e-002 9.18854587e-003 1.25958277e-002 1.58198345e-002
      -3.68159817e-004 -1.59540609e-003 7.22523266e-003 -1.85194775e-003
      2.68740151e-002</_>
    <_>
      -2.01653020e-004 -1.27440342e-003 1.12480531e-003 2.12246040e-003
      2.27047736e-003 2.61229370e-003 2.81576347e-003 3.21942894e-003
      2.73924990e-004 4.04781708e-003 6.36080978e-003 -1.24291526e-002
      -8.24663730e-004 -4.59421100e-003 3.80501989e-003 7.95275252e-003
      1.34146609e-003</_>
    <_>
      5.99598186e-003 4.86203423e-003 4.92766034e-003 4.21787892e-003
      6.64864783e-005 2.82479567e-004 6.91658643e-004 -1.18953139e-004
      5.49386954e-003 6.09232299e-003 4.78018029e-003 7.84040708e-003
      4.66700690e-003 1.08516412e-002 -1.45283167e-003 9.00929235e-003
      2.77725427e-004</_>
    <_>
      6.07863069e-003 8.26837681e-003 4.60560340e-003 -1.80003641e-004
      3.18059209e-003 2.59455550e-003 7.39221636e-004 7.11599714e-004
      6.27449853e-003 6.80415146e-003 1.11259306e-002 7.21177924e-003
      -5.60996355e-003 3.35388421e-003 -6.46566681e-004 8.67799623e-004
      6.56042621e-003</_>
    <_>
      3.07043712e-003 2.35164445e-003 2.64870725e-003 1.07877492e-003
      1.98121904e-003 2.12217565e-003 1.79759087e-003 1.38353801e-003
      2.52253236e-003 1.66728953e-003 6.51900237e-003 5.97819034e-003
      5.09162853e-003 5.42552071e-003 5.39592281e-003 1.94520142e-003
      3.58231901e-003</_>
    <_>
      -7.09281582e-003 -1.18406387e-002 4.94064810e-003 5.29772695e-003
      3.77417030e-003 1.09040672e-002 -6.40693633e-003 -1.15823690e-002
      -5.07869299e-005 1.85543366e-004 -1.49766658e-003 -4.86616883e-003
      -2.82213266e-004 2.76031606e-002 2.03918032e-002 1.52385561e-002
      -6.43780315e-003</_>
    <_>
      8.17321823e-004 7.17760704e-004 6.86762854e-004 5.91723190e-004
      5.14515268e-004 7.51709274e-004 5.23449038e-004 6.04441040e-004
      1.20036991e-003 1.07843278e-003 2.92599946e-003 2.96417973e-003
      2.92159407e-003 2.83268909e-003 2.95607396e-003 3.19670723e-003
      1.48783077e-003</_>
    <_>
      3.08472523e-003 4.53701802e-003 2.30370974e-003 1.34586403e-003
      4.27680352e-004 1.45198737e-005 -5.35008905e-004 -6.86597137e-004
      1.86712330e-003 1.62929017e-003 1.05083967e-002 1.08711133e-002
      -1.07242074e-003 7.96003547e-003 -1.85921381e-004 1.91338721e-003
      2.57118838e-003</_>
    <_>
      1.19528291e-003 2.12811958e-003 1.02780329e-003 8.09316000e-004
      1.71321604e-004 6.54643751e-004 5.81424334e-004 9.67169297e-004
      2.01934273e-003 2.31806561e-003 7.03266077e-003 3.21786362e-003
      3.57811456e-003 1.03604735e-003 4.27364925e-004 6.19392283e-003
      3.93578690e-003</_>
    <_>
      8.64095520e-003 1.68413855e-002 9.07243975e-003 3.77395237e-003
      3.06902663e-003 2.92570889e-003 1.24811672e-003 -2.66113342e-003
      7.47474749e-003 1.78302778e-003 1.98972914e-002 -1.36618018e-002
      -2.41884147e-003 -7.78017752e-003 1.24483081e-002 -1.96822286e-002
      3.71096306e-003</_>
    <_>
      1.49504154e-003 7.09696719e-003 7.91771617e-003 2.88941339e-003
      4.20806231e-003 1.92767964e-003 5.78252086e-003 1.84613350e-003
      1.24101881e-002 8.97548441e-003 1.82489529e-002 -9.64426959e-004
      9.57582553e-004 -4.11136495e-003 -3.24126775e-003 -1.30354660e-003
      2.55359244e-003</_>
    <_>
      1.69043906e-003 5.21086715e-003 5.46298781e-003 6.75980980e-003
      1.28691911e-003 6.02243934e-003 4.50916449e-003 -1.36943068e-003
      8.90753046e-003 1.15234859e-003 1.72284953e-002 4.02460061e-003
      7.76780816e-003 -6.74292445e-003 -1.07295224e-002 5.63078560e-003
      4.10065381e-003</_>
    <_>
      1.07094552e-003 1.60111522e-003 1.71576126e-003 1.17177214e-003
      1.25640770e-003 1.35440833e-003 1.10378861e-003 1.10408443e-003
      1.89037516e-003 1.60606508e-003 6.65102154e-003 9.90190776e-004
      1.68340537e-003 2.86908634e-003 2.79404223e-003 2.63910508e-003
      3.10521852e-003</_>
    <_>
      6.29228726e-003 1.55411232e-002 5.21187484e-003 -1.60986034e-003
      5.37679438e-003 3.65954591e-003 1.40469684e-003 1.65644579e-003
      1.88060384e-002 1.29321422e-002 1.75266415e-002 -1.08877504e-002
      -1.75250333e-003 -1.10954465e-002 5.08388411e-003 -6.82632392e-003
      1.62939858e-002</_>
    <_>
      1.59499992e-003 4.90525691e-003 5.30154211e-003 4.92421445e-003
      1.42375496e-003 2.84432364e-003 2.04041344e-003 2.58919230e-004
      1.83492375e-003 3.69388983e-003 1.52664343e-002 -1.99046894e-003
      2.82881618e-003 1.11161061e-002 4.84682573e-003 -7.51666375e-005
      2.93980644e-004</_>
    <_>
      -6.52313558e-003 1.18628331e-003 6.39516814e-003 2.24404386e-003
      2.98620970e-003 -9.57721477e-006 -8.91915188e-005 4.53639659e-005
      9.55705903e-003 8.45152047e-003 7.72555918e-003 2.09835172e-002
      -1.91692752e-003 2.60977703e-003 -7.05961417e-003 4.48801508e-003
      1.77878253e-002</_>
    <_>
      -4.09136387e-003 2.68132472e-003 6.37103105e-003 2.71629891e-003
      -1.45042699e-003 8.39984277e-004 -2.51848786e-003 -4.66273213e-003
      -6.46945773e-005 3.36119719e-003 3.11676646e-003 -2.63724290e-002
      -5.90397185e-003 2.67566601e-003 1.23793641e-002 -7.12635228e-003
      3.99368396e-003</_>
    <_>
      -8.85961868e-004 8.26508156e-004 1.58061343e-003 1.72640826e-003
      3.42119194e-004 1.36173202e-003 4.46965016e-004 1.08057144e-003
      2.02987925e-003 2.08018068e-003 1.20926956e-002 2.99560186e-003
      4.66710469e-003 2.41288450e-003 2.24521989e-003 3.94687802e-003
      2.66034272e-003</_>
    <_>
      2.61395378e-003 3.79453320e-003 3.19810351e-003 1.77848968e-003
      1.43412943e-003 2.33026268e-003 -3.91527486e-004 -1.05918232e-004
      3.00374348e-003 2.94269528e-003 1.19665004e-002 5.95584139e-003
      -1.97498943e-003 6.25897245e-003 4.64546634e-003 4.24341206e-003
      6.11523585e-003</_>
    <_>
      1.79558934e-003 2.62522628e-003 4.02356638e-003 3.08097596e-003
      1.66719616e-003 1.33579224e-003 2.08139792e-003 1.23210403e-003
      5.84046263e-003 4.72913682e-003 1.87512096e-002 -1.20565260e-003
      1.92987500e-004 3.05291405e-003 -1.16049161e-003 -1.82156524e-004
      -4.58999042e-004</_>
    <_>
      -2.09562224e-003 2.31949706e-003 -1.50225987e-003 -2.49775243e-003
      -2.78234016e-003 -1.05427566e-003 -2.61094945e-004 9.85505292e-004
      2.96134199e-003 2.71296501e-003 -1.13282958e-002 1.61073804e-002
      5.13721444e-003 -8.01513344e-003 -6.26750616e-003 2.30161124e-003
      -1.75871595e-003</_>
    <_>
      -6.70967856e-004 8.66295770e-004 2.70697987e-003 1.39500864e-003
      2.64797313e-003 2.46439391e-004 -6.53782219e-004 -5.94791898e-004
      4.03600838e-003 4.79957554e-003 1.33716222e-002 1.19311959e-002
      -1.13542203e-003 4.36042761e-003 6.01637224e-003 6.00987533e-003
      3.01915174e-003</_>
    <_>
      5.93315810e-004 1.71871821e-003 1.40208600e-003 1.39677140e-003
      9.16621415e-004 9.81947058e-004 1.24700472e-003 7.69220467e-004
      2.52153189e-003 2.29711062e-003 6.79267012e-003 4.38758684e-003
      5.61863836e-003 3.67586315e-003 3.55427456e-003 6.36009593e-003
      7.92480132e-004</_>
    <_>
      2.34595989e-003 1.33408019e-002 3.92138259e-003 7.70256680e-004
      2.04139762e-003 2.12534168e-003 4.19550017e-003 6.22657873e-003
      9.76528879e-003 1.19922291e-002 -5.49166638e-004 1.21936100e-002
      -2.10636202e-003 -3.58132180e-003 -1.08218854e-002 1.12976469e-002
      2.31218315e-003</_>
    <_>
      2.34904350e-004 4.85760113e-003 2.04511499e-003 -1.01644872e-003
      1.31389475e-003 8.75939731e-005 1.15837960e-003 -1.60938478e-003
      6.62242947e-003 3.07800760e-003 -5.64037357e-003 1.68314539e-002
      4.49683564e-003 -7.36640347e-003 7.96192884e-003 3.21297161e-003
      4.28350363e-003</_>
    <_>
      -1.76394905e-003 -1.43624777e-002 1.78561769e-002 6.03844039e-003
      -1.82659354e-003 -1.08053321e-002 8.47819075e-003 -1.17902793e-002
      1.64813511e-002 1.94091033e-002 -1.02159791e-002 2.31980253e-002
      1.05995191e-002 6.47599669e-003 -4.20889817e-003 5.61172096e-003
      -3.00862361e-002</_>
    <_>
      1.42133422e-003 1.54919352e-003 1.34770246e-003 6.99039781e-004
      1.03310007e-003 1.30119163e-003 9.20497230e-004 6.46718894e-004
      1.70725584e-003 1.36260444e-003 5.35049057e-003 2.95343739e-003
      1.59201422e-003 3.05142510e-003 2.14393367e-003 3.06276791e-003
      2.52231234e-003</_>
    <_>
      1.00987723e-004 1.00157468e-003 1.22386744e-004 1.50354190e-005
      7.57790869e-004 1.03291858e-003 1.50655105e-003 1.14162150e-003
      2.66405521e-003 2.97347945e-003 8.27774499e-003 2.42747297e-003
      2.93596787e-003 -5.41002664e-005 -4.88958089e-004 4.50008502e-003
      3.40971025e-003</_>
    <_>
      5.87114482e-004 8.56565544e-004 5.97836857e-004 5.57184278e-004
      4.02265752e-004 5.45212417e-004 4.98525973e-004 4.16586408e-004
      1.15416630e-003 6.79792662e-004 4.04359121e-003 3.96767538e-003
      2.81673484e-003 2.52528279e-003 2.43476639e-003 2.82024872e-003
      1.85490667e-003</_>
    <_>
      7.75733788e-004 1.16224645e-003 7.75061548e-004 6.15091471e-004
      4.20533324e-004 5.84266498e-004 7.50477251e-004 5.17381995e-004
      1.26521150e-003 1.29766297e-003 5.33569418e-003 1.90954609e-003
      3.67598375e-003 1.97515846e-003 2.23260862e-003 3.60367214e-003
      1.59026484e-003</_>
    <_>
      7.75583030e-004 2.89918389e-003 1.80896360e-003 1.86550780e-003
      6.84941595e-004 1.02698489e-003 9.46532586e-004 1.31154910e-003
      1.56377524e-003 1.93877332e-003 5.76160708e-003 4.74027637e-003
      4.07605711e-003 4.15597390e-003 2.80663883e-003 2.37668632e-003
      2.69227102e-003</_>
    <_>
      1.56237581e-003 2.17255577e-003 1.17607601e-003 1.33342622e-003
      5.45410963e-004 9.74460272e-004 6.67827146e-004 9.52262606e-004
      1.83730887e-003 1.45480502e-003 7.65038561e-003 2.53722677e-003
      1.76876422e-003 1.95211454e-004 8.82197695e-004 2.14293413e-003
      2.95312400e-003</_>
    <_>
      1.01406430e-003 2.13885657e-003 1.98099040e-003 1.33241899e-003
      1.01279246e-003 8.61068955e-004 1.30173448e-003 1.00683514e-003
      2.37945933e-003 2.27537984e-003 8.93006474e-003 5.00945561e-003
      2.46200385e-003 1.84541207e-003 4.99712361e-004 2.56016338e-003
      3.56696476e-003</_>
    <_>
      1.28432468e-003 2.14978447e-003 1.29963364e-003 1.29896251e-003
      7.90942111e-004 9.08274204e-004 4.34953487e-004 5.94278506e-004
      1.66453363e-003 2.01075152e-003 7.58298067e-003 3.48597555e-003
      1.14671630e-003 2.91715912e-003 1.29211391e-003 3.74047109e-003
      2.56281230e-003</_>
    <_>
      1.14155747e-003 1.17687893e-003 1.06540730e-003 1.01894152e-003
      8.86077833e-005 5.13477949e-004 1.82501171e-004 3.18110280e-004
      8.61357141e-004 1.02578732e-003 4.81317146e-003 4.03024070e-003
      3.82444146e-003 4.23908280e-003 2.85862410e-003 2.32016365e-003
      1.38755236e-003</_>
    <_>
      1.12122239e-003 1.41664140e-003 1.18513894e-003 9.16698424e-004
      1.06640556e-003 2.14053015e-003 6.49322406e-004 9.44424712e-004
      1.62144308e-003 1.57579081e-003 5.07172942e-003 2.39945808e-003
      5.08116558e-003 2.10831338e-003 5.52832242e-003 3.47761298e-003
      2.02459027e-003</_>
    <_>
      6.01737527e-004 4.29898064e-004 5.24300733e-004 4.58030408e-004
      6.81759208e-004 7.96888082e-004 7.46383215e-004 7.26483064e-004
      1.28009997e-003 1.34768756e-003 5.31422300e-003 2.13769171e-003
      3.42214387e-003 9.44291241e-004 2.80928635e-003 2.46490748e-003
      2.52425415e-003</_>
    <_>
      7.43255601e-004 1.06713839e-003 1.06853899e-003 7.35947164e-004
      7.21357646e-004 9.26528999e-004 7.25385093e-004 8.90910160e-004
      1.48498849e-003 1.23227900e-003 4.99058608e-003 1.66687823e-003
      2.33208109e-003 2.86153075e-003 2.54119118e-003 2.71974946e-003
      2.42576352e-003</_>
    <_>
      6.69206667e-004 8.06871511e-004 9.40875558e-004 8.05007934e-004
      6.30431634e-004 8.06599914e-004 7.15331524e-004 6.11201918e-004
      1.29382580e-003 1.39142049e-003 4.92629316e-003 1.63112779e-003
      3.19402735e-003 1.79110817e-003 2.40446185e-003 3.59530002e-003
      2.10024975e-003</_>
    <_>
      4.92191117e-004 1.07968471e-003 1.06799661e-003 8.26687319e-004
      7.84715114e-004 1.02697592e-003 7.87108263e-004 7.03131722e-004
      1.17339194e-003 8.57113046e-004 4.41321963e-003 1.24253542e-003
      2.86508235e-003 2.38809898e-003 4.16702218e-003 1.58818765e-003
      1.85488735e-003</_>
    <_>
      -2.25009702e-004 1.13698374e-003 2.49957899e-003 1.20198017e-003
      2.16990476e-003 2.28411565e-003 1.09010423e-003 9.78189753e-004
      2.03486416e-003 1.88618863e-003 6.61947578e-003 -2.90422048e-003
      3.91273480e-003 7.61119835e-003 7.41937524e-003 4.07788856e-003
      -1.73425931e-003</_>
    <_>
      -8.94262339e-004 1.26772642e-003 1.07071083e-003 2.96095246e-003
      2.13260390e-003 5.13646239e-003 7.70895043e-004 4.37933207e-003
      5.89555479e-004 3.84468702e-003 6.10704068e-003 1.02891466e-002
      6.16399571e-003 3.47080175e-003 7.53146596e-003 6.63270894e-003
      5.45729697e-003</_>
    <_>
      -2.85029807e-003 1.64483299e-005 -1.71434297e-003 1.17857591e-004
      3.06766829e-004 1.50473462e-003 3.38854908e-004 1.52768055e-003
      -8.98529543e-004 -3.83622159e-004 -4.64035955e-004 7.59501196e-003
      5.92793664e-003 5.92882419e-003 1.43353669e-002 1.93062413e-003
      4.84011322e-003</_>
    <_>
      -7.98315508e-004 2.09662644e-003 -5.82110835e-004 3.60037433e-003
      4.14358685e-003 4.75874310e-003 4.03331313e-003 -2.42274880e-004
      3.85612599e-003 5.38329734e-003 -1.06592178e-002 5.51120378e-003
      8.38417374e-003 6.75447099e-003 2.62789112e-002 1.32249743e-002
      -3.82764707e-003</_>
    <_>
      2.16964213e-003 8.08750000e-003 1.59778888e-003 4.67563840e-003
      1.46653503e-003 5.47942799e-003 1.58857065e-003 2.84637208e-003
      2.73681409e-003 4.03383980e-003 1.53783029e-002 -5.42183453e-003
      -1.98232140e-002 -1.73192713e-002 -3.08310916e-003
      -4.22569516e-004 3.78007186e-003</_>
    <_>
      -8.75459425e-003 -2.39509530e-003 -5.20790170e-004
      -9.28808586e-004 2.83302041e-003 2.81825103e-003 -4.95101383e-004
      2.94785388e-003 -2.96794181e-003 -2.56223185e-003 -1.47413528e-002
      1.19992148e-003 -9.53932200e-003 9.94589739e-003 1.31813614e-002
      -1.09524345e-002 1.10886330e-002</_>
    <_>
      -2.49063293e-003 -2.18491419e-003 -8.85533809e-004 4.88315104e-003
      3.77497915e-003 4.53486713e-003 4.05530445e-003 5.59719140e-003
      -5.99981192e-003 2.72624404e-003 9.84407729e-004 -1.68662388e-002
      -6.64192019e-003 -2.58734799e-004 1.03170462e-002 7.63467280e-003
      2.59758625e-003</_>
    <_>
      8.01851414e-003 2.97099375e-003 1.04781531e-003 3.11477110e-003
      -9.38855635e-004 -1.64740067e-003 -6.89082372e-004
      -5.11967984e-004 2.55538453e-003 5.64992661e-003 -1.33437449e-002
      1.35583729e-002 1.05936732e-003 1.64945144e-002 2.80998694e-003
      1.22863688e-002 9.16059769e-004</_>
    <_>
      4.70658345e-003 1.03967544e-002 1.50442100e-003 -2.81335996e-003
      4.97841509e-003 2.55481526e-003 1.42867083e-003 5.22372080e-003
      3.30612971e-003 7.78668933e-003 -7.51847262e-003 1.05617801e-002
      -1.27188470e-002 9.17046424e-003 1.34200500e-002 -5.80866868e-003
      1.18886437e-002</_>
    <_>
      1.89788814e-003 1.54451409e-003 1.40650605e-003 5.07349439e-004
      2.90400768e-003 2.77884025e-003 2.05913419e-003 1.80416473e-003
      2.31426486e-004 -4.37181443e-004 -3.35339084e-003 7.82246422e-003
      5.51451556e-003 8.03117454e-003 1.12719564e-002 -1.95662188e-003
      4.74329572e-003</_>
    <_>
      -4.68949741e-003 -4.20881016e-003 -1.58957276e-003 5.83539426e-004
      1.33778807e-003 2.75358139e-003 -2.28372263e-003 -2.57606432e-003
      -4.64571919e-003 -3.82921821e-003 -1.02877794e-002 2.18980713e-003
      -2.81391037e-003 7.11573660e-003 1.21261878e-002 -4.44790954e-003
      -2.15149578e-003</_>
    <_>
      4.11636342e-004 5.22235292e-004 2.63179914e-004 5.13545470e-004
      7.04231963e-004 9.31734976e-004 5.90143492e-004 8.12219921e-004
      8.28582270e-004 8.22713017e-004 6.32181182e-004 3.96737317e-003
      3.77074303e-003 3.73703591e-003 4.89465147e-003 3.55103379e-003
      1.96801475e-003</_>
    <_>
      7.16916402e-004 4.65446897e-003 -1.07937551e-003 1.18494761e-004
      8.68269475e-004 -4.50337044e-004 -1.81806029e-003 -1.56392576e-003
      -2.84301047e-003 -2.02096417e-003 -5.09098824e-003 1.79186556e-002
      -3.27121699e-003 1.22071682e-002 8.33937805e-003 -3.82139464e-003
      3.51640536e-003</_>
    <_>
      -1.79013092e-004 3.71053629e-003 -4.69876832e-004 7.74756831e-004
      3.10851407e-004 1.28598814e-003 7.61193864e-004 2.35891738e-003
      1.31293572e-003 2.95034703e-003 2.80391378e-003 7.62621174e-003
      7.66493054e-003 1.49771129e-003 4.55028564e-003 1.16446698e-002
      1.02524469e-002</_>
    <_>
      3.96254443e-004 6.75453758e-003 1.23672595e-004 1.35394628e-003
      -2.79835222e-004 7.07591651e-004 -2.24912958e-003 -2.56062206e-003
      -7.60297338e-003 -4.17424506e-003 -1.10437884e-003
      -2.08787732e-002 -1.13191670e-002 5.03097335e-003 1.63703114e-002
      -2.01472342e-002 2.15707324e-003</_>
    <_>
      -1.97142363e-002 2.65135858e-002 1.18800746e-002 6.54143794e-003
      2.13035326e-002 6.80113770e-003 2.19124854e-002 7.05869822e-003
      2.37602461e-002 2.32877750e-002 1.74814661e-003 -1.04840659e-003
      -1.70298330e-002 -3.55332019e-003 2.02705078e-002 -1.65838245e-002
      1.71299502e-002</_>
    <_>
      -3.96960303e-002 -1.07098576e-002 -1.42480456e-003 2.48488057e-002
      -4.79199877e-003 2.36822646e-002 2.01081429e-002 -1.47722792e-002
      3.39722843e-003 -3.15843821e-002 1.50748156e-002 1.66634806e-002
      1.83183439e-002 -3.57713061e-003 -2.31511015e-002 -9.02790297e-003
      2.95238905e-002</_>
    <_>
      4.64686163e-004 2.30512233e-003 2.01620511e-003 1.79974397e-003
      2.72601540e-003 2.72371061e-003 1.99161936e-003 2.25490355e-003
      1.83511851e-003 1.61450554e-003 5.59265492e-003 1.35282660e-003
      2.37517362e-003 5.65245608e-003 8.06376338e-003 2.62127607e-003
      6.40821736e-003</_>
    <_>
      3.76260583e-003 1.46343289e-002 -1.34709328e-002 -6.04668073e-003
      3.39115341e-003 3.90316220e-003 1.07475545e-003 7.06293434e-003
      1.87980779e-003 2.99928244e-003 2.07060133e-003 -1.18220067e-002
      -1.87769101e-003 3.02442466e-003 2.54605077e-002 -3.04511264e-002
      3.27964611e-002</_>
    <_>
      -4.71753953e-003 7.95592088e-004 2.78597209e-003 6.32449845e-003
      3.21892626e-003 6.03666110e-003 2.50711641e-003 -2.90619006e-004
      -4.30595130e-003 1.47559005e-003 2.44331104e-003 -4.42941207e-003
      3.38707189e-003 2.05667056e-002 2.37785485e-002 -7.71206850e-003
      6.96098944e-003</_>
    <_>
      -1.11122439e-002 -4.69641294e-003 2.23658019e-004 1.12989685e-003
      1.85231492e-003 -2.09451449e-004 -1.84797856e-003 -2.62176065e-004
      -3.28922295e-003 -1.49516796e-004 -9.04512126e-003 1.21709602e-002
      -9.53905750e-003 1.29136825e-002 3.59090767e-003 -4.75919060e-003
      1.39615312e-002</_>
    <_>
      -3.62354144e-003 -1.43463269e-003 1.48858468e-004 1.01953908e-003
      -1.70614381e-004 1.00284268e-003 -2.04761699e-003 -1.76947471e-003
      -4.46999772e-003 -1.77144748e-003 -7.21964194e-003
      -1.02397166e-002 -3.64082586e-003 6.66891504e-003 1.14480043e-002
      -7.98900425e-003 9.91549809e-004</_>
    <_>
      -1.15144243e-002 -1.94970123e-003 -1.13996537e-003 3.56084993e-003
      9.82044032e-004 4.18789359e-003 -1.94633394e-004 3.43627715e-003
      -1.67077919e-003 2.42192240e-004 1.05735259e-002 8.52499995e-003
      1.30826877e-002 6.48801029e-003 1.63568296e-002 2.40242458e-003
      8.40688311e-003</_>
    <_>
      -8.64080852e-004 4.31371294e-003 7.33391615e-004 1.12227956e-003
      2.94248667e-003 4.32246877e-003 -1.59872917e-003 -1.65333055e-004
      -1.33928284e-003 6.48998364e-004 -1.36725930e-003 1.12056602e-002
      -5.12381876e-003 1.22507922e-002 1.83314178e-002 1.11253932e-003
      1.18304407e-002</_>
    <_>
      -1.32414931e-002 -8.84976052e-003 -4.76721954e-003 5.30316122e-003
      4.88962373e-003 6.96963910e-003 4.51776711e-003 8.05501547e-003
      -4.26586485e-004 1.44958356e-002 2.87368335e-002 2.83711893e-003
      -1.63852181e-002 1.78964604e-002 1.54339457e-002 -3.35919000e-002
      1.26416953e-002</_>
    <_>
      -2.92812265e-003 -6.52482791e-004 -2.61955755e-003
      -2.08037742e-003 -2.35288567e-003 -1.67908915e-003
      -9.69296671e-004 -8.57782899e-004 -1.11819012e-003
      -1.00987789e-003 -1.36960931e-002 7.07540940e-003 -2.02969578e-003
      -2.20795046e-003 -3.88303678e-003 -1.41711475e-003
      -1.41359982e-003</_>
    <_>
      -7.33701559e-003 -3.67144775e-003 -1.34729152e-003 3.00602751e-005
      3.78159154e-003 -8.32723163e-004 -2.57483893e-003 -1.75500428e-003
      -1.53388281e-003 1.28439907e-003 -5.44035528e-003 1.60085652e-002
      -7.27327401e-003 8.56388640e-003 1.66221261e-002 -3.93606548e-004
      3.18328990e-003</_>
    <_>
      -1.94560143e-003 1.10534159e-003 -2.80745939e-004 2.82787089e-003
      2.05548108e-003 1.87116791e-003 1.35631941e-003 9.25978238e-004
      1.27938692e-003 1.86755648e-003 3.37290345e-003 6.99559553e-003
      9.68403649e-003 7.27999629e-003 9.83953103e-003 1.23181473e-002
      2.11041234e-003</_>
    <_>
      -4.22127219e-003 1.01647954e-002 -2.51432392e-003 -2.06301687e-003
      -2.20267172e-003 -3.86626530e-003 2.13103951e-003 2.21098983e-003
      -5.82969456e-004 3.83070414e-003 -9.82031506e-003 6.38290960e-003
      -2.22748891e-002 2.35095364e-003 -1.97311100e-002 1.06516341e-003
      4.43249941e-003</_>
    <_>
      -3.26915737e-003 5.70187512e-005 -1.05937663e-003 -1.93272263e-003
      7.26426893e-004 -8.49426840e-004 6.23632863e-004 -1.03657378e-003
      9.90136177e-004 -7.48951919e-004 -1.44778686e-002 1.07048918e-002
      1.91230350e-003 6.22180814e-004 1.20031303e-002 -1.05963368e-003
      -2.04109256e-005</_>
    <_>
      -4.42009326e-003 -8.52009654e-003 3.55275290e-004 1.41478889e-003
      -1.41730672e-003 -3.58329946e-003 4.10577341e-004 -5.57394791e-003
      -3.20489239e-003 -8.54737358e-004 -1.89680271e-002 4.67870338e-003
      -6.00599404e-003 1.18397288e-002 5.65442443e-003 -4.32768185e-003
      -7.35351397e-003</_>
    <_>
      1.52505760e-003 2.09121313e-003 1.34876487e-003 7.40561984e-004
      2.05782545e-003 2.47170823e-003 1.59113528e-003 1.23755343e-003
      1.84030051e-003 1.47429202e-003 4.15294478e-003 4.15208936e-003
      2.38624006e-003 5.79142058e-003 5.87323448e-003 4.17124620e-003
      4.71182400e-003</_>
    <_>
      -3.55069665e-003 7.19215721e-004 -3.27151897e-003 -1.60996348e-003
      2.30975542e-003 2.77255336e-003 3.99443740e-003 3.31408950e-003
      3.95843759e-003 5.81410713e-003 8.59437045e-003 6.27652230e-003
      6.88402634e-003 -1.75439718e-003 1.98065978e-003 8.21909215e-003
      1.01159606e-002</_>
    <_>
      -2.00770854e-004 7.21201999e-004 1.02281389e-004 6.05076842e-004
      6.25855289e-004 7.86410819e-004 6.16598991e-004 6.11985510e-004
      7.57472124e-004 2.32552658e-004 2.54272460e-003 5.17098978e-003
      3.99174215e-003 4.00860049e-003 4.89600562e-003 3.36540677e-003
      3.11309681e-003</_>
    <_>
      2.21778289e-004 1.44944654e-003 2.91177683e-004 6.63928920e-004
      7.80358852e-004 9.56652744e-004 1.17504271e-003 8.86607100e-004
      8.82995606e-004 1.23750744e-003 4.29225201e-003 3.24670365e-003
      6.43773796e-003 3.43224290e-003 5.73414238e-003 4.97779017e-003
      2.81184632e-003</_>
    <_>
      -9.39282472e-004 3.96675989e-003 1.34078576e-003 2.43847934e-003
      1.28463411e-003 1.53961021e-003 1.20378332e-003 2.10512755e-003
      -1.48796025e-005 1.60802971e-003 2.75806687e-003 8.24976061e-003
      5.67701505e-003 6.68868469e-003 7.11974828e-003 1.76710996e-003
      4.47956566e-003</_>
    <_>
      1.97790260e-003 4.52097738e-003 1.01357244e-003 2.72451993e-003
      1.42062153e-003 2.35475646e-003 1.27462647e-003 2.40989658e-003
      2.16321158e-003 1.60709629e-003 9.88037046e-003 6.08212966e-003
      3.23381438e-003 -4.48251289e-004 4.74144332e-003 1.90021959e-003
      7.63915712e-003</_>
    <_>
      -1.20522152e-003 4.06354479e-003 2.25071050e-003 2.46528606e-003
      3.13719152e-003 2.10833596e-003 3.17546213e-003 2.81389896e-003
      2.22399621e-003 2.86377664e-003 7.64493737e-003 1.45984925e-002
      4.86715976e-003 4.26090276e-003 5.86665189e-003 7.12145993e-004
      1.05148228e-002</_>
    <_>
      7.27193314e-004 4.19921288e-003 9.27082729e-004 2.45764572e-003
      2.12103548e-003 2.11873883e-003 5.03293413e-004 1.36052025e-003
      1.10061106e-003 2.73133186e-003 7.51083111e-003 8.67430586e-003
      1.14582782e-003 7.15944683e-003 6.42611459e-003 5.69210388e-003
      6.48547942e-003</_>
    <_>
      5.52948914e-004 1.06568297e-003 4.97074041e-004 1.12255989e-003
      8.00820490e-005 6.35575794e-004 -3.63734944e-005 3.74150812e-004
      -2.45302566e-004 3.22300766e-004 1.51636789e-003 6.13506511e-003
      5.41628944e-003 6.53845724e-003 6.03154348e-003 1.56946853e-003
      1.92352640e-003</_>
    <_>
      1.39685057e-004 1.23623235e-003 2.72903650e-004 8.90342519e-004
      1.67306559e-003 3.25769628e-003 5.49780554e-004 1.24720752e-003
      5.21331967e-004 7.56410009e-004 9.51137743e-004 3.98194743e-003
      6.49747951e-003 2.31340271e-003 1.03712548e-002 2.70330720e-003
      3.11559252e-003</_>
    <_>
      -3.59508049e-005 2.96296548e-005 -1.17829550e-004 3.50601214e-004
      1.19216857e-003 1.27266964e-003 1.08111079e-003 1.19861937e-003
      9.30982875e-004 1.30011770e-003 4.25405754e-003 3.40595329e-003
      5.44581935e-003 1.26413652e-003 6.19456545e-003 2.57661054e-003
      4.29152651e-003</_>
    <_>
      2.51942780e-004 1.23232638e-003 9.16698307e-004 8.83738510e-004
      1.28516322e-003 1.53727853e-003 1.06476340e-003 1.52560591e-003
      1.35752303e-003 1.13096472e-003 3.83764645e-003 2.59298482e-003
      3.51867592e-003 4.86033829e-003 5.76654729e-003 3.13263224e-003
      4.18071216e-003</_>
    <_>
      1.04308790e-004 7.59152870e-004 6.84788974e-004 1.03318621e-003
      1.14457193e-003 1.34644331e-003 1.07019965e-003 1.03006093e-003
      1.01212936e-003 1.45115843e-003 3.75338248e-003 2.58682249e-003
      5.24693634e-003 2.93879560e-003 5.66827599e-003 4.86416183e-003
      3.66493687e-003</_>
    <_>
      -1.04581493e-004 1.05462701e-003 8.19192093e-004 8.71981843e-004
      1.19618140e-003 1.40327460e-003 1.09672989e-003 1.17113348e-003
      8.15158593e-004 5.94891899e-004 3.68089415e-003 1.22115517e-003
      4.20607952e-003 3.12944804e-003 6.51938794e-003 1.99793396e-003
      3.15388083e-003</_>
    <_>
      -2.11812695e-003 1.88217120e-004 1.38808670e-003 1.28008402e-003
      3.57328355e-003 3.42337345e-003 5.25774900e-004 6.20756880e-004
      -5.49255288e-004 -2.88998679e-004 -9.61670885e-005
      -1.11687928e-003 1.50336546e-003 1.01346672e-002 1.51943788e-002
      7.38208415e-004 -2.62396969e-003</_>
    <_>
      -7.12010451e-003 -3.88236507e-003 -8.32516048e-003
      -8.35113320e-003 -5.81627013e-003 -1.16831372e-002
      -2.16581812e-003 -7.18256831e-003 -4.31579258e-003
      -1.13317370e-002 -1.32049667e-002 -7.72535382e-003
      -4.46287682e-004 3.05617577e-003 1.30551513e-002 -9.92978457e-003
      4.59622708e-004</_>
    <_>
      2.88685318e-003 4.11420595e-003 -2.06721807e-003 -2.74673617e-003
      -1.69752107e-003 -1.09973177e-002 1.69739418e-003 -9.36184265e-003
      1.06110019e-004 -4.86133620e-003 -1.20800976e-002 -1.31511930e-002
      -8.29433557e-004 1.07918996e-002 -2.82362755e-003 -4.79978789e-003
      -1.78071018e-002</_>
    <_>
      -9.06659698e-005 -2.16858261e-005 -6.82462356e-004
      -1.14429288e-003 -7.79034977e-004 -1.62778900e-003 6.42403684e-005
      -1.54862914e-003 2.79453001e-004 -1.16000569e-003 -3.06689739e-003
      -8.05491861e-003 -5.62689500e-003 -6.64980104e-003
      -3.74557776e-003 -3.56434984e-003 -2.45889416e-003</_>
    <_>
      -9.46802145e-004 7.23525649e-004 -9.17336147e-004 -2.34000757e-003
      -3.66029941e-004 -2.39948067e-003 -9.45886364e-004
      -2.27882294e-003 -1.81268691e-003 -4.06159135e-003
      -1.16134230e-002 -7.57246919e-004 -5.27908513e-003 5.61862835e-004
      -8.32987076e-004 -9.04330704e-003 -1.56147720e-003</_>
    <_>
      -8.98339844e-004 -1.46889046e-003 -9.94365313e-004
      -6.31496543e-004 7.27228398e-005 -9.72867827e-004 3.33866192e-004
      -4.57930641e-004 -1.70786574e-003 -1.01653975e-003
      -4.66884719e-003 -8.82767513e-003 -3.68483481e-003
      -3.48830293e-003 -6.08481641e-004 -1.13600644e-003
      -1.57106400e-003</_>
    <_>
      4.89960844e-003 1.29204232e-003 -4.43963305e-004 -1.78845401e-003
      -2.75976118e-003 -8.18820018e-003 -1.31124619e-003
      -5.80092147e-003 3.38883721e-004 -1.51479931e-003 -1.42569421e-002
      -8.05031694e-003 -1.44555548e-003 9.51247569e-003 -4.07947646e-003
      4.46002325e-003 -7.66786141e-003</_>
    <_>
      7.70465005e-003 7.41085038e-003 -5.30476309e-003 -1.09484950e-002
      1.45955454e-003 -1.02575682e-002 1.47612102e-003 -3.74678901e-004
      3.68515798e-003 5.58912172e-004 -2.20393222e-002 -1.11322282e-002
      -1.83031021e-003 -5.56743471e-004 1.12898769e-002 2.82443216e-004
      -6.93718297e-003</_>
    <_>
      4.59413184e-003 4.18875308e-004 5.07779187e-004 -7.51995016e-003
      1.69597275e-003 -9.97412857e-003 5.96588571e-003 -2.47709872e-003
      3.88653111e-003 -5.55683626e-003 -1.61428284e-002 -1.90920953e-003
      1.36998883e-002 1.60111568e-003 9.89466067e-003 -1.44961700e-002
      4.92563355e-004</_>
    <_>
      -1.40283990e-003 -1.91285845e-003 -1.55825214e-003
      -1.57507625e-003 -3.12469958e-004 -1.34900108e-003
      -1.47994526e-003 -3.29019688e-003 -2.59515154e-003
      -3.94077273e-003 -1.00083640e-002 -2.87414435e-003
      -2.70216167e-003 -8.46991534e-005 2.00528186e-003 -5.28417621e-003
      -3.62794870e-003</_>
    <_>
      1.39203353e-003 -6.45558175e-004 -1.07805408e-003 -1.86496892e-003
      7.57990929e-005 -2.59148562e-003 1.60724530e-003 -8.88050185e-004
      3.27372411e-003 -3.09348194e-004 -7.37270014e-003 5.73797058e-003
      9.83712450e-003 7.41773238e-003 9.73735191e-003 7.91799650e-003
      3.21120722e-003</_>
    <_>
      4.80208546e-003 3.07644554e-003 -5.56628173e-003 -8.99716374e-003
      -4.25800076e-003 -1.61263105e-002 -2.78896862e-003
      -1.20593011e-002 -2.38539139e-003 -1.05138393e-002
      -1.40516441e-002 3.64289805e-003 -5.21385577e-003 7.30782049e-003
      5.76802355e-004 -1.00578992e-002 -5.69905015e-003</_>
    <_>
      6.14615483e-003 1.19032944e-002 -4.36515454e-003 -8.53425730e-003
      -5.08770719e-003 -1.39920907e-002 7.01710582e-004 -7.78011233e-003
      1.88379583e-003 -5.29807014e-003 -9.64528695e-003 -7.14609865e-003
      9.46754590e-003 -5.48787694e-003 -6.64402684e-003 1.58547629e-002
      2.05132719e-002</_>
    <_>
      -4.23741840e-005 3.94488685e-004 -9.01671126e-004 -2.00696825e-003
      -6.13523414e-004 -2.38548033e-003 -9.69544984e-004
      -2.74813827e-003 -1.80644460e-003 -2.86283880e-003
      -5.65823168e-003 -9.57274344e-003 -3.05458647e-003
      -2.47187517e-003 3.15303029e-003 -6.90242043e-003 -3.00986599e-003</_>
    <_>
      4.91269631e-004 8.26449599e-003 1.72357168e-003 -4.33527445e-003
      1.10796967e-003 -1.07416585e-002 4.81076585e-003 -8.92452151e-003
      4.94923117e-003 -4.60201455e-003 -1.04111172e-002 -1.29764341e-002
      -8.22632853e-003 -7.46598700e-004 -1.14911413e-002
      -1.47964107e-002 -1.05385128e-002</_>
    <_>
      -3.37918242e-003 -5.37219108e-004 -1.94066297e-003
      -3.94638628e-003 -2.94697494e-003 -5.24747977e-003 2.92858575e-004
      -6.07624417e-003 -3.50256159e-005 -7.46786641e-003
      -7.72203645e-003 -9.32419579e-003 -3.78098077e-004
      -9.84824076e-003 -9.88623407e-003 -7.00448733e-003
      -4.50348621e-003</_>
    <_>
      3.04262107e-003 5.32703567e-003 3.69351031e-003 -2.77667283e-003
      4.92357370e-003 -5.42324595e-003 7.97467027e-003 3.90599482e-004
      9.08059999e-003 -1.73789752e-003 7.97246676e-003 -2.16028187e-002
      -1.40343548e-003 4.47386457e-003 8.77546426e-003 -2.83594546e-003
      1.62733514e-002</_>
    <_>
      -1.11207679e-004 4.13107511e-004 -2.30439613e-003 -3.05740745e-003
      -1.10854697e-003 -3.08618369e-003 -6.45871798e-004
      -2.20002350e-003 -4.49805026e-004 -2.40522530e-003
      -6.87549543e-003 -9.21643712e-003 -2.72087101e-003
      -5.01148775e-003 -3.72739951e-003 -6.46347832e-003
      -1.10837340e-003</_>
    <_>
      -3.24736792e-003 -2.87743751e-003 6.95520284e-005 -1.09275081e-003
      -1.20483234e-003 -5.27794426e-003 1.00789045e-003 -3.60668963e-003
      -1.39531831e-003 -3.02201789e-003 -2.91127246e-003
      -1.67023279e-002 3.90451355e-003 7.32218148e-003 1.08771003e-003
      -4.79387911e-003 -6.54658396e-003</_>
    <_>
      -1.42628076e-002 -6.68266462e-003 -2.70389393e-003
      -5.29435929e-003 -2.61416455e-004 -1.51849277e-002
      -6.77950564e-004 -8.17783456e-003 -5.39271487e-003
      -1.10174827e-002 -1.20143909e-002 6.43372443e-003 -1.03270514e-002
      1.44274263e-002 -2.78908224e-003 -1.23658367e-002 1.38925109e-002</_>
    <_>
      -1.41595642e-003 -1.31501746e-003 -6.25796209e-004
      -1.08496426e-003 -7.14066962e-004 -1.34988572e-003
      -7.94391672e-004 -1.59639120e-003 -1.15886878e-003
      -1.38801581e-003 -4.80437977e-003 -8.02351255e-003
      -1.45478989e-003 -5.77735424e-004 5.80864784e-004 -3.22695798e-003
      -1.41023577e-003</_>
    <_>
      -1.05548240e-002 -4.10383940e-003 -3.94350383e-003
      -3.85208847e-003 -5.00007207e-003 -9.62385908e-003
      -3.61568457e-003 -8.72156024e-003 -4.59611928e-003
      -1.13754999e-002 2.00282666e-003 -2.19090581e-002 -4.44136065e-004
      -1.32526155e-003 -3.31986020e-003 -1.28018511e-002
      -5.07586030e-003</_>
    <_>
      -1.87827775e-003 5.60232392e-003 -5.35592204e-003 -1.78289190e-002
      -6.84419554e-003 -3.03467568e-002 3.35933873e-004 -1.78270303e-002
      -3.38863669e-004 -1.13209002e-002 6.68260828e-003 -2.12120973e-002
      -2.45245639e-003 1.50841465e-002 4.35137143e-003 -1.29658338e-002
      1.88493723e-004</_>
    <_>
      -1.69601908e-003 -2.01109610e-003 -8.82301130e-004
      -1.18692440e-003 -1.08023721e-003 -4.42660879e-003 6.59819198e-005
      -2.47586425e-003 -6.35252742e-004 -2.83384975e-003
      -7.53636588e-004 -1.86485779e-002 -3.10784439e-003 5.26324939e-003
      -4.32986021e-003 -1.05035529e-002 -5.65238390e-003</_>
    <_>
      -7.80885399e-004 -3.98042503e-005 -1.02434866e-003
      -1.36085239e-003 -1.05467148e-003 -1.51267403e-003
      -6.88339409e-004 -1.23350089e-003 -7.45183264e-004
      -1.36437418e-003 -6.94486499e-003 3.48574162e-004 -2.01947754e-003
      -2.53791548e-003 -3.13172792e-003 -2.47308076e-003
      -1.36872847e-003</_>
    <_>
      -9.56681650e-003 -6.69068424e-003 -6.31864322e-003
      -9.31040384e-003 -1.69818860e-003 -1.57985892e-002
      -1.53040630e-003 -1.48328347e-002 -3.02819116e-003
      -1.09186210e-002 -2.01341212e-002 4.95814206e-003 4.37937764e-004
      8.93932953e-003 8.50405917e-003 -3.15716234e-003 -1.01895835e-002</_>
    <_>
      -5.74254384e-003 1.71596685e-003 -5.10528032e-003 -5.65660186e-003
      -1.85258978e-003 -1.48322117e-002 1.80075259e-003 -1.32723944e-002
      9.07341484e-004 -1.01351049e-002 -1.54989660e-002 -1.20475497e-002
      1.18994331e-002 9.49382503e-003 5.62482746e-003 1.18374610e-002
      -1.55488234e-002</_>
    <_>
      -8.22149683e-004 1.05637033e-003 -1.49641058e-003 -2.31746957e-003
      -1.24107150e-003 -2.93988013e-003 1.45215992e-004 -1.58712280e-003
      -5.34972874e-004 -1.36029359e-003 -6.71565533e-003
      -3.70175042e-003 -4.77797864e-003 -4.56486084e-003
      -6.03676727e-003 -3.04489327e-003 -1.80431129e-003</_>
    <_>
      -1.32953771e-003 2.13027044e-004 -1.33655488e-003 -2.70126923e-003
      -5.14655258e-004 -2.63293670e-003 -2.18038578e-004
      -2.27655470e-003 -1.84283985e-004 -2.36854772e-003
      -1.12862708e-002 1.63521618e-004 -3.87106673e-004 -3.86033184e-003
      4.25883278e-004 -3.51152220e-003 -3.53058544e-003</_>
    <_>
      -9.60714708e-004 -1.87484594e-003 -5.70200849e-004
      -1.21552323e-003 -9.80248093e-004 -3.19395307e-003
      -5.53115562e-004 -3.15879285e-003 -1.38573314e-003
      -2.12521222e-003 -9.62460786e-003 -3.88221606e-003
      -3.64374835e-003 4.26085433e-004 2.21312876e-004 -4.90874797e-003
      -4.57556359e-003</_>
    <_>
      1.19642951e-002 1.00281676e-002 4.23108041e-003 -1.15926219e-002
      7.70227611e-003 -6.49441080e-003 1.20488992e-002 -8.45750142e-003
      1.61388256e-002 -4.68982663e-003 9.28258451e-005 1.12342869e-003
      -1.17180934e-002 1.20611237e-002 -2.66663358e-003 6.89753750e-003
      2.58801747e-002</_>
    <_>
      -1.79773109e-004 3.29337991e-003 -6.01173798e-003 -7.05098733e-003
      6.67383475e-003 -1.03725884e-002 1.69433989e-002 -1.40643353e-002
      1.26764094e-002 -7.01089157e-003 1.41593777e-002 -1.63277220e-002
      1.95392575e-002 -6.16920693e-003 -2.34073400e-003 -1.61227435e-002
      2.71053575e-002</_>
    <_>
      -1.32168934e-003 -4.16455267e-004 -4.42788703e-003
      -4.94643673e-003 -1.79496338e-003 -7.71766063e-003 2.26279348e-003
      -5.77659626e-003 4.41473955e-003 -7.07528880e-003 -8.98703933e-003
      1.04434062e-002 1.28207300e-002 7.13178096e-003 1.00172218e-002
      6.12428645e-003 1.27476547e-002</_>
    <_>
      3.58103518e-003 4.57237102e-003 -3.52121796e-003 -6.96762325e-003
      -2.00629514e-003 -1.22575508e-002 5.48881432e-003 -1.03113391e-002
      3.32770403e-003 -4.61486122e-003 -9.56777483e-003 -1.46930735e-003
      2.60888673e-002 5.01797162e-003 1.32923909e-002 8.30976386e-003
      5.38766431e-003</_>
    <_>
      -1.66949630e-002 2.35486161e-002 4.75377892e-004 -3.26777599e-003
      -5.72507456e-003 -3.27649638e-002 9.61684249e-003 -9.56436619e-003
      -5.24105458e-003 -7.69964326e-003 -6.73199445e-003 6.02925243e-003
      1.30651100e-002 1.18780602e-002 -3.16568487e-003 -2.36927867e-002
      6.31822739e-003</_>
    <_>
      1.02164652e-002 1.08746653e-002 4.16164039e-005 1.64246792e-003
      1.82943098e-004 -4.91070561e-003 7.12927803e-003 -1.52875541e-003
      9.89913195e-003 -3.62234307e-003 1.18432688e-002 -8.78086872e-003
      1.71747734e-003 -1.27378320e-002 8.51239450e-003 -1.29700797e-002
      1.40698552e-002</_>
    <_>
      2.13259738e-003 5.15421666e-003 3.82866990e-003 -1.12208193e-002
      6.68149395e-003 -2.71911677e-002 1.66407470e-002 -1.52578652e-002
      1.77492965e-002 -7.24636251e-003 1.05560257e-003 1.91042982e-002
      2.02187127e-003 -5.93076553e-003 5.92730474e-003 -2.34923158e-002
      2.23450214e-002</_>
    <_>
      9.55841225e-003 1.58364736e-002 -9.78793483e-003 -1.20168487e-002
      -1.09291996e-003 -3.15445252e-002 6.37849560e-003 -2.46835835e-002
      1.43147642e-002 1.33202923e-003 4.25880495e-003 -1.08356476e-002
      -2.64545549e-002 1.62442885e-002 5.98093541e-003 9.90477204e-003
      2.83323471e-002</_>
    <_>
      1.83659478e-003 -2.04247818e-003 -3.19414050e-003 -3.69855715e-003
      -6.49781199e-003 -1.04431277e-002 -2.17369874e-003
      -6.38975156e-003 -7.64347933e-005 -3.48126632e-003
      -7.39208097e-003 -3.74234631e-004 1.97875891e-002 1.64122023e-002
      1.03232786e-002 -3.83342063e-004 -1.02816928e-004</_>
    <_>
      -1.30285131e-004 1.58439169e-003 -3.98466969e-003 -6.39138976e-003
      5.80777007e-004 -2.49571260e-003 1.62093050e-003 -1.93456304e-003
      2.81964871e-003 -5.09311166e-003 -1.05142659e-002 -3.83071980e-004
      2.27575116e-002 -7.79534550e-003 2.03103442e-002 -5.60107687e-003
      3.58005939e-003</_>
    <_>
      7.21318938e-004 -3.64214554e-003 -3.78954131e-003 -4.67758346e-003
      1.52800372e-003 -2.99117132e-003 3.36325471e-003 -1.96864572e-003
      3.37961060e-003 -7.45001380e-005 3.01344180e-003 -3.91721353e-003
      1.36659630e-002 -7.87206460e-003 1.23838540e-002 -1.54404098e-003
      1.30492281e-002</_>
    <_>
      1.48002594e-003 2.22615851e-003 1.44250644e-003 -4.19290364e-003
      2.34373542e-003 -4.83748503e-003 5.94483269e-003 1.21496705e-004
      9.72338580e-003 -1.30336010e-003 2.39755827e-004 -1.31969191e-002
      7.88853411e-003 1.20008700e-002 1.27735306e-002 2.85217143e-003
      1.95983369e-002</_>
    <_>
      3.11408076e-003 6.16665231e-004 3.04794608e-004 -2.13352428e-003
      1.95013068e-003 -5.18799620e-003 5.60300006e-003 -4.58435062e-003
      5.62959956e-003 6.84177678e-004 -5.61241200e-003 -3.96361435e-003
      1.96388047e-002 -7.68186874e-004 1.42463921e-002 1.05581777e-002
      1.57277435e-002</_>
    <_>
      -5.39969653e-004 1.34238647e-003 1.08854449e-003 -1.19933765e-003
      2.14251503e-003 -1.28423492e-003 3.78822512e-003 -3.55209282e-004
      3.31648672e-003 -1.94405823e-003 2.03281990e-003 -8.79146811e-003
      9.96479299e-003 3.03532346e-003 1.54827898e-002 -1.74670643e-003
      7.49290269e-003</_>
    <_>
      -2.93067074e-003 -1.39412121e-003 -2.90596014e-004
      -2.14206730e-003 6.41713676e-004 -3.10615264e-003 1.83145443e-004
      -1.84885401e-003 -6.62820006e-004 -2.96855951e-003
      -6.11096155e-003 -1.15922820e-002 4.24964790e-004 5.63279027e-003
      5.29459445e-003 -3.34775588e-003 -6.83156960e-003</_>
    <_>
      1.16905505e-002 7.57074356e-003 7.23001035e-003 6.08706800e-003
      5.38018439e-003 1.01560785e-003 4.64625470e-003 -2.48003867e-003
      5.17525477e-003 6.85284752e-003 -4.13555000e-003 -8.81151669e-003
      4.49925079e-004 9.57613625e-003 -1.33554637e-002 4.54586791e-003
      -1.95107535e-002</_>
    <_>
      9.68822569e-004 1.13295892e-003 6.95011404e-004 2.95322650e-004
      1.32655941e-005 5.12023398e-005 -6.16313919e-005 -3.47713038e-004
      6.50508795e-004 6.09091891e-004 5.67511772e-004 -5.12759434e-003
      -5.65880444e-003 -6.70297584e-003 -7.21136713e-003
      -1.87774899e-003 -2.02580611e-003</_>
    <_>
      6.47508656e-004 1.27926841e-003 1.92605495e-003 -1.11465168e-003
      2.02647247e-003 3.12738994e-004 -1.53047862e-004 -1.02071186e-004
      -5.43539820e-004 -1.50718575e-003 -1.67783573e-002
      -7.68047234e-004 -8.11672863e-003 -3.80745227e-003
      -9.64845810e-003 -9.95679293e-003 -3.28560802e-003</_>
    <_>
      7.06898427e-005 -3.18334613e-004 4.63760844e-005 5.96463389e-004
      8.66964052e-004 5.01534436e-004 5.93997480e-004 5.13813982e-004
      -1.85230840e-003 3.76480864e-004 -4.55547217e-003 -8.27284250e-003
      -5.98618155e-003 -5.19037619e-003 -4.33762139e-003
      -2.11075973e-003 -2.68112007e-003</_>
    <_>
      8.64028186e-003 3.58344405e-003 3.95706622e-003 2.54157814e-003
      -2.02899446e-006 -2.68885866e-003 -1.17301883e-004
      -1.73730194e-003 2.87837931e-003 4.98483051e-003 -8.05031601e-003
      -3.04902019e-003 -1.60680269e-003 6.58982620e-003 -1.40416399e-002
      9.02034994e-003 -8.66863783e-003</_>
    <_>
      2.18913611e-002 1.51541745e-002 7.91068189e-003 -2.47157854e-003
      1.22828698e-002 4.44067689e-003 3.81297385e-003 4.92315879e-003
      1.10291606e-002 1.28337508e-002 -1.16552748e-002 -8.82536452e-003
      -7.21687917e-003 -1.34386902e-003 4.56133997e-003 1.02000800e-003
      -6.73029898e-003</_>
    <_>
      2.31381655e-002 7.12748896e-003 1.54259531e-002 1.53243181e-003
      1.45803951e-002 7.44204922e-003 1.09161492e-002 3.36815300e-003
      8.31075199e-003 2.24327366e-003 -1.57850739e-002 9.81135527e-004
      1.03411181e-002 6.77208416e-003 -4.64020669e-003 -1.09633561e-002
      1.91447092e-003</_>
    <_>
      -9.50266549e-004 -3.99078941e-003 -3.46908317e-004
      -4.89589293e-004 1.40858581e-003 1.04247336e-003 -1.76670030e-003
      -3.41624138e-003 -3.05899954e-003 -3.17529263e-003
      -1.52037358e-002 -5.34906238e-003 -3.95120354e-003
      -3.61122075e-003 -1.90822966e-003 -4.89502493e-003
      -7.23066693e-003</_>
    <_>
      3.09372717e-003 2.80952966e-003 1.43597915e-003 8.27606360e-004
      1.55034009e-003 1.54923170e-003 1.60185806e-003 1.38460868e-003
      3.42937768e-003 2.83794431e-003 -3.02044733e-004 8.10346194e-003
      7.57227698e-003 3.85816162e-003 2.26778793e-003 1.00748427e-002
      2.00084131e-003</_>
    <_>
      3.45022790e-002 2.19206158e-002 1.18832421e-002 -2.66184798e-004
      1.01444572e-002 -8.77735578e-003 -2.18615867e-003 -1.44366724e-002
      3.78024322e-003 2.08585057e-003 4.82093630e-004 1.12480316e-002
      -1.15417233e-002 2.15181150e-002 -1.36969984e-002 1.06542334e-002
      -1.97207201e-002</_>
    <_>
      9.42438934e-003 1.11198602e-002 4.17336589e-003 1.26864680e-003
      2.13459088e-003 1.08016597e-003 2.68971408e-003 1.84073451e-003
      3.61731020e-003 4.56593698e-003 3.19011114e-003 8.19656812e-003
      7.18996907e-003 -5.33853425e-003 -1.18244700e-002 9.80134588e-003
      1.08798044e-002</_>
    <_>
      2.18573376e-003 2.15887069e-003 1.30390725e-003 -6.34194526e-004
      7.97384651e-004 -3.47351393e-004 -8.60913424e-004 -1.90823537e-003
      -1.48431829e-003 -6.52770977e-004 -5.37955714e-003
      -1.30893569e-002 -5.39529417e-003 -6.71463460e-003
      -1.12493499e-003 -9.28085670e-003 -5.70249930e-003</_>
    <_>
      4.78293281e-003 7.53726065e-003 6.96117431e-003 2.09519034e-003
      4.67495527e-003 -3.22418840e-004 4.92911227e-003 -3.19883751e-004
      6.66755205e-003 5.11277607e-003 6.88658503e-004 9.36962533e-006
      -2.80752964e-003 -5.87014342e-003 -2.13009082e-002
      -2.14192225e-003 -7.21437111e-003</_>
    <_>
      -3.03982932e-004 1.15391612e-003 1.87548145e-003 -1.77319034e-005
      -3.23373883e-004 4.35164566e-006 1.40030356e-003 -1.89897872e-003
      2.18987279e-003 -1.31310837e-003 -1.33129291e-003 -4.48587257e-003
      -1.95856948e-004 -1.24057522e-002 -1.76308397e-002
      -2.51993979e-003 -4.68409946e-003</_>
    <_>
      5.91191277e-003 9.09417495e-003 7.13699544e-003 3.68883531e-003
      5.88837173e-003 4.36323741e-003 5.18226903e-003 3.57097900e-003
      6.46188715e-003 5.10801375e-003 1.19508170e-002 -5.48722036e-003
      -2.74929265e-003 1.46427745e-004 -7.04063708e-003 3.91665706e-003
      8.32556468e-003</_>
    <_>
      1.47192040e-003 1.28117763e-003 -1.59757939e-004 -1.40871317e-003
      8.10806989e-004 -6.40996324e-004 -4.48347506e-004 -7.70185899e-004
      3.41338076e-004 2.67372059e-004 -7.03634880e-003 -9.72350501e-003
      -5.53492224e-003 -7.43847806e-003 -7.61843938e-003
      -6.47545373e-003 -2.02436838e-003</_>
    <_>
      2.67829164e-003 4.41311486e-003 7.49021722e-003 5.49873756e-003
      2.81486078e-003 2.19778554e-003 3.44468351e-003 -2.19067582e-003
      -3.56970180e-004 2.80258758e-003 1.34893542e-003 -1.89288538e-002
      5.15983114e-003 9.49814729e-003 -1.22603839e-002 -2.40155193e-003
      -1.51057485e-002</_>
    <_>
      -7.89268129e-003 -4.25026240e-003 1.19549185e-002 5.92441205e-003
      9.95935034e-003 1.69050856e-003 6.26261346e-004 -1.37697801e-003
      -6.85609120e-004 4.43283236e-003 5.94758370e-004 2.92360922e-003
      -1.64593663e-002 8.21580365e-003 -2.97252163e-002 7.82848988e-003
      1.43201705e-002</_>
    <_>
      -1.13264192e-003 -9.29032161e-004 3.05178750e-004 -4.18877375e-004
      -3.49211594e-004 -2.99101288e-004 -1.01952231e-003
      -1.26278924e-003 -1.07965025e-003 -1.22400714e-004
      -5.55153517e-003 -1.07950931e-002 -2.00710259e-003
      -1.26490858e-003 -1.97735755e-003 -4.84333374e-003
      -2.87834113e-003</_>
    <_>
      5.82672190e-004 7.38473237e-003 7.16918102e-003 6.45305170e-003
      1.18677015e-003 4.56790440e-003 -6.29668299e-004 2.57919164e-004
      -4.49924817e-004 1.23768882e-003 2.01191735e-002 -1.31266396e-002
      5.39907301e-003 -4.96832607e-003 -2.28159335e-002 -8.13426264e-003
      -1.39392447e-002</_>
    <_>
      1.68635640e-002 1.68039072e-002 1.37491990e-002 5.18732355e-004
      9.67116002e-003 3.79154179e-003 2.09660828e-003 -6.29795529e-003
      7.19236908e-003 8.30596965e-003 2.42314059e-002 -7.59400707e-003
      -1.63684934e-002 1.54975848e-003 -2.59764940e-002 1.36566553e-002
      2.44094175e-003</_>
    <_>
      1.49369729e-003 5.88380848e-004 4.38662758e-003 3.81780742e-003
      2.45301193e-003 2.22937088e-003 1.90577214e-003 3.06856562e-003
      2.03677570e-003 3.68304597e-003 1.08741806e-003 -1.43306870e-002
      -2.56235103e-006 3.68765439e-003 -1.66049618e-002 -8.87273718e-003
      -7.77358469e-003</_>
    <_>
      -2.97405553e-004 1.76518733e-004 -3.23571177e-004 -8.13547755e-004
      -6.81083067e-004 -7.74805725e-004 -5.85393340e-004
      -6.43267354e-004 -4.94151318e-004 -5.34207502e-004
      -7.23916898e-003 1.09827099e-003 -2.26682541e-003 -3.52053693e-003
      -5.14951535e-003 -1.86267914e-003 -1.39772554e-003</_>
    <_>
      -2.79048039e-003 -1.36741744e-002 1.21251727e-002 2.67670420e-003
      1.66851934e-002 -3.10274167e-003 2.58348207e-003 -1.33252386e-002
      7.39384769e-003 1.41857378e-002 -6.65726280e-003 2.12195702e-002
      -3.59779107e-003 -1.29416352e-003 -2.93277372e-002 2.81795952e-002
      -2.37836204e-002</_>
    <_>
      4.84059891e-003 1.00166528e-002 7.25162821e-003 6.25651469e-003
      6.28906023e-003 5.85826405e-004 5.64969471e-003 -2.19179178e-003
      7.93392304e-003 6.99923839e-003 -4.78613051e-003 8.92815646e-003
      1.09756943e-002 2.73462548e-003 -1.88614260e-002 1.85896121e-002
      -2.03037169e-002</_>
    <_>
      3.93668073e-004 1.59416872e-003 1.45282960e-004 -5.74531266e-004
      -9.93473586e-005 -8.19396053e-004 2.70476768e-004 -1.98932335e-004
      4.77866997e-004 6.90894958e-004 -6.20725565e-003 -2.09581153e-003
      -4.64647776e-003 -4.65805084e-003 -9.17214528e-003
      -1.08051859e-003 -1.79213111e-003</_>
    <_>
      -6.66342734e-004 2.37517408e-004 -4.50090665e-005 -2.14051548e-003
      6.42517989e-004 -1.30071212e-003 5.25444513e-004 -1.13327545e-003
      1.24148582e-003 -1.96629815e-004 -1.32152652e-002 5.70271630e-004
      4.76650108e-004 -8.08215979e-003 -3.47801484e-003 -1.19887642e-003
      -5.14305057e-003</_>
    <_>
      -1.09282773e-004 -3.32283531e-003 1.31346215e-003 1.12924128e-004
      -2.16071257e-005 -2.41909712e-003 5.39829125e-005 -2.78619188e-003
      -5.89953386e-004 2.68209114e-004 -1.24318600e-002 -6.29948778e-003
      -5.03187487e-003 -2.07434711e-003 -4.49589407e-003
      -3.70843941e-003 -7.78283179e-003</_>
    <_>
      6.82247104e-003 7.69056752e-003 4.60904092e-003 5.63769601e-004
      4.37952019e-003 4.04311344e-003 3.83230601e-003 1.24231749e-003
      6.07739994e-003 4.10192460e-003 7.20593845e-003 5.26262308e-003
      -1.57391920e-003 1.17653282e-003 -7.66864186e-003 9.12870467e-003
      5.84958354e-003</_>
    <_>
      4.31730971e-003 5.12926839e-003 4.52767406e-003 4.36597178e-003
      5.48988860e-003 4.24001459e-003 5.93654625e-003 1.16338313e-003
      5.84453158e-003 5.27096633e-003 1.57016665e-002 5.25993994e-003
