<?xml version="1.0"?>
<opencv_storage>
<my_svm type_id="opencv-ml-svm">
  <svm_type>C_SVC</svm_type>
  <kernel><type>LINEAR</type></kernel>
  <C>1.0000000000000001e-001</C>
  <term_criteria><epsilon>2.2204460492503131e-016</epsilon>
    <iterations>10000000</iterations></term_criteria>
  <var_all>17</var_all>
  <var_count>17</var_count>
  <class_count>50</class_count>
  <class_labels type_id="opencv-matrix">
    <rows>1</rows>
    <cols>50</cols>
    <dt>i</dt>
    <data>
      1 2 4 5 6 8 9 10 15 17 19 20 21 22 23 24 27 28 29 31 35 45 49 50
      51 52 53 55 59 63 67 72 76 85 86 105 129 143 155 160 165 168 175
      195 209 210 212 218 219 230</data></class_labels>
  <sv_total>1225</sv_total>
  <support_vectors>
    <_>
      -2.52565980e-004 -5.23615489e-003 3.78464349e-003 -5.13529964e-003
      2.06196797e-003 -2.60992581e-003 1.40053756e-003 -2.94306665e-003
      -2.81767570e-003 -9.89926863e-004 -1.50857242e-002
      -1.69322710e-003 1.16436125e-003 1.47977956e-002 6.97110360e-003
      -1.34365261e-003 -1.79380812e-002</_>
    <_>
      -6.29610207e-004 -4.31949552e-003 6.84639672e-004 -3.22598289e-003
      -2.17122328e-003 -3.43123637e-003 5.59136155e-004 -4.96996148e-003
      -5.86406502e-004 -1.97426812e-003 -1.57947671e-002
      -5.16714528e-003 3.72927403e-003 6.51445519e-003 -7.70441315e-004
      -2.25840253e-003 -8.20850488e-003</_>
    <_>
      -2.23971694e-003 -3.80045339e-003 -1.66852796e-003
      -2.41728430e-003 -1.33339316e-003 -2.15453771e-003
      -2.77912011e-004 -1.65822834e-003 -2.41670175e-003
      -1.83614530e-003 -1.09558972e-002 -1.53255451e-003 1.74109242e-003
      1.17623909e-004 6.99950906e-004 -5.30563004e-004 -4.88379644e-003</_>
    <_>
      -9.64468461e-004 -6.56576036e-003 2.46307551e-004 -4.54670656e-003
      -3.23822908e-003 -5.89076942e-003 -1.41939336e-005
      -3.40499775e-003 -1.59173575e-003 -1.16751157e-003
      -1.19654061e-002 -2.89898668e-003 6.42926479e-003 4.22422541e-003
      -1.69980685e-005 3.35665932e-003 -1.53342430e-002</_>
    <_>
      -7.39116594e-003 -8.14839639e-003 6.63379324e-004 -3.63793923e-003
      -2.77531263e-003 1.75026769e-003 -5.18887816e-003 8.00705166e-004
      -7.00004678e-003 4.47626878e-003 -1.21144522e-002 1.78261343e-002
      7.88660720e-003 2.49533122e-003 -4.89256298e-003 1.09785739e-002
      -1.68337971e-002</_>
    <_>
      -3.56188766e-003 -5.19284420e-003 -1.89221965e-003
      -2.96945148e-003 -1.50527491e-003 -1.79130875e-003
      -3.80908634e-004 -1.30908389e-003 -1.98312779e-003
      -1.46637566e-003 -9.17422492e-003 7.57497270e-004 4.59533324e-003
      4.24123788e-003 9.24949627e-003 7.23844161e-004 -4.33020061e-003</_>
    <_>
      -1.26791990e-003 -2.57887575e-003 -2.63112423e-004
      -1.59058813e-003 -5.85572387e-004 -2.12626788e-003 6.76165277e-004
      -1.94054144e-003 -1.34845986e-003 1.36599032e-004 -9.37157590e-003
      -1.05349801e-003 5.33805368e-003 6.62173331e-003 4.51936899e-003
      2.70287017e-003 -1.10777207e-002</_>
    <_>
      -1.11954345e-003 -1.48177135e-003 -3.72208830e-004
      -1.36747619e-003 -1.07588514e-003 -1.23408879e-003
      -2.82002176e-004 -1.10553578e-003 -7.50401159e-005
      -2.82141060e-004 -7.38480361e-003 -4.63626906e-003
      -3.32083390e-003 -4.90820967e-003 -3.15097277e-003
      -2.25044577e-003 -4.60967468e-003</_>
    <_>
      -2.02556234e-003 -2.23666988e-003 6.10640505e-004 -1.82107103e-003
      -9.10062518e-005 -1.38415280e-003 -4.28236643e-004
      -9.10101517e-004 -2.81081861e-003 -2.48550787e-003
      -1.23654483e-002 4.34115157e-003 -1.04642495e-004 7.80464383e-003
      4.69953474e-003 -5.02771651e-003 -3.12288455e-003</_>
    <_>
      -2.00456218e-003 -3.45078646e-003 -8.11221311e-004
      -9.53850977e-004 -6.31679495e-006 -7.28497282e-004 9.96516552e-004
      4.32976172e-004 -1.99262472e-003 2.97215331e-004 -6.99598202e-003
      -7.76203861e-003 8.17847322e-004 -1.99280330e-003 2.82799941e-003
      2.59348075e-003 -4.16015787e-003</_>
    <_>
      8.42258625e-004 -1.79741264e-003 8.61922628e-004 -5.89437375e-004
      -1.39750855e-003 -2.62121228e-003 -4.65778197e-004
      -1.89320277e-003 -9.12431162e-004 5.10726066e-004 -1.05794473e-002
      1.06221018e-003 2.10113591e-003 7.36266375e-003 7.61668489e-004
      2.79118074e-003 -7.61950389e-003</_>
    <_>
      1.51096017e-003 -4.07696381e-004 4.43885801e-005 -7.21513201e-003
      2.24400108e-004 -3.60148679e-003 1.12065824e-003 -5.88252617e-004
      1.19705300e-003 3.65473493e-003 -1.78152099e-002 3.37156770e-003
      2.57139537e-003 5.39799221e-003 6.33368781e-003 1.82873337e-003
      -7.32099917e-003</_>
    <_>
      -3.47086141e-004 -3.93998437e-003 7.53933564e-004 -3.54271452e-003
      6.29816554e-004 -8.73218873e-004 2.10175617e-003 -8.45731469e-004
      1.54143112e-004 -4.70726663e-004 -1.04999254e-002 -3.64531443e-004
      9.52271651e-003 2.84718536e-003 1.01796240e-002 9.18737263e-004
      -5.22126863e-003</_>
    <_>
      -1.68233761e-003 -2.78210524e-003 -6.84019760e-004
      -1.20932772e-003 -2.21231167e-004 -5.03050920e-004
      -4.90046863e-004 -1.44254684e-003 -1.79569656e-003
      -1.53021934e-003 -8.29760544e-003 6.54920121e-004 2.46950937e-003
      2.25127395e-003 4.82583186e-003 -2.88512674e-004 -4.45899321e-003</_>
    <_>
      -2.43028582e-004 -1.47178536e-003 -2.22845236e-004
      -1.06460217e-003 -3.61514285e-005 -9.84601429e-005 5.13652631e-004
      -1.36716029e-004 7.00514589e-004 6.47900568e-004 -4.81276028e-003
      3.81958415e-003 5.54414839e-003 4.24918951e-003 5.61621785e-003
      4.92854556e-003 -1.13978155e-003</_>
    <_>
      -4.14810755e-004 -1.62252190e-003 -6.09674491e-004
      -2.63247686e-003 -1.60099985e-003 -3.68979480e-003
      -1.09641755e-003 -3.11465608e-003 -2.60124844e-003
      -2.20561237e-003 -1.10236416e-002 6.67447923e-003 1.12259132e-003
      8.06943979e-003 2.47100485e-003 -1.24732940e-003 -7.04733795e-003</_>
    <_>
      -2.04640278e-003 -1.30815187e-003 -1.10533542e-003
      -4.66324622e-003 -3.30303377e-003 -5.08274138e-003
      -7.19286501e-004 -1.20067282e-003 -2.61833146e-003 1.46225514e-003
      -1.45689361e-002 8.93238932e-003 1.19209867e-002 5.33429254e-003
      1.74416695e-003 1.20721245e-002 -3.51511734e-003</_>
    <_>
      -1.48079242e-003 -2.20450456e-003 -6.04346220e-004
      -2.34830752e-003 -9.25786677e-004 -2.04093684e-003
      -6.11486088e-004 -2.04547984e-003 -2.68919766e-003
      -1.85291492e-003 -9.70694330e-003 -5.08969231e-003 6.52661984e-005
      -8.50971730e-004 4.33261739e-003 -4.31071036e-003 -5.99614205e-003</_>
    <_>
      -4.87256795e-003 -2.68554804e-003 2.97486456e-003 -4.00426937e-003
      5.53220394e-004 -6.09059352e-003 3.64015135e-003 -3.27489106e-003
      4.97001980e-004 2.08531390e-003 -1.30998762e-002 -3.65345320e-003
      6.70157513e-003 9.53885261e-003 2.54095229e-003 8.45521921e-004
      -2.12815739e-002</_>
    <_>
      -4.30903072e-003 -5.92699600e-003 1.61498509e-004 -3.35753523e-003
      -2.73022149e-003 -1.80626556e-003 8.12662765e-004 -4.01524734e-003
      -1.44689938e-003 -3.99238477e-003 -1.53726945e-002 2.68889638e-003
      6.96856529e-003 -2.98510515e-003 -1.52450695e-003 -3.09902406e-003
      -1.26108378e-002</_>
    <_>
      -3.74982017e-003 -4.99279378e-003 4.22498211e-003 -4.45110351e-003
      3.68238427e-003 8.80959153e-004 5.21392515e-003 2.94030615e-005
      3.19849327e-003 2.10354221e-003 -1.32840667e-002 -1.12910075e-002
      5.30976988e-003 1.13605093e-002 1.74519643e-002 4.52631572e-003
      -1.29720429e-003</_>
    <_>
      -2.11205357e-003 -3.82810249e-003 -2.04779441e-003
      -4.70544398e-003 -1.60252373e-003 -3.13327764e-003
      -6.25162269e-004 -1.74761552e-003 -5.34124847e-004
      -1.21846540e-004 -1.30914729e-002 -8.77670292e-003 2.77741766e-003
      2.71822646e-004 3.80484574e-003 7.42127377e-005 -6.61518704e-003</_>
    <_>
      -3.97930248e-003 -4.47340263e-003 6.38861675e-004 -1.35731185e-003
      -9.08205868e-004 -2.08534719e-003 3.84725776e-004 -1.84461370e-003
      -2.35617370e-003 -5.98657352e-004 -7.22889416e-003
      -9.77115147e-003 5.16080949e-003 7.24341581e-003 3.31444852e-003
      -1.44018338e-003 -7.05027767e-003</_>
    <_>
      -7.45775690e-003 -7.03694159e-003 -7.39757146e-004
      -3.59740853e-003 -7.50622654e-004 -2.58686836e-003
      -9.31429851e-004 -2.35941680e-003 -3.66390008e-003
      -1.24906201e-003 -1.46582667e-002 7.68705318e-003 2.50195269e-003
      7.94484932e-003 4.54662601e-003 1.77294307e-003 -3.25560430e-003</_>
    <_>
      -1.78722187e-003 -2.31448328e-003 -2.03328127e-005
      -1.30694732e-003 -1.00810756e-003 -1.41497864e-003
      -6.85064588e-004 -1.65988121e-003 -2.04850826e-003
      -1.06064207e-003 -7.62118958e-003 -3.96227930e-003 1.26662967e-003
      3.12561053e-003 5.07763354e-003 -1.99548691e-003 -4.41860454e-003</_>
    <_>
      -6.86861109e-003 -6.77455962e-003 -8.89648392e-004
      -3.36994720e-003 -3.30500863e-003 -4.06599278e-003
      -1.18121214e-003 -3.02372687e-003 -4.90361918e-003
      -3.27745616e-003 -1.13487579e-002 2.92504835e-003 9.27898753e-003
      2.37649702e-003 5.52710192e-003 -3.77233460e-004 -1.32547114e-002</_>
    <_>
      -3.71513097e-003 -5.70675964e-003 -1.00310356e-003
      -7.16060773e-003 -2.60219793e-003 -4.14838921e-003
      -1.37141068e-003 -4.90084151e-003 -4.47870605e-003
      -6.51054492e-004 -1.57830883e-002 2.56546773e-003 3.24247358e-003
      9.62150004e-003 9.66790691e-003 2.09970726e-003 -1.26643619e-002</_>
    <_>
      -4.65475768e-003 -7.22951908e-003 -5.06304496e-004
      -2.80833757e-003 -1.88756175e-003 -4.30996390e-003 8.02061404e-004
      -1.33487245e-003 -2.69084750e-003 6.96096336e-004 -5.85084502e-003
      -7.08600646e-003 6.73876051e-003 1.03744790e-002 3.52324499e-003
      -2.80468166e-003 -1.47177093e-002</_>
    <_>
      -1.06225046e-003 -7.51738320e-004 -6.40544749e-004
      -1.36707781e-003 -1.03578519e-003 -1.22033060e-003
      -4.36151662e-004 -7.34408270e-004 -9.06437461e-004
      -7.47596961e-004 -8.24196078e-003 2.60489970e-003 4.56888287e-004
      -8.29844736e-004 -9.70486552e-004 -7.34725385e-004
      -2.47285957e-003</_>
    <_>
      -4.09719767e-003 -4.77904640e-003 -1.19680550e-003
      -2.85322638e-003 -6.74249197e-004 -2.53057014e-003
      -5.80615888e-004 -2.08864152e-003 -1.36466383e-003
      -3.13724624e-004 -9.80631448e-003 5.27540594e-003 3.80909070e-003
      3.55090993e-003 5.64452447e-003 2.53118691e-003 -6.99521136e-003</_>
    <_>
      -5.84827084e-003 -5.84261632e-003 -1.51546614e-003
      -2.73881853e-003 -7.96935288e-004 -2.84884358e-003 7.51134212e-005
      -2.64827721e-003 -2.53803632e-003 -8.86089925e-004
      -1.17142517e-002 1.47829833e-003 6.78244000e-003 4.73665958e-003
      2.47775647e-003 4.87866765e-003 -1.07833063e-002</_>
    <_>
      -3.01528582e-003 -3.89506487e-004 -1.49721408e-003
      -4.62817913e-003 -2.64699617e-003 -5.31179644e-003 4.74493398e-004
      -1.87444931e-003 -1.63457112e-003 -5.83665824e-005
      -1.41315050e-002 9.35035059e-004 -4.72486427e-004 -1.35389925e-003
      -3.53986956e-003 3.58956587e-003 -8.50833580e-003</_>
    <_>
      -1.29959860e-003 -1.14744471e-003 -5.50996861e-004
      -1.77034375e-003 -5.29467012e-004 -1.57245982e-003
      -5.21415895e-005 -1.39675254e-003 -2.08428857e-004
      -7.42030796e-004 -9.82655026e-003 2.85245758e-003 1.51303376e-003
      -1.35142822e-003 2.98567559e-003 -4.47022554e-004 -2.61978898e-003</_>
    <_>
      -1.50657620e-003 -3.15182167e-003 -1.17570911e-004
      -1.18614454e-003 -8.57525039e-004 -2.06949096e-003 1.20710196e-004
      -1.65252516e-003 -1.05202349e-003 -4.14420065e-004
      -9.12995357e-003 -2.59425928e-004 1.67384022e-003 2.16469658e-003
      2.94464687e-003 -1.61000004e-004 -5.56676555e-003</_>
    <_>
      6.51903159e-004 -2.81046377e-003 1.95009878e-003 -6.21172786e-003
      2.29237857e-003 1.88331527e-003 3.97755858e-003 -2.11372692e-003
      4.04418120e-003 2.26487801e-003 -9.70336515e-003 4.89576254e-003
      6.26620324e-003 1.08338455e-002 9.96892806e-003 1.41237341e-002
      -1.35656062e-003</_>
    <_>
      -9.59397666e-003 -9.34506766e-003 -5.99983521e-003
      -1.05075138e-002 7.03044760e-004 -3.29844840e-003 6.71037892e-003
      -1.71961365e-004 1.80528825e-003 7.35163642e-003 -7.84561038e-003
      1.06819775e-002 1.85392909e-002 3.69074638e-003 1.31282583e-003
      7.80801428e-003 -7.79314293e-003</_>
    <_>
      -2.03839387e-003 -2.39524106e-003 -9.02471598e-004
      -1.93255348e-003 -6.65887957e-004 -1.06120773e-003 5.80936321e-004
      -1.17663259e-003 5.37827727e-004 -7.10993190e-004 -4.35636705e-003
      6.82950625e-003 7.70571548e-003 5.61854104e-003 6.65249489e-003
      5.87445963e-003 -5.86734212e-004</_>
    <_>
      -1.64270843e-003 -2.21282500e-003 -8.80342501e-004
      -2.95333075e-003 -1.06871850e-003 -1.69501605e-003 1.48394459e-003
      -1.47929322e-003 3.69858637e-004 1.04202400e-003 -4.11204621e-003
      7.04238715e-004 1.23411240e-002 2.96862563e-003 6.69616042e-003
      8.59526359e-003 -3.99598386e-003</_>
    <_>
      -4.00090683e-003 5.80972584e-004 4.28958047e-005 -1.83861272e-003
      -1.61777076e-003 -2.42053764e-003 1.20864401e-003 -7.20474753e-004
      -1.04836561e-003 1.38541381e-003 -1.40961725e-002 7.55776698e-003
      1.21472115e-002 5.70445927e-003 5.62624680e-003 1.83598592e-003
      -6.19126856e-003</_>
    <_>
      8.30363855e-003 9.48879588e-003 2.59533059e-003 -6.79500867e-003
      -9.66404565e-003 -1.04825478e-002 5.65596670e-003 -2.79264548e-003
      9.48166475e-003 3.29505350e-003 -5.88003453e-003 3.28577161e-002
      3.35740075e-002 -3.42752561e-002 1.01162456e-002 -5.19233104e-003
      -1.08959479e-002</_>
    <_>
      -5.96554345e-003 -8.45654681e-003 2.04412220e-003 -7.90511165e-003
      -8.79293773e-004 -7.27376482e-003 3.27423261e-003 -4.33850056e-003
      1.33303029e-003 2.07481137e-003 -1.87017247e-002 2.00193226e-002
      9.47760697e-003 1.96096790e-003 2.26062071e-003 3.05382581e-003
      -8.43843166e-003</_>
    <_>
      -4.67965892e-003 -3.71018867e-003 -1.53141993e-003
      -6.71837898e-003 -2.06878106e-003 -6.31397823e-003
      -2.13973667e-003 -7.40187941e-003 -2.22248980e-003 3.99905257e-003
      -2.08328422e-002 1.10122459e-002 -1.28146540e-003 1.31803807e-002
      3.85563495e-003 1.22652631e-002 -1.41734770e-002</_>
    <_>
      -9.54741554e-004 -2.40077660e-003 -2.59307184e-004
      -1.45299092e-003 -1.91135064e-003 -1.09677657e-003
      -1.22940587e-003 -1.68119476e-003 -1.64864375e-003
      -1.71784632e-004 -6.10453589e-003 5.57092065e-003 6.89519476e-003
      7.49402307e-003 7.43768085e-003 8.77287355e-004 -4.14603669e-003</_>
    <_>
      -1.20657636e-003 -2.64138496e-003 -7.02265766e-004
      -2.21854565e-003 9.61579644e-005 1.43309578e-003 1.15903043e-004
      -4.75391629e-004 -3.41098232e-004 3.08730814e-005 -8.48779082e-003
      2.01994414e-003 8.37707613e-003 7.77673151e-004 9.40992683e-003
      2.08000443e-003 -3.51680070e-003</_>
    <_>
      -2.19882769e-003 -5.22539625e-003 -1.78812700e-003
      -3.45700397e-003 2.89730233e-004 -5.07039309e-004 1.68300082e-003
      -3.28586291e-004 8.24562507e-004 1.67049677e-003 -2.52757664e-003
      2.40163156e-003 1.22282133e-002 -1.18538667e-003 1.00444425e-002
      4.34564333e-003 8.76186066e-004</_>
    <_>
      -1.84801465e-003 -2.73682806e-003 1.06656353e-003 -2.65239063e-003
      6.89328124e-004 2.39301880e-004 2.10094894e-003 6.62607781e-004
      2.44627753e-003 1.59107358e-003 -4.43750480e-003 4.21903649e-004
      9.30605736e-003 1.00814076e-002 1.14129828e-002 7.34003820e-003
      8.47502146e-004</_>
    <_>
      1.94423865e-005 -2.44447356e-003 6.45503402e-004 -5.95220597e-004
      7.66514393e-004 1.90909894e-004 1.36657816e-003 -1.65967023e-004
      8.07747361e-004 1.67006219e-003 -1.28934323e-003 3.39879072e-003
      9.14592203e-003 5.09606535e-003 7.80882174e-003 5.26960567e-003
      1.10487927e-004</_>
    <_>
      -1.14686601e-003 -7.42411707e-004 1.06309925e-003 -7.27511302e-004
      1.09353103e-003 7.35839189e-004 1.36943674e-003 -2.23936222e-004
      3.14844452e-004 -4.81146417e-004 -2.46780645e-003 1.62754708e-003
      6.75219717e-003 5.62996790e-003 1.14994403e-002 3.92914051e-004
      -9.85029852e-004</_>
    <_>
      -1.98368868e-003 -1.97483227e-003 3.18767270e-004 -9.96830524e-004
      5.31871745e-004 -4.59591218e-004 3.72213799e-005 -1.12517795e-003
      -1.25870947e-003 -1.17012183e-003 -6.97710412e-003
      -2.98322039e-003 1.50253100e-003 5.64740924e-003 5.66964038e-003
      -9.36784549e-004 -5.52372728e-003</_>
    <_>
      -4.45861660e-004 -1.00974776e-002 -5.23331622e-003 6.75547111e-004
      -1.92228500e-002 -5.28422557e-003 6.77134900e-004 -1.93579365e-002
      8.84287618e-003 -4.80412180e-003 -2.35416330e-002 -1.33269085e-002
      2.46233717e-002 2.27221213e-002 -8.23472440e-003 -4.11509955e-003
      1.03375670e-002</_>
    <_>
      -6.17703702e-003 -8.06701649e-003 -7.78083084e-003
      -3.06847109e-003 -5.60804596e-003 -3.48162581e-003
      -1.75223860e-003 -3.13963438e-003 -5.69525268e-003
      -4.49517975e-003 -1.80178043e-002 -3.59223923e-003 6.43732585e-003
      -2.43492308e-003 8.21412948e-004 2.01192312e-003 -2.97659845e-003</_>
    <_>
      1.92726249e-004 -9.90870874e-003 -7.07730930e-003 -6.03953202e-004
      -3.38549279e-002 -2.28890833e-002 -7.43715465e-003
      -1.51495077e-002 -7.26951472e-003 -7.73381768e-003 3.42529896e-003
      -9.54288803e-003 2.49293614e-002 -2.83811591e-003 -3.70446555e-002
      5.34689659e-003 -2.12296639e-002</_>
    <_>
      -2.08352925e-003 -3.05938971e-004 1.09730845e-005 3.66474479e-003
      -1.45119196e-003 4.22536582e-003 1.17723539e-006 4.60872613e-003
      -1.96693127e-005 4.70058527e-003 6.54843822e-003 1.35735245e-002
      1.21973511e-002 1.32187619e-003 5.30124735e-003 1.05575388e-002
      5.01606287e-003</_>
    <_>
      -3.85784707e-003 -3.48548987e-003 -2.36900337e-003
      -6.70584632e-005 -2.27092183e-003 -4.82134928e-004 1.24803715e-004
      6.53716852e-004 -1.38041039e-003 -8.79833300e-004 -2.34221643e-005
      1.86812412e-003 9.89131350e-003 5.46403602e-003 1.39910765e-002
      5.42971538e-003 4.71027987e-003</_>
    <_>
      -1.40038389e-003 2.22247187e-003 -8.74509395e-004 3.50573147e-003
      -2.81780609e-003 -7.70355866e-004 2.78522004e-003 -1.83612562e-003
      -3.20063700e-004 2.08651461e-003 -1.09358989e-002 5.22852235e-004
      1.75055601e-002 1.39251202e-002 1.30481245e-002 8.53317417e-003
      -8.14044196e-003</_>
    <_>
      -1.41394918e-003 -6.60805730e-004 -1.60964206e-003
      -2.90407246e-004 -2.44653085e-003 -5.45589370e-004
      -7.40174961e-004 -9.84018901e-004 1.28313818e-003 3.65223270e-004
      -5.22990339e-003 -7.94050936e-003 -5.55178616e-003
      -1.06766215e-002 -6.35455502e-003 -2.09684484e-003
      -2.59339088e-003</_>
    <_>
      -5.90195972e-003 -1.89538603e-003 -2.89596920e-003
      -2.26757547e-005 -3.22172232e-003 -4.24025842e-004
      -3.09368409e-003 -1.01010723e-004 -4.33597853e-003
      -5.73305320e-003 -1.76139176e-002 1.60252023e-002 -2.61893612e-003
      1.23616774e-002 6.07503299e-003 -1.10021746e-002 6.60566147e-003</_>
    <_>
      -2.83491961e-003 -3.79167404e-003 -2.11372832e-003 7.25596503e-004
      -3.01393186e-004 4.63098171e-004 1.46355340e-003 1.69760827e-003
      -3.31748230e-003 5.86608541e-004 -6.42531598e-003 -1.31248282e-002
      -3.11303767e-004 -5.16141346e-003 4.09535365e-003 3.98839870e-003
      -1.06149330e-003</_>
    <_>
      3.91555624e-003 1.31041417e-003 1.40246598e-003 4.18019993e-003
      -5.45515446e-003 -4.24531987e-003 -1.55015057e-003
      -2.97894329e-003 -4.48013336e-004 2.70170602e-003 -1.44413467e-002
      5.91256469e-003 6.36642752e-003 1.57698411e-002 -1.02001720e-003
      1.03675202e-002 -4.99468204e-003</_>
    <_>
      1.19321281e-002 1.59703754e-002 -5.73710725e-003 -1.42086279e-002
      -3.02932574e-003 -3.95426061e-003 -3.11251823e-003
      -2.85878754e-003 1.19254710e-002 1.54224960e-002 -2.79713124e-002
      1.64843611e-002 -4.57649352e-003 1.17336288e-002 1.17559619e-002
      2.04005348e-003 1.52146015e-002</_>
    <_>
      1.66425167e-003 -6.06825110e-004 -1.02559708e-004 -8.45572911e-004
      1.70179439e-004 6.21462706e-004 2.37780414e-003 1.05756905e-003
      5.22529939e-004 -1.28309627e-003 -9.21381824e-003 8.92171822e-003
      1.37042040e-002 4.89948038e-003 1.27017507e-002 1.08938002e-004
      3.93902138e-003</_>
    <_>
      -3.52120749e-003 -3.80935869e-003 -2.49751844e-003
      -2.55310966e-004 -1.04028999e-003 6.84400380e-004 -1.65772345e-003
      -2.38744845e-003 -3.49501288e-003 -3.31417425e-003
      -1.15171745e-002 2.27863831e-003 5.05919661e-003 3.33657861e-003
      9.86487232e-003 -1.02525961e-003 -3.35571030e-003</_>
    <_>
      2.76172126e-004 -4.72391112e-005 -1.67081846e-004 3.05861904e-004
      -4.01267353e-005 3.87394393e-004 4.79551032e-004 5.95514604e-004
      1.00079388e-003 8.18975910e-004 -1.51458997e-004 4.28033760e-003
      5.35872113e-003 3.32910498e-003 5.03146695e-003 4.74273507e-003
      1.61004218e-003</_>
    <_>
      -1.74487720e-003 2.81677843e-004 -7.01682037e-003 -2.43830355e-003
      -7.46058114e-003 -8.91861040e-003 -5.42230858e-003
      -6.01742277e-003 -4.35904274e-003 -5.63324755e-003
      -1.40597327e-002 2.08547115e-002 4.13795328e-003 1.06784208e-002
      3.47045925e-003 -4.70336272e-005 -2.68063042e-003</_>
    <_>
      -3.43173015e-004 3.97942308e-003 -1.23487297e-003 9.05502529e-004
      -3.45337274e-003 -1.04879052e-003 -4.12734662e-005 1.12120016e-003
      2.29254612e-004 2.44452246e-003 2.49282736e-003 8.67600925e-003
      1.10669844e-002 9.48107161e-004 4.50695748e-004 1.33466898e-002
      1.09179802e-002</_>
    <_>
      -3.22666857e-003 -9.69723449e-004 -4.53239959e-003
      -1.59587793e-003 -4.90606343e-003 -2.70652235e-003
      -3.11007979e-003 -4.47741803e-003 -6.51276112e-003
      -5.13357203e-003 -1.30965691e-002 -1.32096540e-002 5.90996409e-004
      -5.20588551e-003 9.87857580e-003 -1.28538013e-002 -4.37010964e-003</_>
    <_>
      -3.18337381e-002 2.93999314e-002 9.90864355e-003 1.73840765e-002
      -1.43218236e-002 -1.51275564e-002 2.54321583e-002 -5.33488905e-003
      2.35916786e-002 2.38177795e-002 1.34150907e-002 -1.90981682e-002
      2.39775553e-002 -7.84315355e-003 -3.38060781e-002 -1.06657054e-002
      -3.16755846e-003</_>
    <_>
      -1.09829558e-002 -8.33040476e-003 -6.77035563e-003 7.26138847e-003
      -1.46954292e-002 6.88629458e-003 -5.33091777e-004 -1.04952250e-002
      2.02076952e-003 -1.54561866e-002 -1.73920998e-003 1.16217863e-002
      2.28265803e-002 -2.30591428e-002 -1.98723171e-002 -4.07863501e-003
      -2.63939356e-003</_>
    <_>
      -5.30246063e-004 6.50935806e-004 1.21605908e-003 1.46991888e-003
      1.39485067e-003 1.57484482e-003 2.93665356e-003 2.85390927e-003
      4.16009827e-003 2.72558117e-003 6.28731074e-003 -8.70647666e-004
      8.48917663e-003 3.15067009e-003 1.07414844e-002 8.96652974e-003
      8.66822898e-003</_>
    <_>
      -3.60146887e-003 1.84252422e-004 -1.35409487e-002 -7.73631036e-003
      -8.58846027e-003 -4.49034665e-003 -3.65765626e-003
      -1.78907858e-003 1.54718454e-003 1.32905808e-003 -2.40076873e-002
      -1.58298891e-002 1.46372085e-002 -6.75094966e-003 1.61238611e-002
      -1.36930705e-003 3.96078266e-003</_>
    <_>
      -8.64511076e-003 -2.61944789e-003 -5.97016362e-004 4.34591947e-003
      -5.36502711e-003 -1.62226509e-003 5.60584886e-004 -3.27578722e-003
      -6.49654586e-003 -2.05259747e-003 -1.03694927e-002
      -1.81450844e-002 1.10342242e-002 1.30145298e-002 9.26207658e-003
      -7.10534072e-003 -5.36187645e-003</_>
    <_>
      -1.51666012e-002 -8.27395637e-003 -4.54942044e-003 7.59159448e-004
      -4.65088477e-003 -3.42917885e-003 -4.29892959e-003
      -2.20396832e-004 -3.60241928e-003 -7.45336991e-004
      -1.45075843e-002 1.68580338e-002 7.70348916e-003 9.58448462e-003
      5.07960701e-003 2.11479212e-003 1.47558330e-002</_>
    <_>
      -3.87456035e-003 -3.11444933e-003 -1.40558160e-003
      -2.59087130e-004 -3.35346535e-003 -1.51830632e-003
      -2.55471072e-003 -3.28735099e-003 -3.90657363e-003
      -2.06242129e-003 -9.02121887e-003 -9.76468995e-003 1.17522606e-003
      5.02349855e-003 9.64733772e-003 -4.09833528e-003 -3.23136221e-003</_>
    <_>
      -2.11259685e-002 -3.74699035e-003 -5.88524947e-003 5.79198077e-003
      -1.52409943e-002 -2.82133184e-003 -5.69149526e-003
      -4.01854236e-003 -1.37925753e-002 -1.00228805e-002 7.37282680e-003
      1.45471469e-002 2.70562768e-002 -6.50259852e-003 7.07998499e-003
      -5.75920101e-003 4.14903602e-003</_>
    <_>
      -1.09085459e-002 3.82726570e-003 -1.26542971e-002 -6.46208273e-003
      -2.00017933e-002 -7.02899694e-003 -9.81096458e-003
      -1.55246202e-002 -1.66451037e-002 -7.82340951e-003
      -2.07515154e-002 1.97237693e-002 1.08820312e-002 6.60249591e-003
      2.32973378e-002 4.66179289e-003 2.75244340e-002</_>
    <_>
      -1.41379107e-002 -7.47058773e-003 -5.01507241e-003 4.13945643e-003
      -9.51282959e-003 -9.68991872e-003 1.67290785e-003 -1.18873012e-003
      -1.83207414e-003 5.12414891e-003 1.46623841e-002 -1.74208302e-002
      2.42485758e-002 1.60523485e-002 7.12616369e-003 -3.04440549e-003
      -3.50433448e-003</_>
    <_>
      -1.64450787e-003 -1.68279730e-004 -1.79251004e-003
      -1.28588057e-003 -2.26040161e-003 -1.30374392e-003
      -9.74854047e-004 -7.59906776e-004 -9.25453263e-004
      -9.24790220e-004 -1.08212177e-002 5.69036463e-003 1.39150838e-003
      -2.37589260e-003 -2.08564638e-003 -1.10685265e-004
      -1.10867387e-003</_>
    <_>
      -5.65783959e-003 -2.12484528e-003 -1.98498787e-003 4.73620603e-004
      -1.58573757e-003 -1.58013473e-003 4.66633901e-005 -2.18430324e-003
      -1.98192685e-003 -3.42136082e-005 -6.10969402e-003 1.53467907e-002
      1.10529568e-002 6.49021380e-003 9.50130913e-003 5.23403427e-003
      1.22057262e-003</_>
    <_>
      -1.17188850e-002 -4.01813816e-003 -4.48288396e-003 2.54633697e-003
      -3.79149150e-003 -1.05096726e-003 1.22483599e-003 -2.26267846e-003
      -1.57842878e-003 5.21808804e-004 -4.80648683e-004 7.25358399e-003
      2.01745294e-002 4.94904025e-003 4.06903308e-003 1.99525952e-002
      1.66406704e-003</_>
    <_>
      -8.12676828e-003 9.06592235e-003 -9.10900254e-003 -5.92850894e-003
      -1.22860242e-002 -1.31986383e-002 3.12620861e-004 -2.16112472e-003
      2.51353602e-004 2.79857009e-003 -1.87774189e-002 8.84817727e-003
      1.34189287e-003 -2.80693755e-003 -6.23603957e-003 2.14585792e-002
      -4.06145770e-003</_>
    <_>
      -2.10670009e-003 -1.99453294e-004 -2.10552523e-003
      -1.59366813e-003 -1.64011435e-003 -1.98733574e-003
      -4.38933057e-004 -1.79008546e-003 7.57939357e-004 -1.13248383e-003
      -1.29104257e-002 6.67034788e-003 3.88066331e-003 -4.08394402e-003
      5.70328254e-003 -5.69977099e-004 -3.18262266e-007</_>
    <_>
      -3.28697381e-003 -6.54656021e-003 -2.15984625e-003
      -4.92117018e-004 -3.78868845e-003 -4.42025997e-003
      -9.86890518e-005 -3.62200662e-003 -9.12297575e-004
      -3.76944634e-004 -1.53210768e-002 1.90478422e-005 5.80334011e-003
      3.70860146e-003 5.17186150e-003 1.75378181e-003 -7.43489387e-003</_>
    <_>
      1.45716127e-003 7.89170095e-004 2.76584906e-004 -2.49006785e-004
      7.85841141e-004 1.54002360e-003 2.02714046e-003 1.00223173e-003
      3.57127492e-003 2.13125930e-003 3.35644069e-003 5.70481597e-003
      6.86802110e-003 3.90355778e-003 6.61238609e-003 9.96364187e-003
      5.38631715e-003</_>
    <_>
      -4.19386569e-003 3.65469023e-004 -4.02636547e-003 -1.13472086e-003
      -8.50639713e-004 1.06107385e-003 4.15159017e-003 2.10064696e-003
      3.25656659e-003 5.42719848e-003 1.03581343e-002 8.11714772e-003
      1.16641922e-002 -1.52774865e-003 -1.13098533e-003 8.15066602e-003
      1.10118706e-002</_>
    <_>
      -6.87005580e-004 -2.13248044e-004 -6.86602318e-004 1.87470796e-004
      -4.68593644e-004 -1.64599536e-004 4.88563615e-004 2.76718696e-004
      1.10413635e-003 1.29321576e-004 1.92153233e-003 5.69181563e-003
      6.38032285e-003 2.89211771e-003 4.73477645e-003 5.46139665e-003
      2.85594538e-003</_>
    <_>
      6.48488494e-005 1.11683190e-003 -1.45754166e-004 5.44728478e-004
      -5.16256841e-004 2.31632985e-005 1.08231464e-003 4.18118289e-004
      7.99562433e-004 1.14377995e-003 4.47959825e-003 3.31837311e-003
      8.83547217e-003 3.02744936e-003 5.12957340e-003 6.28611911e-003
      2.43917154e-003</_>
    <_>
      -2.01493804e-003 3.81036149e-003 -2.83939124e-004 2.30143010e-003
      -1.64643396e-003 -7.06825114e-004 1.18697644e-003 2.11068662e-003
      1.01821602e-003 2.33248365e-003 -8.15829088e-004 9.64814425e-003
      1.37458965e-002 3.43176769e-003 6.52927859e-003 5.48764877e-003
      4.18379763e-003</_>
    <_>
      2.01756950e-003 4.09468077e-003 -4.53264714e-004 2.74778251e-003
      -1.45615207e-003 3.81395774e-004 1.03831559e-003 2.14342470e-003
      3.31325363e-003 1.81896624e-003 1.16439546e-002 6.62357034e-003
      7.82017037e-003 -6.26119971e-003 2.47360393e-003 5.07382164e-003
      8.46843887e-003</_>
    <_>
      -4.12103720e-003 1.65254774e-003 2.08103415e-006 1.64713105e-003
      -2.21504527e-003 -3.02004907e-003 3.70881613e-003 1.66726462e-003
      3.71493958e-003 3.62095493e-003 6.77574147e-003 2.07012650e-002
      1.45702893e-002 -3.44820763e-003 1.48716135e-004 5.19623235e-003
      1.21494904e-002</_>
    <_>
      -5.01415692e-004 3.03573231e-003 -1.92106469e-003 2.11486267e-003
      -1.71649258e-003 -1.27922627e-003 -4.63554316e-004 2.87318457e-004
      2.69300095e-003 4.60910238e-003 8.47923849e-003 1.23219118e-002
      7.60926865e-003 3.45502584e-003 5.08343428e-003 1.61472168e-002
      7.29809655e-003</_>
    <_>
      -2.19206238e-004 -6.95690745e-004 -8.37466214e-004 3.98925506e-004
      -1.94507069e-003 -8.35717830e-004 -8.03133473e-004
      -1.61575750e-004 -2.68809999e-005 4.56399343e-004 1.42984558e-004
      7.03343749e-003 9.14583076e-003 4.48049279e-003 6.65592775e-003
      4.25396813e-003 7.89566489e-004</_>
    <_>
      -2.70969787e-004 9.24677704e-004 -1.58090217e-004 9.28755151e-004
      2.02975702e-004 2.87826848e-003 3.02933768e-004 7.93929212e-004
      7.19366944e-005 3.78834317e-004 -3.45100474e-004 3.76270735e-003
      1.02269035e-002 2.28521181e-003 1.12999519e-002 3.34324897e-003
      2.83571589e-003</_>
    <_>
      -2.38993744e-004 -5.84662776e-004 -6.06886111e-004 1.86500722e-004
      2.22427989e-004 5.96065249e-004 1.04343274e-003 9.30584501e-004
      9.36577504e-004 1.31380942e-003 4.63172095e-003 3.68417404e-003
      7.65042938e-003 4.71350970e-004 6.13043131e-003 3.38290632e-003
      4.52471059e-003</_>
    <_>
      -3.12102231e-004 1.65183083e-005 8.18355838e-005 3.44338827e-004
      1.43104844e-004 5.80834050e-004 1.17063185e-003 1.60247181e-003
      2.36410694e-003 1.53460656e-003 3.57242418e-003 2.24720966e-003
      7.13351835e-003 3.54187773e-003 6.41885260e-003 6.62718061e-003
      4.50071041e-003</_>
    <_>
      3.23680491e-004 -4.18287702e-004 1.87956946e-004 7.40462972e-004
      2.63692084e-004 3.63572763e-004 8.94800294e-004 6.71009184e-004
      1.03053928e-003 1.26735284e-003 2.48356001e-003 2.62134545e-003
      6.78833527e-003 2.63790274e-003 4.77098953e-003 4.45386535e-003
      2.41146749e-003</_>
    <_>
      -3.35022953e-004 5.36000938e-004 3.70594673e-004 6.92794449e-004
      5.68445364e-004 7.81498849e-004 1.01464021e-003 7.90171849e-004
      1.08919363e-003 1.23113510e-004 2.38649966e-003 2.75242352e-003
      6.46683061e-003 2.71012099e-003 8.58756620e-003 2.31880555e-003
      2.35810038e-003</_>
    <_>
      -3.53307929e-003 -1.91294879e-003 -8.11134465e-004 1.62773911e-004
      4.30640124e-004 -3.04816844e-004 -3.64512409e-004 -8.55953374e-004
      -1.43326411e-003 -1.98390405e-003 -8.02951027e-003
      -3.74302431e-003 4.48702276e-003 9.28084645e-003 1.24999546e-002
      4.73875334e-005 -6.07514055e-003</_>
    <_>
      -5.94458077e-003 -1.31336541e-003 -1.21922502e-002
      -3.82271642e-003 -1.58201758e-004 -2.35874322e-003
      -3.15554184e-003 1.20252569e-003 -1.82151292e-002 -9.14018881e-003
      -2.23557446e-002 -6.22990960e-003 7.33512267e-003 -1.28145022e-002
      1.89131952e-003 5.15793590e-003 -9.04689077e-003</_>
    <_>
      -8.95611010e-003 1.75679196e-003 -1.08660536e-003 -1.05958094e-003
      -2.89384276e-003 -1.17120137e-002 -6.93874201e-003 1.32688219e-002
      -1.67775229e-002 -6.07975235e-004 1.17238490e-002 1.54082009e-004
      2.35888502e-003 -2.23995242e-002 -1.85980015e-002 2.34338045e-002
      -4.28707302e-002</_>
    <_>
      -1.41830335e-003 4.43494966e-004 7.07303407e-004 2.57890625e-003
      1.76779029e-003 3.80956032e-003 6.19427592e-004 5.39238378e-003
      -3.54419812e-004 4.32061590e-003 9.78933461e-003 6.73437677e-003
      5.58099337e-003 1.09387307e-004 6.00228878e-003 1.01239057e-002
      2.13813665e-003</_>
    <_>
      -3.23642581e-003 -3.10362992e-003 -1.92981958e-003
      -5.56736544e-004 -4.27414998e-005 -2.96605413e-005
      -2.73831916e-004 2.66585895e-003 -1.22897327e-003 6.97151350e-004
      6.23400416e-003 1.52280205e-003 5.33376122e-003 3.30120511e-003
      1.36453165e-002 7.16441497e-003 2.86797853e-003</_>
    <_>
      -2.11748970e-003 2.59841885e-003 -1.21652300e-003 1.77501817e-003
      2.93540210e-003 1.89023674e-004 3.01429024e-003 4.71168663e-003
      -2.43467977e-004 6.54591527e-003 -1.95799861e-003 -3.11502093e-003
      1.22486819e-002 4.85818554e-003 1.75257288e-002 1.87252723e-002
      -1.29373828e-002</_>
    <_>
      -5.97341510e-004 1.38459529e-003 -7.22290017e-004 -2.93826670e-005
      -2.71930097e-004 1.87734113e-004 -7.12775916e-004 7.39158073e-004
      4.02754195e-005 4.89866827e-004 -2.59822840e-003 -6.01494312e-003
      -7.12300278e-003 -1.13065075e-002 -5.44334250e-003
      -2.37606419e-003 -3.08794272e-003</_>
    <_>
      -7.38890050e-003 4.30390798e-003 -2.17790832e-003 -2.57065590e-003
      4.33325721e-003 1.61486631e-003 -3.39731527e-003 9.20846313e-003
      -1.01941470e-002 -4.41116979e-003 -1.42733408e-002 2.21518353e-002
      -1.08102970e-002 3.20359622e-003 1.29244169e-002 -1.12534408e-002
      5.50653320e-003</_>
    <_>
      -2.10904935e-003 -2.33887951e-003 -1.57610863e-003 9.19813581e-004
      1.94333296e-003 1.35797553e-003 1.65953569e-003 3.96715151e-003
      -3.68172536e-003 1.49823562e-003 -2.15998408e-003 -1.14559568e-002
      -6.75118354e-004 -6.41749008e-003 6.40495401e-003 6.55420776e-003
      -2.26261863e-003</_>
    <_>
      3.33562586e-003 1.86284585e-003 2.75813043e-003 5.78135112e-003
      -2.61554169e-003 -6.12330483e-003 -3.16506787e-003 2.07792944e-003
      -2.05378491e-003 7.55320489e-003 -1.47528015e-002 9.02352668e-003
      7.10472290e-004 1.68438870e-002 8.14743573e-004 1.86517891e-002
      -1.32791372e-002</_>
    <_>
      7.07872212e-003 1.75123923e-002 -1.12866738e-003 -9.94961150e-003
      1.02736736e-002 2.06897873e-003 -3.18217673e-003 9.40122176e-003
      3.38013080e-004 1.47966938e-002 -2.42375978e-003 1.11548053e-002
      -2.44263411e-002 -7.12385122e-003 1.46610523e-002 8.60402733e-003
      5.50377835e-003</_>
    <_>
      3.01196217e-003 9.62870894e-004 9.94457980e-004 -1.68534985e-003
      4.64463420e-003 2.40586512e-003 3.14210705e-003 6.44978695e-003
      -8.34350416e-004 6.94212038e-004 7.44596182e-004 1.28371436e-002
      1.10005969e-002 5.23823546e-003 1.81737375e-002 4.13267082e-003
      4.99292882e-003</_>
    <_>
      -4.87823039e-003 -3.54543375e-003 -3.02323932e-003
      -2.41816611e-004 1.98156317e-003 2.18771305e-003 -2.90055457e-003
      -9.35374177e-004 -7.33914040e-003 -4.32622386e-003
      -1.20403459e-002 2.72639305e-003 2.38635298e-003 7.82321789e-004
      1.48789352e-002 8.29629658e-004 -6.71862159e-003</_>
    <_>
      3.75233125e-004 2.64131726e-004 7.75612789e-005 2.84625043e-004
      5.82023058e-004 6.21935527e-004 4.81192255e-004 1.25484192e-003
      7.68614234e-004 1.16191211e-003 2.07405211e-003 4.01032297e-003
      4.10288945e-003 3.02405073e-003 4.98162257e-003 5.11278864e-003
      1.54870644e-003</_>
    <_>
      -9.45292006e-004 5.80869941e-003 -4.65179980e-003 -3.23159341e-003
      -9.50862537e-004 -7.52902403e-003 -6.63837045e-003 1.15802791e-003
      -9.47170798e-003 -2.50642956e-003 6.61710510e-003 2.78482754e-002
      -1.00707775e-002 1.19028771e-002 7.41425809e-003 5.20779844e-003
      -1.96758611e-003</_>
    <_>
      -4.16405528e-004 4.50246222e-003 1.12204274e-004 1.62369292e-003
      4.01108293e-004 4.97539761e-004 -6.61388476e-005 2.69788597e-003
      -6.67429820e-004 2.56323395e-003 8.51022638e-003 4.00272105e-003
      5.01278182e-003 2.88683223e-004 1.42845535e-003 1.34738293e-002
      6.42738678e-003</_>
    <_>
      -1.06208456e-004 7.43452320e-003 -1.86588580e-003 1.01162288e-004
      6.52204792e-004 -6.11191092e-004 -2.57932069e-003 6.92913251e-004
      -9.15232487e-003 -4.20325389e-003 -9.29757766e-003
      -1.31463632e-002 8.89256407e-005 -9.71865095e-003 8.70777946e-003
      -1.48386229e-002 -9.13958903e-003</_>
    <_>
      -1.84165090e-002 9.61013418e-003 6.57239882e-003 3.90912127e-003
      1.32098468e-002 -9.04363929e-004 1.17868474e-002 1.86521523e-002
      5.38063375e-003 1.75342783e-002 1.97568797e-002 -2.55823252e-003
      -4.90848022e-003 -3.16164196e-002 2.02937564e-003 -3.98848159e-003
      -1.50161441e-002</_>
    <_>
      -1.56050287e-002 2.26063305e-003 -2.89382925e-003 1.02955466e-002
      -7.64494471e-004 5.54838497e-003 2.90560001e-003 1.96377537e-003
      -8.33234750e-003 -1.18108094e-002 9.05895792e-003 7.39514967e-003
      8.94887000e-003 -3.08166668e-002 -1.91187356e-002 9.07536875e-003
      -1.28843756e-002</_>
    <_>
      2.17295034e-004 1.69169658e-003 1.65615208e-003 1.18436152e-003
      2.43634079e-003 1.79793336e-003 1.77195156e-003 3.31076118e-003
      1.64324464e-003 2.38580909e-003 9.62225068e-003 -6.52060771e-005
      2.07611010e-003 2.80977506e-003 6.85041724e-003 5.78345312e-003
      5.39397309e-003</_>
    <_>
      1.34782679e-003 1.84442513e-002 -1.29849510e-002 -9.01218783e-003
      4.58838558e-003 -5.06035693e-004 -5.75871859e-003 1.18421027e-002
      -7.42555829e-003 3.56563460e-003 -1.20338146e-002 -1.85900908e-002
      8.29958357e-004 -2.71162000e-002 1.94192398e-002 -3.30393296e-003
      2.94486992e-004</_>
    <_>
      -1.19407577e-002 -6.21720465e-005 5.83714631e-004 5.14417514e-003
      7.59935414e-004 -3.53316614e-006 1.03274702e-004 5.06100431e-003
      -1.44763496e-002 1.17693807e-003 5.06993197e-003 -2.34627891e-002
      -2.58900132e-003 1.05631137e-002 1.73985250e-002 -6.43260032e-003
      -1.50069650e-002</_>
    <_>
      -1.98773798e-002 -2.31186417e-003 -2.69970181e-003 1.87233905e-003
      5.06592449e-003 -4.68478014e-004 -6.93092262e-003 9.24469251e-003
      -1.11227268e-002 2.95405742e-003 4.52901470e-003 2.37047393e-002
      -8.23747646e-003 2.36014416e-003 5.24402643e-003 1.18343486e-002
      1.81190372e-002</_>
    <_>
      -2.90082535e-003 1.21958286e-003 -2.32192193e-004 3.99953686e-004
      -3.48028145e-004 -3.83618608e-004 -3.35014658e-003
      -1.28280825e-003 -7.54919229e-003 -2.38310313e-003
      -6.10014424e-003 -1.30162584e-002 -1.31922064e-003 3.92436981e-003
      1.33507522e-002 -5.53170033e-003 -5.36411023e-003</_>
    <_>
      -1.33890519e-002 3.43604013e-003 -1.01537094e-003 5.39605832e-003
      -2.57392589e-004 1.54480757e-003 -4.13078535e-003 3.81893083e-003
      -1.14325061e-002 -3.33470688e-003 2.56832261e-002 5.89329749e-003
      3.41091654e-003 -1.06114512e-002 4.74224146e-003 9.56130214e-003
      -2.11569690e-003</_>
    <_>
      -1.09958192e-002 1.07849995e-002 -5.71024371e-003 -3.94221349e-003
      2.92648934e-003 8.52030236e-004 -8.95779952e-003 2.84580584e-003
      -2.03012042e-002 -2.20803544e-004 2.04411671e-002 5.66788949e-003
      -1.97618715e-002 -1.34711200e-002 1.99060701e-002 2.33657490e-002
      1.34545872e-002</_>
    <_>
      -7.84286857e-003 -1.37077027e-003 -3.83733393e-004 1.76868623e-003
      1.44245254e-003 -4.91320947e-003 5.22664515e-004 4.62823547e-003
      -2.62926659e-003 6.31345296e-003 2.51547694e-002 -7.72573054e-003
      5.74611221e-003 9.58731212e-003 9.48313344e-003 3.75100877e-003
      -2.48031504e-003</_>
    <_>
      -1.28152443e-003 1.38663442e-003 -1.75150402e-003 -1.31785136e-003
      -1.18412788e-003 -1.07014249e-003 -1.02293247e-003 3.18413397e-004
      -1.99155090e-003 -1.09229295e-003 -1.21784927e-002 5.89887612e-003
      1.47123111e-003 -4.40438278e-003 -2.65349145e-003 -9.73328715e-004
      -2.49500037e-003</_>
    <_>
      -6.42560422e-003 -6.25023909e-004 -1.20475912e-003 1.04552775e-003
      2.59118620e-003 -2.14965257e-004 2.34971812e-005 1.30392308e-003
      -2.86436966e-003 1.95992668e-003 4.65772767e-003 1.30587835e-002
      7.64415553e-003 3.99939809e-003 1.17094154e-002 1.34265646e-002
      -6.62353472e-004</_>
    <_>
      -7.18489802e-003 3.75611271e-004 -1.09820394e-003 2.97871907e-003
      2.49989098e-003 1.37333758e-003 6.59788959e-004 2.03677546e-003
      -2.22034054e-003 1.88654906e-003 1.12795969e-002 7.94655818e-004
      7.28570810e-003 1.83016120e-003 4.24107676e-003 1.90094188e-002
      -1.02535984e-003</_>
    <_>
      -5.02985762e-003 1.98202021e-002 -2.27268436e-003 -7.99605972e-004
      5.90082898e-004 -5.73198637e-003 -1.52057342e-004 3.98971280e-003
      -6.01837412e-003 3.93040525e-003 -4.62913048e-003 8.41881894e-003
      -1.35376295e-002 -4.90607275e-003 -4.99980350e-004 2.25293487e-002
      -7.69209117e-003</_>
    <_>
      -2.52636452e-003 3.30025726e-003 -1.37138495e-003 -1.16038031e-003
      9.87150357e-004 -1.13300374e-003 -8.25866126e-004 -8.79643310e-004
      -1.26013847e-003 -1.36228360e-003 -1.41808651e-002 8.70846771e-003
      -2.42885479e-004 -8.16268567e-003 6.79871207e-003 -2.80807755e-004
      -3.52899107e-004</_>
    <_>
      -2.19643652e-003 -3.14294919e-003 -1.65567454e-003 6.10093528e-004
      -3.74525815e-004 -6.09278679e-003 -1.31431065e-004
      -2.63397489e-003 -6.11350872e-003 -1.93174332e-004
      -2.19393130e-002 8.54264130e-004 5.77227166e-003 9.93483001e-004
      7.31877470e-003 4.28164564e-003 -1.80429146e-002</_>
    <_>
      1.41521310e-003 1.78913341e-003 1.07576465e-003 2.42482754e-004
      1.87095185e-003 1.80779281e-003 1.39559829e-003 1.97403762e-003
      1.60733156e-003 1.95583189e-003 7.10088387e-003 4.69255028e-003
      2.09300290e-003 3.73990252e-003 4.94844280e-003 6.66035200e-003
      4.04025801e-003</_>
    <_>
      -2.63312529e-003 2.04432453e-003 -1.31485832e-003 5.12298429e-004
      2.29501748e-003 1.94009417e-003 2.49202666e-003 3.09631717e-003
      1.08313793e-003 4.00065165e-003 1.29643017e-002 3.10734822e-003
      4.63720225e-003 -8.63519090e-004 7.31292414e-004 8.85797758e-003
      5.59428381e-003</_>
    <_>
      -3.37736128e-004 3.77103541e-004 -1.92573410e-004 2.44571245e-004
      3.95880954e-004 2.48371158e-004 4.59143572e-004 1.08343456e-003
      6.38533500e-004 5.35969739e-004 4.47126338e-003 5.23283565e-003
      4.20571631e-003 2.70386320e-003 4.43646777e-003 5.17097954e-003
      2.55253329e-003</_>
    <_>
      3.90139176e-005 9.47690627e-004 -4.35867478e-005 2.00934272e-004
      4.21187200e-004 2.11576888e-004 8.79357511e-004 1.34124479e-003
      5.92583965e-004 1.55118224e-003 6.30496815e-003 2.22660415e-003
      5.96616603e-003 1.34226121e-003 4.34530620e-003 6.61400286e-003
      1.69072417e-003</_>
    <_>
      -1.59374706e-003 4.69411956e-003 1.08058448e-003 2.62044091e-003
      8.48866708e-004 4.63182834e-004 1.16319000e-003 4.57617408e-003
      -3.15648329e-004 3.00035952e-003 5.54964086e-003 9.61174536e-003
      8.33066460e-003 5.10084350e-003 7.76210707e-003 5.48912957e-003
      3.98679450e-003</_>
    <_>
      1.42023328e-003 3.29719996e-003 4.54824709e-004 1.77967222e-003
      7.44958816e-004 9.51070921e-004 6.43774110e-004 2.74944585e-003
      1.31283561e-003 1.82268617e-003 1.17873726e-002 3.62288137e-003
      2.09265435e-003 -3.27289989e-003 2.03707558e-003 4.22932627e-003
      4.81053442e-003</_>
    <_>
      -1.35478668e-003 2.93237809e-003 1.71961531e-003 1.66406471e-003
      2.72396882e-003 1.49081068e-004 2.29813647e-003 4.47725644e-003
      1.14724378e-003 4.15686285e-003 1.49177965e-002 1.16206855e-002
      4.46541188e-003 -1.28545437e-003 2.96607451e-003 7.43075134e-003
      7.00818468e-003</_>
    <_>
      3.13696510e-004 2.97625200e-003 1.12610680e-004 1.32272299e-003
      1.28187693e-003 4.18023148e-004 -1.14557792e-004 2.42409017e-003
      5.41857502e-004 3.50331608e-003 1.20362509e-002 6.48659794e-003
      3.55537806e-004 2.36525852e-003 3.45990807e-003 9.52610280e-003
      4.05243086e-003</_>
    <_>
      4.78563394e-004 6.73730683e-004 1.62509677e-004 7.95739878e-004
      -3.96399206e-004 -1.88962207e-004 -4.20941040e-004 1.14205095e-003
      -6.57613331e-004 9.01821419e-004 4.76605538e-003 6.76828157e-003
      6.64463034e-003 5.71158295e-003 6.15182333e-003 4.40985197e-003
      1.07526302e-003</_>
    <_>
      -3.81117716e-004 8.95951584e-004 -8.71726152e-005 5.06657118e-004
      1.57728465e-003 2.86859740e-003 2.89288379e-004 2.29166890e-003
      3.82465878e-005 1.35545502e-003 3.94077506e-003 2.38786498e-003
      7.66959833e-003 7.94123625e-005 1.05811758e-002 6.09007198e-003
      1.92132895e-003</_>
    <_>
      -1.56932525e-004 1.06443527e-004 -1.29147942e-004 3.91227833e-004
      1.12197991e-003 9.00127518e-004 8.49224336e-004 1.52620138e-003
      4.63709905e-004 1.44018268e-003 6.39727153e-003 2.54333252e-003
      5.06106531e-003 3.28234164e-004 5.31947101e-003 3.92090203e-003
      3.42919887e-003</_>
    <_>
      1.05479710e-004 8.60350905e-004 6.75327494e-004 5.05023228e-004
      1.07860775e-003 9.90349916e-004 9.23669024e-004 2.16058712e-003
      1.27695652e-003 1.59895164e-003 6.23836182e-003 1.97520084e-003
      3.58767365e-003 3.38219968e-003 5.17458795e-003 5.15121128e-003
      3.63497855e-003</_>
    <_>
      4.34771850e-004 2.66538176e-004 5.18839573e-004 7.82224175e-004
      8.03430099e-004 5.50592667e-004 8.95039295e-004 1.26041705e-003
      6.18438644e-004 1.38895458e-003 4.14718827e-003 1.85441936e-003
      5.29361283e-003 2.85591558e-003 4.31356067e-003 4.19696048e-003
      2.00881343e-003</_>
    <_>
      -2.04678436e-004 9.41527484e-004 7.23081408e-004 7.01913144e-004
      1.12965819e-003 1.11014955e-003 9.31922288e-004 1.51094864e-003
      5.97895531e-004 6.98377436e-004 4.72587347e-003 1.39372272e-003
      4.06149542e-003 2.42945063e-003 7.42993411e-003 2.34281085e-003
      2.21986184e-003</_>
    <_>
      -3.84419761e-003 -6.52101997e-004 8.06020107e-004 6.59130281e-004
      3.38638201e-003 1.31343980e-003 9.12737378e-005 2.03483109e-003
      -2.30543176e-003 -4.46049875e-004 1.37832551e-003 -4.93527111e-003
      2.04741349e-003 1.02778617e-002 1.50339827e-002 3.00992490e-003
      -4.95416345e-003</_>
    <_>
      1.07364459e-002 1.46317650e-002 1.41660320e-002 2.34294450e-003
      1.30188768e-003 -6.92369882e-004 1.42736756e-003 2.29900028e-003
      1.74180958e-002 1.00755431e-002 1.89693682e-002 -3.58732621e-004
      4.34337091e-003 -1.33600896e-002 -2.27499679e-002 1.09540159e-003
      -1.07111298e-002</_>
    <_>
      1.17201346e-003 1.52108970e-003 1.84908812e-003 1.89045258e-003
      1.11229590e-003 2.29243073e-003 8.39470304e-004 2.34020478e-003
      2.02596816e-003 2.90523260e-003 7.60795828e-003 4.44689021e-003
      3.47263110e-003 2.53159553e-003 3.32940579e-003 4.28570760e-003
      1.87408063e-003</_>
    <_>
      5.16383116e-005 6.76518102e-005 7.21315504e-004 7.08693638e-004
      5.01763308e-004 8.01000162e-004 8.18166533e-004 1.54268765e-003
      1.86302117e-003 1.56937994e-003 6.95305737e-003 1.41963677e-003
      4.98973718e-003 3.37887299e-003 7.34675722e-003 5.48807532e-003
      2.70769047e-003</_>
    <_>
      1.59319816e-003 3.88597394e-003 4.44846042e-003 2.65715760e-003
      2.57439679e-003 2.51731765e-003 3.80099216e-003 2.31389608e-003
      7.69523066e-003 6.47681952e-003 1.50778494e-003 -5.90649480e-003
      1.07597262e-002 5.43616107e-003 1.00181326e-002 9.86482855e-003
      -2.72121583e-003</_>
    <_>
      2.11181445e-003 3.40106012e-003 2.44030636e-003 1.36571156e-003
      5.31105907e-004 1.87943899e-003 1.29378878e-003 4.48597915e-004
      7.20462808e-003 3.89520125e-003 4.86077461e-003 -6.98486529e-003
      -6.15623733e-003 -1.30400658e-002 -5.82516799e-003 2.15210588e-004
      -9.93276248e-004</_>
    <_>
      2.31957878e-003 7.88010098e-003 5.66180842e-003 1.83594564e-003
      2.69122981e-003 3.61431576e-003 1.22415507e-003 3.03550484e-003
      5.58360387e-003 3.60337342e-003 8.44655465e-003 2.07309369e-002
      -1.80580514e-003 9.58045851e-003 3.30610457e-003 -2.02239142e-003
      5.18052932e-003</_>
    <_>
      2.47032789e-004 -5.07954333e-004 1.54636137e-003 2.63410644e-003
      2.76479824e-003 2.62788520e-003 2.84956209e-003 4.14627185e-003
      3.22028563e-006 3.92211322e-003 4.78288764e-003 -1.38822766e-002
      -2.06584949e-003 -3.69925145e-003 6.01652730e-003 6.77999342e-003
      2.69412176e-005</_>
    <_>
      4.55874624e-003 4.50813537e-003 5.36275562e-003 5.06568700e-003
      3.39862425e-004 6.55871176e-004 4.65312449e-004 -5.01752947e-004
      4.04823991e-003 4.55743447e-003 4.27086558e-003 7.68226432e-003
      3.27467569e-003 1.30359083e-002 6.45847293e-004 4.48998110e-003
      -8.42035690e-004</_>
    <_>
      6.87279506e-003 9.39837843e-003 5.15175331e-003 2.27537879e-004
      3.79912648e-003 2.78830691e-003 2.48273078e-004 8.88146693e-004
      5.95292728e-003 6.33257348e-003 9.30581987e-003 6.94180327e-003
      -7.50373164e-003 5.48377261e-003 1.13732042e-003 -1.15043775e-003
      5.03658317e-003</_>
    <_>
      3.39056575e-003 2.87384191e-003 2.88359798e-003 1.27933128e-003
      2.18674704e-003 2.05988996e-003 1.72811141e-003 1.76228909e-003
      2.42427317e-003 1.45307824e-003 5.53677417e-003 5.91324922e-003
      4.58593946e-003 6.24038419e-003 6.52654329e-003 9.99468961e-004
      2.90283561e-003</_>
    <_>
      -4.91603371e-003 -9.05660912e-003 2.66165216e-003 1.59864465e-003
      5.13549149e-003 8.99870601e-003 -1.47329411e-003 -5.00472542e-003
      1.48251618e-003 6.02023734e-004 -3.01419781e-003 -4.63307416e-003
      1.43676307e-002 7.68060843e-003 2.47407220e-002 1.03432992e-002
      -2.01552268e-003</_>
    <_>
      9.27587913e-004 8.92597076e-004 7.68235419e-004 6.70123554e-004
      5.84830181e-004 7.46537524e-004 5.09340258e-004 7.36924005e-004
      1.19880470e-003 1.04195916e-003 2.68690893e-003 3.01778968e-003
      2.84196273e-003 3.16062104e-003 3.38799204e-003 3.01313191e-003
      1.30792928e-003</_>
    <_>
      3.69345397e-003 5.52357221e-003 2.74123624e-003 1.65108999e-003
      7.34253787e-004 -1.90580249e-004 -7.32468325e-004 -6.14654928e-005
      1.80500397e-003 1.36483763e-003 8.89176037e-003 1.10425660e-002
      -1.94169825e-003 9.69053991e-003 1.90969871e-003 7.14933558e-004
      1.31520163e-003</_>
    <_>
      1.63186924e-003 2.92665698e-003 1.36844290e-003 1.11100124e-003
      3.39946157e-004 6.81349833e-004 5.94750105e-004 1.44499121e-003
      2.26244959e-003 2.53474270e-003 7.37608969e-003 3.64470389e-003
      3.71233444e-003 1.81980466e-003 1.36845815e-003 6.50303857e-003
      4.01808694e-003</_>
    <_>
      8.64095520e-003 1.68413855e-002 9.07243975e-003 3.77395237e-003
      3.06902663e-003 2.92570889e-003 1.24811672e-003 -2.66113342e-003
      7.47474749e-003 1.78302778e-003 1.98972914e-002 -1.36618018e-002
      -2.41884147e-003 -7.78017752e-003 1.24483081e-002 -1.96822286e-002
      3.71096306e-003</_>
    <_>
      4.85352590e-004 9.05190129e-003 9.39688459e-003 2.57290504e-003
      4.50747088e-003 2.96858489e-004 6.16596080e-003 1.32721709e-003
      1.53029142e-002 9.61302966e-003 1.66069083e-002 -4.98653390e-003
      -2.30193883e-003 -7.36750755e-003 -4.23562760e-003
      -5.57518005e-003 -6.41547513e-006</_>
    <_>
      2.01638089e-003 1.03438292e-002 8.48562829e-003 8.86114407e-003
      1.76498236e-003 8.13226495e-003 4.71259374e-003 -3.13250843e-004
      1.15480330e-002 4.23836813e-004 1.59363784e-002 4.93772188e-003
      4.88450285e-003 -1.35051385e-002 -1.63528807e-002 9.91710112e-004
      3.05896532e-003</_>
    <_>
      1.27656001e-003 1.95927755e-003 1.92580605e-003 1.34552107e-003
      1.42748002e-003 1.38848042e-003 1.12078909e-003 1.36389676e-003
      1.93735072e-003 1.58253056e-003 6.50787354e-003 9.50150425e-004
      1.46835612e-003 3.43183102e-003 3.51941632e-003 2.29540793e-003
      2.91459798e-003</_>
    <_>
      1.03419749e-002 2.05439832e-002 5.49848890e-003 -1.97469350e-003
      4.62299446e-003 2.57898006e-003 7.59031798e-004 5.31267468e-003
      1.86946932e-002 1.30872112e-002 1.37589462e-002 -8.67012888e-003
      -4.81527857e-003 -1.18720997e-002 4.83784918e-003 -9.99556761e-003
      1.51242856e-002</_>
    <_>
      1.19554845e-003 4.57604462e-003 5.61811822e-003 5.00111189e-003
      1.52359158e-003 2.45534978e-003 1.87181029e-003 6.26974972e-004
      2.31099850e-003 3.85097880e-003 1.47655681e-002 -8.29998497e-003
      2.23180116e-003 1.09848492e-002 4.76772850e-003 -2.41608141e-004
      -5.42196358e-005</_>
    <_>
      -2.05549062e-003 4.32957709e-003 5.49969869e-003 3.64777702e-003
      2.24291184e-003 1.30420842e-003 -2.05882941e-003 8.40104825e-004
      2.21315329e-003 3.44109652e-003 9.37584788e-003 1.69448201e-002
      -8.66121799e-003 7.49257067e-003 -1.47536176e-003 4.42144665e-004
      9.97123029e-003</_>
    <_>
      -2.79734866e-003 2.89353100e-003 6.97668362e-003 2.88120401e-003
      -2.07532197e-003 4.19824908e-004 -3.25268693e-003 -5.72210457e-003
      -2.34741863e-004 3.73081793e-003 7.33777042e-003 -2.46379692e-002
      -6.83407206e-003 6.35964749e-003 1.36210788e-002 -7.03398883e-003
      3.06907878e-003</_>
    <_>
      2.26175631e-004 3.63490195e-003 3.19313956e-003 3.00658867e-003
      4.63341916e-004 1.82531518e-003 2.06440804e-004 1.65636255e-003
      2.52065877e-003 2.15187483e-003 1.72051731e-002 6.36317488e-003
      4.46857791e-003 1.40480930e-003 3.42051522e-003 3.63715505e-003
      1.91958807e-003</_>
    <_>
      4.29305946e-003 7.18137808e-003 4.49689245e-003 1.93398457e-003
      1.85696885e-003 2.56184163e-003 2.12071827e-004 7.28733838e-004
      3.93540272e-003 4.08272538e-003 1.75641663e-002 6.20879745e-003
      -5.42346679e-004 5.72436908e-003 6.25580736e-003 5.01266541e-003
      6.74456637e-003</_>
    <_>
      8.61647364e-004 2.67467019e-003 2.84784916e-003 2.18679430e-003
      1.30332063e-003 -5.47128555e-004 1.38204487e-003 1.21664908e-003
      3.35629517e-003 3.77963553e-003 1.26191648e-002 -1.25398964e-003
      3.37225827e-003 5.41671319e-003 4.55561979e-003 3.05183721e-003
      1.23388343e-003</_>
    <_>
      -1.62875385e-003 5.45593357e-005 -3.86476138e-004 -1.81570463e-003
      -2.52541667e-003 -1.26013800e-003 -1.85297831e-004
      -4.13193105e-004 2.51757912e-003 1.26343744e-003 -1.42688900e-002
      9.84913018e-003 4.29290440e-003 -5.81370434e-003 -6.36167685e-003
      -1.91207312e-003 -1.38949743e-003</_>
    <_>
      1.99218674e-004 1.59205706e-003 1.83446275e-003 1.45942182e-003
      1.52679463e-003 8.68981529e-004 9.49770212e-004 7.06386520e-004
      2.48261681e-003 2.65803118e-003 7.38903461e-003 7.98978098e-003
      5.04772365e-003 5.14224684e-003 6.00819103e-003 5.65877464e-003
      1.30629190e-003</_>
    <_>
      -1.60602998e-004 1.62649748e-003 1.69966195e-003 1.95498927e-003
      1.36909005e-003 1.36740552e-003 1.28277997e-003 1.16752542e-003
      3.10931914e-003 2.93315644e-003 1.04129370e-002 3.19635868e-003
      5.32761915e-003 3.67401377e-003 2.98545999e-003 8.56846943e-003
      1.23125059e-003</_>
    <_>
      2.03882135e-003 1.55995004e-002 4.48911637e-003 -6.08906150e-004
      3.91087291e-004 -2.65282020e-003 2.37961928e-003 3.04099545e-003
      9.76231880e-003 1.05894413e-002 3.91441630e-003 9.26464237e-003
      -9.42176580e-003 -2.48288806e-003 -4.52708406e-003 1.62865277e-002
      -8.34389997e-004</_>
    <_>
      -4.99965172e-005 5.59949037e-003 1.85946340e-003 -7.92747363e-004
      1.01913291e-003 -3.33207747e-004 8.74512771e-004 -1.44934247e-003
      6.87775901e-003 2.90566264e-003 -5.89506794e-003 1.76947396e-002
      3.85408592e-003 -8.73523764e-003 6.93061296e-003 -6.28475042e-004
      2.23606895e-003</_>
    <_>
      -2.18510837e-003 -1.44358128e-002 1.68129727e-002 5.91155840e-003
      -2.77462904e-003 -1.02325464e-002 6.70290226e-003 -1.61961522e-002
      1.76372286e-002 1.95646808e-002 -1.29737062e-002 1.36020845e-002
      6.82393042e-003 7.08532659e-003 -2.13075243e-003 1.34897074e-002
      -2.58047059e-002</_>
    <_>
      1.63748860e-003 1.84599916e-003 1.51251256e-003 8.16171116e-004
      1.17112533e-003 1.33965781e-003 9.39172867e-004 8.53062258e-004
      1.77217403e-003 1.36469421e-003 5.24057075e-003 2.89647211e-003
      1.44058792e-003 3.56992288e-003 2.73776916e-003 2.87141325e-003
      2.33811536e-003</_>
    <_>
      3.26807029e-004 1.60000124e-003 2.90853321e-004 1.62332959e-004
      1.05101557e-003 1.16243877e-003 1.73782581e-003 1.67075533e-003
      3.10577475e-003 3.40260938e-003 9.11956001e-003 2.77979160e-003
      3.05219810e-003 4.99761605e-004 2.31637430e-004 4.65014437e-003
      3.51355434e-003</_>
    <_>
      6.68706896e-004 1.06376212e-003 7.02428923e-004 6.73949136e-004
      4.84784017e-004 5.47100150e-004 4.96123917e-004 5.72313264e-004
      1.17870909e-003 6.52622082e-004 3.99311166e-003 3.92835820e-003
      2.76877801e-003 2.96817953e-003 2.93103559e-003 2.70949444e-003
      1.76225312e-003</_>
    <_>
      9.48712113e-004 1.46093755e-003 9.16577585e-004 7.43210665e-004
      5.24552888e-004 5.90066891e-004 7.71310995e-004 7.07994564e-004
      1.31311896e-003 1.30848843e-003 5.34123089e-003 1.99551019e-003
      3.74518125e-003 2.43868819e-003 2.85095070e-003 3.51367844e-003
      1.41499005e-003</_>
    <_>
      9.93269845e-004 3.38584115e-003 2.02875375e-003 2.08990928e-003
      8.34579521e-004 1.00305316e-003 9.18538310e-004 1.62733870e-003
      1.53660239e-003 1.86374539e-003 5.26813418e-003 4.85031912e-003
      3.85298813e-003 4.86666150e-003 3.66890617e-003 1.80266832e-003
      2.29671854e-003</_>
    <_>
      1.88845652e-003 2.69356882e-003 1.41379016e-003 1.59131095e-003
      6.99556025e-004 1.02969992e-003 6.86368672e-004 1.25928712e-003
      1.97123224e-003 1.48936908e-003 7.94132426e-003 2.72919633e-003
      1.63497496e-003 6.01035135e-004 1.54641527e-003 1.85050606e-003
      2.88487249e-003</_>
    <_>
      1.64529867e-003 2.57503870e-003 2.42990768e-003 1.60895800e-003
      1.45131024e-003 9.39399702e-004 1.40501105e-003 1.51425309e-003
      2.77656130e-003 2.56897067e-003 8.73700343e-003 5.61233237e-003
      2.85062706e-003 2.71686353e-003 2.16145418e-003 2.54237163e-003
      3.39116645e-003</_>
    <_>
      1.58104277e-003 2.67995917e-003 1.54865580e-003 1.54936814e-003
      9.77776013e-004 9.30169364e-004 4.07627900e-004 8.82885186e-004
      1.73584593e-003 2.05546827e-003 7.63410842e-003 3.71679734e-003
      8.58502928e-004 3.67203029e-003 2.08401959e-003 3.48355179e-003
      2.33194721e-003</_>
    <_>
      1.31073222e-003 1.45376869e-003 1.19473820e-003 1.14737847e-003
      1.69744380e-004 4.81061928e-004 1.36205184e-004 4.99837624e-004
      8.21727910e-004 9.46522981e-004 4.46710270e-003 4.10230923e-003
      3.68383992e-003 4.75334935e-003 3.46787274e-003 1.93763128e-003
      1.07614952e-003</_>
    <_>
      1.23690884e-003 1.78163033e-003 1.33395102e-003 1.11786218e-003
      1.22042489e-003 2.16884748e-003 6.07518945e-004 1.19526172e-003
      1.64197199e-003 1.48487685e-003 4.94453916e-003 2.49071373e-003
      4.82079992e-003 2.43755220e-003 6.24172622e-003 3.08794063e-003
      1.77543180e-003</_>
    <_>
      7.52449327e-004 6.50230329e-004 6.38738042e-004 5.67378418e-004
      8.04970507e-004 8.25057272e-004 7.70156796e-004 9.26461245e-004
      1.33407267e-003 1.37039938e-003 5.35081327e-003 2.25038081e-003
      3.48691875e-003 1.29678124e-003 3.45234317e-003 2.30110483e-003
      2.45446479e-003</_>
    <_>
      8.80753039e-004 1.30545243e-003 1.19799923e-003 8.45897244e-004
      8.24475603e-004 9.41814564e-004 7.28508399e-004 1.07368489e-003
      1.51764508e-003 1.21392729e-003 4.87580802e-003 1.69319636e-003
      2.24352046e-003 3.29140737e-003 3.06865061e-003 2.51908810e-003
      2.29159463e-003</_>
    <_>
      9.13073833e-004 8.27975862e-004 9.73527844e-004 9.16761288e-004
      6.71674148e-004 6.44638843e-004 7.55917164e-004 7.26640748e-004
      1.10287289e-003 1.15293672e-003 3.75580671e-003 1.30525883e-003
      3.55232367e-003 2.91463034e-003 2.79360171e-003 2.39786645e-003
      1.48121221e-003</_>
    <_>
      5.88580966e-004 1.26496633e-003 1.15423859e-003 9.07322392e-004
      8.58861604e-004 1.01652963e-003 7.70469254e-004 8.37928674e-004
      1.15160050e-003 7.94768042e-004 4.14886558e-003 1.20674167e-003
      2.73103383e-003 2.68201716e-003 4.61396435e-003 1.29744411e-003
      1.64771709e-003</_>
    <_>
      -9.23892821e-006 1.70716085e-003 2.54129339e-003 1.43192313e-003
      2.32768664e-003 1.95561466e-003 1.38697925e-003 7.08018255e-004
      2.03736546e-003 1.41032238e-003 5.77539345e-003 -1.15580054e-003
      4.71839635e-003 7.42628193e-003 8.15825630e-003 3.52055696e-003
      -7.51006301e-004</_>
    <_>
      -8.94262339e-004 1.26772642e-003 1.07071083e-003 2.96095246e-003
      2.13260390e-003 5.13646239e-003 7.70895102e-004 4.37933207e-003
      5.89555479e-004 3.84468702e-003 6.10704068e-003 1.02891466e-002
      6.16399571e-003 3.47080175e-003 7.53146643e-003 6.63270894e-003
      5.45729697e-003</_>
    <_>
      -2.14051921e-003 -2.05930835e-003 -1.49797113e-003 5.75565791e-005
      4.99407935e-004 1.21257373e-003 5.94380428e-004 1.48301211e-003
      -3.37769525e-005 2.14577114e-004 2.75212550e-003 4.16235719e-003
      5.80203766e-003 3.20494012e-003 1.33101940e-002 5.71224559e-003
      5.29801799e-003</_>
    <_>
      -6.16019533e-004 2.69333413e-003 1.19334298e-004 3.68196517e-003
      4.49142046e-003 5.08144265e-003 4.38053859e-003 4.77040390e-004
      4.00908338e-003 5.12331910e-003 -1.14014884e-002 5.62630035e-003
      9.69077274e-003 6.79580774e-003 2.53298488e-002 1.15972832e-002
      -3.00011435e-003</_>
    <_>
      1.06833279e-004 2.13514059e-003 1.80707561e-004 1.88959041e-003
      -1.42943099e-004 2.19233311e-003 8.34021193e-005 2.60584784e-004
      2.70744902e-003 1.73744408e-003 1.23143650e-003 -1.03203859e-002
      -1.53903002e-002 -1.12656495e-002 -5.98605257e-003
      -4.95775649e-003 5.58284461e-004</_>
    <_>
      -4.48671030e-003 -1.57510673e-004 1.39739626e-004 9.05246707e-004
      3.49177071e-003 4.72887978e-003 5.10629943e-005 3.66457319e-003
      -9.69196903e-004 -1.25015283e-003 -1.39091944e-003 1.40527347e-002
      -1.02288323e-002 1.66449398e-002 1.53342541e-002 -7.33694155e-003
      8.99938121e-003</_>
    <_>
      -2.49063293e-003 -2.18491419e-003 -8.85533809e-004 4.88315104e-003
      3.77497915e-003 4.53486713e-003 4.05530445e-003 5.59719140e-003
      -5.99981192e-003 2.72624404e-003 9.84407729e-004 -1.68662388e-002
      -6.64192019e-003 -2.58734799e-004 1.03170462e-002 7.63467280e-003
      2.59758625e-003</_>
    <_>
      5.06771309e-003 3.46990838e-003 2.80654221e-003 4.67767008e-003
      3.30786832e-004 1.80750081e-004 -2.96342216e-004 -4.08581429e-004
      9.38480196e-004 3.96909146e-003 -8.37008841e-003 1.04306610e-002
      2.30453769e-003 1.74438749e-002 6.72172802e-003 9.55165550e-003
      -8.82686814e-004</_>
    <_>
      5.68894949e-003 1.08803697e-002 1.01977703e-003 -4.78100590e-003
      6.73992652e-003 4.25291853e-003 1.74034818e-003 3.66048608e-003
      5.62100625e-003 9.51108150e-003 -6.90618623e-003 1.04193324e-002
      -1.05513753e-002 8.49845726e-003 1.36639141e-002 -2.06782832e-003
      1.47314062e-002</_>
    <_>
      1.82273670e-003 1.54563738e-003 1.41855620e-003 4.96998895e-004
      2.94911652e-003 2.82410416e-003 2.17022095e-003 1.87611452e-003
      4.15993447e-004 -2.71110126e-004 -2.99128983e-003 7.54591357e-003
      6.09755190e-003 7.55580049e-003 1.16393082e-002 -1.40316144e-003
      4.84148366e-003</_>
    <_>
      -3.47687537e-003 -5.01902122e-003 -1.81477179e-003 2.04525015e-004
      1.98593852e-003 3.25633772e-003 -1.62737421e-003 -2.13331124e-003
      -4.01066383e-003 -3.37630324e-003 -1.05794957e-002 1.49759732e-003
      7.37512601e-004 4.84866276e-003 1.44938184e-002 -2.34905072e-003
      -1.12070260e-003</_>
    <_>
      4.11636342e-004 5.22235292e-004 2.63179914e-004 5.13545470e-004
      7.04231963e-004 9.31734976e-004 5.90143492e-004 8.12219921e-004
      8.28582270e-004 8.22713017e-004 6.32181182e-004 3.96737317e-003
      3.77074303e-003 3.73703591e-003 4.89465147e-003 3.55103379e-003
      1.96801475e-003</_>
    <_>
      8.22756032e-004 4.59401589e-003 -9.35749849e-004 8.05311021e-004
      8.84653069e-004 -5.43108792e-004 -1.90847949e-003 -1.51044235e-003
      -2.68804724e-003 -1.79438631e-003 3.08600720e-004 1.74885187e-002
      -4.34567779e-003 1.55057898e-002 8.63815192e-003 -2.74914410e-003
      5.02356654e-003</_>
    <_>
      -1.79013092e-004 3.71053629e-003 -4.69876832e-004 7.74756831e-004
      3.10851407e-004 1.28598814e-003 7.61193864e-004 2.35891738e-003
      1.31293572e-003 2.95034703e-003 2.80391378e-003 7.62621174e-003
      7.66493054e-003 1.49771129e-003 4.55028564e-003 1.16446698e-002
      1.02524469e-002</_>
    <_>
      3.21667292e-004 6.58839336e-003 3.81730846e-004 2.52959505e-003
      -3.15107900e-004 7.82543328e-004 -1.72413129e-003 -2.47261371e-003
      -6.99701719e-003 -4.13526129e-003 2.28983024e-003 -2.21495833e-002
      -1.02118878e-002 5.99611970e-003 1.36215584e-002 -1.97397526e-002
      2.13589263e-003</_>
    <_>
      -2.46084221e-002 2.94157118e-002 1.27337612e-002 1.09040132e-002
      2.11802758e-002 8.46103206e-003 2.22175419e-002 8.57807044e-003
      2.25701164e-002 2.18726192e-002 5.48391743e-003 -1.01800514e-002
      -1.34737529e-002 -5.63278282e-003 7.94259738e-003 -1.30929463e-002
      1.59308780e-002</_>
    <_>
      -4.22955565e-002 -9.37776361e-003 7.33293826e-004 2.64484119e-002
      -1.49524654e-003 2.82548387e-002 1.85524616e-002 -1.34196607e-002
      3.09213577e-003 -3.24224643e-002 1.52515136e-002 1.01892389e-002
      1.71214696e-002 -6.11262536e-003 -2.11025588e-002 -4.40418161e-003
      2.59677768e-002</_>
    <_>
      4.64686163e-004 2.30512233e-003 2.01620511e-003 1.79974397e-003
      2.72601540e-003 2.72371061e-003 1.99161936e-003 2.25490355e-003
      1.83511851e-003 1.61450554e-003 5.59265492e-003 1.35282660e-003
      2.37517362e-003 5.65245608e-003 8.06376338e-003 2.62127607e-003
      6.40821736e-003</_>
    <_>
      2.55880202e-003 1.20565072e-002 -8.68380815e-003 -4.24119411e-003
      4.18079179e-003 5.83325326e-003 -3.46836937e-003 2.96527846e-003
      1.75194372e-003 3.45755834e-003 -5.36652282e-003 -1.12507278e-002
      -1.67648029e-002 7.38869887e-003 2.62852684e-002 -1.68399643e-002
      2.52251662e-002</_>
    <_>
      -6.09938428e-003 6.68422319e-004 3.35811195e-003 8.49672128e-003
      3.21794604e-003 6.07153308e-003 6.74128241e-004 -2.55981972e-003
      -6.07510423e-003 6.34856624e-005 9.32606123e-003 -1.77330095e-002
      -6.42347615e-003 1.70242842e-002 1.72243379e-002 -1.32512795e-002
      6.37066970e-003</_>
    <_>
      -1.07171834e-002 -3.41417571e-003 -6.55797019e-004 1.62280712e-003
      2.75381748e-003 2.07158597e-003 -2.48414464e-003 9.19110083e-004
      -3.22736381e-003 8.45086237e-004 -4.74244775e-003 1.49445208e-002
      -6.90976670e-003 8.77485890e-003 1.03478981e-002 1.50099955e-003
      1.75955165e-002</_>
    <_>
      -3.10409279e-003 -1.76270318e-003 -3.55760021e-005 5.48230833e-004
      -2.64238741e-004 9.36550030e-004 -2.44264724e-003 -2.30207853e-003
      -4.42771241e-003 -1.68889819e-003 -6.69898139e-003
      -8.20902269e-003 -3.42780119e-003 6.06464036e-003 1.40931346e-002
      -8.23150296e-003 2.02757030e-004</_>
    <_>
      -1.86367389e-002 -7.56630252e-005 -2.88238563e-003 5.37680462e-003
      -4.70576866e-004 6.66324794e-003 -2.21385201e-003 2.32886476e-003
      -8.15211423e-003 -5.02031762e-003 1.25786439e-002 2.24159174e-002
      1.40569052e-002 -3.64131248e-003 2.28395965e-002 -1.59910927e-003
      1.17328465e-002</_>
    <_>
      -5.27117494e-003 6.22802321e-003 -2.74498248e-003 -2.08127219e-003
      3.28832446e-003 6.43230695e-003 -2.66317162e-003 -3.37318750e-003
      -7.30481977e-003 -1.70680659e-003 -7.49665033e-003 1.33742671e-002
      -1.08719766e-002 1.14761582e-002 2.77414918e-002 -2.34317430e-003
      2.56539788e-002</_>
    <_>
      -7.25184614e-003 -6.74648385e-004 -2.95348873e-004 4.89493413e-003
      3.46554723e-003 2.38542003e-003 4.05340968e-003 5.02915820e-003
      1.29112555e-003 6.95167296e-003 2.04141866e-002 -7.04822922e-003
      9.73373000e-003 1.65723860e-002 1.73632558e-002 -6.17268903e-004
      5.27162012e-003</_>
    <_>
      -3.32612591e-003 -9.36714525e-004 -3.09487828e-003
      -2.46129162e-003 -1.98525260e-003 -6.49240625e-004
      -4.12009394e-004 5.01359056e-004 -9.55275827e-005 2.96068611e-004
      -1.56923309e-002 1.00293830e-002 4.27917391e-003 -3.40227922e-003
      4.21338528e-003 4.21186397e-003 2.42555281e-003</_>
    <_>
      -4.05738084e-003 -1.14517508e-003 -7.79893366e-004 6.23029482e-004
      2.04094406e-003 1.04982010e-003 9.23977525e-004 -4.08645064e-005
      -1.95300963e-004 1.22973917e-003 -2.13075383e-003 1.24315768e-002
      6.98519964e-003 7.02511799e-003 1.19974697e-002 5.64006623e-003
      2.90710293e-003</_>
    <_>
      -7.74478493e-003 -1.37891422e-003 -2.26026750e-003 2.46679620e-003
      3.18663055e-003 3.58637865e-003 2.21525459e-003 9.39434802e-004
      1.04918482e-003 2.48802407e-003 4.20139544e-003 1.04506528e-002
      1.16086295e-002 4.95377835e-003 1.14296079e-002 1.72781944e-002
      5.14622824e-003</_>
    <_>
      -1.12340664e-002 1.86179522e-002 -6.71125576e-003 -6.48286287e-003
      -2.71863653e-003 -8.53878073e-003 4.96135466e-003 3.30567616e-003
      1.26859988e-003 9.59577877e-003 -5.09562530e-003 1.08589008e-002
      -2.54213121e-002 1.86752484e-004 -6.25471468e-004 2.61413176e-002
      1.12515790e-002</_>
    <_>
      -3.20691313e-003 4.83663403e-004 -1.63994206e-003 -1.45429990e-003
      5.64250862e-004 -1.00930245e-003 3.80443409e-004 -1.04715617e-003
      2.08385917e-003 -3.09121562e-004 -1.28601547e-002 1.03330938e-002
      1.52424024e-003 -2.92381016e-003 1.36194602e-002 -3.01754219e-003
      1.27726165e-003</_>
    <_>
      -4.89050988e-003 -1.55048342e-002 -2.52010091e-003
      -8.63301102e-005 -2.78732064e-003 -7.32573448e-003 2.78613111e-003
      -7.60302134e-003 6.09941781e-004 1.64893270e-003 -2.34758519e-002
      3.45310173e-003 2.88698217e-003 1.11412155e-002 1.08450660e-002
      5.63467387e-003 -8.11065361e-003</_>
    <_>
      1.52505760e-003 2.09121313e-003 1.34876487e-003 7.40561984e-004
      2.05782545e-003 2.47170823e-003 1.59113528e-003 1.23755343e-003
      1.84030051e-003 1.47429202e-003 4.15294478e-003 4.15208936e-003
      2.38624006e-003 5.79142058e-003 5.87323448e-003 4.17124620e-003
      4.71182400e-003</_>
    <_>
      -3.55069665e-003 7.19215721e-004 -3.27151897e-003 -1.60996348e-003
      2.30975542e-003 2.77255336e-003 3.99443740e-003 3.31408950e-003
      3.95843759e-003 5.81410713e-003 8.59437045e-003 6.27652230e-003
      6.88402634e-003 -1.75439718e-003 1.98065978e-003 8.21909215e-003
      1.01159606e-002</_>
    <_>
      -2.00770854e-004 7.21201999e-004 1.02281389e-004 6.05076842e-004
      6.25855289e-004 7.86410819e-004 6.16598991e-004 6.11985510e-004
      7.57472124e-004 2.32552658e-004 2.54272460e-003 5.17098978e-003
      3.99174215e-003 4.00860049e-003 4.89600562e-003 3.36540677e-003
      3.11309681e-003</_>
    <_>
      2.21778289e-004 1.44944654e-003 2.91177683e-004 6.63928920e-004
      7.80358852e-004 9.56652744e-004 1.17504271e-003 8.86607100e-004
      8.82995606e-004 1.23750744e-003 4.29225201e-003 3.24670365e-003
      6.43773796e-003 3.43224290e-003 5.73414238e-003 4.97779017e-003
      2.81184632e-003</_>
    <_>
      -4.85032331e-004 4.49915044e-003 1.19697780e-003 2.44080392e-003
      1.27808098e-003 1.67770102e-003 1.34232885e-003 2.28926539e-003
      5.84157126e-004 1.93805108e-003 2.41921050e-003 7.90358894e-003
      6.83687394e-003 5.91134513e-003 7.01542990e-003 2.02485267e-003
      4.85753920e-003</_>
    <_>
      1.97790260e-003 4.52097738e-003 1.01357244e-003 2.72451993e-003
      1.42062153e-003 2.35475646e-003 1.27462647e-003 2.40989658e-003
      2.16321158e-003 1.60709629e-003 9.88037046e-003 6.08212966e-003
      3.23381438e-003 -4.48251289e-004 4.74144332e-003 1.90021959e-003
      7.63915712e-003</_>
    <_>
      -1.20522152e-003 4.06354479e-003 2.25071050e-003 2.46528606e-003
      3.13719152e-003 2.10833596e-003 3.17546213e-003 2.81389896e-003
      2.22399621e-003 2.86377664e-003 7.64493737e-003 1.45984925e-002
      4.86715976e-003 4.26090276e-003 5.86665189e-003 7.12145993e-004
      1.05148228e-002</_>
    <_>
      7.27193314e-004 4.19921288e-003 9.27082729e-004 2.45764572e-003
      2.12103548e-003 2.11873883e-003 5.03293413e-004 1.36052025e-003
      1.10061106e-003 2.73133186e-003 7.51083111e-003 8.67430586e-003
      1.14582782e-003 7.15944683e-003 6.42611459e-003 5.69210388e-003
      6.48547942e-003</_>
    <_>
      5.52948914e-004 1.06568297e-003 4.97074041e-004 1.12255989e-003
      8.00820490e-005 6.35575794e-004 -3.63734944e-005 3.74150812e-004
      -2.45302566e-004 3.22300766e-004 1.51636789e-003 6.13506511e-003
      5.41628944e-003 6.53845724e-003 6.03154348e-003 1.56946853e-003
      1.92352640e-003</_>
    <_>
      1.39685057e-004 1.23623235e-003 2.72903650e-004 8.90342519e-004
      1.67306559e-003 3.25769628e-003 5.49780554e-004 1.24720752e-003
      5.21331967e-004 7.56410009e-004 9.51137743e-004 3.98194743e-003
      6.49747951e-003 2.31340271e-003 1.03712548e-002 2.70330720e-003
      3.11559252e-003</_>
    <_>
      -3.59508049e-005 2.96296548e-005 -1.17829550e-004 3.50601214e-004
      1.19216857e-003 1.27266964e-003 1.08111079e-003 1.19861937e-003
      9.30982875e-004 1.30011770e-003 4.25405754e-003 3.40595329e-003
      5.44581935e-003 1.26413652e-003 6.19456545e-003 2.57661054e-003
      4.29152651e-003</_>
    <_>
      2.51942780e-004 1.23232638e-003 9.16698307e-004 8.83738510e-004
      1.28516322e-003 1.53727853e-003 1.06476340e-003 1.52560591e-003
      1.35752303e-003 1.13096472e-003 3.83764645e-003 2.59298482e-003
      3.51867592e-003 4.86033829e-003 5.76654729e-003 3.13263224e-003
      4.18071216e-003</_>
    <_>
      5.04457683e-004 5.09005622e-004 6.70066918e-004 9.93154012e-004
      9.46318265e-004 9.41715611e-004 1.00887893e-003 8.77373735e-004
      7.84847769e-004 1.09215477e-003 2.55524390e-003 1.87542371e-003
      5.13942493e-003 3.83597356e-003 4.64592408e-003 2.81913090e-003
      2.46420526e-003</_>
    <_>
      -1.18578253e-004 1.07353053e-003 8.09947785e-004 8.92313721e-004
      1.15882885e-003 1.43009902e-003 9.86568979e-004 9.75903822e-004
      7.13704037e-004 4.16991534e-004 2.55924440e-003 1.51220406e-003
      3.75827402e-003 3.30259139e-003 7.18867872e-003 9.46480432e-004
      2.58653890e-003</_>
    <_>
      -2.84821610e-003 -6.72821130e-004 1.41544046e-003 1.66838896e-003
      3.62714566e-003 2.87147518e-003 7.37915747e-004 1.67279257e-004
      -1.11853340e-004 -5.83740999e-004 -3.84398591e-004
      -3.64239881e-004 3.37419566e-003 8.40585586e-003 1.49707291e-002
      1.73990824e-003 1.52912282e-004</_>
    <_>
      -9.48972814e-003 -6.63189683e-003 -9.23613925e-003
      -9.64308251e-003 -6.57959608e-003 -1.52516402e-002
      -1.04719831e-003 -6.01171469e-003 -3.15252086e-003
      -1.09108454e-002 -1.02752307e-002 -1.66694459e-003 3.76432529e-003
      4.60303016e-003 1.48389107e-002 -8.96783080e-003 1.19655218e-003</_>
    <_>
      2.88685318e-003 4.11420595e-003 -2.06721807e-003 -2.74673617e-003
      -1.69752107e-003 -1.09973177e-002 1.69739418e-003 -9.36184265e-003
      1.06110019e-004 -4.86133620e-003 -1.20800976e-002 -1.31511930e-002
      -8.29433557e-004 1.07918996e-002 -2.82362755e-003 -4.79978789e-003
      -1.78071018e-002</_>
    <_>
      -2.56735977e-004 -8.20693895e-005 -4.30911139e-004
      -6.51389651e-004 -5.21205191e-004 -8.32648540e-004
      -3.22918320e-004 -9.66758817e-004 2.73396090e-005 -7.59344141e-004
      -3.27986851e-003 -3.93610168e-003 -3.84137873e-003
      -3.72952013e-003 -3.14619439e-003 -2.97883758e-003
      -1.31857756e-003</_>
    <_>
      -9.46802145e-004 7.23525649e-004 -9.17336147e-004 -2.34000757e-003
      -3.66029941e-004 -2.39948067e-003 -9.45886364e-004
      -2.27882294e-003 -1.81268691e-003 -4.06159135e-003
      -1.16134230e-002 -7.57246919e-004 -5.27908467e-003 5.61862777e-004
      -8.32987076e-004 -9.04330704e-003 -1.56147731e-003</_>
    <_>
      -8.98339844e-004 -1.46889046e-003 -9.94365313e-004
      -6.31496543e-004 7.27228398e-005 -9.72867827e-004 3.33866192e-004
      -4.57930641e-004 -1.70786574e-003 -1.01653975e-003
      -4.66884719e-003 -8.82767513e-003 -3.68483481e-003
      -3.48830293e-003 -6.08481641e-004 -1.13600644e-003
      -1.57106400e-003</_>
    <_>
      4.89960844e-003 1.29204232e-003 -4.43963305e-004 -1.78845401e-003
      -2.75976118e-003 -8.18820018e-003 -1.31124619e-003
      -5.80092147e-003 3.38883721e-004 -1.51479931e-003 -1.42569421e-002
      -8.05031694e-003 -1.44555548e-003 9.51247569e-003 -4.07947646e-003
      4.46002325e-003 -7.66786141e-003</_>
    <_>
      8.07263609e-003 7.90677406e-003 -5.06811170e-003 -1.11489259e-002
      1.52531487e-003 -1.01472661e-002 1.30315882e-003 -9.15242941e-004
      3.69288772e-003 4.43921890e-004 -2.21959464e-002 -1.14040738e-002
      -3.47231934e-003 -3.37642647e-004 1.04567204e-002 -8.50048382e-004
      -6.36532856e-003</_>
    <_>
      5.95502695e-003 1.59394855e-004 1.45309966e-003 -1.02169113e-002
      2.56978022e-003 -1.15173608e-002 7.81456195e-003 -5.42777916e-003
      5.11205290e-003 -9.45659634e-003 -1.18781729e-002 -1.59691740e-002
      1.48511780e-002 -8.95809615e-004 1.33734308e-002 -1.33417379e-002
      3.29112541e-003</_>
    <_>
      -1.40283990e-003 -1.91285845e-003 -1.55825214e-003
      -1.57507625e-003 -3.12469958e-004 -1.34900108e-003
      -1.47994526e-003 -3.29019688e-003 -2.59515154e-003
      -3.94077273e-003 -1.00083640e-002 -2.87414435e-003
      -2.70216167e-003 -8.46991534e-005 2.00528186e-003 -5.28417621e-003
      -3.62794870e-003</_>
    <_>
      9.03196691e-004 -5.27116761e-004 -9.59576573e-004 -1.68096100e-003
      0. -3.01645650e-003 1.64825423e-003 -6.06665970e-004
      3.27995536e-003 -2.38385313e-004 -4.19458235e-003 6.42726524e-003
      1.04015619e-002 7.69704627e-003 9.02028568e-003 8.80299415e-003
      2.97733303e-003</_>
    <_>
      4.24320204e-003 1.23020331e-003 -4.10699006e-003 -8.06831941e-003
      -4.17153258e-003 -1.50339119e-002 -1.82260445e-003
      -1.02834804e-002 -5.16268308e-004 -9.37495194e-003
      -1.71005800e-002 2.34263833e-003 6.10108720e-004 1.10257631e-002
      -1.55862991e-003 -4.13002586e-003 -4.33772057e-003</_>
    <_>
      6.09966600e-003 1.19737219e-002 -4.31755930e-003 -8.51547252e-003
      -5.12158172e-003 -1.40429549e-002 6.20081613e-004 -7.84010440e-003
      1.75318180e-003 -5.54951793e-003 -1.00591211e-002 -6.79489085e-003
      9.31254961e-003 -5.51882945e-003 -6.77078916e-003 1.55383777e-002
      2.05564238e-002</_>
    <_>
      -1.89941144e-004 9.27568617e-005 -7.77624606e-004 -1.44804514e-003
      -3.80632817e-004 -1.66396203e-003 -9.39221121e-004
      -2.32354435e-003 -1.95153675e-003 -2.59208283e-003
      -4.96253744e-003 -5.87946596e-003 -4.41976776e-003
      -2.70983693e-003 8.82079650e-004 -6.63985359e-003 -2.06020335e-003</_>
    <_>
      -7.15047354e-004 4.13714955e-003 8.67740717e-004 -3.05822841e-003
      6.97339012e-004 -8.29748716e-003 4.10313392e-003 -6.65276777e-003
      4.82281111e-003 -2.46319873e-003 -2.92549655e-003 -2.18772572e-002
      -7.56006455e-003 -2.31483695e-003 -7.83634558e-003
      -6.66408334e-003 -7.39172846e-003</_>
    <_>
      -3.37918242e-003 -5.37219108e-004 -1.94066297e-003
      -3.94638628e-003 -2.94697494e-003 -5.24747977e-003 2.92858575e-004
      -6.07624417e-003 -3.50256159e-005 -7.46786641e-003
      -7.72203645e-003 -9.32419579e-003 -3.78098077e-004
      -9.84824076e-003 -9.88623407e-003 -7.00448733e-003
      -4.50348621e-003</_>
    <_>
      1.59597176e-003 4.72486019e-003 3.53415916e-003 -2.75321770e-003
      4.93481290e-003 -5.67646557e-003 7.57907145e-003 6.29982329e-004
      9.17186867e-003 -1.77600409e-003 1.12372944e-002 -2.09075902e-002
      -1.01265288e-003 2.20033200e-003 7.74895446e-003 -5.12071040e-007
      1.50996996e-002</_>
    <_>
      -1.96908484e-004 4.25016129e-004 -1.70045940e-003 -2.51295278e-003
      -7.39574258e-004 -2.48565641e-003 -1.20115327e-003
      -2.39796215e-003 -6.58390520e-004 -2.18303036e-003
      -6.62076753e-003 -8.37270916e-003 -5.31413965e-003
      -3.09425057e-003 -2.38900655e-003 -6.39194483e-003
      -1.19408965e-003</_>
    <_>
      -3.24736792e-003 -2.87743751e-003 6.95520284e-005 -1.09275081e-003
      -1.20483234e-003 -5.27794426e-003 1.00789045e-003 -3.60668963e-003
      -1.39531831e-003 -3.02201789e-003 -2.91127246e-003
      -1.67023279e-002 3.90451355e-003 7.32218148e-003 1.08771003e-003
      -4.79387911e-003 -6.54658396e-003</_>
    <_>
      -1.42628076e-002 -6.68266462e-003 -2.70389393e-003
      -5.29435929e-003 -2.61416455e-004 -1.51849277e-002
      -6.77950564e-004 -8.17783456e-003 -5.39271487e-003
      -1.10174827e-002 -1.20143909e-002 6.43372443e-003 -1.03270514e-002
      1.44274263e-002 -2.78908224e-003 -1.23658367e-002 1.38925109e-002</_>
    <_>
      -1.12965750e-003 -7.68822094e-004 -4.34718066e-004
      -1.26545387e-003 -1.00734015e-003 -1.93344767e-003
      -1.20906229e-003 -2.60785874e-003 -2.05393601e-003
      -2.38521025e-003 -6.21499773e-003 -7.25867040e-003
      -2.78425659e-003 1.05936371e-003 2.31269817e-003 -5.53410733e-003
      -2.43192795e-003</_>
    <_>
      -5.80172613e-003 -2.38628220e-003 -3.27403122e-003
      -4.23949212e-003 -4.36789030e-003 -7.96583947e-003
      -2.47614412e-003 -7.91340880e-003 -4.47891280e-003
      -1.05855921e-002 -1.34127471e-003 -2.23449059e-002 1.25892414e-003
      -6.08094735e-003 -2.20406381e-003 -8.23108759e-003
      -7.14231608e-003</_>
    <_>
      -1.87827775e-003 5.60232392e-003 -5.35592204e-003 -1.78289190e-002
      -6.84419554e-003 -3.03467568e-002 3.35933873e-004 -1.78270303e-002
      -3.38863669e-004 -1.13209002e-002 6.68260828e-003 -2.12120973e-002
      -2.45245639e-003 1.50841465e-002 4.35137143e-003 -1.29658338e-002
      1.88493723e-004</_>
    <_>
      -1.91940228e-003 -1.46550685e-003 -6.84740196e-004
      -1.37260405e-003 -1.00251741e-003 -5.70882438e-003 5.02369476e-005
      -3.24897654e-003 -4.69412975e-004 -2.74728844e-003
      -1.49873982e-003 -1.88464578e-002 -3.36700771e-003 4.86172782e-003
      -3.30448686e-003 -1.02436943e-002 -5.25317527e-003</_>
    <_>
      -6.35577540e-004 1.68443657e-004 -8.46835435e-004 -1.22698920e-003
      -9.81527963e-004 -1.41702511e-003 -7.35804031e-004
      -1.20072486e-003 -8.60907603e-004 -1.43338600e-003
      -6.99849660e-003 8.03825911e-004 -2.17789249e-003 -2.18196074e-003
      -2.99692131e-003 -2.73225456e-003 -1.17394491e-003</_>
    <_>
      -9.56681650e-003 -6.69068424e-003 -6.31864322e-003
      -9.31040384e-003 -1.69818860e-003 -1.57985892e-002
      -1.53040630e-003 -1.48328347e-002 -3.02819116e-003
      -1.09186210e-002 -2.01341212e-002 4.95814160e-003 4.37937619e-004
      8.93932953e-003 8.50405917e-003 -3.15716234e-003 -1.01895835e-002</_>
    <_>
      -8.92329402e-003 -9.16948891e-004 -5.71428705e-003
      -4.36131144e-003 -1.39603671e-003 -1.20496489e-002 3.70006193e-004
      -1.38336727e-002 -9.32158669e-004 -1.01290150e-002
      -9.91609134e-003 -1.95273031e-002 8.12648702e-003 5.61890379e-003
      -4.24755318e-003 1.45155480e-002 -1.25681553e-002</_>
    <_>
      -1.00060576e-003 2.28404673e-003 -1.47716049e-003 -2.87939329e-003
      -1.71310117e-003 -4.69002686e-003 -6.82910031e-004
      -3.26654525e-003 -8.81348038e-004 -2.28370656e-003
      -9.48587898e-003 -3.95445758e-003 -8.50056577e-003
      -2.82573444e-003 -5.45924855e-003 -3.07769561e-003
      -3.21408943e-003</_>
    <_>
      -7.96853681e-004 2.60270957e-004 -1.02943915e-003 -1.84812199e-003
      -5.84689493e-004 -2.20218557e-003 -6.18097023e-004
      -2.43489770e-003 -2.30580103e-004 -2.08814791e-003
      -9.50146653e-003 2.64284085e-004 -2.86813523e-003 -3.93752474e-003
      -2.85356393e-004 -4.04582312e-003 -8.69240845e-004</_>
    <_>
      -9.60714708e-004 -1.87484594e-003 -5.70200849e-004
      -1.21552323e-003 -9.80248093e-004 -3.19395307e-003
      -5.53115562e-004 -3.15879285e-003 -1.38573314e-003
      -2.12521222e-003 -9.62460786e-003 -3.88221606e-003
      -3.64374835e-003 4.26085433e-004 2.21312876e-004 -4.90874797e-003
      -4.57556359e-003</_>
    <_>
      1.05171371e-002 9.84192733e-003 4.55291150e-003 -1.00554600e-002
      7.28528015e-003 -7.34022865e-003 1.18278200e-002 -7.00893858e-003
      1.54399378e-002 -4.33012424e-003 8.10710341e-003 4.25666105e-003
      -8.12259968e-003 1.55982105e-002 -1.24415965e-003 8.02962203e-003
      2.32719108e-002</_>
    <_>
      -3.90990498e-003 5.73761645e-004 -8.49714037e-003 -9.56358854e-003
      5.88649977e-003 -1.16840629e-002 1.79986600e-002 -1.32691851e-002
      1.32048111e-002 -6.31044945e-003 1.45720094e-002 -1.43194450e-002
      1.97124332e-002 -2.42212112e-003 -1.29024091e-003 -1.42870918e-002
      2.65921261e-002</_>
    <_>
      -3.04652215e-003 -6.35445118e-004 -3.09015135e-003
      -3.20841349e-003 -1.70464150e-003 -7.66329234e-003 2.02915352e-003
      -3.40412348e-003 3.78293125e-003 -5.06606000e-003 4.09817044e-003
      1.11630149e-002 1.26091391e-002 7.42119038e-003 5.72178187e-003
      8.87841731e-003 8.74751899e-003</_>
    <_>
      -1.42267221e-004 3.34348460e-003 -1.92223105e-003 -3.91510082e-003
      -1.71716406e-003 -1.04452269e-002 4.03332990e-003 -5.16887428e-003
      2.78199604e-003 -2.54424615e-003 9.47998185e-003 2.81811343e-003
      2.12882087e-002 5.28753642e-003 5.95616689e-003 1.14526497e-002
      2.69245869e-003</_>
    <_>
      -5.68381045e-003 2.18475908e-002 -5.59670676e-004 3.51018360e-004
      -4.56970138e-003 -2.17944495e-002 7.42340786e-003 -3.45869921e-003
      3.76281072e-003 -4.32818709e-003 -8.60427134e-003 8.20736587e-003
      2.45249085e-002 6.53233984e-003 -4.80474113e-003 -1.50944162e-002
      7.70786358e-003</_>
    <_>
      1.02164652e-002 1.08746653e-002 4.16164075e-005 1.64246792e-003
      1.82943098e-004 -4.91070561e-003 7.12927803e-003 -1.52875541e-003
      9.89913195e-003 -3.62234307e-003 1.18432688e-002 -8.78086872e-003
      1.71747745e-003 -1.27378320e-002 8.51239450e-003 -1.29700797e-002
      1.40698552e-002</_>
    <_>
      1.02229211e-002 3.20566981e-003 6.70567434e-003 -1.08618662e-002
      6.53355569e-003 -2.87547726e-002 1.50231086e-002 -1.60095301e-002
      2.07252167e-002 -7.79824052e-003 -4.88751428e-003 1.43060535e-002
      -2.63465452e-003 -3.32278199e-003 3.55495908e-003 -2.09595859e-002
      2.63461620e-002</_>
    <_>
      7.14053167e-003 1.77307744e-002 -4.69172979e-003 -5.92736807e-003
      1.19390397e-003 -3.14021036e-002 4.36932733e-003 -2.03924179e-002
      1.69402789e-002 -1.34443317e-003 3.99360573e-003 -1.21738445e-002
      -2.64557693e-002 2.16966420e-002 3.92693561e-003 8.90659448e-003
      1.76913515e-002</_>
    <_>
      3.16178775e-004 -1.12577889e-003 -2.11043656e-003 -2.60446710e-003
      -6.77863322e-003 -1.08838342e-002 -3.20786634e-003
      -6.19884813e-003 -1.77296100e-003 -4.35448717e-003 1.24071888e-003
      7.77652999e-003 1.65194198e-002 1.74985565e-002 1.09399986e-002
      -3.75849311e-003 -5.67238254e-004</_>
    <_>
      -1.30285116e-004 1.58439169e-003 -3.98466969e-003 -6.39138976e-003
      5.80777007e-004 -2.49571260e-003 1.62093050e-003 -1.93456316e-003
      2.81964871e-003 -5.09311166e-003 -1.05142659e-002 -3.83072067e-004
      2.27575116e-002 -7.79534597e-003 2.03103442e-002 -5.60107687e-003
      3.58005939e-003</_>
    <_>
      -8.02084280e-004 -3.02801770e-003 -3.04669351e-003
      -3.66624305e-003 9.56176489e-004 -3.98402521e-003 3.04429699e-003
      -9.14024597e-004 3.10536358e-003 1.27607695e-004 9.79223754e-003
      -1.26760115e-003 1.35029936e-002 -5.95384464e-003 8.56012385e-003
      1.57525868e-003 1.02958903e-002</_>
    <_>
      -6.68343564e-004 1.89443352e-003 1.43978174e-003 -2.98478082e-003
      1.61354896e-003 -5.80482092e-003 5.09596476e-003 1.14362757e-003
      8.30751844e-003 -7.34791683e-004 1.15442835e-002 -8.85476265e-003
      8.93869717e-003 1.12343384e-002 8.13030917e-003 6.37026131e-003
      1.54787339e-002</_>
    <_>
      1.54555112e-003 -9.11708397e-004 1.14986824e-003 4.09411499e-004
      1.64120225e-003 -2.87692505e-003 3.02298996e-003 -8.15269421e-004
      2.42970162e-003 7.51201937e-004 6.97237533e-003 4.51980392e-003
      1.32446839e-002 6.85152784e-003 8.63429438e-003 5.43524278e-003
      7.11063575e-003</_>
    <_>
      -8.91788572e-004 1.98244955e-003 1.59406569e-003 -2.80220323e-004
      2.35894416e-003 -1.75466761e-003 3.31677357e-003 -4.84422926e-004
      2.64038052e-003 -2.65521882e-003 6.14692923e-003 -2.28582928e-003
      9.32907779e-003 6.04293821e-003 1.54436389e-002 -2.35313782e-003
      5.16704796e-003</_>
    <_>
      -2.93578580e-003 -1.19262235e-003 -2.56765896e-004
      -2.01446936e-003 6.65397965e-004 -3.24748550e-003 6.07172042e-005
      -2.07970873e-003 -9.80878482e-004 -3.32247792e-003
      -6.59396779e-003 -1.11618768e-002 -7.62650743e-004 5.83694689e-003
      4.54677129e-003 -4.71234787e-003 -6.71613635e-003</_>
    <_>
      6.89130230e-003 9.17518325e-003 4.65670321e-003 4.10617050e-003
      2.14215880e-003 3.11198761e-004 2.32964149e-003 -3.18460166e-003
      3.01143504e-003 4.56149876e-003 -1.24899356e-003 -5.20447455e-003
      -3.69401090e-003 4.08917759e-003 -1.83612704e-002 1.51640188e-003
      -1.80752613e-002</_>
    <_>
      2.97001883e-004 7.10345630e-004 1.71341468e-004 -1.25436090e-005
      -2.03370058e-004 -8.52003286e-005 -3.51217343e-004
      -5.04777767e-004 1.45921600e-004 -5.67550087e-005 -2.09587160e-003
      -2.18092860e-003 -4.20506205e-003 -3.70831578e-003
      -4.65912465e-003 -3.03192763e-003 -1.40569615e-003</_>
    <_>
      2.89097923e-004 1.97068229e-003 6.07294671e-004 -1.01983268e-003
      6.21384941e-004 -1.18180425e-004 -3.32065916e-004 -2.58271961e-004
      -6.47944165e-004 -1.17135164e-003 -1.13233393e-002 7.08688225e-004
      -5.77228889e-003 -4.58673388e-003 -8.44081957e-003
      -7.46333180e-003 -2.50354502e-003</_>
    <_>
      7.06898427e-005 -3.18334613e-004 4.63760844e-005 5.96463389e-004
      8.66964052e-004 5.01534436e-004 5.93997480e-004 5.13813982e-004
      -1.85230840e-003 3.76480864e-004 -4.55547217e-003 -8.27284250e-003
      -5.98618155e-003 -5.19037619e-003 -4.33762139e-003
      -2.11075973e-003 -2.68112007e-003</_>
    <_>
      7.55262561e-003 4.60899668e-003 3.34349833e-003 1.97505765e-003
      -3.90674162e-004 -2.49061477e-003 -6.27327885e-004
      -1.86157948e-003 1.63124443e-003 3.46044800e-003 -1.00943688e-002
      -1.26479799e-003 -3.12266080e-003 5.15396427e-003 -1.45117790e-002
      2.64507253e-003 -9.26558860e-003</_>
    <_>
      1.90039221e-002 1.64282899e-002 4.97199176e-003 -2.12201034e-003
      9.40887444e-003 4.16661240e-003 2.42030621e-003 4.52247867e-003
      7.98232108e-003 1.02071390e-002 -1.45973014e-002 -5.79178054e-003
      -5.82413469e-003 -4.41286154e-003 8.92793876e-004 -2.37305718e-003
      -9.76877008e-003</_>
    <_>
      2.27733627e-002 1.32785058e-002 1.64260454e-002 1.76035357e-003
      1.31407529e-002 7.62886088e-003 1.14943273e-002 2.89347512e-003
      1.08784335e-002 4.48082713e-003 -1.96466525e-003 -5.73512632e-003
      1.02374535e-002 -7.00005516e-003 -1.16243940e-002 -1.17978072e-002
      8.28159275e-004</_>
    <_>
      -2.39201146e-003 -5.83775050e-004 -4.39762778e-004
      -4.39038471e-004 6.65207685e-004 8.61130247e-004 -1.57313060e-003
      -2.74657761e-003 -2.75246939e-003 -2.73433211e-003
      -1.25063406e-002 -2.15257448e-003 -4.03203955e-003
      -3.31889372e-003 -3.66674690e-003 -6.59338618e-003
      -6.37150602e-003</_>
    <_>
      3.84098873e-003 1.31446379e-003 2.06258358e-003 1.30212109e-003
      2.12219730e-003 2.00963696e-003 2.03012535e-003 1.82373717e-003
      4.40043071e-003 3.71214398e-003 1.21148303e-004 3.69440624e-003
      9.47049912e-003 5.10043046e-003 3.22142337e-003 1.29990606e-002
      3.18886782e-003</_>
    <_>
      1.88278425e-002 1.98240709e-002 8.86833016e-003 -2.61276425e-003
      5.53476950e-003 -8.09391681e-003 -2.06730561e-003 -9.15411953e-003
      1.29785994e-003 -2.20833812e-003 -2.45972015e-002 -8.31556134e-003
      -2.42580404e-003 1.35467025e-002 -1.89382602e-002 7.67246680e-003
      -1.83129553e-002</_>
    <_>
      9.71847959e-003 1.18167242e-002 3.93604720e-003 7.73503503e-004
      2.12619989e-003 1.06687902e-003 2.91272486e-003 1.83961762e-003
      3.30145122e-003 4.00620326e-003 5.91996592e-004 7.48599228e-003
      7.41591211e-003 -7.60270515e-003 -1.25013692e-002 7.44577078e-003
      1.08719682e-002</_>
    <_>
      8.68412724e-004 1.51804800e-003 1.57381044e-004 -6.97975920e-004
      2.04134471e-004 -4.14622220e-004 -7.88000470e-004 -1.58354407e-003
      -1.73881219e-003 -1.27421005e-003 -4.96237120e-003
      -4.54061432e-003 -5.80240041e-003 -5.91124641e-003
      -3.39810271e-003 -7.47936778e-003 -3.15794093e-003</_>
    <_>
      2.88597587e-003 6.99357223e-003 3.91558697e-003 1.98763050e-003
      2.09385017e-003 -6.75105839e-005 1.92642037e-003 -8.12087441e-004
      3.39081953e-003 2.95880414e-003 4.83914977e-003 -2.16862746e-003
      -7.07392488e-003 -3.48109123e-003 -1.53846480e-002
      -3.74965020e-003 -4.72864043e-003</_>
    <_>
      4.08592052e-004 3.55364569e-003 1.79082504e-003 3.56778648e-004
      -4.82609204e-004 2.08152109e-004 5.70880075e-004 -2.07397505e-003
      1.05945568e-003 -1.69459893e-003 -1.88556721e-003 1.39421888e-003
      -2.69838329e-003 -8.87706969e-003 -1.61564127e-002
      -6.87858230e-003 -4.87089343e-003</_>
    <_>
      5.43790963e-003 9.07110609e-003 6.97772997e-003 3.34634865e-003
      6.05951389e-003 4.37823869e-003 4.80599795e-003 3.59210814e-003
      6.57911645e-003 4.81601944e-003 1.20447222e-002 -4.88222577e-003
      -2.85113859e-003 -3.65406682e-004 -5.65391826e-003 4.30485141e-003
      8.18199478e-003</_>
    <_>
      1.48802192e-003 2.48837029e-003 -1.36645132e-004 -9.79321543e-004
      5.62344067e-005 -3.87627457e-004 -1.19479722e-003 -1.15854666e-003
      1.29074848e-004 9.67501255e-005 -4.52162046e-003 -5.51088480e-003
      -7.38780666e-003 -4.50561568e-003 -8.18925817e-003
      -7.32108532e-003 -1.96215278e-003</_>
    <_>
      2.67829164e-003 4.41311486e-003 7.49021722e-003 5.49873756e-003
      2.81486078e-003 2.19778554e-003 3.44468351e-003 -2.19067582e-003
      -3.56970180e-004 2.80258758e-003 1.34893542e-003 -1.89288538e-002
      5.15983114e-003 9.49814729e-003 -1.22603839e-002 -2.40155193e-003
      -1.51057485e-002</_>
    <_>
      -3.50165437e-003 1.32666586e-003 6.75013801e-003 4.32099309e-003
      5.25983842e-003 8.60533153e-004 -4.50862164e-004 4.82130708e-004
      -9.18670441e-004 3.17952968e-003 4.14528698e-003 2.74207140e-003
      -1.29902670e-002 4.04286766e-005 -2.86947973e-002 1.56875176e-003
      1.11355083e-002</_>
    <_>
      -4.77296475e-004 5.37431682e-004 8.00272333e-004 -6.93282869e-004
      -8.23149923e-004 -9.83772683e-004 -1.42179022e-003
      -2.48806900e-003 -2.40043201e-003 -1.12521206e-003
      -9.16272774e-003 -8.83569848e-003 -4.73231962e-003
      -2.49339407e-003 -2.90194736e-003 -7.59016350e-003
      -5.04702004e-003</_>
    <_>
      2.21899245e-003 8.39321129e-003 6.91752601e-003 5.67807117e-003
      1.13622926e-003 4.57151094e-003 -2.62476038e-004 6.87209613e-005
      -6.80080848e-004 8.06701602e-004 1.77925453e-002 -1.44404769e-002
      6.79461472e-003 -6.86533283e-003 -2.16240846e-002 -6.59437338e-003
      -1.50131760e-002</_>
    <_>
      1.65777206e-002 2.14515887e-002 1.23711564e-002 9.05365101e-004
      7.90957268e-003 3.82753578e-003 2.60763685e-003 -5.32264821e-003
      6.06320845e-003 8.66135769e-003 2.24761423e-002 -6.59451261e-003
      -9.32483189e-003 -4.48661478e-004 -2.69626789e-002 8.62267241e-003
      -1.60177448e-003</_>
    <_>
      1.80737011e-003 3.57189425e-003 4.29722667e-003 3.27207171e-003
      1.96348946e-003 -3.48481990e-004 1.61067117e-003 1.62770192e-003
      2.41405400e-003 4.21795063e-003 1.03530777e-003 -1.22955712e-002
      -3.70297162e-003 -6.40699000e-005 -1.82288941e-002
      -1.02746263e-002 -8.39870237e-003</_>
    <_>
      -2.04424228e-004 3.63709230e-004 -2.98048544e-004 -5.98893152e-004
      -6.48651912e-004 -6.31175295e-004 -5.11825201e-004
      -6.25623681e-004 -4.69597144e-004 -5.56233863e-004
      -6.23320090e-003 1.44739135e-003 -1.92976149e-003 -2.46642088e-003
      -4.28933185e-003 -3.01770703e-003 -1.62295322e-003</_>
    <_>
      -2.49363994e-003 3.24217312e-004 1.13212792e-002 3.23892990e-003
      1.39096389e-002 -2.96460371e-003 -6.41540973e-004 -1.65987071e-002
      -7.31214415e-003 2.14694580e-003 -2.82214675e-002 8.53482634e-003
      -2.63725733e-003 4.46298718e-003 -3.91285308e-002 6.24964666e-003
      -2.06709150e-002</_>
    <_>
      2.15467275e-003 9.71599575e-003 4.79685934e-003 6.16152817e-003
      3.74533818e-003 1.55846879e-003 1.27756875e-003 -3.62668652e-003
      3.00850649e-003 3.96095263e-003 6.74438756e-003 3.41087836e-003
      1.34746765e-003 2.16646050e-003 -2.59573832e-002 1.20739918e-002
      -1.33082280e-002</_>
    <_>
      7.21986522e-004 3.85036902e-003 5.02480310e-004 -6.27234811e-004
      -4.69188875e-004 -1.64785306e-003 -3.44834523e-004
      -1.23536715e-003 -7.36893999e-005 4.30783635e-004 -5.90368500e-003
      5.66355302e-004 -8.40150286e-003 -3.62025225e-003 -9.52704251e-003
      -2.92996410e-003 -3.42329452e-003</_>
    <_>
      8.34260354e-005 1.30066241e-003 -1.38957812e-005 -8.46482755e-004
      -2.91672745e-006 -8.64179921e-004 -4.71935840e-004
      -1.55537552e-003 2.34995008e-004 -6.52982562e-004 -8.74232501e-003
      2.22318200e-003 -3.66164977e-003 -5.30108716e-003 -3.55215510e-003
      -4.18756809e-003 -1.32180669e-003</_>
    <_>
      2.11277118e-004 -6.11443364e-004 7.94035557e-004 -4.40643271e-005
      -3.76067474e-004 -1.94512494e-003 -2.09691003e-004
      -2.36002263e-003 -8.52843456e-004 -1.36018527e-004
      -1.08230794e-002 -1.08777115e-003 -5.07041113e-003
      -2.40572845e-003 -5.55304345e-003 -5.27615659e-003
      -6.72450615e-003</_>
    <_>
      7.20657269e-003 6.02949550e-003 6.20827870e-003 1.28291070e-003
      5.98726980e-003 4.85939998e-003 4.58867010e-003 1.11993041e-003
      6.43230276e-003 3.57943540e-003 6.27215952e-003 4.56813723e-003
      -3.87604488e-003 -1.68048940e-003 -1.08855199e-002 9.86192282e-003
      9.94277839e-003</_>
    <_>
      5.52041503e-003 6.81194710e-003 4.95169312e-003 5.17502474e-003
      5.66328783e-003 4.63691540e-003 6.58423314e-003 1.05883111e-003
      6.07636338e-003 5.79759339e-003 1.48372063e-002 1.25543668e-003
