<?xml version="1.0"?>
<opencv_storage>
<my_svm type_id="opencv-ml-svm">
  <svm_type>C_SVC</svm_type>
  <kernel><type>LINEAR</type></kernel>
  <C>1.0000000000000001e-001</C>
  <term_criteria><epsilon>2.2204460492503131e-016</epsilon>
    <iterations>10000000</iterations></term_criteria>
  <var_all>17</var_all>
  <var_count>17</var_count>
  <class_count>50</class_count>
  <class_labels type_id="opencv-matrix">
    <rows>1</rows>
    <cols>50</cols>
    <dt>i</dt>
    <data>
      1 2 4 5 6 8 9 10 15 17 19 20 21 22 23 24 27 28 29 31 35 45 49 50
      51 52 53 55 59 63 67 72 76 85 86 105 129 143 155 160 165 168 175
      195 209 210 212 218 219 230</data></class_labels>
  <sv_total>1225</sv_total>
  <support_vectors>
    <_>
      -1.86359696e-003 -6.18782733e-003 -2.98866653e-004
      -6.43048855e-003 5.60829707e-004 -3.02682724e-003 -1.61866570e-004
      -2.04327633e-003 -1.82033493e-003 -1.55639183e-003
      -1.73193328e-002 1.55412569e-003 -1.32440822e-003 -3.29757662e-004
      1.14902563e-003 -1.45236519e-003 -1.58200972e-002</_>
    <_>
      -8.58818879e-004 -2.84220255e-003 -7.01755635e-005
      -2.87123327e-003 -1.68295403e-003 -1.97122549e-003
      -2.23214840e-004 -3.71267251e-003 -1.35847018e-003
      -2.55848630e-003 -1.48683479e-002 5.35060652e-004 -1.76339003e-004
      2.30485806e-003 -1.83027273e-003 -5.62877301e-003 -7.11425301e-003</_>
    <_>
      -1.93465559e-003 -2.82897521e-003 -1.60881830e-003
      -2.18993262e-003 -1.13650633e-003 -1.55523361e-003
      -5.50479046e-004 -1.38914271e-003 -2.28021177e-003
      -1.86098693e-003 -9.61946696e-003 -2.97477905e-004
      -4.11115325e-004 -1.47951767e-003 -7.93161569e-004
      -2.15679477e-003 -4.01277049e-003</_>
    <_>
      -1.45940937e-003 -5.05841337e-003 -8.54751095e-004
      -4.73801373e-003 -2.99570244e-003 -4.40206844e-003
      -9.32038121e-004 -3.02804727e-003 -2.42058840e-003
      -2.25109514e-003 -1.32538453e-002 6.18590740e-004 2.44002076e-004
      -1.61898881e-003 -3.83027759e-003 -1.96029292e-003
      -1.30001986e-002</_>
    <_>
      -7.35506974e-003 -7.21063046e-003 2.62909657e-006 -4.22787713e-003
      -2.77754595e-003 2.09628837e-003 -4.23369231e-003 -3.56721546e-004
      -6.49378216e-003 4.79215942e-003 -1.16093671e-002 1.68256368e-002
      9.40224901e-003 2.78333412e-003 -4.00986290e-003 1.29100271e-002
      -1.51685094e-002</_>
    <_>
      -3.62944254e-003 -3.92009970e-003 -2.16788845e-003
      -3.22148018e-003 -1.90962921e-003 -1.97933568e-003
      -7.11774104e-004 -1.51404319e-003 -2.54305522e-003
      -1.91345077e-003 -1.08601702e-002 3.30802309e-003 3.59619292e-003
      3.63586936e-003 7.94985611e-003 -1.50478736e-003 -5.22020319e-003</_>
    <_>
      -1.13492552e-003 -2.35401629e-003 -6.99840020e-004
      -1.95003906e-003 -8.67816212e-004 -1.89773971e-003 6.93183043e-004
      -1.92090461e-003 -1.12878811e-003 4.87456346e-005 -1.01565141e-002
      1.97616755e-003 4.78458032e-003 4.98794857e-003 5.02487831e-003
      3.33216344e-003 -1.09007945e-002</_>
    <_>
      -1.71771017e-003 -2.06090813e-003 -6.10591902e-004
      -2.55249580e-003 -1.63272384e-003 -1.86781504e-003
      -4.12401219e-004 -1.45822845e-003 -1.19237532e-003
      -5.59678418e-004 -8.28870386e-003 -5.45154884e-003
      -5.29273460e-003 -8.68293084e-003 -4.06233408e-003
      -2.80492706e-003 -8.87108408e-003</_>
    <_>
      -2.31442321e-003 -1.71583984e-003 -7.51971325e-004
      -2.29516160e-003 -4.67723527e-004 -1.02586346e-003
      -5.48479671e-004 -5.85596077e-004 -1.73871743e-003
      -1.65826431e-003 -1.11940056e-002 2.33323034e-003 -1.23524165e-003
      -5.58695348e-004 5.15960448e-004 -4.11573797e-003 -3.44026368e-003</_>
    <_>
      -2.24568951e-003 -3.16660386e-003 -1.16513763e-003
      -1.30464125e-003 -1.99163536e-004 -6.06989779e-004 6.11979223e-004
      3.18976148e-004 -2.21582945e-003 -8.16941028e-005 -7.66965793e-003
      -6.49852026e-003 -7.38268602e-004 -3.87370493e-003 1.09928125e-003
      9.09332826e-004 -4.15588776e-003</_>
    <_>
      7.23586534e-004 -1.68507581e-003 5.50367346e-004 -9.91116744e-004
      -1.60867418e-003 -2.47203512e-003 -5.50414901e-004
      -1.81299762e-003 -1.00951374e-003 2.37159344e-004 -1.15558840e-002
      3.22428509e-003 1.42158044e-003 5.77453943e-003 1.83605138e-004
      2.68123788e-003 -7.78576825e-003</_>
    <_>
      9.20099148e-004 -1.85993718e-004 -5.70069766e-004 -6.24708645e-003
      1.92009538e-004 -2.71475618e-003 6.80165685e-005 -6.30076218e-004
      -3.91326059e-004 1.94779201e-003 -1.73331462e-002 3.96232214e-003
      -1.19779655e-003 2.67779385e-003 3.54131497e-003 -2.79881293e-003
      -7.35676289e-003</_>
    <_>
      -3.47086141e-004 -3.93998437e-003 7.53933564e-004 -3.54271452e-003
      6.29816554e-004 -8.73218873e-004 2.10175617e-003 -8.45731469e-004
      1.54143112e-004 -4.70726663e-004 -1.04999254e-002 -3.64531443e-004
      9.52271651e-003 2.84718536e-003 1.01796240e-002 9.18737263e-004
      -5.22126863e-003</_>
    <_>
      -1.64117757e-003 -2.45887833e-003 -9.25094821e-004
      -1.41158502e-003 -3.13127675e-004 -3.75624862e-004
      -7.34182075e-004 -1.41016580e-003 -1.99185614e-003
      -1.78781373e-003 -8.63062497e-003 1.52361800e-003 7.15218601e-004
      5.95619611e-004 3.20471823e-003 -1.73801952e-003 -4.26996592e-003</_>
    <_>
      -2.43028597e-004 -1.47178536e-003 -2.22845250e-004
      -1.06460217e-003 -3.61514394e-005 -9.84601575e-005 5.13652631e-004
      -1.36716044e-004 7.00514589e-004 6.47900510e-004 -4.81276074e-003
      3.81958415e-003 5.54414839e-003 4.24918951e-003 5.61621785e-003
      4.92854556e-003 -1.13978155e-003</_>
    <_>
      -4.52831940e-004 -2.65677739e-003 -1.97397801e-003
      -4.15024860e-003 -1.52372278e-003 -3.46589368e-003
      -1.12354604e-003 -3.62173468e-003 -2.58771610e-003
      -1.80462876e-003 -1.21774385e-002 5.47448220e-003 1.77426799e-003
      3.71248415e-003 6.18440332e-003 -1.41538435e-003 -8.26661568e-003</_>
    <_>
      -1.51162513e-003 -2.06471514e-003 -1.52687880e-003
      -4.90440754e-003 -2.82235164e-003 -4.41788463e-003 2.56848929e-004
      -5.91237214e-004 -1.32635306e-003 3.63391545e-003 -1.12885404e-002
      5.59667405e-003 1.37316342e-002 5.29055763e-003 3.63139133e-003
      1.46074099e-002 -3.74211324e-003</_>
    <_>
      -1.35738170e-003 -1.80131942e-003 -7.71411927e-004
      -2.64865276e-003 -7.88151403e-004 -1.46428018e-003
      -5.91044838e-004 -1.49574154e-003 -2.35531060e-003
      -1.55321276e-003 -9.47485585e-003 -3.38807143e-003 1.24816503e-003
      -1.23754086e-003 6.37527835e-003 -3.86666623e-003 -6.32215757e-003</_>
    <_>
      -5.86656295e-003 -2.95395288e-003 2.05524522e-003 -5.69011178e-003
      -1.24368060e-004 -5.95150469e-003 4.19216137e-003 -3.11725610e-003
      1.24517479e-003 1.92715076e-003 -1.58406496e-002 1.07633253e-003
      6.87792711e-003 4.14944347e-003 1.69668067e-003 3.43390438e-003
      -2.23076008e-002</_>
    <_>
      -4.47225897e-003 -4.33111796e-003 -6.07181573e-004
      -3.43560381e-003 -2.06904276e-003 -2.57770671e-003 3.59229802e-004
      -2.84186099e-003 -2.11059535e-003 -3.48136807e-003
      -1.31267430e-002 1.58334640e-003 5.81296068e-003 -1.86190987e-003
      -1.78245758e-003 -3.67435371e-003 -1.03734713e-002</_>
    <_>
      -2.67621037e-003 -4.71926527e-003 3.86376074e-003 -3.70241352e-003
      3.00987414e-003 8.75411090e-004 5.12271235e-003 -4.81593961e-005
      2.43827095e-003 1.99441356e-003 -1.19838435e-002 -8.42627976e-003
      6.68731052e-003 1.32307978e-002 1.73644070e-002 3.96618387e-003
      -1.55983097e-003</_>
    <_>
      -2.06086715e-003 -2.75766128e-003 -2.38259393e-003
      -4.46680095e-003 -1.53330958e-003 -2.34669936e-003
      -9.13455035e-004 -1.45665114e-003 -1.28233177e-003
      -1.06749777e-003 -1.30230580e-002 -4.51867469e-003
      -2.15358872e-004 -3.41105042e-003 3.15158657e-004 -3.45708593e-003
      -5.79949236e-003</_>
    <_>
      -5.21685043e-003 -5.63479913e-003 2.11102175e-004 -2.39474140e-003
      -1.54157891e-003 -2.22114776e-003 8.34294362e-004 -1.94375601e-003
      -2.22017686e-003 -7.06917606e-004 -9.39546153e-003
      -9.30819474e-003 7.13739637e-003 5.79725672e-003 4.16251691e-003
      8.48136842e-004 -8.13543145e-003</_>
    <_>
      -7.49704568e-003 -7.05159875e-003 -8.34253617e-004
      -3.68201756e-003 -7.49655941e-004 -2.59241601e-003
      -1.01367303e-003 -2.47253780e-003 -3.72180925e-003
      -1.31898629e-003 -1.50397038e-002 7.48293847e-003 2.09293235e-003
      7.56158913e-003 4.11203504e-003 1.19238254e-003 -3.30147077e-003</_>
    <_>
      -1.89269497e-003 -2.14513671e-003 -3.29923554e-004
      -1.62421004e-003 -1.03795610e-003 -1.18897238e-003
      -8.59644148e-004 -1.58272230e-003 -2.26231781e-003
      -1.34851271e-003 -8.29318259e-003 -2.65936228e-003 2.89881835e-004
      1.69876695e-003 4.32325806e-003 -3.13863182e-003 -4.48589819e-003</_>
    <_>
      -9.18999221e-003 -7.76189053e-003 -1.55758881e-003
      -3.50249908e-003 -3.06324894e-003 -3.24022025e-003
      -1.55943143e-003 -1.96950394e-003 -4.72201314e-003
      -2.88990070e-003 -1.03813680e-002 4.71622450e-003 8.36763903e-003
      3.58548504e-003 5.54024940e-003 -2.51243822e-003 -1.19304406e-002</_>
    <_>
      -3.82305263e-003 -5.65344328e-003 -1.26553793e-003
      -7.56314304e-003 -2.80620088e-003 -3.94705357e-003
      -1.19726732e-003 -4.67982423e-003 -4.22668876e-003
      -6.80467347e-004 -1.59543101e-002 4.79948148e-003 3.67647363e-003
      8.24806187e-003 9.97712184e-003 3.41894547e-003 -1.24656893e-002</_>
    <_>
      -6.97288942e-003 -7.63975689e-003 -5.65068389e-004
      -4.30007279e-003 -2.43295403e-003 -7.36607844e-003 4.49692190e-004
      -3.59111954e-003 -2.47787102e-003 1.78199844e-004 -9.71182808e-003
      -6.51398487e-003 3.97369592e-003 6.26212405e-003 3.78880790e-003
      -3.12545081e-003 -1.48481634e-002</_>
    <_>
      -1.20269251e-003 -9.68616689e-004 -9.23590967e-004
      -1.40753924e-003 -9.60202364e-004 -1.17182627e-003
      -4.77352121e-004 -7.60682626e-004 -8.30343517e-004
      -6.86491432e-004 -7.04138214e-003 1.18911278e-003 -2.72658101e-004
      -1.58982910e-003 -1.67274603e-003 -1.35429250e-003
      -2.61177239e-003</_>
    <_>
      -3.58982896e-003 -4.45331214e-003 -9.31937422e-004
      -2.62469356e-003 -3.33907577e-004 -2.40014214e-003
      -6.60726801e-004 -2.22432427e-003 -2.08695629e-003
      -8.05967022e-004 -1.08958464e-002 5.06732753e-003 2.46621040e-003
      3.95619590e-003 5.19218901e-003 -3.93105038e-005 -7.26432819e-003</_>
    <_>
      -5.84827084e-003 -5.84261632e-003 -1.51546614e-003
      -2.73881853e-003 -7.96935288e-004 -2.84884358e-003 7.51134212e-005
      -2.64827721e-003 -2.53803632e-003 -8.86089925e-004
      -1.17142517e-002 1.47829833e-003 6.78244000e-003 4.73665958e-003
      2.47775647e-003 4.87866765e-003 -1.07833063e-002</_>
    <_>
      -2.20228732e-003 -4.38939693e-004 -8.82346532e-004
      -2.94806599e-003 -1.49634189e-003 -3.30722192e-003
      -3.88927729e-004 -1.72008877e-003 -1.81569508e-003
      -6.62423379e-004 -1.25197275e-002 1.63079496e-003 -3.00349458e-003
      4.11413377e-004 -9.44478263e-004 -9.04641929e-004 -6.93906611e-003</_>
    <_>
      -1.34823692e-003 -9.61574551e-004 -5.90224343e-004
      -1.74120034e-003 -3.44614498e-004 -1.29383022e-003
      -1.64421886e-004 -1.03534467e-003 -6.55687705e-004
      -8.75134720e-004 -8.93739052e-003 2.33465945e-003 1.10746885e-003
      -1.07001874e-003 1.84328284e-003 -1.73646153e-003 -3.62278009e-003</_>
    <_>
      -1.45328045e-003 -2.59855948e-003 -3.35405319e-004
      -1.27402123e-003 -7.91959930e-004 -1.68886385e-003
      -1.75314839e-004 -1.47437875e-003 -1.32846122e-003
      -7.37286697e-004 -9.03852098e-003 8.28965218e-004 3.30201838e-005
      9.69724671e-004 2.18957616e-003 -1.70444883e-003 -5.21275355e-003</_>
    <_>
      6.60473597e-004 -2.82993633e-003 1.94632087e-003 -6.22260151e-003
      2.28956435e-003 1.88542984e-003 3.98674002e-003 -2.10288470e-003
      4.07221075e-003 2.29581492e-003 -9.64299031e-003 4.69725113e-003
      6.29589427e-003 1.08308587e-002 9.96595435e-003 1.41983032e-002
      -1.36625767e-003</_>
    <_>
      -9.04840603e-003 -9.01124626e-003 -5.77515829e-003
      -1.05064278e-002 8.09095218e-004 -3.11584258e-003 6.93919882e-003
      3.62343795e-004 2.32583121e-003 7.98572786e-003 -7.16254534e-003
      9.86883882e-003 1.90287977e-002 3.20503861e-003 2.25284602e-003
      8.84712022e-003 -8.57183617e-003</_>
    <_>
      -1.19832833e-003 -6.00024941e-004 -6.52624236e-004
      -2.01685354e-003 -4.79922630e-004 -1.20086782e-003 6.16538222e-004
      -1.07346405e-003 3.38230078e-004 -7.23773439e-004 -3.17474687e-003
      6.96564466e-003 8.74180719e-003 5.39183384e-003 7.29649514e-003
      6.10114681e-003 1.00658806e-004</_>
    <_>
      -1.64270843e-003 -2.21282500e-003 -8.80342501e-004
      -2.95333075e-003 -1.06871850e-003 -1.69501605e-003 1.48394459e-003
      -1.47929322e-003 3.69858637e-004 1.04202400e-003 -4.11204621e-003
      7.04238715e-004 1.23411240e-002 2.96862563e-003 6.69616042e-003
      8.59526359e-003 -3.99598386e-003</_>
    <_>
      -7.71316933e-003 -8.67860799e-004 4.41641430e-004 -3.23225511e-003
      -2.18876242e-003 -4.06294269e-003 9.00174084e-004 -1.93872547e-003
      -4.01522405e-003 1.43807847e-003 -1.45088127e-002 9.62241646e-003
      1.07899653e-002 7.85891805e-003 6.39684964e-003 2.94610392e-003
      -9.51525941e-003</_>
    <_>
      1.07294936e-002 9.02671833e-003 9.63044353e-004 -3.93705722e-003
      -8.28043278e-003 -6.37013465e-003 6.57343073e-003 -3.92085453e-003
      9.64679942e-003 5.02499798e-003 -1.42372549e-002 3.11233122e-002
      3.52097861e-002 -1.74375679e-002 2.62824376e-003 -1.01847919e-002
      7.22896587e-003</_>
    <_>
      -4.75924090e-003 -9.02866758e-003 1.85520598e-003 -7.92161468e-003
      -7.74354034e-004 -6.54661749e-003 2.98278872e-003 -4.32362594e-003
      2.90414295e-003 2.73049460e-003 -1.59059241e-002 1.97207201e-002
      1.00719193e-002 5.29221084e-004 4.14264388e-003 8.80534016e-003
      -6.38549728e-003</_>
    <_>
      -5.95950102e-003 -6.36430783e-003 -2.79293908e-003
      -8.34432896e-003 -3.02778976e-003 -5.71750430e-003
      -1.56235835e-003 -6.68026274e-003 -1.16021780e-003 5.93527686e-003
      -1.52126253e-002 1.25478776e-002 5.16942609e-003 9.45745874e-003
      5.58260409e-003 1.94437131e-002 -1.10978782e-002</_>
    <_>
      -1.07341364e-003 -2.58695916e-003 -3.55655910e-004
      -1.55334664e-003 -1.87225419e-003 -1.03834656e-003
      -1.10517233e-003 -1.58233312e-003 -1.36043865e-003 8.41739384e-005
      -5.89806912e-003 4.81318496e-003 7.60840159e-003 7.56621221e-003
      7.59524526e-003 2.01429660e-003 -4.22210759e-003</_>
    <_>
      -1.11924182e-003 -2.57721567e-003 -6.90860499e-004
      -2.17465963e-003 1.13701703e-004 1.46808405e-003 1.48886684e-004
      -4.63867211e-004 -3.32883152e-004 3.74986848e-005 -8.56642704e-003
      2.28434568e-003 8.27194005e-003 8.28389660e-004 9.43261199e-003
      1.96251809e-003 -3.48313316e-003</_>
    <_>
      -2.52996408e-003 -4.61836811e-003 -1.05635228e-003
      -2.61822669e-003 3.24661436e-004 -5.04230731e-004 1.64923491e-003
      1.30049330e-005 8.92352429e-004 1.64157851e-003 -2.39537982e-003
      1.91519421e-003 1.25703160e-002 -1.37485960e-003 8.73827189e-003
      4.46537556e-003 6.32648123e-004</_>
    <_>
      -1.87238283e-003 -2.07424862e-003 7.18659896e-004 -2.10627145e-003
      3.34310840e-004 1.56395166e-004 1.81468483e-003 1.02294012e-004
      1.77099579e-003 1.11308740e-003 -4.11332678e-003 -1.39772135e-003
      9.81133990e-003 7.05387909e-003 9.37952287e-003 6.48756698e-003
      4.78555710e-004</_>
    <_>
      -1.81416282e-003 -3.38004739e-003 1.83962416e-004 -1.77763880e-003
      7.84799849e-005 -4.15172486e-004 1.54717907e-003 -8.22209346e-004
      9.40483587e-004 1.90636411e-003 -3.99636663e-003 7.71772247e-005
      1.10818446e-002 2.73823016e-003 8.09736270e-003 9.59882513e-003
      -9.68642475e-004</_>
    <_>
      -1.95636158e-003 -1.63764355e-003 8.48722819e-004 -1.32713676e-003
      7.92109757e-004 5.01808478e-004 1.89128111e-003 2.04859331e-004
      7.97901128e-004 1.62604032e-004 -1.54400268e-003 -1.97910541e-003
      9.21329111e-003 4.28149058e-003 1.17581561e-002 3.19444854e-003
      -1.91536470e-004</_>
    <_>
      -2.38444796e-003 -2.06969818e-003 3.74596595e-004 -1.11040263e-003
      7.10754248e-004 -2.96970305e-004 1.12713038e-004 -8.93271761e-004
      -1.40675297e-003 -1.39308081e-003 -7.41926627e-003
      -1.38791290e-003 2.20713811e-003 5.52655524e-003 6.56511402e-003
      -7.50458334e-004 -5.76649187e-003</_>
    <_>
      -1.65968516e-003 -1.05452323e-002 -4.82260063e-003 1.40483829e-003
      -1.90014616e-002 -5.02009178e-003 5.16938453e-004 -1.96256619e-002
      8.46681371e-003 -5.00877621e-003 -2.32114978e-002 -1.40487682e-002
      2.30859127e-002 2.42720023e-002 -7.73716439e-003 -3.77161079e-003
      1.00679789e-002</_>
    <_>
      -6.17703702e-003 -8.06701742e-003 -7.78083084e-003
      -3.06847109e-003 -5.60804596e-003 -3.48162581e-003
      -1.75223860e-003 -3.13963438e-003 -5.69525268e-003
      -4.49517975e-003 -1.80178043e-002 -3.59223923e-003 6.43732585e-003
      -2.43492331e-003 8.21412948e-004 2.01192312e-003 -2.97659845e-003</_>
    <_>
      1.84676296e-003 -1.28843794e-002 -9.22678784e-003 -1.90126197e-003
      -3.62159833e-002 -2.52138413e-002 -8.08325410e-003
      -1.53902713e-002 -8.25517904e-003 -9.80645791e-003
      -1.51185167e-003 -1.48817999e-002 3.25412787e-002 -2.21987860e-003
      -2.86641102e-002 4.49329102e-003 -2.09453255e-002</_>
    <_>
      -1.74064527e-003 -1.46994644e-004 6.34059543e-004 4.03591478e-003
      -9.54356045e-004 4.80971020e-003 9.53281240e-004 4.75683063e-003
      -1.79435970e-004 4.52199625e-003 4.98119555e-003 1.31860310e-002
      1.20647969e-002 3.97069473e-003 7.86526967e-003 7.93860480e-003
      5.05265035e-003</_>
    <_>
      -3.82999051e-003 1.15214034e-005 -2.89817085e-003 1.82973963e-004
      -3.33079696e-003 -4.63082892e-004 -6.86041603e-004 1.33308917e-004
      -2.85492092e-003 -1.98262464e-003 -1.91697478e-003 1.08419685e-002
      8.58380552e-003 7.65831163e-003 1.41398031e-002 -2.52189377e-004
      4.22721170e-003</_>
    <_>
      -1.73530367e-003 1.54569757e-003 -1.58076733e-003 3.41061014e-003
      -3.42311920e-003 -1.28440605e-003 2.48397002e-003 -2.53696390e-003
      -5.37208864e-004 2.28608423e-003 -1.00962622e-002 -1.08987413e-004
      1.69718806e-002 1.40475137e-002 1.35398228e-002 1.04777338e-002
      -9.07111913e-003</_>
    <_>
      -1.00329693e-003 4.13903414e-004 -3.00797471e-003 9.84002370e-004
      -5.05641801e-003 -3.85186169e-004 6.90505840e-005 3.56767181e-004
      2.23517395e-003 2.08360027e-003 4.94059082e-003 -1.77872833e-002
      -3.16130673e-003 -2.21779272e-002 -2.20185588e-003 4.67258645e-003
      -2.06727814e-003</_>
    <_>
      -1.07186697e-002 -3.70561215e-003 -5.24250045e-003
      -2.22391542e-003 -4.86743078e-003 -7.10379914e-004
      -3.00720194e-003 1.69406849e-004 -3.59156937e-003 -5.18924976e-003
      -2.69444715e-002 1.26510561e-002 -2.22604227e-004 7.19686085e-003
      5.86703885e-003 -8.26502591e-003 3.45199578e-003</_>
    <_>
      -2.83491961e-003 -3.79167404e-003 -2.11372832e-003 7.25596503e-004
      -3.01393186e-004 4.63098171e-004 1.46355340e-003 1.69760827e-003
      -3.31748230e-003 5.86608541e-004 -6.42531598e-003 -1.31248282e-002
      -3.11303767e-004 -5.16141346e-003 4.09535365e-003 3.98839870e-003
      -1.06149330e-003</_>
    <_>
      4.24137991e-003 2.13579880e-003 1.40923634e-003 4.01231693e-003
      -5.36453864e-003 -4.03906079e-003 -1.50237640e-003
      -2.87637324e-003 -8.29705095e-004 2.47650337e-003 -1.55890603e-002
      6.49962621e-003 5.96000301e-003 1.58573575e-002 -1.74906361e-003
      8.54653958e-003 -4.08128556e-003</_>
    <_>
      1.02574918e-002 1.79652870e-002 -4.26176842e-003 -1.04680303e-002
      -5.62095502e-003 -6.94714906e-003 0. 5.98421786e-003
      9.96762421e-003 1.55925257e-002 -2.10201591e-002 1.79342907e-002
      -1.38666108e-003 1.05185071e-002 1.60055254e-002 -1.56797830e-003
      1.65627860e-002</_>
    <_>
      2.29013851e-003 1.46843982e-003 1.44875958e-003 5.91831282e-004
      6.97857060e-004 1.59915315e-003 2.40625720e-003 1.05962565e-003
      -3.12445132e-004 -1.22953078e-003 -4.41904413e-003 8.98828730e-003
      1.12737082e-002 8.59952532e-003 1.24007082e-002 -2.11686664e-003
      5.01882890e-003</_>
    <_>
      -3.99364810e-003 -5.18816756e-003 -2.79896799e-003
      -2.65535404e-004 -1.41448947e-003 6.26409659e-004 -2.09568487e-003
      -2.85822083e-003 -3.61040258e-003 -3.27289011e-003
      -1.22209061e-002 -2.68487405e-004 4.00774553e-003 4.86658607e-003
      8.64033774e-003 3.27009999e-004 -4.22042422e-003</_>
    <_>
      4.90423350e-004 4.90195642e-004 2.07406149e-004 6.24659879e-004
      9.22871841e-005 6.30971743e-004 4.84068994e-004 5.74254140e-004
      6.72582886e-004 6.79324905e-004 4.79457638e-004 4.56095301e-003
      4.69658803e-003 4.39488143e-003 4.95767826e-003 3.71761620e-003
      1.89266820e-003</_>
    <_>
      1.40394107e-003 4.00620652e-003 -2.79605435e-003 4.79552284e-004
      -4.32650093e-003 -4.25353041e-003 -3.21188848e-003
      -4.04561870e-003 -4.37842822e-003 -3.82112456e-003
      -2.08499259e-003 1.95666309e-002 1.49151054e-003 1.49868885e-002
      5.24687581e-003 -3.87201947e-003 8.75764759e-004</_>
    <_>
      1.12328918e-004 2.97687715e-003 -1.27924152e-003 6.51832379e-004
      -2.61478173e-003 -4.80735413e-004 6.17616519e-004 1.40450895e-003
      9.99800512e-004 3.55687574e-003 4.41841921e-003 5.49682928e-003
      1.08459853e-002 1.12480123e-003 1.81306095e-003 1.31530501e-002
      9.17011593e-003</_>
    <_>
      -3.62179917e-003 -8.98571685e-004 -5.04697394e-003
      -1.78176747e-003 -5.86180575e-003 -3.13389767e-003
      -3.24783055e-003 -4.23135469e-003 -6.31228369e-003
      -4.74487431e-003 -1.24021703e-002 -1.65290479e-002 4.27755201e-003
      -4.26624576e-003 1.31733511e-002 -1.09008653e-002 -4.51774476e-003</_>
    <_>
      -3.10861431e-002 4.95831631e-002 1.00347446e-003 1.95238218e-002
      -2.62345131e-002 -2.63331197e-002 2.73810755e-002 -6.48539513e-003
      3.63285579e-002 2.78659407e-002 -5.48863271e-003 -8.50023422e-003
      2.65495218e-002 -9.79351252e-003 -1.61135215e-002 -4.07584663e-003
      -2.09550243e-002</_>
    <_>
      -9.96115245e-003 -7.97117874e-003 -6.90825609e-003 7.93940388e-003
      -1.28283277e-002 3.57994158e-003 1.63099170e-003 -1.01995012e-002
      -1.24000339e-003 -1.56107005e-002 -9.90144536e-003 1.47783868e-002
      2.54261550e-002 -1.13625126e-002 -2.09997687e-002 -1.54045667e-003
      -2.74241989e-004</_>
    <_>
      8.49520322e-004 2.66747805e-003 2.39248062e-003 2.59898347e-003
      1.38420344e-003 2.20788806e-003 2.25146697e-003 1.94719702e-003
      1.49605144e-003 1.47513335e-003 7.15575973e-003 1.68867898e-003
      4.57227323e-003 8.22601747e-003 8.37496389e-003 2.52644788e-003
      7.44024944e-003</_>
    <_>
      -4.47527971e-003 3.39840219e-004 -1.18814390e-002 -6.38022134e-003
      -6.95111835e-003 -3.16112768e-003 -4.06542420e-003
      -2.12722085e-003 6.55080541e-004 1.15175173e-003 -2.05204189e-002
      -1.99781395e-002 1.14453873e-002 -3.28690396e-003 1.95984170e-002
      -3.72257666e-003 3.00325174e-003</_>
    <_>
      -6.49546646e-003 -2.82432465e-003 6.38397818e-004 2.82035186e-003
      -3.04788910e-003 -6.62482576e-004 1.21913326e-003 -1.31048739e-003
      -2.05967948e-003 2.72386329e-004 1.93721626e-003 -1.83896162e-002
      1.16555300e-002 9.67431534e-003 4.62247152e-003 1.45973428e-003
      2.82498030e-003</_>
    <_>
      -1.51004409e-002 -8.41008034e-003 -4.34434135e-003 5.29530284e-004
      -4.73468192e-003 -4.06764029e-003 -3.56025691e-003
      -2.77406536e-004 -2.77142087e-003 -4.34100337e-004
      -1.50585109e-002 1.44782318e-002 8.96382518e-003 1.17325354e-002
      4.12254455e-003 4.24325845e-004 1.45093054e-002</_>
    <_>
      -4.03758837e-003 -2.90475250e-003 -1.37752423e-003
      -2.87772215e-004 -2.89055309e-003 -1.14568253e-003
      -1.91674789e-003 -2.48917285e-003 -3.38150724e-003
      -1.64677633e-003 -8.92448891e-003 -9.77276359e-003 2.95911543e-003
      4.03330708e-003 1.00985225e-002 -2.83714454e-003 -2.36674957e-003</_>
    <_>
      -2.12101210e-002 -3.58658982e-003 -6.49614027e-003 4.87074209e-003
      -1.55039383e-002 -3.32233915e-003 -5.69848344e-003
      -4.18080669e-003 -1.37727559e-002 -1.00978967e-002 5.85035747e-003
      1.35167139e-002 2.71434020e-002 -9.30262078e-003 5.80675947e-003
      -4.49877512e-003 3.44236009e-003</_>
    <_>
      -9.74958949e-003 3.75388702e-003 -1.28958356e-002 -6.06259564e-003
      -1.99048016e-002 -6.65619876e-003 -1.01979291e-002
      -1.62863899e-002 -1.69318784e-002 -9.47477203e-003
      -2.01136358e-002 1.61694959e-002 1.05670989e-002 1.05213607e-002
      2.36198604e-002 2.41702073e-003 2.78329551e-002</_>
    <_>
      -1.76451318e-002 -3.82218300e-003 -2.32020416e-003 6.99868053e-003
      -1.20491991e-002 -1.63115039e-002 3.31890624e-004 -5.59446355e-003
      -4.33155149e-003 5.23637841e-003 1.59187652e-002 -2.71102786e-002
      8.29160027e-003 1.66747794e-002 1.31948027e-005 -1.95262004e-002
      -4.64431150e-003</_>
    <_>
      -2.30234955e-003 -1.14938000e-003 -2.59751268e-003
      -1.87722663e-003 -2.57649552e-003 -1.72366609e-003
      -7.34546047e-004 -8.71282769e-004 -3.65890533e-004
      -5.75201120e-004 -1.03591746e-002 3.49446642e-003 2.18937383e-003
      -3.96378152e-003 -2.64145155e-003 1.12488621e-003 -1.98090635e-003</_>
    <_>
      -1.01662809e-002 -6.90755295e-003 -4.49346332e-003
      -1.00753910e-003 -2.13445700e-003 -6.29115012e-003
      -5.23501728e-003 -5.27733378e-003 -3.12695908e-003
      -1.81840485e-004 -1.12140086e-002 1.93084013e-002 -1.12231018e-003
      6.92125410e-003 1.52370762e-002 1.13604963e-003 -8.76041711e-004</_>
    <_>
      -1.17188850e-002 -4.01813816e-003 -4.48288396e-003 2.54633697e-003
      -3.79149150e-003 -1.05096726e-003 1.22483599e-003 -2.26267846e-003
      -1.57842878e-003 5.21808804e-004 -4.80648683e-004 7.25358399e-003
      2.01745294e-002 4.94904025e-003 4.06903308e-003 1.99525952e-002
      1.66406704e-003</_>
    <_>
      -7.56113417e-003 8.07739515e-003 -7.02305650e-003 -4.36617900e-003
      -1.05555411e-002 -1.13870697e-002 1.01129866e-004 -2.61105015e-003
      6.83381659e-005 2.41707405e-003 -2.23893840e-002 1.05369342e-002
      1.83540087e-005 2.29412597e-003 1.51016691e-003 1.86696686e-002
      -4.59261844e-003</_>
    <_>
      -2.14796304e-003 -2.35430984e-004 -2.10405281e-003
      -1.65241316e-003 -1.59782881e-003 -1.94825395e-003
      -3.43602849e-004 -1.67063833e-003 7.75179709e-004 -1.07846886e-003
      -1.27911018e-002 6.64816285e-003 4.40863892e-003 -3.87694524e-003
      5.87197253e-003 -2.00096954e-004 -2.98239698e-004</_>
    <_>
      -3.28697381e-003 -6.54656021e-003 -2.15984625e-003
      -4.92117018e-004 -3.78868845e-003 -4.42025997e-003
      -9.86890518e-005 -3.62200662e-003 -9.12297575e-004
      -3.76944634e-004 -1.53210768e-002 1.90478422e-005 5.80334011e-003
      3.70860146e-003 5.17186150e-003 1.75378181e-003 -7.43489387e-003</_>
    <_>
      2.05753651e-003 2.53692036e-003 1.57951657e-003 9.83668957e-004
      1.10408431e-003 2.19734595e-003 1.73971325e-003 8.49003321e-004
      1.88632018e-003 1.43126689e-003 5.24197286e-003 5.23700286e-003
      3.85355926e-003 7.56739685e-003 5.68411592e-003 5.04255295e-003
      5.50021650e-003</_>
    <_>
      -4.19386569e-003 3.65469023e-004 -4.02636547e-003 -1.13472086e-003
      -8.50639713e-004 1.06107385e-003 4.15159017e-003 2.10064696e-003
      3.25656659e-003 5.42719848e-003 1.03581343e-002 8.11714772e-003
      1.16641922e-002 -1.52774865e-003 -1.13098533e-003 8.15066602e-003
      1.10118706e-002</_>
    <_>
      -2.71888537e-004 6.73860661e-004 -3.66263375e-005 7.09954766e-004
      -2.21039023e-004 2.66200863e-004 4.87776822e-004 2.56338739e-004
      5.47092059e-004 -5.97908584e-005 2.79741525e-003 5.97759848e-003
      5.14462171e-003 4.60593542e-003 4.55821678e-003 3.66720185e-003
      3.19879688e-003</_>
    <_>
      2.33209590e-004 1.50845153e-003 1.33943060e-004 7.87353900e-004
      -4.11604240e-004 2.17117136e-004 1.08642573e-003 4.13399335e-004
      5.69859752e-004 1.04756420e-003 4.90099005e-003 3.60794459e-003
      8.38051643e-003 3.88708874e-003 5.15153678e-003 5.56946918e-003
      2.66825431e-003</_>
    <_>
      -8.04543553e-004 5.35148103e-003 1.18725409e-003 3.14818649e-003
      -8.39321699e-004 4.11157380e-004 1.07912242e-003 1.72558066e-003
      -3.01700900e-004 1.65991858e-003 2.86330376e-003 9.79781523e-003
      9.63068567e-003 7.24021764e-003 5.69775654e-003 1.72732316e-003
      4.89279069e-003</_>
    <_>
      2.61325319e-003 4.92738280e-003 1.00662257e-003 3.30740958e-003
      -4.63108940e-004 1.16962683e-003 8.90691183e-004 1.48285867e-003
      1.29950489e-003 1.04141305e-003 9.36474837e-003 7.44182197e-003
      4.88826586e-003 1.67028711e-003 1.99567177e-003 4.07626103e-005
      7.98960775e-003</_>
    <_>
      3.53019423e-004 1.54566613e-003 1.94565475e-003 2.29634927e-003
      2.74657563e-004 -3.24314024e-004 2.80371262e-003 1.48180430e-003
      2.42191227e-003 3.38676106e-003 3.89121566e-003 1.73830446e-002
      1.25455325e-002 3.86479613e-003 6.21615304e-003 2.93145981e-003
      1.03571033e-002</_>
    <_>
      5.46301075e-004 3.42535297e-003 4.19428252e-004 2.32027355e-003
      -4.65118210e-004 6.38100959e-004 2.75786551e-005 5.12116181e-004
      3.54800839e-004 2.47990340e-003 9.35986731e-003 9.43956058e-003
      3.98512231e-003 6.70987694e-003 4.05405415e-003 6.61967555e-003
      6.18964434e-003</_>
    <_>
      6.12593780e-004 9.85444523e-004 3.68110283e-004 1.29219063e-003
      -1.23353326e-003 -1.81601295e-004 -3.93968250e-004
      -2.16559012e-004 -7.91125523e-004 -8.32740916e-005 1.40540523e-003
      6.84571173e-003 6.80563366e-003 7.36962911e-003 5.24982065e-003
      1.29661534e-003 1.49287144e-003</_>
    <_>
      2.66477564e-005 1.09519006e-003 2.69251450e-005 9.20778723e-004
      2.42723894e-004 2.84480467e-003 2.97376537e-004 7.97313231e-004
      -1.34588743e-004 3.21866857e-004 -8.53172038e-004 3.52910487e-003
      9.78249032e-003 3.06932256e-003 1.12412889e-002 2.68782140e-003
      2.52580619e-003</_>
    <_>
      -3.64084874e-004 -2.21375769e-004 -8.78848077e-005 6.11762574e-004
      3.21636064e-004 7.06330757e-004 1.09167641e-003 1.03324838e-003
      7.92923500e-004 1.24703709e-003 4.80550714e-003 3.49168922e-003
      7.69417454e-003 8.65510898e-004 5.66555886e-003 2.93071079e-003
      4.47923876e-003</_>
    <_>
      1.74410980e-005 1.21786387e-003 8.73001292e-004 9.57365148e-004
      3.25067376e-004 1.03738566e-003 1.10077241e-003 1.07051514e-003
      1.17343420e-003 9.24402731e-004 3.84112191e-003 1.91481295e-003
      5.99607639e-003 5.29873930e-003 5.76204481e-003 3.78667517e-003
      4.25456138e-003</_>
    <_>
      9.56169533e-005 7.08707666e-004 6.63643295e-004 1.27716514e-003
      2.15816995e-004 8.39096261e-004 1.02707022e-003 6.92396075e-004
      8.13811726e-004 1.40469917e-003 4.38958453e-003 2.91268690e-003
      7.02224160e-003 3.40244756e-003 5.44092339e-003 5.63450018e-003
      3.91418580e-003</_>
    <_>
      -1.60969939e-004 1.13443146e-003 8.75587517e-004 1.07987074e-003
      5.35407860e-004 1.08954171e-003 1.12834561e-003 9.96987917e-004
      6.61289960e-004 4.11430374e-004 4.37319186e-003 1.26106094e-003
      5.62884333e-003 3.70953279e-003 6.87555317e-003 2.11923290e-003
      3.41816759e-003</_>
    <_>
      -3.31504713e-003 -5.13078645e-004 6.89753564e-004 7.27315666e-004
      7.61501840e-004 1.26183056e-003 1.92852371e-004 -1.99526432e-004
      -1.79845642e-003 -1.30285718e-003 -5.03139943e-003
      -5.86684421e-003 4.29417845e-003 1.07900137e-002 1.11169284e-002
      -6.02245273e-004 -4.88990825e-003</_>
    <_>
      -1.60280894e-002 -1.04974760e-002 -1.64174400e-002
      -2.28195335e-003 -2.41074013e-003 -5.85536240e-003
      -5.58877923e-003 3.04725999e-003 -2.71763355e-002 -1.09764757e-002
      -1.28514385e-002 1.55103428e-003 2.87219463e-003 -5.69945527e-003
      4.14273748e-003 1.44165475e-002 -1.09043624e-002</_>
    <_>
      -1.78067386e-003 6.80181244e-003 -7.34774920e-004 1.73321474e-004
      -1.91231060e-003 -9.03120358e-003 -5.87004283e-003 1.21989036e-002
      -1.26284976e-002 -1.10051513e-003 1.48151405e-002 1.34595586e-002
      6.91918563e-003 -2.04225220e-002 -1.44731607e-002 1.48508213e-002
      -3.92635837e-002</_>
    <_>
      -1.47864805e-003 -8.70024553e-004 -5.04371310e-005 1.38317817e-003
      1.18238421e-003 3.07778316e-003 6.38884318e-004 5.54515980e-003
      2.96563667e-004 4.68616001e-003 9.00045224e-003 6.78566843e-003
      5.92985377e-003 -2.05956143e-003 5.53262606e-003 1.04489336e-002
      2.13017943e-003</_>
    <_>
      -4.62413859e-003 -1.11749384e-003 -3.74647020e-003
      -1.51938538e-003 -9.47678811e-004 -4.57242219e-004
      -6.81754842e-004 3.81586561e-003 -2.44459603e-003 5.28921490e-004
      6.45020371e-003 9.24684387e-003 6.63138134e-003 1.49744190e-003
      1.58502124e-002 7.60026649e-003 2.93716276e-003</_>
    <_>
      -1.84256618e-003 1.46125152e-003 -1.92991202e-003 7.28679879e-004
      2.38141185e-003 -4.43393947e-004 2.99997535e-003 4.99079749e-003
      3.73036513e-004 7.05293007e-003 -1.37390243e-003 -1.76698959e-003
      1.26072876e-002 3.20597854e-003 1.71936210e-002 1.91944558e-002
      -1.27894487e-002</_>
    <_>
      -1.52936380e-003 1.43347098e-003 -7.93483981e-004 6.21168118e-004
      1.31638997e-004 8.68520932e-004 1.39519630e-004 4.41277446e-003
      6.72933122e-004 3.37146223e-003 9.58371907e-003 -4.77886107e-003
      -6.60908921e-003 -1.89160723e-002 -2.21079332e-004 6.09047478e-003
      -4.78969654e-003</_>
    <_>
      -1.83532126e-002 9.40022990e-003 -3.64572136e-003 -3.98047065e-004
      9.06158611e-003 4.76012891e-003 -4.56830440e-003 1.60580818e-002
      -1.60691999e-002 -5.57182031e-003 -1.74907092e-002 2.23563835e-002
      -9.72478092e-003 -1.67480158e-003 1.87059920e-002 -4.24007839e-003
      8.38738214e-003</_>
    <_>
      -2.71965913e-003 -2.99210381e-003 -1.47853978e-003 1.44477654e-003
      1.94272376e-003 1.29727554e-003 1.75494293e-003 4.23500035e-003
      -3.87309236e-003 1.81586423e-003 3.48095229e-004 -1.11516137e-002
      -8.95585166e-004 -5.17024007e-003 6.92498963e-003 8.14040191e-003
      -1.98249565e-003</_>
    <_>
      5.64635871e-003 2.03662203e-003 4.56977199e-004 2.54197815e-003
      -2.36829300e-003 -5.70834707e-003 -2.32862704e-003 3.11268028e-003
      -1.99375689e-004 8.59187543e-003 -1.27634164e-002 9.97329131e-003
      5.86774724e-004 1.14558963e-002 -1.72487897e-004 2.31815036e-002
      -8.96944199e-003</_>
    <_>
      6.25785114e-003 1.57177933e-002 -1.77340989e-003 -9.99825727e-003
      6.40081009e-003 -1.77131011e-003 -6.21023646e-004 1.29989060e-002
      2.11378396e-003 1.44691383e-002 -1.86856996e-004 1.28595382e-002
      -1.67398099e-002 -1.25299878e-002 1.42708644e-002 4.82970756e-003
      7.53113627e-003</_>
    <_>
      3.01196217e-003 9.62870894e-004 9.94457980e-004 -1.68534985e-003
      4.64463420e-003 2.40586512e-003 3.14210705e-003 6.44978695e-003
      -8.34350416e-004 6.94212038e-004 7.44596182e-004 1.28371436e-002
      1.10005969e-002 5.23823546e-003 1.81737375e-002 4.13267082e-003
      4.99292882e-003</_>
    <_>
      -6.61045127e-003 -6.02979725e-003 -3.29044973e-003 5.06464334e-004
      1.62755803e-003 2.14682752e-003 -4.02991381e-003 -1.34089089e-003
      -8.88255239e-003 -4.72060079e-003 -1.12047438e-002
      -2.62901740e-004 4.15254006e-004 6.46394771e-003 1.37397172e-002
      2.88563897e-003 -8.53868108e-003</_>
    <_>
      3.75233125e-004 2.64131726e-004 7.75612789e-005 2.84625043e-004
      5.82023058e-004 6.21935527e-004 4.81192255e-004 1.25484192e-003
      7.68614234e-004 1.16191211e-003 2.07405211e-003 4.01032297e-003
      4.10288945e-003 3.02405073e-003 4.98162257e-003 5.11278864e-003
      1.54870644e-003</_>
    <_>
      -1.08249334e-003 5.81014901e-003 -4.63454053e-003 -3.29348329e-003
      -9.50818649e-004 -7.55633367e-003 -6.70811720e-003 1.16062013e-003
      -9.51600261e-003 -2.50019971e-003 6.43980876e-003 2.76867412e-002
      -1.02685736e-002 1.19802020e-002 7.57098058e-003 5.18439664e-003
      -2.07656017e-003</_>
    <_>
      2.93309567e-005 1.84694596e-003 -9.67276283e-004 -1.76443573e-004
      1.66414378e-004 1.76510603e-005 6.71299233e-004 3.15762218e-003
      6.85977226e-004 2.82767112e-003 6.19574171e-003 3.11971968e-003
      6.74555218e-003 -2.28101644e-003 2.65973085e-003 1.17031951e-002
      5.62671525e-003</_>
    <_>
      -4.16436465e-003 1.03579015e-002 -2.01790058e-003 4.46322560e-003
      4.60466254e-004 -2.20880751e-003 -4.96318843e-003 1.77384948e-003
      -1.79279521e-002 -6.29045116e-003 4.73035360e-003 -1.77931506e-002
      -2.28037336e-003 -5.01700165e-003 1.69251487e-002 -1.82518419e-002
      -1.37243699e-002</_>
    <_>
      -1.91971082e-002 2.02967990e-002 6.81801559e-003 1.11877767e-003
      1.36035839e-002 -8.04631040e-003 1.07891988e-002 1.55881494e-002
      4.40641306e-003 1.59156118e-002 1.87552683e-002 6.16421318e-003
      1.77275820e-003 -2.74635423e-002 3.76579678e-003 -6.64789509e-003
      -2.26241983e-002</_>
    <_>
      -1.27455341e-002 1.71269209e-003 -3.62417893e-003 1.18876584e-002
      -1.04175555e-003 5.35185961e-003 3.34297889e-003 1.83175958e-003
      -8.23066756e-003 -1.18875066e-002 9.43420455e-003 1.23257199e-002
      9.33312438e-003 -2.75101271e-002 -2.18300782e-002 9.31981299e-003
      -1.35758836e-002</_>
    <_>
      4.23175632e-004 1.58693758e-003 1.58186804e-003 1.27182668e-003
      2.24867836e-003 1.74781785e-003 1.78782246e-003 3.16999364e-003
      1.44033250e-003 2.33799848e-003 9.40984022e-003 2.94116646e-004
      2.46200874e-003 3.47288721e-003 6.91988459e-003 5.50018763e-003
      5.13497228e-003</_>
    <_>
      -1.42893894e-002 2.15829015e-002 -1.79979410e-002 -5.03066322e-003
      7.72592053e-003 -4.94786305e-003 -1.10470280e-002 1.79155860e-002
      -1.73590463e-002 6.44658552e-003 1.53466677e-002 -2.19969656e-002
      -1.15550309e-002 -2.32903343e-002 2.89376806e-002 -4.80887480e-003
      5.66274952e-003</_>
    <_>
      -6.97455974e-003 -4.38535865e-003 -2.65567251e-005 1.40837638e-003
      4.18736337e-004 8.13372208e-006 6.61955564e-004 2.70943646e-003
      -2.20926991e-003 2.16286606e-003 5.32445638e-003 -1.85718201e-002
      7.28627248e-003 2.81778630e-003 8.04976933e-003 6.34145644e-003
      -2.42574909e-003</_>
    <_>
      -2.30395719e-002 4.38030576e-003 -4.21446515e-003 2.38799676e-003
      8.51548277e-003 -2.20015901e-003 -7.98972044e-003 1.11096911e-002
      -1.41330874e-002 3.39136762e-003 -1.00604482e-002 3.07348035e-002
      3.08989256e-004 -8.43775488e-005 6.50153437e-004 1.00854505e-002
      2.14339420e-002</_>
    <_>
      -6.93585351e-003 -1.06030819e-003 -2.01968520e-004 1.78564514e-003
      -5.96158614e-004 -7.29896943e-004 -3.58795840e-003
      -5.40298468e-004 -8.97959992e-003 -2.24692700e-003
      -3.50691471e-003 -1.39054712e-002 -3.18025053e-003 5.44137321e-003
      1.43541340e-002 -3.70890601e-003 -4.03568055e-003</_>
    <_>
      -9.78006050e-003 -1.28704705e-003 -3.66001017e-003 5.27913871e-005
      -2.03793170e-003 -8.79305066e-004 -2.86968099e-003 4.56809159e-003
      -6.23792876e-003 -5.28170553e-004 1.96045060e-002 6.83096191e-003
      7.17107719e-003 -1.62916686e-002 3.73557513e-003 1.09036481e-002
      -1.50079885e-003</_>
    <_>
      -5.25395293e-003 8.11335910e-003 -7.98268337e-003 -7.89860543e-003
      1.25047821e-003 -9.32010473e-004 -7.42514385e-003 4.47272137e-003
      -1.38721708e-002 2.73524784e-003 2.02949215e-002 6.94769574e-003
      -1.02176303e-002 -1.90227907e-002 1.81070268e-002 2.61796080e-002
      1.33959530e-002</_>
    <_>
      -1.36588933e-002 -6.87489286e-003 -5.95691788e-004 4.91373194e-003
      2.55918666e-003 -1.70654652e-003 -2.04836266e-004 1.49960024e-002
      -5.08997869e-003 9.32261068e-003 2.99972557e-002 -6.56427210e-003
      -4.84937662e-003 7.63809134e-004 6.99826190e-003 -7.69647537e-003
      -1.86398048e-002</_>
    <_>
      -3.58843803e-003 -6.68175868e-004 -2.93731294e-003
      -1.77311874e-003 -2.17296067e-003 -2.15604412e-003
      -1.13167032e-003 5.35492552e-004 -2.04081484e-003 -6.62300678e-004
      -1.23727554e-002 7.84116890e-003 2.24170182e-003 -5.18249441e-003
      -3.26849474e-003 1.74885092e-003 -3.70585592e-003</_>
    <_>
      -9.71143506e-003 -3.50736990e-003 -4.14163386e-003
      -2.18508812e-003 4.87475842e-003 -4.79744002e-003 -5.62505377e-003
      1.23454235e-003 -4.87756124e-003 3.69240553e-003 3.49352555e-003
      1.98004059e-002 -7.74634862e-003 -3.78121645e-003 1.73556544e-002
      1.17374985e-002 -3.93650215e-003</_>
    <_>
      -5.89081272e-003 -2.36507738e-003 -2.67471164e-003
      -3.20585794e-004 8.59876804e-004 -5.20480447e-004 9.36734199e-004
      2.88900570e-003 2.57877145e-005 3.06886761e-003 7.44168414e-003
      3.44035518e-003 8.91252793e-003 -2.95870053e-003 5.04062045e-003
      1.79909542e-002 -1.38879404e-003</_>
    <_>
      -2.25763163e-003 1.81258880e-002 -3.56261386e-003 -2.59357877e-003
      1.77803231e-004 -5.48275514e-003 6.65735744e-004 5.43435058e-003
      -3.35234939e-003 5.31582115e-003 -6.92843227e-003 1.12316888e-002
      -7.01871980e-003 -8.25452618e-003 -7.54941779e-004 2.28199381e-002
      -7.31140748e-003</_>
    <_>
      -3.11418809e-003 2.68215337e-003 -1.66050985e-003 -6.56201504e-004
      6.96114032e-004 -1.73165672e-003 -5.44803741e-004 2.49162636e-004
      -4.63620789e-004 -4.35532740e-004 -9.20277648e-003 1.45376250e-002
      3.00194346e-003 -6.05060533e-003 9.56442486e-003 1.99096999e-003
      -1.65901787e-003</_>
    <_>
      -6.55496679e-003 -9.21782758e-003 -2.24870932e-003 1.41396280e-003
      -2.18718685e-003 -9.17345006e-003 -3.15678190e-004
      -3.17400903e-003 -6.68557733e-003 6.70640788e-004 -1.74951199e-002
      6.08681235e-003 4.43763332e-003 4.50809952e-003 4.79692081e-003
      1.03045963e-002 -2.00133808e-002</_>
    <_>
      1.48287939e-003 1.66235119e-003 1.05113164e-003 1.83352531e-004
      1.84106082e-003 1.80651608e-003 1.43770652e-003 2.02058139e-003
      1.75535493e-003 2.12265458e-003 7.34745292e-003 3.44174821e-003
      2.23683775e-003 3.76910041e-003 4.92327567e-003 6.95933634e-003
      3.92315444e-003</_>
    <_>
      -2.00530677e-003 -1.82988253e-004 -1.59590656e-003
      -5.29740471e-004 1.47012656e-003 1.01095322e-003 2.33156653e-003
      3.20241810e-003 1.78974413e-003 3.80148320e-003 1.10855075e-002
      4.20836825e-003 6.20475272e-003 -2.91782944e-003 2.14801799e-003
      8.28455947e-003 5.29579259e-003</_>
    <_>
      -3.37736099e-004 3.77103541e-004 -1.92573410e-004 2.44571216e-004
      3.95880954e-004 2.48371158e-004 4.59143572e-004 1.08343456e-003
      6.38533500e-004 5.35969739e-004 4.47126338e-003 5.23283565e-003
      4.20571631e-003 2.70386320e-003 4.43646777e-003 5.17097954e-003
      2.55253329e-003</_>
    <_>
      3.44927030e-005 8.88903218e-004 -7.68454411e-005 1.50265114e-004
      3.96974618e-004 1.83379641e-004 8.80895066e-004 1.35476922e-003
      6.21399318e-004 1.57291244e-003 6.28090883e-003 2.23712763e-003
      5.98811870e-003 1.24443136e-003 4.33111982e-003 6.64054044e-003
      1.69283408e-003</_>
    <_>
      -1.04668504e-003 4.60481085e-003 7.24101556e-004 2.01738207e-003
      8.11094593e-004 4.48388979e-004 1.11083803e-003 4.06125002e-003
      1.92444088e-004 3.31638777e-003 7.80425733e-003 8.05674214e-003
      8.05770978e-003 2.80262437e-003 6.09692466e-003 6.57581398e-003
      3.84617713e-003</_>
    <_>
      1.79781730e-003 3.34774167e-003 5.11714257e-004 1.86244224e-003
      6.89179171e-004 9.17105470e-004 7.07100029e-004 2.62253336e-003
      1.24302134e-003 1.86637847e-003 1.06436908e-002 4.81552398e-003
      2.76066712e-003 -1.39156985e-003 1.85615104e-003 3.19770281e-003
      5.53505123e-003</_>
    <_>
      -2.36797554e-004 1.09670917e-004 8.37814820e-004 1.30060391e-004
      2.58775591e-003 -2.07195451e-004 2.12255633e-003 4.46573319e-003
      2.34187883e-003 4.93067363e-003 1.06682852e-002 1.07683307e-002
      6.99166767e-003 -3.24292481e-003 5.32629387e-003 9.38548520e-003
      6.23844098e-003</_>
    <_>
      1.32691188e-004 1.86665717e-003 -7.69401777e-006 8.33597616e-004
      8.57659150e-004 4.59680246e-004 4.14725146e-005 2.02360121e-003
      5.17513545e-004 2.92180409e-003 1.03576016e-002 5.51149901e-003
      1.62721006e-003 1.63699687e-003 3.17298830e-003 8.17092787e-003
      3.58870812e-003</_>
    <_>
      4.78563394e-004 6.73730683e-004 1.62509677e-004 7.95739878e-004
      -3.96399206e-004 -1.88962207e-004 -4.20941040e-004 1.14205095e-003
      -6.57613331e-004 9.01821419e-004 4.76605538e-003 6.76828157e-003
      6.64463034e-003 5.71158295e-003 6.15182333e-003 4.40985197e-003
      1.07526302e-003</_>
    <_>
      -2.20694899e-004 5.03753254e-004 -2.72377627e-004 7.85267475e-005
      1.39843347e-003 2.64920201e-003 2.97407445e-004 2.39590299e-003
      1.44872320e-004 1.48985081e-003 3.04301200e-003 2.22637272e-003
      7.91935157e-003 -1.65692793e-004 1.07585229e-002 6.03881711e-003
      1.63071149e-003</_>
    <_>
      -4.18443116e-004 -4.41452954e-004 -2.24457413e-004 8.81368542e-005
      8.65926617e-004 5.73412923e-004 8.84680427e-004 1.68618606e-003
      7.73935521e-004 1.61553093e-003 5.83108934e-003 2.25361576e-003
      5.56592131e-003 -8.66674585e-004 4.71546780e-003 4.18560067e-003
      3.21613415e-003</_>
    <_>
      -1.19030679e-004 7.78334506e-004 5.95218909e-004 4.07955144e-004
      9.24037129e-004 9.09396855e-004 9.67633387e-004 1.83588034e-003
      1.16591284e-003 1.45421387e-003 5.43002505e-003 1.09348691e-003
      4.58441488e-003 2.95546860e-003 5.19552501e-003 5.22887055e-003
      3.30650178e-003</_>
    <_>
      -5.91013377e-005 2.81804445e-004 3.62971419e-004 5.87681832e-004
      8.16859771e-004 6.74662064e-004 8.27024400e-004 1.46128098e-003
      7.93838059e-004 1.77005015e-003 5.59059950e-003 1.73880102e-003
      4.94706910e-003 1.04566221e-003 4.51157801e-003 6.42345240e-003
      2.71645025e-003</_>
    <_>
      -1.07838910e-004 9.88962362e-004 7.50413397e-004 6.99188386e-004
      1.16036751e-003 1.05309102e-003 9.38163197e-004 1.56674662e-003
      5.73812518e-004 7.09466171e-004 5.37968706e-003 1.54799409e-003
      4.06377483e-003 2.40961788e-003 6.72856020e-003 2.77161784e-003
      2.45135440e-003</_>
    <_>
      -3.75064532e-003 -5.87467453e-004 7.43819051e-004 4.89264028e-004
      3.29976063e-003 1.37459929e-003 6.47773559e-005 2.15156330e-003
      -2.32182373e-003 -3.18561477e-004 1.36846537e-003 -5.36412746e-003
      1.82335149e-003 1.02236783e-002 1.47986626e-002 3.04343528e-003
      -5.54162031e-003</_>
    <_>
      9.91875026e-003 1.28241777e-002 1.27285328e-002 1.58263196e-003
      1.62547291e-003 1.31116831e-004 1.16768852e-003 1.93206081e-003
      1.65038425e-002 9.68076754e-003 1.76175237e-002 2.91389041e-003
      4.69579035e-003 -1.91933960e-002 -2.15707291e-002 -1.12036115e-003
      -9.44656134e-003</_>
    <_>
      1.17201346e-003 1.52108970e-003 1.84908812e-003 1.89045258e-003
      1.11229590e-003 2.29243073e-003 8.39470304e-004 2.34020478e-003
      2.02596816e-003 2.90523260e-003 7.60795828e-003 4.44689021e-003
      3.47263110e-003 2.53159553e-003 3.32940579e-003 4.28570760e-003
      1.87408063e-003</_>
    <_>
      5.91286051e-004 2.13668402e-003 1.02631748e-003 1.14061707e-003
      4.30618122e-004 1.11735472e-003 4.88987425e-004 1.46156445e-003
      1.59281108e-003 1.40203454e-003 7.67706195e-003 5.81605500e-003
      3.92726064e-003 5.28784888e-003 7.72643369e-003 2.75192573e-003
      2.49242759e-003</_>
    <_>
      1.71033293e-003 4.10419935e-003 4.52258810e-003 2.73637637e-003
      2.64601223e-003 2.45745108e-003 3.73842777e-003 2.47694692e-003
      7.60177802e-003 6.33947225e-003 9.53865354e-004 -5.99237811e-003
      1.04325712e-002 5.75824594e-003 1.04835834e-002 9.36161820e-003
      -3.08549125e-003</_>
    <_>
      2.38196785e-003 3.93354706e-003 2.64330371e-003 1.81165978e-003
      7.21117191e-004 1.54835917e-003 1.10261003e-003 1.50934793e-003
      4.77693276e-003 3.74803296e-003 1.20936166e-002 -4.91550192e-003
      -3.81437130e-003 -8.25154968e-003 -3.20690591e-003 3.24389222e-003
      1.84585573e-004</_>
    <_>
      -3.66896298e-003 1.50501896e-002 1.18713006e-002 2.08634115e-003
      9.29734763e-003 9.12884343e-003 2.63415207e-003 1.10416468e-002
      1.35142058e-002 8.73041339e-003 5.77716110e-003 1.49910701e-002
      -3.46931978e-003 1.38595025e-003 1.47675304e-002 -5.63232880e-003
      2.41466202e-002</_>
    <_>
      2.47032789e-004 -5.07954333e-004 1.54636137e-003 2.63410644e-003
      2.76479824e-003 2.62788520e-003 2.84956209e-003 4.14627185e-003
      3.22028563e-006 3.92211322e-003 4.78288764e-003 -1.38822766e-002
      -2.06584949e-003 -3.69925145e-003 6.01652730e-003 6.77999342e-003
      2.69412176e-005</_>
    <_>
      7.53327878e-003 5.64142363e-003 4.29468136e-003 3.03662731e-003
      2.65666720e-004 -4.16525028e-004 7.79213791e-004 1.48319488e-003
      6.18466875e-003 6.61577843e-003 2.97558657e-003 6.11902401e-003
      5.55210980e-003 9.42356512e-003 1.02849073e-004 1.15144867e-002
      -5.80163090e-004</_>
    <_>
      6.68754056e-003 9.99551918e-003 4.96689137e-003 2.05362740e-004
      3.07765976e-003 1.57327764e-003 1.27882452e-003 3.62203363e-003
      6.42126705e-003 7.28134206e-003 9.55223013e-003 7.21092336e-003
      -5.65196946e-003 3.71987117e-003 2.76581291e-003 -5.45869290e-004
      5.53077227e-003</_>
    <_>
      3.42265028e-003 2.93564470e-003 2.90572946e-003 1.30244181e-003
      2.20731040e-003 2.04395759e-003 1.71236892e-003 1.80826266e-003
      2.40207976e-003 1.41834840e-003 5.38153900e-003 5.88322151e-003
      4.49983543e-003 6.33056834e-003 6.65926980e-003 8.65434820e-004
      2.79875170e-003</_>
    <_>
      -7.38391420e-003 -1.23826684e-002 4.86067729e-003 5.03779901e-003
      3.98121309e-003 1.10477163e-002 -6.19650958e-003 -1.14829512e-002
      1.14647402e-004 2.64359522e-004 -2.13581952e-003 -6.36742124e-003
      9.16973746e-004 2.64848303e-002 2.10256539e-002 1.55483102e-002
      -6.24080515e-003</_>
    <_>
      9.27587913e-004 8.92597076e-004 7.68235419e-004 6.70123554e-004
      5.84830181e-004 7.46537524e-004 5.09340258e-004 7.36924005e-004
      1.19880470e-003 1.04195916e-003 2.68690893e-003 3.01778968e-003
      2.84196273e-003 3.16062104e-003 3.38799204e-003 3.01313191e-003
      1.30792928e-003</_>
    <_>
      3.69345397e-003 5.52357221e-003 2.74123624e-003 1.65109010e-003
      7.34253787e-004 -1.90580264e-004 -7.32468325e-004 -6.14655146e-005
      1.80500385e-003 1.36483763e-003 8.89176037e-003 1.10425660e-002
      -1.94169837e-003 9.69053991e-003 1.90969859e-003 7.14933441e-004
      1.31520163e-003</_>
    <_>
      1.67143589e-003 2.66311783e-003 1.21798739e-003 1.08228275e-003
      6.18481077e-004 8.74885591e-004 8.48371594e-004 1.53244613e-003
      2.09943322e-003 2.26582447e-003 6.58547226e-003 2.93271570e-003
      4.21295734e-003 1.96450320e-003 2.16454198e-003 5.75123588e-003
      3.71131557e-003</_>
    <_>
      8.64095520e-003 1.68413855e-002 9.07243975e-003 3.77395237e-003
      3.06902663e-003 2.92570889e-003 1.24811672e-003 -2.66113342e-003
      7.47474749e-003 1.78302778e-003 1.98972914e-002 -1.36618018e-002
      -2.41884147e-003 -7.78017752e-003 1.24483081e-002 -1.96822286e-002
      3.71096306e-003</_>
    <_>
      1.24805968e-003 1.05572231e-002 1.00134816e-002 3.06007988e-003
      4.75079380e-003 5.20796166e-004 6.08562306e-003 1.79884944e-003
      1.48728415e-002 9.72207822e-003 1.72639303e-002 -1.24333019e-003
      -2.47608311e-003 -5.25698299e-003 -4.42785677e-003
      -6.52223593e-003 -2.26844670e-004</_>
    <_>
      2.01638089e-003 1.03438292e-002 8.48562829e-003 8.86114407e-003
      1.76498236e-003 8.13226495e-003 4.71259374e-003 -3.13250843e-004
      1.15480330e-002 4.23836813e-004 1.59363784e-002 4.93772188e-003
      4.88450285e-003 -1.35051385e-002 -1.63528807e-002 9.91710112e-004
      3.05896532e-003</_>
    <_>
      1.32946274e-003 1.87595130e-003 1.85598445e-003 1.35603186e-003
      1.33172737e-003 1.34567078e-003 1.11331046e-003 1.29861408e-003
      1.81259715e-003 1.54106540e-003 6.32876530e-003 1.07451819e-003
      1.61070877e-003 3.64286336e-003 3.51718208e-003 2.16803397e-003
      2.77589331e-003</_>
    <_>
      7.17455987e-003 1.78000499e-002 5.95227955e-003 -1.24840310e-003
      6.02696557e-003 3.12200515e-003 9.19099199e-004 3.05221672e-003
      1.92975197e-002 1.25480667e-002 1.30556310e-002 -1.32485405e-002
      -4.83060395e-003 -1.02162817e-002 8.12913198e-003 -1.10845072e-002
      1.42894816e-002</_>
    <_>
      -6.22164516e-004 7.83005322e-004 3.31984228e-003 2.56331824e-003
      8.94935860e-004 1.16126833e-003 9.17921599e-004 4.07065760e-004
      2.20688060e-003 2.82016001e-003 9.08800308e-003 -1.43954484e-002
      2.22367537e-003 5.22343349e-003 1.64003496e-003 1.47200841e-003
      6.43935404e-004</_>
    <_>
      -7.27206841e-003 3.60047142e-003 8.47407524e-003 3.44722136e-003
      3.84717411e-003 -8.21288384e-004 -1.47894968e-003 1.40482897e-003
      9.51389316e-003 8.84404127e-003 4.40463331e-003 2.34975759e-002
      -8.73741880e-003 5.63587947e-003 -7.51794875e-003 -1.48359756e-003
      1.82921216e-002</_>
    <_>
      -3.61148268e-003 2.84726359e-003 6.68806443e-003 2.74519855e-003
      -1.66530628e-003 8.09658552e-004 -2.51259608e-003 -4.73046955e-003
      8.23899827e-005 3.99118988e-003 5.80603071e-003 -2.57306732e-002
      -4.52074409e-003 4.44216607e-003 1.41579211e-002 -5.80753665e-003
      4.17762203e-003</_>
    <_>
      2.26175631e-004 3.63490195e-003 3.19313956e-003 3.00658867e-003
      4.63341916e-004 1.82531518e-003 2.06440804e-004 1.65636255e-003
      2.52065877e-003 2.15187483e-003 1.72051731e-002 6.36317488e-003
      4.46857791e-003 1.40480930e-003 3.42051522e-003 3.63715505e-003
      1.91958807e-003</_>
    <_>
      4.29305946e-003 7.18137808e-003 4.49689245e-003 1.93398457e-003
      1.85696885e-003 2.56184163e-003 2.12071827e-004 7.28733838e-004
      3.93540272e-003 4.08272538e-003 1.75641663e-002 6.20879745e-003
      -5.42346679e-004 5.72436908e-003 6.25580736e-003 5.01266541e-003
      6.74456637e-003</_>
    <_>
      1.71353295e-003 3.05299787e-003 4.34306916e-003 3.44378757e-003
      1.57355750e-003 1.34321756e-003 1.46743178e-003 1.77694135e-003
      4.85069025e-003 4.61602956e-003 1.86548326e-002 -2.38521770e-003
      -2.18324759e-003 4.06735949e-003 -2.35703564e-003 -2.51976051e-003
      -8.58333369e-004</_>
    <_>
      -1.98948337e-003 1.57095375e-003 -1.01569947e-003 -2.12039216e-003
      -2.69982847e-003 -9.19295941e-004 -6.57041746e-005 1.18150446e-003
      2.96478486e-003 2.49386951e-003 -1.33227864e-002 1.59012787e-002
      6.62432658e-003 -6.70750253e-003 -5.16710011e-003 -2.45295196e-005
      -1.90914085e-003</_>
    <_>
      -9.19417434e-005 2.19740043e-003 3.47216311e-003 2.01652688e-003
      3.36999656e-003 -1.99754395e-005 -1.02183502e-003 2.51036661e-004
      4.08207532e-003 4.67947219e-003 1.19057866e-002 1.27527760e-002
      -2.91064731e-003 6.67264592e-003 9.35161766e-003 4.08203062e-003
      1.35189330e-003</_>
    <_>
      -1.60602998e-004 1.62649748e-003 1.69966195e-003 1.95498927e-003
      1.36909005e-003 1.36740552e-003 1.28277997e-003 1.16752542e-003
      3.10931914e-003 2.93315644e-003 1.04129370e-002 3.19635868e-003
      5.32761915e-003 3.67401377e-003 2.98545999e-003 8.56846943e-003
      1.23125059e-003</_>
    <_>
      2.77212588e-003 1.60817504e-002 4.86329710e-003 3.40303755e-004
      1.15932210e-003 -8.99235194e-004 3.23689007e-003 4.41596936e-003
      1.02711134e-002 1.14239724e-002 2.43179174e-003 1.18234949e-002
      -7.16442242e-003 -1.87648216e-003 -6.66484889e-003 1.44644678e-002
      2.74355116e-004</_>
    <_>
      5.72778634e-004 6.16305182e-003 2.02043401e-003 -6.52938907e-004
      1.18221191e-003 -6.74392621e-004 1.00969453e-003 -6.48094341e-004
      6.67128852e-003 2.74720206e-003 -6.98597683e-003 1.65134910e-002
      3.90732149e-003 -7.20454333e-003 8.55828542e-003 -7.06845531e-005
      9.48462635e-004</_>
    <_>
      -1.27132551e-003 -1.35407159e-002 1.77517012e-002 6.02718489e-003
      -1.66500418e-003 -1.09501556e-002 8.60210415e-003 -1.08044101e-002
      1.60523597e-002 1.90266985e-002 -1.00745168e-002 2.45115887e-002
      1.08015817e-002 6.58456935e-003 -3.78782675e-003 4.10376489e-003
      -3.03033795e-002</_>
    <_>
      1.66548579e-003 1.79311773e-003 1.50093960e-003 7.89409853e-004
      1.16158230e-003 1.34128227e-003 9.58839548e-004 8.77097889e-004
      1.83413632e-003 1.43730908e-003 5.35256276e-003 2.37944140e-003
      1.50381471e-003 3.58382077e-003 2.73640500e-003 3.01207695e-003
      2.29613553e-003</_>
    <_>
      3.26807029e-004 1.60000124e-003 2.90853321e-004 1.62332959e-004
      1.05101557e-003 1.16243877e-003 1.73782581e-003 1.67075533e-003
      3.10577475e-003 3.40260938e-003 9.11956001e-003 2.77979160e-003
      3.05219810e-003 4.99761605e-004 2.31637430e-004 4.65014437e-003
      3.51355434e-003</_>
    <_>
      6.68706896e-004 1.06376200e-003 7.02428923e-004 6.73949078e-004
      4.84784017e-004 5.47100150e-004 4.96123917e-004 5.72313264e-004
      1.17870909e-003 6.52622082e-004 3.99311166e-003 3.92835820e-003
      2.76877801e-003 2.96817953e-003 2.93103559e-003 2.70949444e-003
      1.76225312e-003</_>
    <_>
      9.48712113e-004 1.46093755e-003 9.16577585e-004 7.43210665e-004
      5.24552888e-004 5.90066891e-004 7.71310995e-004 7.07994564e-004
      1.31311896e-003 1.30848843e-003 5.34123089e-003 1.99551019e-003
      3.74518125e-003 2.43868819e-003 2.85095070e-003 3.51367844e-003
      1.41499005e-003</_>
    <_>
      1.07951311e-003 3.32279457e-003 1.80691003e-003 1.82940497e-003
      8.00964073e-004 9.52712435e-004 8.86317168e-004 1.50588772e-003
      1.62370689e-003 1.98576390e-003 6.02248358e-003 4.32354724e-003
      3.83183570e-003 3.87712265e-003 3.10150511e-003 2.32198671e-003
      2.25444697e-003</_>
    <_>
      1.90274254e-003 2.64910702e-003 1.36000128e-003 1.61451264e-003
      6.70784560e-004 9.88474814e-004 6.56663207e-004 1.13457371e-003
      1.70380960e-003 1.36229617e-003 7.00822147e-003 3.06545943e-003
      1.77975965e-003 1.44608878e-003 1.39177707e-003 1.28068624e-003
      3.05589032e-003</_>
    <_>
      1.92677102e-003 2.14584614e-003 2.37782556e-003 1.47708470e-003
      1.59905315e-003 9.84417158e-004 1.39025191e-003 1.53724384e-003
      2.95035820e-003 2.74585397e-003 7.95604382e-003 5.55367861e-003
      3.52067081e-003 2.62811477e-003 2.95136753e-003 3.10989912e-003
      3.30656394e-003</_>
    <_>
      1.27997680e-003 2.10484071e-003 1.25584600e-003 1.23702409e-003
      7.82670919e-004 8.46418960e-004 3.96529969e-004 8.49628937e-004
      1.50601182e-003 1.87889137e-003 7.07537541e-003 3.44939088e-003
      1.32375036e-003 3.03110061e-003 2.02808040e-003 3.44740506e-003
      2.22768635e-003</_>
    <_>
      1.31073222e-003 1.45376869e-003 1.19473820e-003 1.14737847e-003
      1.69744380e-004 4.81061928e-004 1.36205184e-004 4.99837624e-004
      8.21727910e-004 9.46522981e-004 4.46710270e-003 4.10230923e-003
      3.68383992e-003 4.75334935e-003 3.46787274e-003 1.93763128e-003
      1.07614952e-003</_>
    <_>
      1.34026969e-003 1.79346988e-003 1.35819253e-003 1.07761577e-003
      1.22442830e-003 2.17596185e-003 6.09511801e-004 1.21843105e-003
      1.60103280e-003 1.49038120e-003 4.58819745e-003 2.38764961e-003
      4.93087200e-003 2.66446779e-003 6.46415073e-003 3.00673791e-003
      1.62907853e-003</_>
    <_>
      6.03404304e-004 6.29446877e-004 7.46739679e-004 6.60722610e-004
      8.03012983e-004 7.95095519e-004 7.97010143e-004 9.81788500e-004
      1.35965995e-003 1.38146896e-003 5.25034172e-003 2.06196634e-003
      3.77068622e-003 1.09345629e-003 3.27290967e-003 2.39812210e-003
      2.38179066e-003</_>
    <_>
      7.42979231e-004 1.26376119e-003 1.15266908e-003 7.93183921e-004
      7.63729797e-004 9.14454751e-004 7.70888699e-004 9.57673823e-004
      1.47154217e-003 1.16951554e-003 4.56802780e-003 1.25526392e-003
      2.86682416e-003 3.11527867e-003 3.20890732e-003 2.70208623e-003
      2.20210571e-003</_>
    <_>
      8.22091592e-004 1.05544971e-003 1.08825311e-003 9.41539533e-004
      7.45785190e-004 8.33245052e-004 7.34258385e-004 7.96606939e-004
      1.34506403e-003 1.41426304e-003 4.91590984e-003 1.69333967e-003
      3.22983088e-003 2.20914115e-003 2.99655669e-003 3.52511532e-003
      1.98875531e-003</_>
    <_>
      6.09405164e-004 1.21529319e-003 1.12336897e-003 8.57916893e-004
      8.34353850e-004 9.35751596e-004 7.81352341e-004 8.96148733e-004
      1.15647062e-003 8.54931364e-004 4.65100352e-003 1.03920489e-003
      2.78357882e-003 2.46126740e-003 3.88944498e-003 1.81313953e-003
      1.84957252e-003</_>
    <_>
      5.76599559e-005 1.44639728e-003 2.48459633e-003 1.23431836e-003
      2.09208438e-003 2.00826582e-003 1.12142845e-003 1.07119116e-003
      2.13725399e-003 1.90232066e-003 6.24916563e-003 -2.79705552e-003
      3.72767844e-003 7.50865042e-003 7.61526497e-003 4.23575612e-003
      -1.76437525e-003</_>
    <_>
      -1.05928851e-003 4.72607004e-004 8.73769983e-004 2.71135243e-003
      2.16768752e-003 5.11185359e-003 1.36374822e-003 4.50258236e-003
      9.38458834e-004 3.93964443e-003 4.06941539e-003 9.45599470e-003
      7.02301692e-003 3.31077212e-003 9.06740967e-003 6.36931369e-003
      4.94171446e-003</_>
    <_>
      -2.68931407e-003 5.51714504e-004 -1.65704556e-003 1.94026856e-004
      2.60732777e-004 1.53499679e-003 2.09587190e-004 1.41725806e-003
      -1.05455995e-003 -5.02381008e-004 -6.18583348e-004 8.60763807e-003
      5.35446452e-003 6.20945962e-003 1.39519097e-002 9.28778201e-004
      4.60987771e-003</_>
    <_>
      -1.03067583e-003 -7.94662512e-004 -4.97449713e-004 1.30024727e-003
      2.09908094e-003 2.33826856e-003 3.38514219e-003 5.55578503e-004
      2.83080898e-003 4.23613144e-003 -8.52182694e-003 -4.44785910e-005
      9.02883429e-003 1.08221211e-002 1.82346217e-002 1.05643058e-002
      -1.99958216e-003</_>
    <_>
      2.16964213e-003 8.08750000e-003 1.59778888e-003 4.67563840e-003
      1.46653503e-003 5.47942799e-003 1.58857065e-003 2.84637208e-003
      2.73681409e-003 4.03383980e-003 1.53783029e-002 -5.42183453e-003
      -1.98232140e-002 -1.73192713e-002 -3.08310916e-003
      -4.22569516e-004 3.78007186e-003</_>
    <_>
      -8.60054698e-003 -1.68994744e-003 -1.01282704e-003
      -2.57149746e-004 4.88820439e-003 6.01025997e-003 4.90748789e-004
      5.21107949e-003 -9.29084956e-004 -1.14873634e-003 -7.51634967e-003
      8.99252202e-003 -8.60924739e-003 1.27507029e-002 2.16251686e-002
      -6.99979952e-003 1.50512364e-002</_>
    <_>
      -2.59645493e-003 -1.97367417e-003 -7.60610856e-004 4.99924365e-003
      3.57992249e-003 4.36787773e-003 4.10757586e-003 5.58227580e-003
      -5.96181955e-003 2.68339762e-003 1.06820278e-003 -1.71316564e-002
      -6.57686358e-003 1.16436207e-003 9.34830308e-003 8.03976599e-003
      2.61866697e-003</_>
    <_>
      5.57941245e-003 1.48787536e-003 9.20703984e-004 2.46097357e-003
      -1.06513558e-003 -1.90846133e-003 1.69932650e-006 1.07780819e-004
      2.49465508e-003 5.37101831e-003 -1.48373684e-002 6.03206363e-003
      3.97835393e-003 1.78333241e-002 3.00099142e-003 1.27435671e-002
      2.58491520e-004</_>
    <_>
      5.33849979e-003 1.10461088e-002 1.06092461e-003 -4.47850302e-003
      5.85488603e-003 3.10546858e-003 2.25920137e-003 5.42801013e-003
      5.43345371e-003 9.82168037e-003 -6.33600121e-003 1.05873095e-002
      -1.07267452e-002 7.77091458e-003 1.38413878e-002 -2.80595804e-003
      1.49147958e-002</_>
    <_>
      1.82273670e-003 1.54563738e-003 1.41855620e-003 4.96998895e-004
      2.94911652e-003 2.82410416e-003 2.17022095e-003 1.87611452e-003
      4.15993476e-004 -2.71110126e-004 -2.99128960e-003 7.54591357e-003
      6.09755190e-003 7.55580049e-003 1.16393082e-002 -1.40316144e-003
      4.84148366e-003</_>
    <_>
      -3.72579508e-003 -5.39763458e-003 -1.59699214e-003 6.19909668e-004
      1.30641158e-003 2.84117716e-003 -1.77109253e-003 -2.12226785e-003
      -3.85577884e-003 -2.82739731e-003 -8.72804038e-003
      -9.59836121e-004 -6.85024017e-004 1.01276226e-002 1.28368633e-002
      -1.09715416e-004 -1.26076129e-003</_>
    <_>
      4.11636342e-004 5.22235292e-004 2.63179914e-004 5.13545470e-004
      7.04231963e-004 9.31734976e-004 5.90143492e-004 8.12219921e-004
      8.28582270e-004 8.22713017e-004 6.32181182e-004 3.96737317e-003
      3.77074303e-003 3.73703591e-003 4.89465147e-003 3.55103379e-003
      1.96801475e-003</_>
    <_>
      8.22756032e-004 4.59401589e-003 -9.35749849e-004 8.05311021e-004
      8.84653069e-004 -5.43108792e-004 -1.90847949e-003 -1.51044235e-003
      -2.68804724e-003 -1.79438631e-003 3.08600720e-004 1.74885187e-002
      -4.34567779e-003 1.55057898e-002 8.63815192e-003 -2.74914410e-003
      5.02356654e-003</_>
    <_>
      1.60876181e-004 2.80401972e-003 -5.67713403e-004 5.59663400e-004
      5.24520059e-004 1.40649511e-003 1.14468369e-003 2.33415584e-003
      1.72643655e-003 3.61738191e-003 4.12407098e-003 4.95838793e-003
      7.52940960e-003 1.50571030e-003 4.93992027e-003 1.11640487e-002
      8.52474105e-003</_>
    <_>
      3.29627190e-004 6.62537524e-003 8.76377308e-005 1.32859009e-003
      -2.81156390e-004 7.03489117e-004 -2.20430852e-003 -2.52016820e-003
      -7.50172418e-003 -4.08200361e-003 -7.82415329e-004
      -2.13592891e-002 -1.11090606e-002 4.88856714e-003 1.65135209e-002
      -1.98116880e-002 2.21844041e-003</_>
    <_>
      -2.22031847e-002 2.63829064e-002 1.25136860e-002 7.83345569e-003
      2.16050036e-002 7.37829367e-003 2.29376182e-002 7.56758219e-003
      2.46774312e-002 2.38284655e-002 3.31964390e-003 2.15380540e-004
      -1.65367275e-002 -4.71020071e-003 1.47866709e-002 -1.76896676e-002
      1.93257350e-002</_>
    <_>
      -4.00885046e-002 -1.13629764e-002 -1.13915082e-003 2.55907271e-002
      -3.91554460e-003 2.52177175e-002 1.97300520e-002 -1.51644219e-002
      3.41172470e-003 -3.21592651e-002 1.44201694e-002 1.62422936e-002
      1.67443249e-002 -4.15448891e-003 -2.30924208e-002 -5.15516615e-003
      2.92117260e-002</_>
    <_>
      6.26314140e-004 2.13737972e-003 1.88827224e-003 1.81358994e-003
      2.48104148e-003 2.58560269e-003 1.94591377e-003 2.09171744e-003
      1.60347077e-003 1.54419383e-003 5.33640431e-003 1.59952289e-003
      2.63999798e-003 6.01589400e-003 7.87654053e-003 2.36730650e-003
      5.98432263e-003</_>
    <_>
      2.63416977e-003 1.26584722e-002 -1.26685770e-002 -6.68485789e-003
      2.65463279e-003 3.09561566e-003 1.77851005e-003 7.14453962e-003
      1.96964853e-003 3.26692616e-003 -5.57606760e-003 -1.30255446e-002
      6.20881736e-004 1.09015936e-002 2.41955016e-002 -2.74299644e-002
      3.28890495e-002</_>
    <_>
      -7.23955873e-003 -5.56061650e-003 1.71546853e-004 1.58781861e-003
      1.41898892e-003 3.16488883e-003 2.24901224e-003 -3.42651678e-004
      -6.75874180e-004 2.83703743e-003 -1.91359781e-003 -2.12061629e-002
      7.66312564e-003 9.46231093e-003 1.38711268e-002 1.59827212e-003
      9.60784499e-003</_>
    <_>
      -1.64931621e-002 -1.06589487e-002 -2.18317355e-003
      -3.38766462e-004 2.13223952e-003 -1.33435742e-003 -1.78711279e-003
      3.67135013e-004 -4.83769749e-004 3.40832211e-003 -8.08743760e-003
      7.39333965e-003 -7.95585010e-003 9.22948029e-003 9.10768658e-003
      1.85890833e-003 2.28494238e-002</_>
    <_>
      -3.23068886e-003 -7.52762426e-004 4.79360140e-004 1.26924936e-003
      -1.55329355e-004 8.90326395e-004 -1.58231775e-003 -1.65994035e-003
      -4.39061271e-003 -1.81935297e-003 -5.95829263e-003
      -8.56695138e-003 -3.99120711e-003 8.20537284e-003 1.21615361e-002
      -6.99695526e-003 1.50237198e-003</_>
    <_>
      -1.86367389e-002 -7.56630252e-005 -2.88238563e-003 5.37680462e-003
      -4.70576866e-004 6.66324794e-003 -2.21385201e-003 2.32886476e-003
      -8.15211423e-003 -5.02031762e-003 1.25786439e-002 2.24159174e-002
      1.40569052e-002 -3.64131248e-003 2.28395965e-002 -1.59910927e-003
      1.17328465e-002</_>
    <_>
      -5.27117541e-003 6.22802321e-003 -2.74498272e-003 -2.08127243e-003
      3.28832422e-003 6.43230695e-003 -2.66317185e-003 -3.37318773e-003
      -7.30481977e-003 -1.70680694e-003 -7.49665126e-003 1.33742662e-002
      -1.08719785e-002 1.14761572e-002 2.77414899e-002 -2.34317500e-003
      2.56539788e-002</_>
    <_>
      -1.66324675e-002 -3.17135639e-003 -1.33160816e-003 4.80801892e-003
      6.88501494e-003 -4.76738112e-003 4.31334972e-003 1.64709508e-003
      1.10652007e-003 1.53667834e-002 1.55228535e-002 -1.15587132e-003
      -1.93045959e-002 1.57065373e-002 2.72115227e-002 -3.47975306e-002
      1.62158180e-002</_>
    <_>
      -4.40460583e-003 -1.89846975e-003 -4.66235355e-003
      -3.47478874e-003 -2.81526777e-003 -1.63742434e-003
      -1.90705672e-004 -6.47599372e-005 5.15474007e-004 5.46780939e-004
      -1.54631389e-002 8.11906345e-003 4.13324917e-003 -5.77980792e-003
      9.58574412e-004 5.62762935e-003 6.07246147e-005</_>
    <_>
      -7.39029283e-003 -3.82336671e-003 -1.47884642e-003
      -8.50750221e-005 3.94868245e-003 -8.04805080e-004 -2.60146311e-003
      -1.65736617e-003 -1.29303359e-003 1.52981572e-003 -5.06815221e-003
      1.55722694e-002 -7.10001728e-003 7.86994211e-003 1.74959246e-002
      1.90590552e-004 3.43349949e-003</_>
    <_>
      -8.59026890e-003 -1.80449511e-003 -2.38626986e-003 2.04071822e-003
      3.05780349e-003 3.34414956e-003 2.47411872e-003 1.22585532e-003
      1.04760053e-003 2.44546286e-003 1.33430958e-003 7.13094929e-003
      1.32120699e-002 5.19225793e-003 1.12904767e-002 1.73752457e-002
      4.67950385e-003</_>
    <_>
      -6.10964606e-003 1.18916184e-002 -2.53034569e-003 -1.15288666e-003
      1.49944579e-004 -1.94971683e-003 5.95444208e-003 5.39803365e-003
      6.09613908e-003 1.15579963e-002 -1.62787754e-002 1.02258390e-002
      -1.76322162e-002 1.48899276e-002 5.59824705e-003 2.23298334e-002
      7.76073337e-003</_>
    <_>
      -3.36750993e-003 3.58812918e-004 -1.48269173e-003 -1.69577019e-003
      6.56655815e-004 -9.56780103e-004 5.72696910e-004 -8.59040360e-004
      1.75968232e-003 -4.19879245e-004 -1.34363761e-002 1.06170205e-002
      2.33863783e-003 -1.54517323e-003 1.33437980e-002 -2.30557867e-003
      1.58331575e-004</_>
    <_>
      -5.69414068e-003 -1.48481736e-002 -2.57329852e-003
      -9.05745139e-004 -3.31983110e-003 -8.25603958e-003 3.08941817e-003
      -7.63039663e-003 6.29647635e-004 1.40165701e-003 -2.46293787e-002
      2.23396416e-003 2.19127466e-003 1.07907364e-002 8.37796181e-003
      7.18893856e-003 -8.89021996e-003</_>
    <_>
      1.52505760e-003 2.09121313e-003 1.34876487e-003 7.40561984e-004
      2.05782545e-003 2.47170823e-003 1.59113528e-003 1.23755343e-003
      1.84030051e-003 1.47429202e-003 4.15294478e-003 4.15208936e-003
      2.38624006e-003 5.79142058e-003 5.87323448e-003 4.17124620e-003
      4.71182400e-003</_>
    <_>
      -3.55069665e-003 7.19215721e-004 -3.27151897e-003 -1.60996348e-003
      2.30975542e-003 2.77255336e-003 3.99443740e-003 3.31408950e-003
      3.95843759e-003 5.81410713e-003 8.59437045e-003 6.27652230e-003
      6.88402634e-003 -1.75439718e-003 1.98065978e-003 8.21909215e-003
      1.01159606e-002</_>
    <_>
      -2.00770854e-004 7.21201999e-004 1.02281389e-004 6.05076842e-004
      6.25855289e-004 7.86410819e-004 6.16598991e-004 6.11985510e-004
      7.57472124e-004 2.32552658e-004 2.54272460e-003 5.17098978e-003
      3.99174215e-003 4.00860049e-003 4.89600562e-003 3.36540677e-003
      3.11309681e-003</_>
    <_>
      2.21778289e-004 1.44944654e-003 2.91177683e-004 6.63928920e-004
      7.80358852e-004 9.56652744e-004 1.17504271e-003 8.86607100e-004
      8.82995606e-004 1.23750744e-003 4.29225201e-003 3.24670365e-003
      6.43773796e-003 3.43224290e-003 5.73414238e-003 4.97779017e-003
      2.81184632e-003</_>
    <_>
      -4.85032331e-004 4.49915044e-003 1.19697780e-003 2.44080392e-003
      1.27808098e-003 1.67770102e-003 1.34232885e-003 2.28926539e-003
      5.84157126e-004 1.93805108e-003 2.41921050e-003 7.90358894e-003
      6.83687394e-003 5.91134513e-003 7.01542990e-003 2.02485267e-003
      4.85753920e-003</_>
    <_>
      2.08654883e-003 4.17148555e-003 1.04798621e-003 2.61828327e-003
      1.23907265e-003 2.03448581e-003 1.11829781e-003 1.94973918e-003
      1.61926320e-003 1.37092650e-003 7.76854716e-003 6.27131481e-003
      3.30577116e-003 1.70855050e-003 3.79740656e-003 6.98357937e-004
      7.16826366e-003</_>
    <_>
      3.29724251e-004 1.68580783e-003 1.82310748e-003 1.60096900e-003
      3.41602182e-003 2.05059303e-003 2.71818112e-003 2.58578011e-003
      2.83197337e-003 3.37839522e-003 3.51528963e-003 1.24884760e-002
      7.30856694e-003 3.38663021e-003 8.65634251e-003 3.29476222e-003
      8.76771472e-003</_>
    <_>
      4.52334614e-004 2.87213596e-003 6.11533236e-004 1.73091085e-003
      1.53110793e-003 1.77423807e-003 5.14331681e-004 1.29809231e-003
      9.64808627e-004 2.45566573e-003 7.34500447e-003 7.40703382e-003
      2.30376469e-003 5.35335205e-003 5.56489592e-003 5.59322862e-003
      5.59158018e-003</_>
    <_>
      5.52948914e-004 1.06568297e-003 4.97074041e-004 1.12255989e-003
      8.00820490e-005 6.35575794e-004 -3.63734944e-005 3.74150812e-004
      -2.45302566e-004 3.22300766e-004 1.51636789e-003 6.13506511e-003
      5.41628944e-003 6.53845724e-003 6.03154348e-003 1.56946853e-003
      1.92352640e-003</_>
    <_>
      6.15605240e-005 1.10116671e-003 2.52965227e-004 7.15330010e-004
      1.60120171e-003 3.10443132e-003 5.96188824e-004 1.29465153e-003
      4.37599578e-004 7.34225614e-004 -2.23802170e-004 3.02707334e-003
      6.79779751e-003 2.63439305e-003 1.03202723e-002 2.58391560e-003
      2.70039402e-003</_>
    <_>
      -2.65670242e-004 1.04637929e-005 8.10621641e-005 5.13601641e-004
      1.18448550e-003 1.21701451e-003 1.12300843e-003 1.28960493e-003
      9.87884239e-004 1.32607948e-003 4.13204962e-003 3.07710888e-003
      5.89537621e-003 9.30551556e-004 5.85346576e-003 2.74326140e-003
      4.14310861e-003</_>
    <_>
      3.96017713e-005 1.13736931e-003 8.31075886e-004 7.73605250e-004
      1.13549223e-003 1.43272872e-003 1.09865924e-003 1.27784244e-003
      1.25581934e-003 1.03410194e-003 3.27492529e-003 1.76127616e-003
      4.43765102e-003 4.39150771e-003 5.76461293e-003 3.34562035e-003
      3.86015535e-003</_>
    <_>
      1.04308790e-004 7.59152870e-004 6.84788974e-004 1.03318621e-003
      1.14457193e-003 1.34644331e-003 1.07019965e-003 1.03006093e-003
      1.01212936e-003 1.45115843e-003 3.75338248e-003 2.58682249e-003
      5.24693634e-003 2.93879560e-003 5.66827599e-003 4.86416183e-003
      3.66493687e-003</_>
    <_>
      -1.04581493e-004 1.05462701e-003 8.19192093e-004 8.71981843e-004
      1.19618140e-003 1.40327460e-003 1.09672989e-003 1.17113348e-003
      8.15158593e-004 5.94891899e-004 3.68089415e-003 1.22115517e-003
      4.20607952e-003 3.12944804e-003 6.51938794e-003 1.99793396e-003
      3.15388083e-003</_>
    <_>
      -2.12782109e-003 -7.73141393e-004 5.54208469e-004 -1.15584808e-004
      2.76616961e-003 2.76614353e-003 7.28444837e-004 8.46688461e-004
      -2.92404176e-004 1.46922699e-004 -4.46316833e-003 -1.83968584e-003
      2.84453109e-003 8.82979482e-003 1.36878425e-002 1.23357226e-003
      -2.31427047e-003</_>
    <_>
      -7.61857163e-003 -4.09083581e-003 -7.74709880e-003
      -7.81695358e-003 -6.10722508e-003 -1.31045515e-002
      -1.93821837e-003 -5.96987875e-003 -4.04620264e-003
      -1.04339393e-002 -1.02807516e-002 -8.43009562e-004
      -1.15916657e-003 5.32582402e-003 1.03339273e-002 -1.52225280e-002
      5.49469514e-005</_>
    <_>
      3.06936214e-003 4.23503807e-003 -2.10853945e-003 -2.59265723e-003
      -1.72241288e-003 -1.07001793e-002 1.33660936e-003 -8.95178318e-003
      -1.63604986e-004 -4.63125529e-003 -1.28469383e-002
      -9.94386990e-003 -2.22635944e-003 1.03368899e-002 -2.93955300e-003
      -7.12094503e-003 -1.71578918e-002</_>
    <_>
      6.69174697e-005 6.13177777e-004 -5.16684493e-004 -9.56152566e-004
      -8.23199167e-004 -1.65232481e-003 -4.44645091e-004
      -1.68354018e-003 -3.10867363e-005 -1.27437967e-003
      -1.39201107e-003 -7.28817983e-003 -6.26564072e-003
      -6.35522278e-003 -5.03762392e-003 -3.35336383e-003
      -2.05396675e-003</_>
    <_>
      -1.06373371e-003 6.38109399e-004 -1.16336136e-003 -2.65198154e-003
      -4.73124732e-004 -2.46169255e-003 -7.27653503e-004
      -2.14638957e-003 -1.48794905e-003 -3.74386995e-003
      -1.26025397e-002 -4.06428531e-004 -3.80753260e-003
      -1.88693593e-004 -1.19201992e-004 -7.96537939e-003
      -2.55495100e-003</_>
    <_>
      -8.98339844e-004 -1.46889046e-003 -9.94365313e-004
      -6.31496543e-004 7.27228398e-005 -9.72867827e-004 3.33866192e-004
      -4.57930641e-004 -1.70786574e-003 -1.01653975e-003
      -4.66884719e-003 -8.82767513e-003 -3.68483481e-003
      -3.48830293e-003 -6.08481641e-004 -1.13600644e-003
      -1.57106400e-003</_>
    <_>
      4.89960844e-003 1.29204232e-003 -4.43963305e-004 -1.78845401e-003
      -2.75976118e-003 -8.18820018e-003 -1.31124619e-003
      -5.80092147e-003 3.38883721e-004 -1.51479931e-003 -1.42569421e-002
      -8.05031694e-003 -1.44555548e-003 9.51247569e-003 -4.07947646e-003
      4.46002325e-003 -7.66786141e-003</_>
    <_>
      8.07263609e-003 7.90677406e-003 -5.06811170e-003 -1.11489259e-002
      1.52531487e-003 -1.01472661e-002 1.30315882e-003 -9.15242941e-004
      3.69288772e-003 4.43921890e-004 -2.21959464e-002 -1.14040738e-002
      -3.47231934e-003 -3.37642647e-004 1.04567204e-002 -8.50048382e-004
      -6.36532856e-003</_>
    <_>
      5.95502695e-003 1.59394840e-004 1.45309966e-003 -1.02169113e-002
      2.56977999e-003 -1.15173608e-002 7.81456195e-003 -5.42777916e-003
      5.11205290e-003 -9.45659634e-003 -1.18781729e-002 -1.59691740e-002
      1.48511780e-002 -8.95809673e-004 1.33734308e-002 -1.33417379e-002
      3.29112541e-003</_>
    <_>
      -1.40283990e-003 -1.91285845e-003 -1.55825214e-003
      -1.57507625e-003 -3.12469958e-004 -1.34900108e-003
      -1.47994526e-003 -3.29019688e-003 -2.59515154e-003
      -3.94077273e-003 -1.00083640e-002 -2.87414435e-003
      -2.70216167e-003 -8.46991534e-005 2.00528186e-003 -5.28417621e-003
      -3.62794870e-003</_>
    <_>
      1.39203353e-003 -6.45558175e-004 -1.07805408e-003 -1.86496892e-003
      7.57990929e-005 -2.59148562e-003 1.60724530e-003 -8.88050185e-004
      3.27372411e-003 -3.09348194e-004 -7.37270014e-003 5.73797058e-003
      9.83712450e-003 7.41773238e-003 9.73735191e-003 7.91799650e-003
      3.21120722e-003</_>
    <_>
      3.41050630e-003 3.57034639e-003 -5.68204513e-003 -8.67014006e-003
      -3.79018835e-003 -1.53851314e-002 -3.04317195e-003
      -1.13197844e-002 -3.40634142e-003 -1.01400083e-002
      -1.13840895e-002 2.29249150e-003 -7.56208599e-003 4.82290471e-003
      2.56101345e-003 -1.29132802e-002 -6.15467085e-003</_>
    <_>
      6.52723899e-003 1.22289639e-002 -4.43153176e-003 -6.86001731e-003
      -3.50364577e-003 -1.18777165e-002 1.54503773e-003 -5.88218775e-003
      2.51900894e-003 -4.14999854e-003 -5.44612156e-003 -1.02885859e-002
      1.20697562e-002 -3.45952297e-003 -5.38727781e-003 1.70550719e-002
      2.00911108e-002</_>
    <_>
      -4.23741840e-005 3.94488685e-004 -9.01671126e-004 -2.00696825e-003
      -6.13523414e-004 -2.38548033e-003 -9.69544984e-004
      -2.74813827e-003 -1.80644460e-003 -2.86283880e-003
      -5.65823168e-003 -9.57274344e-003 -3.05458647e-003
      -2.47187517e-003 3.15303029e-003 -6.90242043e-003 -3.00986599e-003</_>
    <_>
      8.89340765e-004 9.57103539e-003 2.01728567e-003 -3.91032873e-003
      9.32693132e-004 -1.06187109e-002 3.54488427e-003 -9.10352636e-003
      4.08654381e-003 -4.88553848e-003 -7.04878382e-003 -1.07401423e-002
      -9.73322522e-003 -4.66893165e-004 -1.43435663e-002
      -1.45188905e-002 -9.59838275e-003</_>
    <_>
      -3.37918242e-003 -5.37219108e-004 -1.94066297e-003
      -3.94638628e-003 -2.94697494e-003 -5.24747977e-003 2.92858575e-004
      -6.07624417e-003 -3.50256159e-005 -7.46786641e-003
      -7.72203645e-003 -9.32419579e-003 -3.78098077e-004
      -9.84824076e-003 -9.88623407e-003 -7.00448733e-003
      -4.50348621e-003</_>
    <_>
      3.04262107e-003 5.32703567e-003 3.69351031e-003 -2.77667283e-003
      4.92357370e-003 -5.42324595e-003 7.97467027e-003 3.90599482e-004
      9.08059999e-003 -1.73789763e-003 7.97246676e-003 -2.16028187e-002
      -1.40343548e-003 4.47386410e-003 8.77546333e-003 -2.83594546e-003
      1.62733514e-002</_>
    <_>
      -1.11207679e-004 4.13107511e-004 -2.30439613e-003 -3.05740745e-003
      -1.10854697e-003 -3.08618369e-003 -6.45871798e-004
      -2.20002350e-003 -4.49805026e-004 -2.40522530e-003
      -6.87549543e-003 -9.21643712e-003 -2.72087101e-003
      -5.01148775e-003 -3.72739951e-003 -6.46347832e-003
      -1.10837340e-003</_>
    <_>
      -3.35598714e-003 -3.42991063e-003 9.50461326e-005 -1.14218506e-003
      -1.08558638e-003 -5.16654225e-003 1.28210708e-003 -3.13148717e-003
      -6.96193834e-004 -2.40422552e-003 -1.23079517e-003
      -1.64702516e-002 6.02728641e-003 7.50319194e-003 1.81689882e-003
      -2.44251546e-003 -5.91968372e-003</_>
    <_>
      -1.37396492e-002 -6.36488339e-003 -2.46166601e-003
      -5.02967043e-003 -2.51016667e-004 -1.47503540e-002
      -1.26801699e-003 -8.19065142e-003 -5.42971119e-003
      -1.12024350e-002 -1.16872080e-002 5.88903530e-003 -1.16779711e-002
      1.41690029e-002 -3.23513290e-003 -1.25622358e-002 1.37880268e-002</_>
    <_>
      -1.12965750e-003 -7.68822094e-004 -4.34718066e-004
      -1.26545387e-003 -1.00734015e-003 -1.93344767e-003
      -1.20906229e-003 -2.60785874e-003 -2.05393601e-003
      -2.38521025e-003 -6.21499773e-003 -7.25867040e-003
      -2.78425659e-003 1.05936371e-003 2.31269817e-003 -5.53410733e-003
      -2.43192795e-003</_>
    <_>
      -1.05548240e-002 -4.10383940e-003 -3.94350383e-003
      -3.85208847e-003 -5.00007207e-003 -9.62385908e-003
      -3.61568457e-003 -8.72156024e-003 -4.59611928e-003
      -1.13754999e-002 2.00282666e-003 -2.19090581e-002 -4.44136065e-004
      -1.32526155e-003 -3.31986020e-003 -1.28018511e-002
      -5.07586030e-003</_>
    <_>
      -1.79047312e-003 5.77883935e-003 -5.27387112e-003 -1.77520942e-002
      -6.79819519e-003 -3.03975493e-002 1.74070752e-004 -1.78652368e-002
      -3.81659484e-004 -1.13169234e-002 6.80955499e-003 -2.10692864e-002
      -2.19941838e-003 1.50921689e-002 4.07458981e-003 -1.31357163e-002
      3.55496595e-004</_>
    <_>
      -2.08964525e-003 -1.00294384e-003 -3.30764742e-004
      -1.38121040e-003 -7.63103832e-004 -6.57273596e-003 8.08667464e-005
      -3.64775746e-003 -2.36470150e-004 -2.58882483e-003
      -2.82480125e-003 -1.87839232e-002 -3.07498407e-003 4.89382120e-003
      -1.77516905e-003 -9.92297009e-003 -4.79274243e-003</_>
    <_>
      -9.51043970e-004 -3.06612987e-004 -1.23072392e-003
      -1.50397152e-003 -1.12625898e-003 -1.60344981e-003
      -6.12700649e-004 -1.24940323e-003 -5.80603839e-004
      -1.24666933e-003 -6.72828918e-003 -2.43958217e-004
      -1.77293795e-003 -2.94145849e-003 -3.23841185e-003
      -2.08739564e-003 -1.58997951e-003</_>
    <_>
      -9.28265043e-003 -6.56883512e-003 -6.20694784e-003
      -9.14877839e-003 -1.57466088e-003 -1.55804278e-002
      -1.25191058e-003 -1.46220559e-002 -3.25507834e-003
      -1.11149661e-002 -2.05057748e-002 4.69304714e-003 8.71200871e-004
      9.09573119e-003 8.28358904e-003 -3.84079083e-003 -1.02619622e-002</_>
    <_>
      -7.59204617e-003 3.06151022e-004 -6.14240905e-003 -6.25946373e-003
      -2.06917804e-003 -1.52744362e-002 1.05195912e-003 -1.53217502e-002
      -5.05270764e-005 -1.14780301e-002 -1.74374226e-002
      -1.54159321e-002 7.41368392e-003 7.57344859e-003 9.01618216e-004
      1.00973761e-002 -1.55656869e-002</_>
    <_>
      -1.00060576e-003 2.28404673e-003 -1.47716049e-003 -2.87939329e-003
      -1.71310117e-003 -4.69002686e-003 -6.82910031e-004
      -3.26654525e-003 -8.81348038e-004 -2.28370656e-003
      -9.48587898e-003 -3.95445758e-003 -8.50056577e-003
      -2.82573444e-003 -5.45924855e-003 -3.07769561e-003
      -3.21408943e-003</_>
    <_>
      -1.32953771e-003 2.13027044e-004 -1.33655488e-003 -2.70126923e-003
      -5.14655258e-004 -2.63293670e-003 -2.18038578e-004
      -2.27655470e-003 -1.84283985e-004 -2.36854772e-003
      -1.12862708e-002 1.63521618e-004 -3.87106673e-004 -3.86033184e-003
      4.25883278e-004 -3.51152220e-003 -3.53058544e-003</_>
    <_>
      -9.60714708e-004 -1.87484594e-003 -5.70200849e-004
      -1.21552323e-003 -9.80248093e-004 -3.19395307e-003
      -5.53115562e-004 -3.15879285e-003 -1.38573314e-003
      -2.12521222e-003 -9.62460786e-003 -3.88221606e-003
      -3.64374835e-003 4.26085433e-004 2.21312876e-004 -4.90874797e-003
      -4.57556359e-003</_>
    <_>
      1.40486388e-002 8.46346933e-003 3.61357653e-003 -1.08742379e-002
      7.54420413e-003 -3.83094908e-003 1.21322628e-002 -7.62749417e-003
      1.72622409e-002 -1.76296709e-003 1.16506394e-003 -2.80276034e-003
      -1.00102099e-002 1.04694590e-002 -5.15407555e-005 8.97651538e-003
      2.45984625e-002</_>
    <_>
      -7.82018586e-004 2.53551034e-003 -6.23429520e-003 -7.28412811e-003
      6.61711302e-003 -1.05991969e-002 1.71123929e-002 -1.38919055e-002
      1.29261520e-002 -7.16684014e-003 1.42371999e-002 -1.64445564e-002
      1.95199978e-002 -5.96961798e-003 -1.89465738e-003 -1.60796009e-002
      2.69571450e-002</_>
    <_>
      -1.32168934e-003 -4.16455267e-004 -4.42788703e-003
      -4.94643673e-003 -1.79496338e-003 -7.71766063e-003 2.26279348e-003
      -5.77659626e-003 4.41473955e-003 -7.07528880e-003 -8.98703933e-003
      1.04434062e-002 1.28207300e-002 7.13178096e-003 1.00172218e-002
      6.12428645e-003 1.27476547e-002</_>
    <_>
      3.58103518e-003 4.57237102e-003 -3.52121796e-003 -6.96762325e-003
      -2.00629514e-003 -1.22575508e-002 5.48881432e-003 -1.03113391e-002
      3.32770403e-003 -4.61486122e-003 -9.56777483e-003 -1.46930735e-003
      2.60888673e-002 5.01797162e-003 1.32923909e-002 8.30976386e-003
      5.38766431e-003</_>
    <_>
      -1.85678042e-002 2.25818735e-002 6.67050132e-004 -3.29519319e-003
      -6.01604255e-003 -3.48155163e-002 1.06102685e-002 -8.91383085e-003
      -4.25086962e-003 -8.35178327e-003 -6.78731594e-003 3.97101324e-003
      1.42994346e-002 1.21914353e-002 -1.10307883e-004 -2.39618253e-002
      4.78432421e-003</_>
    <_>
      1.08993715e-002 1.06440829e-002 6.96898496e-004 3.18078580e-003
      1.06017127e-004 -4.20875056e-003 6.15201471e-003 -8.22773087e-004
      8.96835979e-003 -3.22369556e-003 7.24660233e-003 -4.45912639e-003
      2.31487746e-003 -6.89831469e-003 4.81562456e-003 -1.66152567e-002
      1.71234943e-002</_>
    <_>
      8.57784320e-003 3.79239279e-003 6.20093616e-003 -1.10084694e-002
      6.76434860e-003 -2.84748375e-002 1.53102083e-002 -1.61450524e-002
      2.02451758e-002 -8.02721642e-003 -4.11232701e-003 1.50834816e-002
      -2.48292554e-003 -4.07429365e-003 4.46737325e-003 -2.25346331e-002
      2.55584978e-002</_>
    <_>
      7.63295079e-003 1.13281105e-002 -1.02401730e-002 -1.24273989e-002
      -1.54301664e-003 -3.41228098e-002 7.12721562e-003 -2.31563188e-002
      1.79132205e-002 7.69083563e-004 5.39167412e-003 -1.69720352e-002
      -2.73604430e-002 1.33273127e-002 9.79611930e-003 1.25604924e-002
      2.55824495e-002</_>
    <_>
      1.06101611e-003 -2.09182338e-003 -3.26188421e-003 -3.87814525e-003
      -7.41806952e-003 -1.08590201e-002 -3.57151800e-003
      -7.56879756e-003 -9.44891130e-004 -4.21830593e-003
      -6.60153059e-003 2.03128392e-003 1.86820459e-002 1.79597642e-002
      1.36596886e-002 -2.90194200e-003 -1.01817095e-005</_>
    <_>
      -1.30285131e-004 1.58439169e-003 -3.98466969e-003 -6.39138976e-003
      5.80777007e-004 -2.49571260e-003 1.62093050e-003 -1.93456304e-003
      2.81964871e-003 -5.09311166e-003 -1.05142659e-002 -3.83071980e-004
      2.27575116e-002 -7.79534550e-003 2.03103442e-002 -5.60107687e-003
      3.58005939e-003</_>
    <_>
      -4.00712277e-004 -3.20600276e-003 -2.38231523e-003
      -3.29519343e-003 1.48214423e-003 -2.78250291e-003 3.29909939e-003
      -1.19961961e-003 3.36778909e-003 1.77585694e-004 3.06509761e-003
      -4.49509872e-003 1.49549348e-002 -8.09254497e-003 1.02216927e-002
      -1.74130182e-004 1.13922022e-002</_>
    <_>
      1.70622472e-004 1.84268702e-003 9.05514869e-004 -3.07744904e-003
      1.22234714e-003 -3.35193030e-003 4.72316286e-003 -9.20373248e-004
      6.49540545e-003 -1.17438950e-003 -2.05682544e-003 -1.07889511e-002
      1.29108401e-002 7.81201385e-003 1.17137805e-002 4.50344663e-003
      1.28962165e-002</_>
    <_>
      2.53223116e-003 -1.18748751e-003 3.68540990e-004 -2.09284434e-003
      1.92901271e-003 -5.21125039e-003 5.42886276e-003 -4.51097358e-003
      5.02607971e-003 5.52962185e-004 -5.39591908e-003 -4.99797054e-003
      1.96315050e-002 9.28074645e-004 1.44882705e-002 1.03206877e-002
      1.55483726e-002</_>
    <_>
      -6.22261490e-004 1.93398737e-003 1.42808119e-003 -8.80442036e-004
      2.17425660e-003 -1.57183199e-003 3.73260793e-003 -6.18553662e-004
      2.76146154e-003 -3.01922439e-003 2.88676284e-003 -8.23923294e-003
      9.08397790e-003 3.40677216e-003 1.60820857e-002 -3.95515654e-003
      7.25475093e-003</_>
    <_>
      -3.55356489e-003 -1.53586327e-003 -2.93193356e-004
      -1.78028608e-003 7.04411301e-004 -3.36575368e-003 -8.12696669e-007
      -2.44483817e-003 -1.15000224e-003 -3.67344590e-003
      -7.81658851e-003 -1.07742269e-002 -1.82868878e-003 4.16637165e-003
      2.58401781e-003 -5.82701480e-003 -5.38863894e-003</_>
    <_>
      1.16905505e-002 7.57074356e-003 7.23001035e-003 6.08706800e-003
      5.38018439e-003 1.01560785e-003 4.64625470e-003 -2.48003844e-003
      5.17525477e-003 6.85284752e-003 -4.13555000e-003 -8.81151669e-003
      4.49925108e-004 9.57613625e-003 -1.33554637e-002 4.54586791e-003
      -1.95107535e-002</_>
    <_>
      7.88313977e-004 4.95743880e-004 6.28761481e-004 2.00347815e-004
      6.25599932e-005 1.64165533e-006 8.39878849e-005 -2.27605386e-004
      8.20828951e-004 7.33213499e-004 7.34144298e-004 -6.22734707e-003
      -4.92362911e-003 -6.91555953e-003 -6.73259655e-003
      -7.09001266e-004 -1.75923563e-003</_>
    <_>
      3.87975073e-004 1.11947977e-003 1.40431838e-003 -1.70035684e-003
      1.75929104e-003 9.81839330e-005 1.83497919e-004 3.27123344e-005
      -4.83166550e-005 -1.08228414e-003 -1.83451176e-002
      -1.77594047e-004 -5.55534242e-003 -4.92391782e-003
      -8.13616347e-003 -8.15250166e-003 -4.91892686e-003</_>
    <_>
      -2.93445657e-004 -1.60679477e-003 -7.33741545e-005 2.75605067e-004
      7.94665422e-004 2.88514129e-004 7.89251353e-004 6.53916271e-004
      -1.04882766e-003 6.05717418e-004 -3.19539499e-003 -9.24983993e-003
      -3.39499838e-003 -4.92918119e-003 -2.74669728e-003 8.30650155e-004
      -1.63265935e-003</_>
    <_>
      7.57769728e-003 1.28625485e-003 4.45244694e-003 2.64555030e-003
      2.89864402e-004 -2.51956913e-003 1.89617480e-004 -1.65985641e-003
      2.65524094e-003 4.16336767e-003 -1.05307223e-002 -7.61706661e-003
      -1.41444441e-003 6.67946087e-003 -1.27880014e-002 6.97175320e-003
      -9.24723223e-003</_>
    <_>
      2.22106930e-002 1.52863059e-002 7.91130401e-003 -3.08470638e-003
      1.25026386e-002 4.53956146e-003 3.95136559e-003 4.37608454e-003
      1.17316628e-002 1.30320340e-002 -1.07998652e-002 -8.67436454e-003
      -6.78132800e-003 -1.33657944e-003 4.14414192e-003 8.20142450e-004
      -5.95455710e-003</_>
    <_>
      2.55260821e-002 7.43972091e-003 1.80088487e-002 1.15702907e-003
      1.66233610e-002 8.52717739e-003 1.36539871e-002 4.16494301e-003
      1.14906011e-002 3.67842265e-003 -1.05389748e-002 -6.99524861e-003
      1.39958011e-002 1.83226410e-004 -7.84474146e-003 -5.87053550e-003
      3.46150971e-003</_>
    <_>
      -9.50266549e-004 -3.99078941e-003 -3.46908317e-004
      -4.89589293e-004 1.40858581e-003 1.04247336e-003 -1.76670030e-003
      -3.41624138e-003 -3.05899954e-003 -3.17529263e-003
      -1.52037358e-002 -5.34906238e-003 -3.95120354e-003
      -3.61122075e-003 -1.90822966e-003 -4.89502493e-003
      -7.23066693e-003</_>
    <_>
      3.32982256e-003 3.93134949e-004 1.73888972e-003 9.64205537e-004
      1.95589918e-003 1.74105668e-003 2.09011487e-003 1.86739466e-003
      4.44405386e-003 3.70694580e-003 -3.21672356e-004 9.77310701e-004
      9.65503417e-003 3.33176344e-003 2.58798036e-003 1.38270995e-002
      3.24388919e-003</_>
    <_>
      3.83422226e-002 1.92162804e-002 1.26547571e-002 -1.47151377e-003
      1.10650649e-002 -1.13710510e-002 -2.56840605e-003 -1.67654827e-002
      4.56780894e-003 2.54229666e-003 -2.22387398e-003 -8.36565811e-003
      -1.42075866e-002 1.61835551e-002 -2.09194310e-002 1.44791119e-002
      -2.21702978e-002</_>
    <_>
      6.71748817e-003 5.43825841e-003 2.93702120e-003 7.40295567e-004
      2.43153656e-003 1.05476123e-003 3.34738987e-003 2.47275201e-003
      3.94218368e-003 4.28129593e-003 3.65667045e-003 -7.14603986e-004
      1.02544017e-002 -5.36252232e-003 -5.83024276e-003 1.35381436e-002
      9.75802820e-003</_>
    <_>
      1.67190353e-003 5.43766015e-004 1.10518828e-003 -8.10177939e-004
      8.70439515e-004 -4.44247416e-004 -4.58194991e-004 -1.52168295e-003
      -9.42211249e-004 -2.75489321e-004 -4.61778184e-003
      -1.52848819e-002 -3.61345452e-003 -7.22377608e-003
      -3.14934790e-004 -5.98773081e-003 -4.83029149e-003</_>
    <_>
      4.78293281e-003 7.53726065e-003 6.96117431e-003 2.09519034e-003
      4.67495527e-003 -3.22418840e-004 4.92911227e-003 -3.19883751e-004
      6.66755205e-003 5.11277607e-003 6.88658503e-004 9.36962533e-006
      -2.80752964e-003 -5.87014342e-003 -2.13009082e-002
      -2.14192225e-003 -7.21437111e-003</_>
    <_>
      -7.20832089e-004 -6.04571949e-004 1.62542774e-003 -2.59949709e-004
      -1.66491431e-004 -1.29738328e-004 1.71506917e-003 -1.47516315e-003
      2.57303286e-003 -8.49569042e-004 -7.51710206e-004 -7.60360155e-003
      1.47386990e-003 -1.26946485e-002 -1.57242790e-002 7.43080804e-004
      -3.79895116e-003</_>
    <_>
      5.58960158e-003 8.72663502e-003 6.80862647e-003 3.33320373e-003
      5.76310139e-003 4.17737057e-003 5.28535806e-003 3.64925014e-003
      6.63794763e-003 5.17746666e-003 1.14530325e-002 -6.29833108e-003
      -1.95406098e-003 -1.22941274e-003 -7.23833172e-003 5.26162609e-003
      8.29068944e-003</_>
    <_>
      1.47192040e-003 1.28117763e-003 -1.59757939e-004 -1.40871317e-003
      8.10807047e-004 -6.40996324e-004 -4.48347506e-004 -7.70185899e-004
      3.41338076e-004 2.67372059e-004 -7.03634880e-003 -9.72350501e-003
      -5.53492224e-003 -7.43847806e-003 -7.61843938e-003
      -6.47545373e-003 -2.02436838e-003</_>
    <_>
      8.87636503e-004 1.42988283e-003 5.22418274e-003 3.56042897e-003
      2.15416471e-003 1.52801303e-003 3.61308269e-003 -6.31240953e-004
      1.41275942e-003 3.22515098e-003 2.99582165e-003 -1.84064005e-002
      1.06344707e-002 4.92002442e-003 -8.32753256e-003 6.08211942e-003
      -1.02938795e-002</_>
    <_>
      -6.23894669e-003 -4.33971034e-003 1.09643079e-002 6.17842749e-003
      9.88554582e-003 1.92797498e-003 1.53822708e-004 9.58182965e-004
      1.68817700e-003 6.21128595e-003 2.84401095e-003 1.88604550e-004
      -1.51341287e-002 6.49780082e-003 -3.22783254e-002 4.48649237e-003
      1.52626671e-002</_>
    <_>
      -7.26602972e-004 -9.59457830e-004 9.79523989e-004 -6.22406718e-004
      -5.71791723e-004 -9.49788373e-004 -1.26030319e-003
      -2.38223630e-003 -2.15100613e-003 -8.87600239e-004
      -8.44419282e-003 -1.20111248e-002 -3.90515104e-003
      -1.98601512e-003 -1.37743459e-003 -5.87859610e-003
      -4.60685138e-003</_>
    <_>
      -5.69215929e-003 -3.93859344e-003 3.51906870e-003 3.64300678e-003
      4.28914500e-004 5.16240136e-004 -7.83161726e-004 -2.95672380e-005
      1.14192057e-003 1.78844947e-003 1.44114001e-002 -1.54092526e-002
      1.40272925e-004 -1.04670376e-002 -2.12309621e-002 4.00889374e-004
      -3.59811215e-003</_>
    <_>
      1.92551780e-002 1.98574867e-002 1.48782199e-002 2.72193039e-003
      9.53094848e-003 4.97527281e-003 1.52305630e-003 -6.94928737e-003
      6.40079007e-003 1.05007933e-002 1.80610344e-002 -1.15777105e-002
      -1.34048583e-002 2.50140345e-003 -2.38718856e-002 1.35455942e-002
      -4.46970298e-005</_>
    <_>
      9.35285760e-004 6.25401852e-004 4.16911906e-003 3.00955120e-003
      2.12426623e-003 -7.90624763e-004 1.87091203e-003 6.55289623e-004
      2.14474346e-003 3.91739048e-003 4.03673807e-003 -1.66319199e-002
      -1.84021576e-003 1.29609334e-003 -1.70629993e-002 -6.66842004e-003
      -6.79841125e-003</_>
    <_>
      -6.32529205e-004 -5.16999629e-004 -6.80745870e-004
      -1.04049221e-003 -8.02942144e-004 -9.43377730e-004
      -3.88711633e-004 -6.53683266e-004 -1.62486671e-004
      -3.48422473e-004 -6.93426747e-003 -2.75017694e-004
      -1.49566494e-003 -4.03443957e-003 -5.03457012e-003
      -1.42803730e-003 -1.85126672e-003</_>
    <_>
      -2.62723351e-003 -8.13122839e-003 1.77622400e-002 5.92915481e-003
      2.25768611e-002 -3.31886858e-003 1.04739796e-003 -2.01353207e-002
      -4.30812035e-003 7.40974210e-003 -2.27679033e-002 1.54591864e-002
      1.29898626e-003 1.72466896e-002 -3.33411060e-002 2.52875257e-002
      -2.44710613e-002</_>
    <_>
      2.89425137e-003 3.69472755e-003 5.88685460e-003 4.49167099e-003
      5.95201366e-003 -2.26617703e-004 6.40338985e-003 -9.82318888e-004
      8.68029613e-003 7.24322163e-003 -6.80208625e-003 -4.85418743e-004
      1.37926219e-002 -1.32303883e-003 -1.43732885e-002 2.32139081e-002
      -1.68729704e-002</_>
    <_>
      3.76989803e-004 2.62269960e-003 5.70302189e-004 -1.18726119e-003
      -3.47413647e-004 -2.45197816e-003 2.08482888e-004 -1.19249383e-003
      7.73875508e-004 1.26728124e-003 -7.07410602e-003 -4.30830009e-003
      -8.84669088e-003 -6.20735856e-003 -1.14362910e-002 1.15345628e-003
      -3.72040737e-003</_>
    <_>
      -6.66342734e-004 2.37517408e-004 -4.50090665e-005 -2.14051548e-003
      6.42517989e-004 -1.30071212e-003 5.25444513e-004 -1.13327545e-003
      1.24148582e-003 -1.96629815e-004 -1.32152652e-002 5.70271630e-004
      4.76650108e-004 -8.08215979e-003 -3.47801484e-003 -1.19887642e-003
      -5.14305057e-003</_>
    <_>
      -1.09282773e-004 -3.32283531e-003 1.31346215e-003 1.12924128e-004
      -2.16071257e-005 -2.41909712e-003 5.39829125e-005 -2.78619188e-003
      -5.89953386e-004 2.68209114e-004 -1.24318600e-002 -6.29948778e-003
      -5.03187487e-003 -2.07434711e-003 -4.49589407e-003
      -3.70843941e-003 -7.78283179e-003</_>
    <_>
      6.87662652e-003 6.33513974e-003 4.63824999e-003 4.35079535e-004
      4.43346798e-003 4.06208588e-003 4.03275527e-003 1.43717660e-003
      6.54793112e-003 4.58716787e-003 7.99379591e-003 -7.86455988e-004
      -1.26515282e-003 7.32207554e-004 -7.86954537e-003 1.04136178e-002
      6.08350849e-003</_>
    <_>
      3.59633286e-003 3.58271645e-003 3.87341436e-003 3.65590118e-003
      5.14508132e-003 3.72074847e-003 6.16444228e-003 1.44931884e-003
