<?xml version="1.0"?>
<opencv_storage>
<my_svm type_id="opencv-ml-svm">
  <svm_type>C_SVC</svm_type>
  <kernel><type>LINEAR</type></kernel>
  <C>1.0000000000000001e-001</C>
  <term_criteria><epsilon>2.2204460492503131e-016</epsilon>
    <iterations>10000000</iterations></term_criteria>
  <var_all>16</var_all>
  <var_count>16</var_count>
  <class_count>16</class_count>
  <class_labels type_id="opencv-matrix">
    <rows>1</rows>
    <cols>16</cols>
    <dt>i</dt>
    <data>
      1 2 4 5 6 8 9 10 15 17 20 21 22 28 29 31</data></class_labels>
  <sv_total>120</sv_total>
  <support_vectors>
    <_>
      -2.87096063e-003 -1.00076767e-002 -1.47700630e-004
      -1.00344196e-002 1.14955683e-003 -5.13113337e-003 -4.68954880e-004
      -3.52104404e-003 -3.36719328e-003 -2.54942756e-003
      -2.78927442e-002 8.79021885e-004 -2.56806146e-003 1.32249563e-003
      1.84222357e-003 -3.88660631e-003</_>
    <_>
      -9.61506332e-004 -3.26457038e-003 -1.86681573e-005
      -3.25123686e-003 -1.90330634e-003 -2.21297145e-003
      -2.23717754e-004 -4.26594540e-003 -1.56598387e-003
      -2.98326393e-003 -1.73667278e-002 1.15532556e-003 8.31594225e-005
      3.03464476e-003 -1.65929168e-003 -6.54624635e-003</_>
    <_>
      -2.14359444e-003 -3.16701294e-003 -1.74611306e-003
      -2.38562771e-003 -1.23346644e-003 -1.78280135e-003
      -6.53767493e-004 -1.59420841e-003 -2.63052713e-003
      -2.09199241e-003 -1.07526528e-002 -6.21827261e-004
      -5.34336199e-004 -1.33482472e-003 -8.94185621e-004
      -2.68762396e-003</_>
    <_>
      -3.40091088e-003 -7.56348809e-003 -9.95793380e-004
      -6.94673788e-003 -4.62293532e-003 -7.05082435e-003
      -1.37069123e-003 -4.63204551e-003 -4.19452926e-003
      -3.97536531e-003 -2.08537485e-002 -2.79443269e-003 1.13646197e-003
      -1.69553095e-003 -6.76230621e-003 -3.35563533e-003</_>
    <_>
      -9.23568476e-003 -9.06677172e-003 -3.16436999e-005
      -5.32885129e-003 -3.49878031e-003 2.61598174e-003 -5.30001754e-003
      -4.70046507e-004 -8.10501818e-003 5.99664543e-003 -1.46316625e-002
      2.09357254e-002 1.17320418e-002 3.33127705e-003 -5.09298220e-003
      1.61871128e-002</_>
    <_>
      -3.98949347e-003 -4.06653155e-003 -2.38705450e-003
      -3.52852652e-003 -2.11008126e-003 -2.27373419e-003
      -8.36329535e-004 -1.69338007e-003 -2.91073346e-003
      -2.13513873e-003 -1.21422391e-002 3.67981917e-003 3.85080674e-003
      4.01203241e-003 8.39394052e-003 -2.03115563e-003</_>
    <_>
      -1.74663018e-003 -3.78608541e-003 -9.65225743e-004
      -2.89377850e-003 -1.26312813e-003 -3.15318536e-003 9.30478738e-004
      -3.25961434e-003 -2.01240182e-003 5.58859574e-005 -1.62181892e-002
      1.60967035e-003 7.08330236e-003 8.72338843e-003 7.63077242e-003
      4.14494192e-003</_>
    <_>
      -2.19654292e-003 -2.70144502e-003 -6.52074174e-004
      -3.18289315e-003 -2.04651081e-003 -2.56383163e-003
      -6.38360856e-004 -2.01734807e-003 -1.76133576e-003
      -7.48715480e-004 -1.08344285e-002 -7.94658065e-003
      -7.17706652e-003 -1.06151281e-002 -5.37356175e-003
      -4.39934758e-003</_>
    <_>
      -2.28549656e-003 -1.69935043e-003 -7.12244771e-004
      -2.35291757e-003 -4.79153154e-004 -1.12588052e-003
      -6.17593585e-004 -6.52240880e-004 -1.92736031e-003
      -1.79729040e-003 -1.18288212e-002 2.92921741e-003 -1.40318624e-003
      8.08866462e-005 5.53646707e-004 -4.77593159e-003</_>
    <_>
      9.63008148e-004 -2.17936793e-003 7.66758167e-004 -1.22169801e-003
      -2.04949663e-003 -3.24046193e-003 -7.46238220e-004
      -2.38355133e-003 -1.37380697e-003 3.04259505e-004 -1.49538172e-002
      3.92541336e-003 1.77890039e-003 7.78145902e-003 2.34439329e-004
      3.23928497e-003</_>
    <_>
      1.17781444e-003 -2.29642523e-004 -5.41479501e-004 -6.81338226e-003
      3.92313115e-004 -3.06293322e-003 5.96090103e-005 -6.14235410e-004
      -6.38504280e-004 2.24687834e-003 -1.95574798e-002 4.02118964e-003
      -8.02378228e-004 4.23097750e-003 4.99579124e-003 -3.18576442e-003</_>
    <_>
      -3.68129520e-004 -4.24339157e-003 7.89605838e-004 -3.83846392e-003
      6.68884255e-004 -9.48987843e-004 2.23295181e-003 -9.36632394e-004
      1.07752494e-004 -5.67459501e-004 -1.15800435e-002 -3.00238898e-004
      1.01158852e-002 3.11198365e-003 1.08559644e-002 8.02967814e-004</_>
    <_>
      -1.54954323e-003 -2.11646315e-003 -1.56552985e-003
      -5.01367962e-003 -2.88545876e-003 -4.51062713e-003 2.61604058e-004
      -6.08268543e-004 -1.34969165e-003 3.70916515e-003 -1.15433745e-002
      5.68868453e-003 1.40089858e-002 5.36925625e-003 3.69110378e-003
      1.49162663e-002</_>
    <_>
      -1.65691786e-003 -2.19490286e-003 -9.41665785e-004
      -3.22254165e-003 -9.64993145e-004 -1.78661896e-003
      -7.21453165e-004 -1.82145589e-003 -2.86217825e-003
      -1.88982917e-003 -1.15256747e-002 -4.14692145e-003 1.49398053e-003
      -1.53336988e-003 7.69104669e-003 -4.70608100e-003</_>
    <_>
      -1.18626496e-002 -6.03592303e-003 4.85945912e-003 -1.10413264e-002
      1.69193081e-004 -1.27055440e-002 8.30251444e-003 -6.81766076e-003
      1.83507567e-003 3.94617440e-003 -3.23746577e-002 -7.27973995e-004
      1.34653123e-002 1.19171524e-002 3.45348613e-003 4.34363680e-003</_>
    <_>
      -1.42142188e-003 -1.03955101e-002 -4.93570603e-003 1.53133261e-003
      -1.96079854e-002 -5.16258879e-003 5.10041369e-004 -2.04592850e-002
      8.62712692e-003 -5.27874613e-003 -2.36911867e-002 -1.54583212e-002
      2.36882977e-002 2.49837190e-002 -8.80044326e-003 -4.04784363e-003</_>
    <_>
      -6.26920909e-003 -8.15539248e-003 -7.88206980e-003
      -3.10619222e-003 -5.69837447e-003 -3.54489055e-003
      -1.81629707e-003 -3.17790196e-003 -5.83660975e-003
      -4.57708258e-003 -1.82935949e-002 -3.69545259e-003 6.34855684e-003
      -2.46986584e-003 7.22455035e-004 1.89796847e-003</_>
    <_>
      1.98248099e-003 -1.40036820e-002 -1.00359675e-002 -2.06352398e-003
      -3.95424217e-002 -2.75316816e-002 -8.84307735e-003
      -1.68334618e-002 -9.07671917e-003 -1.07400613e-002
      -1.75430602e-003 -1.61975306e-002 3.52854617e-002 -2.50463258e-003
      -3.15533057e-002 4.67807101e-003</_>
    <_>
      -1.81821117e-003 -1.53544956e-004 6.62314298e-004 4.21576155e-003
      -9.96883726e-004 5.02403826e-003 9.95761016e-004 4.96880291e-003
      -1.87431928e-004 4.72350372e-003 5.20316558e-003 1.37736220e-002
      1.26024233e-002 4.14763484e-003 8.21575895e-003 8.29236209e-003</_>
    <_>
      -3.96674126e-003 1.19327779e-005 -3.00165080e-003 1.89507104e-004
      -3.44972406e-003 -4.79617389e-004 -7.10536900e-004 1.38068761e-004
      -2.95685674e-003 -2.05341470e-003 -1.98542094e-003 1.12290839e-002
      8.89029261e-003 7.93175399e-003 1.46446684e-002 -2.61193898e-004</_>
    <_>
      -1.88082084e-003 1.67603686e-003 -1.72878965e-003 3.71902948e-003
      -3.73320119e-003 -1.40536088e-003 2.69912998e-003 -2.76736123e-003
      -5.87391551e-004 2.49839714e-003 -1.08275348e-002 -9.25738859e-005
      1.84759758e-002 1.53201269e-002 1.47336740e-002 1.15003698e-002</_>
    <_>
      -1.01063470e-003 4.19942458e-004 -3.01508722e-003 9.99293290e-004
      -5.09013236e-003 -3.97828204e-004 7.23637713e-005 3.62236053e-004
      2.27503199e-003 2.11100187e-003 5.09199686e-003 -1.78625565e-002
      -3.15543264e-003 -2.22343598e-002 -2.28291075e-003 4.76167584e-003</_>
    <_>
      -1.09215211e-002 -3.79945850e-003 -5.34443418e-003
      -2.30593584e-003 -4.88421926e-003 -7.03568920e-004
      -2.98800319e-003 2.18786139e-004 -3.57948244e-003 -5.18883858e-003
      -2.73861475e-002 1.24645242e-002 1.38709889e-004 6.98664458e-003
      6.20975764e-003 -8.12071096e-003</_>
    <_>
      4.34398372e-003 2.19991570e-003 1.49869267e-003 4.16777842e-003
      -5.47001557e-003 -4.10462543e-003 -1.53618003e-003
      -2.94862641e-003 -8.62992893e-004 2.53248494e-003 -1.57390852e-002
      6.66391617e-003 6.05072407e-003 1.63903721e-002 -1.71025726e-003
      8.75083730e-003</_>
    <_>
      1.15675926e-002 2.02598367e-002 -4.80608735e-003 -1.18050212e-002
      -6.33887062e-003 -7.83444848e-003 2.77555756e-017 6.74853008e-003
      1.12407031e-002 1.75840240e-002 -2.37048808e-002 2.02248823e-002
      -1.56376732e-003 1.18619455e-002 1.80497728e-002 -1.76824257e-003</_>
    <_>
      2.39818869e-003 1.53103832e-003 1.54025841e-003 6.31731818e-004
      7.39709940e-004 1.68871763e-003 2.56438437e-003 1.13378023e-003
      -2.69529526e-004 -1.23760523e-003 -4.43128403e-003 9.35000554e-003
      1.20069087e-002 8.98280647e-003 1.31546250e-002 -2.04376923e-003</_>
    <_>
      2.09747450e-004 3.79821635e-003 -1.50402705e-003 8.92415585e-004
      -3.06990207e-003 -4.99252055e-004 8.27106531e-004 1.79717841e-003
      1.14244188e-003 4.09565587e-003 5.05099772e-003 6.96339924e-003
      1.35934381e-002 1.54584693e-003 2.52724509e-003 1.58015992e-002</_>
    <_>
      -3.69569217e-003 -9.18970560e-004 -5.15362713e-003
      -1.81981153e-003 -5.98323671e-003 -3.19585158e-003
      -3.31189926e-003 -4.31682635e-003 -6.43921969e-003
      -4.83619841e-003 -1.26458798e-002 -1.68926157e-002 4.41656169e-003
      -4.34212713e-003 1.35276532e-002 -1.11006079e-002</_>
    <_>
      -3.19675207e-002 5.36570288e-002 1.15948741e-003 2.08696593e-002
      -2.76607163e-002 -2.74297111e-002 2.84312628e-002 -6.86305715e-003
      3.77396978e-002 2.91164853e-002 -6.17661653e-003 -7.04777101e-003
      2.52487753e-002 -1.04180053e-002 -1.82625726e-002 -4.68963850e-003</_>
    <_>
      -1.68944839e-002 -1.08604450e-002 -1.73081085e-002
      -2.35319650e-003 -2.40664161e-003 -6.12763036e-003
      -6.07076567e-003 3.38111818e-003 -2.90807839e-002 -1.19082304e-002
      -1.45181008e-002 1.33522996e-003 2.55359919e-003 -5.69935283e-003
      4.75138426e-003 1.41612729e-002</_>
    <_>
      -1.96692199e-002 6.74985116e-003 -9.14738514e-004 1.44991092e-003
      -5.77037502e-003 -2.25416590e-002 -1.29173249e-002 2.97197290e-002
      -2.91791856e-002 -4.69845487e-003 2.08316222e-002 1.78091321e-002
      1.39409136e-002 -4.22425494e-002 -3.09760161e-002 2.56754495e-002</_>
    <_>
      -1.49654842e-003 -8.80556996e-004 -5.10477184e-005 1.39992288e-003
      1.19669805e-003 3.11504258e-003 6.46618602e-004 5.61228907e-003
      3.00153828e-004 4.74289013e-003 9.10941139e-003 6.86781527e-003
      6.00164011e-003 -2.08449434e-003 5.59960352e-003 1.05754277e-002</_>
    <_>
      -4.69743181e-003 -1.13520643e-003 -3.80585250e-003
      -1.54346798e-003 -9.62699705e-004 -4.64489596e-004
      -6.92560803e-004 3.87634779e-003 -2.48334347e-003 5.37305023e-004
      6.55244105e-003 9.39340796e-003 6.73649041e-003 1.52117666e-003
      1.61014404e-002 7.72073213e-003</_>
    <_>
      -2.12559802e-003 1.75007898e-003 -2.25692149e-003 8.77914019e-004
      2.80353287e-003 -5.14428073e-004 3.52027244e-003 5.85967395e-003
      4.28210187e-004 8.28588940e-003 -1.49488822e-003 -1.96497212e-003
      1.47966556e-002 3.84735642e-003 2.02088933e-002 2.25383341e-002</_>
    <_>
      -1.58872118e-003 1.48910657e-003 -8.24280432e-004 6.45276741e-004
      1.36748131e-004 9.02229745e-004 1.44934631e-004 4.58404189e-003
      6.99050841e-004 3.50231444e-003 9.95568000e-003 -4.96433722e-003
      -6.86559966e-003 -1.96502395e-002 -2.29659810e-004 6.32685702e-003</_>
    <_>
      -1.96701158e-002 8.95119272e-003 -3.91829899e-003 -5.19650523e-004
      9.31384135e-003 4.80150990e-003 -4.58004745e-003 1.67657472e-002
      -1.64008643e-002 -5.45579940e-003 -1.77508760e-002 2.25952193e-002
      -9.17837117e-003 -2.15976033e-003 2.02953741e-002 -3.19192093e-003</_>
    <_>
      5.92828635e-003 2.03440967e-003 5.34443068e-004 2.70993356e-003
      -2.45992187e-003 -6.10019546e-003 -2.41615297e-003 3.48239904e-003
      -2.80343171e-004 9.17731505e-003 -1.32860094e-002 1.03959674e-002
      1.38328201e-003 1.28148058e-002 6.99875818e-004 2.50253845e-002</_>
    <_>
      5.72653720e-003 1.53512368e-002 -4.03935369e-003 -1.15433829e-002
      6.81193499e-003 -2.06595287e-003 7.73738429e-004 1.89364888e-002
      2.54557142e-003 1.75820272e-002 2.37680742e-005 1.14473756e-002
      -1.17267165e-002 -1.56350452e-002 1.69919729e-002 7.96985626e-003</_>
    <_>
      3.11145606e-003 9.94677306e-004 1.02730782e-003 -1.74102176e-003
      4.79805982e-003 2.48533790e-003 3.24589992e-003 6.66284235e-003
      -8.61911452e-004 7.17143877e-004 7.69192353e-004 1.32611915e-002
      1.13639785e-002 5.41126961e-003 1.87740680e-002 4.26918454e-003</_>
    <_>
      5.77637766e-005 2.07690476e-003 -1.07866479e-003 -2.03063115e-004
      1.94638589e-004 2.13425465e-005 7.65785750e-004 3.53527395e-003
      7.70254177e-004 3.15263588e-003 6.90023461e-003 3.53651750e-003
      7.58485077e-003 -2.55379500e-003 3.02201230e-003 1.30678015e-002</_>
    <_>
      -4.49232478e-003 1.18122464e-002 -2.13437038e-003 5.18615264e-003
      6.22700900e-004 -2.34350166e-003 -5.36983879e-003 2.07142043e-003
      -1.99394897e-002 -6.89089205e-003 5.11397934e-003 -1.98865626e-002
      -1.23300077e-003 -5.17095160e-003 2.00355388e-002 -2.03189272e-002</_>
    <_>
      -2.36220025e-002 2.38804426e-002 8.48266389e-003 2.13863305e-003
      1.63806081e-002 -9.09389462e-003 1.25520797e-002 1.87913906e-002
      4.89158882e-003 1.83371659e-002 1.91798881e-002 7.71312648e-003
      8.21971043e-004 -3.24383900e-002 7.39675108e-003 -1.16159040e-002</_>
    <_>
      1.05208540e-002 1.38069270e-002 1.33451074e-002 1.45736989e-003
      1.55312754e-003 -2.45358213e-004 1.16400386e-003 1.60811772e-003
      1.76660381e-002 9.90012288e-003 1.64440461e-002 3.16290860e-003
      4.22807550e-003 -2.06007119e-002 -2.33180076e-002 -1.03330927e-003</_>
    <_>
      1.19750015e-003 1.55416748e-003 1.88929867e-003 1.93156255e-003
      1.13648397e-003 2.34228233e-003 8.57725507e-004 2.39109504e-003
      2.07002508e-003 2.96841003e-003 7.77340168e-003 4.54359269e-003
      3.54814739e-003 2.58664787e-003 3.40180728e-003 4.37890505e-003</_>
    <_>
      6.08052767e-004 2.19727261e-003 1.05542003e-003 1.17296085e-003
      4.42828896e-004 1.14903878e-003 5.02853363e-004 1.50300912e-003
      1.63797743e-003 1.44179107e-003 7.89475534e-003 5.98097686e-003
      4.03862353e-003 5.43779274e-003 7.94552732e-003 2.82996031e-003</_>
    <_>
      1.73968333e-003 4.17462969e-003 4.60019847e-003 2.78333412e-003
      2.69141933e-003 2.49962253e-003 3.80258146e-003 2.51945294e-003
      7.73222931e-003 6.44826144e-003 9.70234280e-004 -6.09521102e-003
      1.06116002e-002 5.85706113e-003 1.06634879e-002 9.52226855e-003</_>
    <_>
      2.38238741e-003 3.93196847e-003 2.64287624e-003 1.81092659e-003
      7.21987453e-004 1.54918327e-003 1.10548746e-003 1.50878204e-003
      4.78240056e-003 3.74974683e-003 1.20943999e-002 -4.91375243e-003
      -3.80301406e-003 -8.25528707e-003 -3.20202578e-003 3.25363595e-003</_>
    <_>
      -6.17359066e-003 2.07304265e-002 1.63207036e-002 1.88613927e-003
      1.28455982e-002 1.30233429e-002 5.06533729e-003 1.53458957e-002
      2.17996649e-002 1.48644280e-002 1.19374329e-002 2.08703615e-002
      3.07393231e-004 -3.68384621e-003 1.98673569e-002 -1.34994960e-004</_>
    <_>
      7.53846345e-003 5.64530632e-003 4.29763738e-003 3.03871720e-003
      2.65849580e-004 -4.16811672e-004 7.79750058e-004 1.48421573e-003
      6.18892536e-003 6.62033167e-003 2.97763431e-003 6.12323498e-003
      5.55593101e-003 9.43005085e-003 1.02919854e-004 1.15224114e-002</_>
    <_>
      7.12174363e-003 1.06041003e-002 5.26210153e-003 2.37058339e-004
      3.28940991e-003 1.70412741e-003 1.38706202e-003 3.89506575e-003
      6.83560641e-003 7.73705961e-003 1.01926178e-002 7.65055744e-003
      -5.78285614e-003 4.03448241e-003 3.12066195e-003 -5.20739006e-004</_>
    <_>
      3.54170823e-003 2.99150124e-003 2.97144428e-003 1.31192338e-003
      2.23652367e-003 2.09337566e-003 1.81625830e-003 1.81415258e-003
      2.56575132e-003 1.55032880e-003 5.80080319e-003 6.13923697e-003
      4.80793370e-003 6.37488253e-003 6.71795337e-003 1.21880660e-003</_>
    <_>
      1.85008592e-003 2.95320526e-003 1.34925207e-003 1.20431464e-003
      6.98047748e-004 9.75120638e-004 9.43644205e-004 1.69791305e-003
      2.30121287e-003 2.46136985e-003 7.20506255e-003 3.26095382e-003
      4.68210224e-003 2.18566437e-003 2.42433022e-003 6.29502861e-003</_>
    <_>
      8.68171547e-003 1.69785377e-002 9.11575276e-003 3.77826300e-003
      3.00999568e-003 2.88588228e-003 1.19609153e-003 -2.72766431e-003
      7.44361244e-003 1.81524770e-003 2.01696791e-002 -1.38702337e-002
      -2.73416960e-003 -8.01538303e-003 1.21181766e-002 -1.98974703e-002</_>
    <_>
      1.24949554e-003 1.05634592e-002 1.00156981e-002 3.06169991e-003
      4.75121057e-003 5.19691850e-004 6.08101487e-003 1.80215540e-003
      1.48635162e-002 9.72086005e-003 1.72665473e-002 -1.24565710e-003
      -2.48987228e-003 -5.24577126e-003 -4.43111220e-003
      -6.53585698e-003</_>
    <_>
      -1.12960965e-003 5.03981079e-004 9.31775372e-004 2.89134588e-003
      2.31158966e-003 5.45120472e-003 1.45428092e-003 4.80148708e-003
      1.00075861e-003 4.20117797e-003 4.33956413e-003 1.00837322e-002
      7.48924119e-003 3.53055820e-003 9.66935139e-003 6.79214159e-003</_>
    <_>
      -2.85106688e-003 5.84898167e-004 -1.75671105e-003 2.05696881e-004
      2.76414939e-004 1.62732136e-003 2.22193121e-004 1.50250120e-003
      -1.11798802e-003 -5.32597478e-004 -6.55788928e-004 9.12535656e-003
      5.67651633e-003 6.58293674e-003 1.47910677e-002 9.84640908e-004</_>
    <_>
      -1.04541890e-003 -8.00811278e-004 -4.70658211e-004 1.33343006e-003
      2.11145100e-003 2.34846328e-003 3.40834679e-003 5.65038179e-004
      2.84632156e-003 4.25395323e-003 -8.49972665e-003 -1.59970688e-004
      9.05154552e-003 1.09886331e-002 1.83242522e-002 1.05859609e-002</_>
    <_>
      2.43021245e-003 8.08384735e-003 1.54501677e-003 4.60429722e-003
      1.44645385e-003 5.54956170e-003 1.58412557e-003 2.83575919e-003
      2.83768098e-003 4.16351343e-003 1.55176232e-002 -4.67417017e-003
      -2.02475432e-002 -1.77138597e-002 -2.99398438e-003
      -3.80695128e-004</_>
    <_>
      -1.09369317e-002 -2.44529755e-003 -1.46167993e-003
      -5.56763203e-004 6.17248751e-003 7.47940922e-003 9.22384090e-004
      6.69504236e-003 -7.48273043e-004 -9.98863135e-004 -9.19812638e-003
      9.33263637e-003 -8.47046450e-003 1.45280687e-002 2.83456594e-002
      -6.91925548e-003</_>
    <_>
      5.58011141e-003 1.48766185e-003 9.21090250e-004 2.46145250e-003
      -1.06533745e-003 -1.90872222e-003 1.71145871e-006 1.07760570e-004
      2.49494030e-003 5.37156267e-003 -1.48358317e-002 6.03202451e-003
      3.97794880e-003 1.78366043e-002 3.00130039e-003 1.27448905e-002</_>
    <_>
      6.34890888e-003 1.38037289e-002 1.39181456e-003 -5.19894157e-003
      7.36045372e-003 3.94641189e-003 3.00463149e-003 7.34484894e-003
      7.00820517e-003 1.26190213e-002 -6.43959176e-003 1.18845552e-002
      -1.30049130e-002 7.77024077e-003 1.99238006e-002 -2.98025995e-003</_>
    <_>
      1.93266710e-003 1.64749392e-003 1.52859127e-003 5.34884341e-004
      3.16756894e-003 3.03389225e-003 2.35808874e-003 2.03000498e-003
      5.06385579e-004 -2.33721861e-004 -3.02969082e-003 7.97614735e-003
      6.69662235e-003 7.97534361e-003 1.25743868e-002 -1.31603074e-003</_>
    <_>
      2.02156356e-004 3.52351973e-003 -7.13386340e-004 7.03270664e-004
      6.59109734e-004 1.76739600e-003 1.43840490e-003 2.93309055e-003
      2.16943305e-003 4.54558711e-003 5.18229092e-003 6.23069005e-003
      9.46142524e-003 1.89206935e-003 6.20748335e-003 1.40286973e-002</_>
    <_>
      3.15448444e-004 6.61023892e-003 7.35433787e-005 1.31739140e-003
      -2.75980448e-004 7.10953609e-004 -2.19972711e-003 -2.51671253e-003
      -7.50135072e-003 -4.06978372e-003 -7.40764372e-004
      -2.15212293e-002 -1.10714072e-002 4.85554244e-003 1.66683868e-002
      -1.97959654e-002</_>
    <_>
      -2.24280097e-002 2.66634654e-002 1.27351386e-002 7.04808487e-003
      2.32848804e-002 7.88125116e-003 2.48998329e-002 7.78891565e-003
      2.80936919e-002 2.73217298e-002 5.15757315e-003 3.31978942e-003
      -1.98401231e-002 -7.52628827e-003 1.85823273e-002 -1.70090571e-002</_>
    <_>
      -7.61971669e-003 -4.09577275e-003 -7.74652138e-003
      -7.81656522e-003 -6.10702997e-003 -1.31061822e-002
      -1.93743943e-003 -5.96861308e-003 -4.04537050e-003
      -1.04329959e-002 -1.02757979e-002 -8.46456503e-004
      -1.15700986e-003 5.32946829e-003 1.03362743e-002 -1.52225727e-002</_>
    <_>
      4.14833007e-003 5.85233606e-003 -3.13226506e-003 -3.84194800e-003
      -2.57693604e-003 -1.55209173e-002 1.95783051e-003 -1.26434099e-002
      -1.59196512e-004 -6.53236173e-003 -1.84596442e-002
      -1.42176021e-002 -3.07584065e-003 1.41042825e-002 -4.80698934e-003
      -1.02357389e-002</_>
    <_>
      6.84779225e-005 6.27476489e-004 -5.28733071e-004 -9.78449127e-004
      -8.42395413e-004 -1.69085548e-003 -4.55013796e-004
      -1.72279868e-003 -3.18116508e-005 -1.30409689e-003
      -1.42447150e-003 -7.45813269e-003 -6.41174940e-003
      -6.50342042e-003 -5.15509630e-003 -3.43156117e-003</_>
    <_>
      -1.08902622e-003 6.53281866e-004 -1.19102292e-003 -2.71503837e-003
      -4.84374294e-004 -2.52022455e-003 -7.44955032e-004
      -2.19742488e-003 -1.52332825e-003 -3.83288856e-003
      -1.29021928e-002 -4.16092254e-004 -3.89806507e-003
      -1.93180196e-004 -1.22036283e-004 -8.15477408e-003</_>
    <_>
      5.35482494e-003 1.36598502e-003 -5.37897809e-004 -2.03608139e-003
      -3.10462131e-003 -9.17698815e-003 -1.43706764e-003
      -6.39849296e-003 4.01619502e-004 -1.65744778e-003 -1.58686135e-002
      -8.96312576e-003 -1.57064258e-003 1.03331814e-002 -4.73557785e-003
      4.92927525e-003</_>
    <_>
      8.14782269e-003 7.90873077e-003 -5.45845181e-003 -1.15623567e-002
      1.51334458e-003 -1.07177002e-002 1.49643410e-003 -5.84231399e-004
      3.89675633e-003 5.81350352e-004 -2.30212789e-002 -1.17559060e-002
      -2.58982298e-003 -6.69038389e-004 1.12184407e-002 -1.85426296e-004</_>
    <_>
      6.02011243e-003 1.75238674e-004 1.48900913e-003 -1.02697033e-002
      2.60706642e-003 -1.15675218e-002 7.88576622e-003 -5.47007332e-003
      5.17712673e-003 -9.50097200e-003 -1.18153784e-002 -1.61443967e-002
      1.50350370e-002 -8.67633556e-004 1.36077525e-002 -1.33232493e-002</_>
    <_>
      1.02489125e-002 1.83390602e-002 -5.57118608e-003 -9.51886084e-003
      -4.10142122e-003 -1.62262861e-002 2.65773968e-003 -8.08087084e-003
      3.05481069e-003 -6.96639065e-003 -8.22479371e-003 -1.18839024e-002
      1.92264616e-002 -3.63996974e-003 -4.67196805e-003 2.24853139e-002</_>
    <_>
      -4.40601834e-005 4.10184730e-004 -9.37547127e-004 -2.08682218e-003
      -6.37934485e-004 -2.48039444e-003 -1.00812153e-003
      -2.85748183e-003 -1.87832001e-003 -2.97674630e-003
      -5.88336308e-003 -9.95362643e-003 -3.17612337e-003
      -2.57022679e-003 3.27848387e-003 -7.17705581e-003</_>
    <_>
      9.06726811e-004 1.01274271e-002 2.12460221e-003 -4.37926315e-003
      1.03260647e-003 -1.15691526e-002 4.07455536e-003 -9.82958172e-003
      4.58762981e-003 -5.32216020e-003 -8.88900459e-003 -1.15771145e-002
      -1.02598546e-002 -7.01831421e-004 -1.51005201e-002
      -1.61606483e-002</_>
    <_>
      1.72507111e-002 1.18060885e-002 1.02305356e-002 8.78717843e-003
      7.61356950e-003 1.25558209e-003 6.73423521e-003 -3.88418394e-003
      7.49949412e-003 1.01469140e-002 -5.55372750e-003 -1.22844260e-002
      8.24902672e-005 1.26209287e-002 -2.13831291e-002 7.35666975e-003</_>
    <_>
      8.03587725e-004 5.05349075e-004 6.40943879e-004 2.04229611e-004
      6.37721096e-005 1.67346286e-006 8.56151746e-005 -2.32015300e-004
      8.36732681e-004 7.47419719e-004 7.48368562e-004 -6.34800317e-003
      -5.01902541e-003 -7.04955030e-003 -6.86304225e-003
      -7.22738332e-004</_>
    <_>
      4.05533647e-004 1.17014407e-003 1.46787358e-003 -1.77730981e-003
      1.83891121e-003 1.02627440e-004 1.91802479e-004 3.41927953e-005
      -5.05033204e-005 -1.13126496e-003 -1.91753618e-002
      -1.85631419e-004 -5.80676040e-003 -5.14675956e-003
      -8.50438233e-003 -8.52145907e-003</_>
    <_>
      8.40112381e-003 1.08861842e-003 5.10262605e-003 2.73909676e-003
      3.34862416e-004 -2.98343413e-003 2.39248053e-004 -1.82174228e-003
      2.79271579e-003 4.35479917e-003 -1.37075195e-002 -9.85745993e-003
      -9.75987350e-004 7.45807355e-003 -1.45371081e-002 6.43913355e-003</_>
    <_>
      2.25976463e-002 1.54457632e-002 7.46606523e-003 -2.68620369e-003
      1.26167303e-002 4.77296812e-003 4.59959544e-003 6.21059397e-003
      1.15200160e-002 1.30101088e-002 -1.30221089e-002 -1.04941446e-002
      -3.90759110e-003 -2.34333263e-003 4.38028434e-003 -4.23564314e-004</_>
    <_>
      2.56979167e-002 7.38809537e-003 1.81645211e-002 1.21688435e-003
      1.67571716e-002 8.60636123e-003 1.37446029e-002 4.19985643e-003
      1.15702637e-002 3.72087513e-003 -1.03840800e-002 -7.15594599e-003
      1.41324280e-002 4.26598650e-004 -7.65491929e-003 -5.84875559e-003</_>
    <_>
      8.41879845e-003 6.61636470e-003 3.70539119e-003 7.49310304e-004
      3.16269160e-003 1.38643011e-003 4.30191122e-003 3.01513774e-003
      4.68441052e-003 4.90833586e-003 3.92500870e-003 -1.13845315e-004
      1.31847188e-002 -6.19494123e-003 -5.49798599e-003 1.57335848e-002</_>
    <_>
      1.77373015e-003 6.48026878e-004 1.13953440e-003 -8.98503757e-004
      8.97717488e-004 -4.94548702e-004 -4.80492337e-004 -1.61666458e-003
      -1.00204500e-003 -2.97671038e-004 -5.01392782e-003
      -1.61408093e-002 -3.83419776e-003 -7.87068810e-003
      -4.97940346e-004 -6.36968482e-003</_>
    <_>
      5.15331933e-003 8.12602416e-003 7.45915528e-003 2.22410052e-003
      5.00992173e-003 -3.41614155e-004 5.27743017e-003 -3.44160333e-004
      7.10497098e-003 5.43254288e-003 4.74499568e-004 4.56175942e-004
      -2.92320666e-003 -6.21375116e-003 -2.27710884e-002
      -2.48154858e-003</_>
    <_>
      7.68201950e-004 1.35562057e-003 2.37235101e-004 7.39634270e-005
      -5.34444291e-004 2.99656705e-004 -9.70282068e-004 3.54161777e-004
      -2.38432724e-004 -3.99221433e-004 5.63691603e-003 -1.91483810e-003
      -8.71710945e-003 -9.43768397e-003 -7.16918753e-003
      -4.64188913e-003</_>
    <_>
      -4.46954370e-003 -1.66625730e-004 -1.90009933e-003
      -3.91324470e-003 1.38571704e-004 2.08854486e-004 -3.78494151e-003
      1.77671504e-003 -5.15793590e-003 -5.90776233e-003 -6.69288263e-003
      1.38414754e-002 -1.19477101e-002 -7.51275942e-003 -3.72230541e-003
      -1.58113260e-002</_>
    <_>
      1.71938092e-002 -1.20968996e-002 3.51968152e-003 -3.88899655e-003
      -1.45521751e-002 -1.99050512e-002 -1.43249501e-002 1.39113877e-003
      -5.00103272e-003 1.33856805e-003 -2.49625873e-002 7.00701354e-003
      8.64965841e-003 2.95652747e-002 -2.40166429e-002 2.46436503e-002</_>
    <_>
      1.52151100e-002 1.09455716e-002 -7.19424384e-003 -2.22644303e-002
      7.78390607e-003 4.41168621e-003 -1.32321543e-003 2.53623649e-002
      9.07126535e-003 1.19079417e-002 3.93723371e-003 1.06363520e-002
      -6.63964730e-003 -2.93744318e-002 1.81063656e-002 -9.02959891e-003</_>
    <_>
      6.72021229e-003 -1.15803499e-002 7.52562704e-003 -1.40451835e-002
      1.05242850e-002 1.03450818e-002 6.95534935e-003 1.27791986e-002
      1.63787196e-003 -1.42326253e-002 -2.70721875e-003 1.44450301e-002
      1.75112505e-002 -1.87922325e-002 2.78933458e-002 -2.33375560e-002</_>
    <_>
      3.18248128e-003 9.00787581e-003 -4.87831247e-004 -1.64111995e-003
      -7.68977799e-004 2.06772890e-003 -2.25828931e-004 8.84261448e-003
      2.34757108e-003 2.73092301e-003 1.27086574e-002 1.71307959e-002
      1.33120185e-002 -1.54736498e-002 -7.90304877e-003 1.52165415e-002</_>
    <_>
      1.15590787e-003 1.18149573e-003 -1.03997265e-003 -2.76165479e-003
      -8.33058555e-004 -8.04654846e-004 -4.55264188e-003
      -1.44245755e-003 -6.84878184e-003 -4.95259184e-003 1.05749005e-002
      -8.40220600e-003 -8.18608329e-003 -8.94593447e-003 1.14211850e-002
      -1.64056811e-002</_>
    <_>
      -5.41451108e-003 6.55247876e-003 5.84968179e-003 -2.65826681e-003
      3.22451629e-003 -1.24571309e-003 4.05628327e-003 4.02931776e-003
      7.72285974e-003 1.78466062e-003 1.17578479e-002 7.00926082e-003
      -7.53296493e-003 -2.23916527e-002 -2.39523612e-002
      -1.20818652e-002</_>
    <_>
      -2.99354526e-003 -1.53046614e-003 -7.20830460e-004
      -1.59956701e-003 8.79756059e-004 -1.01211728e-004 -6.10600866e-004
      2.55987950e-004 -2.07190635e-003 -2.40022480e-003 -1.23994639e-002
      6.53713429e-003 3.05653387e-003 7.18314992e-003 5.11634443e-003
      -4.58030496e-003</_>
    <_>
      1.86920038e-003 -3.08052811e-004 4.16394141e-005 -5.49788565e-005
      -4.34300193e-004 -1.42821495e-003 -2.77797575e-004
      -5.23391296e-004 6.23492961e-005 6.15238270e-004 -8.03309493e-003
      6.06307387e-003 5.87840378e-003 9.30555630e-003 1.77930959e-003
      3.72902164e-003</_>
    <_>
      2.63512251e-003 3.07768187e-003 4.82193776e-004 -2.82467110e-003
      1.78411347e-003 -7.94669206e-004 1.93692740e-005 9.33160249e-004
      3.56784381e-004 1.74211175e-003 -8.88886862e-003 1.22248884e-002
      1.57460035e-003 1.23458058e-002 6.07358152e-003 -3.34475772e-003</_>
    <_>
      1.12519029e-003 -2.55288633e-005 7.29511259e-004 -6.62232342e-005
      1.17956626e-003 6.42504601e-004 8.82784603e-004 5.13271778e-004
      -2.65871076e-005 -4.96561290e-004 -1.52730581e-003 5.58236660e-003
      5.70819480e-003 7.10663572e-003 6.12578494e-003 9.57448210e-005</_>
    <_>
      5.89111645e-004 7.09940330e-004 -2.17905166e-004 -3.69794143e-005
      8.31463112e-005 -3.27238631e-005 4.52047476e-004 8.80932959e-004
      5.54523722e-004 1.47856784e-003 1.84337771e-003 6.16111746e-003
      7.82961212e-003 6.35619136e-003 3.79377790e-003 7.01746158e-003</_>
    <_>
      -2.63039931e-003 -2.94611766e-003 -1.66713458e-003
      -3.03521729e-003 -1.11112511e-003 -2.90286657e-003
      -1.98628893e-003 -2.75171618e-003 -5.49258012e-003
      -4.22886992e-003 -1.17454566e-002 -1.01197436e-002 8.25654343e-003
      1.00205233e-002 1.12795122e-002 -8.84483475e-003</_>
    <_>
      -5.83744515e-003 1.35617540e-003 3.57117830e-003 -3.82939063e-004
      2.84483889e-003 -4.54395963e-003 3.07708373e-003 -2.31386349e-003
      1.42702681e-003 -4.24107493e-005 -1.16611710e-002 1.51413186e-002
      6.39513228e-003 2.56039500e-002 -2.08151457e-003 -1.25728706e-002</_>
    <_>
      8.94691609e-003 1.09772605e-003 2.85499799e-003 5.08117583e-003
      -2.46959529e-003 -3.13486462e-003 -3.86778760e-004
      -2.77606072e-003 3.58939474e-003 6.37012767e-003 6.04015589e-003
      -6.18999638e-003 2.11042818e-003 9.88296885e-003 -8.66712164e-003
      1.67516638e-002</_>
    <_>
      1.60752721e-002 1.27646029e-002 3.57199763e-003 -3.24386219e-003
      1.61929859e-003 -2.24289950e-003 3.38489399e-003 2.11156998e-003
      1.01376772e-002 1.55615415e-002 1.87163968e-002 -6.42967084e-003
      -4.29991959e-003 -3.38043342e-003 -9.86426458e-005 1.23681258e-002</_>
    <_>
      9.84194782e-003 1.07088871e-003 4.73038899e-003 3.09671834e-003
      3.85875511e-003 3.18706571e-003 4.20868304e-003 1.11078715e-003
      2.93606077e-003 1.59320270e-003 1.88360587e-002 3.00735028e-005
      1.02630155e-002 1.09261684e-002 7.80842686e-003 5.21835778e-003</_>
    <_>
      3.74802691e-003 2.36287131e-003 5.20025322e-004 1.04866689e-003
      3.12969903e-004 2.97795981e-004 1.81601499e-003 1.11955788e-003
      2.03066086e-003 2.10450031e-003 9.29094572e-003 1.36104843e-003
      8.00732523e-003 -5.17406268e-004 1.57457474e-003 9.11396369e-003</_>
    <_>
      1.14204325e-002 6.05749665e-003 1.20402593e-003 3.39877652e-003
      -4.26681666e-003 -3.68999830e-003 -1.92982098e-003
      -8.23357236e-003 -5.47556020e-003 -2.49478593e-003 1.34545434e-002
      -2.44454388e-002 3.42373940e-004 -5.71012381e-004 3.69336689e-003
      -1.66277997e-002</_>
    <_>
      5.15052397e-003 1.11927260e-002 7.42081925e-003 3.42083769e-003
      8.76471633e-004 -5.77088073e-003 9.92666837e-003 -3.72682931e-003
      1.31054511e-002 1.23233199e-002 2.00098548e-002 -7.89893093e-004
      1.18622240e-002 -1.65501405e-002 -1.96636133e-002 8.56119499e-004</_>
    <_>
      8.39560991e-004 8.26779380e-003 -3.36768269e-003 -8.27700924e-003
      7.76820676e-003 7.50241568e-003 3.15877213e-003 8.41486081e-003
      3.84032773e-003 4.39786492e-003 1.03162332e-002 4.75468813e-003
      -7.61960587e-003 -1.92042142e-002 1.54351862e-002 -8.70233309e-003</_>
    <_>
      3.57391691e-004 8.80623120e-004 3.38874757e-004 -4.56372136e-003
      7.51950685e-003 7.92877283e-003 5.50482050e-003 4.66013467e-003
      -2.48834898e-004 -6.15538657e-003 7.89947063e-003 1.13286888e-002
      7.32577918e-003 -8.71731527e-003 1.58448648e-002 -1.59524921e-002</_>
    <_>
      -3.87976295e-003 5.89846540e-003 -2.27379496e-003 -1.30431924e-003
      1.92786136e-003 5.14960755e-003 2.74660788e-003 5.43293031e-003
      9.63616709e-004 -3.46170797e-004 1.92813799e-002 6.02148613e-003
      9.22736526e-003 -1.74231678e-002 1.12111238e-003 3.77897639e-003</_>
    <_>
      -2.38290546e-003 5.97193721e-004 -1.08097272e-003 -1.49904878e-003
      7.60222436e-004 1.40407693e-003 -7.48264662e-004 -9.27829475e-004
      -2.48773606e-003 -2.58406601e-003 3.03595234e-003 -8.61342158e-003
      -5.29598678e-003 -9.87484120e-003 6.89106155e-003 -1.03955092e-002</_>
    <_>
      -7.70237017e-003 5.16748615e-003 3.75667558e-004 -2.96037970e-003
      5.78877004e-003 3.24387732e-003 6.26500789e-003 3.24654393e-003
      3.99067765e-003 -5.21773938e-004 1.62497293e-002 5.36399893e-003
      3.05614388e-003 -1.66573990e-002 1.02874322e-003 -1.37085402e-002</_>
    <_>
      -2.21185409e-003 -2.54248232e-002 2.59745065e-002 8.49554036e-003
      1.34264550e-003 1.94561586e-003 1.40691940e-002 -1.63751077e-002
      -5.04384935e-003 -2.17757970e-002 1.04925903e-002 3.01342811e-002
      3.40243839e-002 7.89898820e-003 -2.51192264e-002 -6.64640451e-004</_>
    <_>
      -2.25601788e-003 1.81060552e-003 2.64699268e-003 3.37248156e-003
      -4.13747272e-003 -1.46385119e-003 3.55160912e-003 -3.21706315e-003
      -1.65761495e-003 -6.65516965e-003 1.49631277e-002 1.11149251e-002
      2.53624432e-002 -9.55012348e-003 -1.30684366e-002 9.72941425e-003</_>
    <_>
      -5.50864590e-003 -4.94359108e-003 -4.83940617e-004 6.99124765e-004
      -2.68959603e-003 -1.66670943e-003 -3.09009501e-003
      -6.56849053e-003 -6.70225080e-003 -6.46742294e-003
      -2.99359788e-004 -1.98584851e-002 -1.35969953e-003
      -7.45226536e-003 8.19762982e-003 -6.25895569e-003</_>
    <_>
      -2.40635965e-002 -6.13899156e-003 7.02822674e-003 1.69428308e-002
      -1.13369781e-003 -2.67516938e-003 1.02698999e-002 -1.02592800e-002
      1.04977109e-003 -1.26585532e-002 1.29635371e-002 2.39065685e-003
      2.70278826e-002 -7.77902873e-003 -2.80448496e-002 -1.09971920e-002</_>
    <_>
      2.75351992e-003 1.35074230e-002 -7.23918900e-003 -2.62050470e-003
      -5.77339251e-003 -4.06669127e-003 -2.10127584e-003 2.11521983e-003
      -5.16581535e-003 3.14852456e-004 -9.67225991e-003 1.98950954e-002
      1.03584193e-002 -1.48575865e-002 -1.53902788e-002 2.25448795e-002</_>
    <_>
      -3.17870360e-003 -6.56120421e-004 -2.25367071e-003
      -1.14518311e-003 -2.26421817e-003 -2.10170331e-003
      -2.87220930e-003 -2.29669642e-003 -2.82723410e-003
      -7.07694504e-004 -2.06234539e-003 -1.51127577e-002
      -5.80939930e-003 -8.70363787e-003 1.04730437e-003 -4.15140390e-003</_>
    <_>
      -6.82409434e-003 8.46275780e-003 9.30390903e-004 1.89060543e-003
      -2.04928708e-003 -5.16151078e-003 1.06847868e-003 -2.21418426e-003
      5.20688156e-003 6.75604166e-003 7.52700120e-003 9.34439991e-003
      -5.27693192e-003 -1.24487253e-002 -2.49490011e-002 2.23440118e-003</_>
    <_>
      -1.13589049e-003 -1.62225566e-003 -2.47869466e-004
      -9.13691649e-004 -1.24670638e-004 -5.23548806e-004
      -1.20928348e-003 -1.77570083e-003 -2.09160778e-003
      -2.03085947e-003 -4.62554162e-003 -7.92976469e-003
      -5.00373030e-003 -1.98305119e-003 3.69160250e-003 -9.20717698e-003</_>
    <_>
      -3.54698231e-003 -1.19800716e-004 5.32235065e-003 1.71390024e-003
      4.21760464e-003 -9.12678312e-004 3.07217357e-003 -3.72866308e-003
      2.16328213e-003 -2.54304777e-003 -1.24302367e-003 -8.38688202e-003
      -1.57679059e-002 1.86265353e-003 -5.71264233e-003 -2.44530495e-002</_>
    <_>
      -7.67263724e-003 9.12240241e-004 8.54562409e-003 3.30103398e-003
      7.48806214e-003 -1.83513924e-003 1.29659604e-002 6.31588232e-003
      2.04894319e-002 1.27336187e-002 1.07670333e-002 1.79387443e-002
      -4.43926780e-004 3.06754746e-003 -2.09447034e-002 1.04776407e-002</_></support_vectors>
  <decision_functions>
    <_>
      <sv_count>1</sv_count>
      <rho>-2.1252164699380494e+001</rho>
      <alpha>
        1.</alpha>
      <index>
        0</index></_>
    <_>
      <sv_count>1</sv_count>
      <rho>-1.4107383881474798e+001</rho>
      <alpha>
        1.</alpha>
      <index>
        1</index></_>
    <_>
      <sv_count>1</sv_count>
      <rho>-1.1454689126303803e+001</rho>
      <alpha>
        1.</alpha>
      <index>
        2</index></_>
    <_>
      <sv_count>1</sv_count>
      <rho>-2.3103640661445052e+001</rho>
      <alpha>
        1.</alpha>
      <index>
        3</index></_>
    <_>
      <sv_count>1</sv_count>
      <rho>5.1317913565278497e+000</rho>
      <alpha>
        1.</alpha>
      <index>
        4</index></_>
    <_>
      <sv_count>1</sv_count>
      <rho>-2.2025089440886485e+000</rho>
      <alpha>
        1.</alpha>
      <index>
        5</index></_>
    <_>
      <sv_count>1</sv_count>
      <rho>9.0325471538502489e-001</rho>
      <alpha>
        1.</alpha>
      <index>
        6</index></_>
    <_>
      <sv_count>1</sv_count>
      <rho>-2.4132215876163183e+001</rho>
      <alpha>
        1.</alpha>
      <index>
        7</index></_>
    <_>
      <sv_count>1</sv_count>
      <rho>-9.8643807961416385e+000</rho>
      <alpha>
        1.</alpha>
      <index>
        8</index></_>
    <_>
      <sv_count>1</sv_count>
      <rho>-3.4517999162141648e+000</rho>
      <alpha>
        1.</alpha>
      <index>
        9</index></_>
    <_>
      <sv_count>1</sv_count>
      <rho>-8.2997254995972334e+000</rho>
      <alpha>
        1.</alpha>
      <index>
        10</index></_>
    <_>
      <sv_count>1</sv_count>
      <rho>3.1406191412519968e+000</rho>
      <alpha>
        1.</alpha>
      <index>
        11</index></_>
    <_>
      <sv_count>1</sv_count>
      <rho>8.7069340300648044e+000</rho>
      <alpha>
        1.</alpha>
      <index>
        12</index></_>
    <_>
      <sv_count>1</sv_count>
      <rho>-8.7890716929688271e+000</rho>
      <alpha>
        1.</alpha>
      <index>
        13</index></_>
    <_>
      <sv_count>1</sv_count>
      <rho>-8.1759265938913188e+000</rho>
      <alpha>
        1.</alpha>
      <index>
        14</index></_>
    <_>
      <sv_count>1</sv_count>
      <rho>-1.1492288225290082e+001</rho>
      <alpha>
        1.</alpha>
      <index>
        15</index></_>
    <_>
      <sv_count>1</sv_count>
      <rho>-1.6552581076089982e+001</rho>
      <alpha>
        1.</alpha>
      <index>
        16</index></_>
    <_>
      <sv_count>1</sv_count>
      <rho>-2.1498561030742721e+001</rho>
      <alpha>
        1.</alpha>
      <index>
        17</index></_>
    <_>
      <sv_count>1</sv_count>
      <rho>2.3983753173208356e+001</rho>
      <alpha>
        1.</alpha>
      <index>
        18</index></_>
    <_>
      <sv_count>1</sv_count>
      <rho>1.4934629775667128e+001</rho>
      <alpha>
        1.</alpha>
      <index>
        19</index></_>
    <_>
      <sv_count>1</sv_count>
      <rho>1.8830113408147316e+001</rho>
      <alpha>
        1.</alpha>
      <index>
        20</index></_>
    <_>
      <sv_count>1</sv_count>
      <rho>-1.5689258952841763e+001</rho>
      <alpha>
        1.</alpha>
      <index>
        21</index></_>
    <_>
      <sv_count>1</sv_count>
      <rho>-1.4768470022241099e+001</rho>
      <alpha>
        1.</alpha>
      <index>
        22</index></_>
    <_>
      <sv_count>1</sv_count>
      <rho>4.5451392837242253e+000</rho>
      <alpha>
        1.</alpha>
      <index>
        23</index></_>
    <_>
      <sv_count>1</sv_count>
      <rho>9.4557329463001363e+000</rho>
      <alpha>
        1.</alpha>
      <index>
        24</index></_>
    <_>
      <sv_count>1</sv_count>
      <rho>1.6258081586119793e+001</rho>
      <alpha>
        1.</alpha>
      <index>
        25</index></_>
    <_>
      <sv_count>1</sv_count>
      <rho>1.9533613750456286e+001</rho>
      <alpha>
        1.</alpha>
      <index>
        26</index></_>
    <_>
      <sv_count>1</sv_count>
      <rho>-1.7093620555545812e+001</rho>
      <alpha>
        1.</alpha>
      <index>
        27</index></_>
    <_>
      <sv_count>1</sv_count>
      <rho>-1.6398961697502608e+000</rho>
      <alpha>
        1.</alpha>
      <index>
        28</index></_>
    <_>
      <sv_count>1</sv_count>
      <rho>-1.4870809921697397e+001</rho>
      <alpha>
        1.</alpha>
      <index>
        29</index></_>
    <_>
      <sv_count>1</sv_count>
      <rho>-3.8287488954106639e+000</rho>
      <alpha>
        1.</alpha>
      <index>
        30</index></_>
    <_>
      <sv_count>1</sv_count>
      <rho>1.7698012370143676e+001</rho>
      <alpha>
        1.</alpha>
      <index>
        31</index></_>
    <_>
      <sv_count>1</sv_count>
      <rho>1.9909282182557661e+001</rho>
      <alpha>
        1.</alpha>
      <index>
        32</index></_>
    <_>
      <sv_count>1</sv_count>
      <rho>2.6276763104180091e+001</rho>
      <alpha>
        1.</alpha>
      <index>
        33</index></_>
    <_>
      <sv_count>1</sv_count>
      <rho>-4.8426809587375983e+000</rho>
      <alpha>
        1.</alpha>
      <index>
        34</index></_>
    <_>
      <sv_count>1</sv_count>
      <rho>-7.7809606564457190e-001</rho>
      <alpha>
        1.</alpha>
      <index>
        35</index></_>
    <_>
      <sv_count>1</sv_count>
      <rho>1.1981865753604879e+001</rho>
      <alpha>
        1.</alpha>
      <index>
        36</index></_>
    <_>
      <sv_count>1</sv_count>
      <rho>9.1256999856321439e+000</rho>
      <alpha>
        1.</alpha>
      <index>
        37</index></_>
    <_>
      <sv_count>1</sv_count>
      <rho>2.4960320257817443e+001</rho>
      <alpha>
        1.</alpha>
      <index>
        38</index></_>
    <_>
      <sv_count>1</sv_count>
      <rho>1.4724489934686638e+001</rho>
      <alpha>
        1.</alpha>
      <index>
        39</index></_>
    <_>
      <sv_count>1</sv_count>
      <rho>-7.9004599559905726e+000</rho>
      <alpha>
        1.</alpha>
      <index>
        40</index></_>
    <_>
      <sv_count>1</sv_count>
      <rho>8.5058291099271361e+000</rho>
      <alpha>
        1.</alpha>
      <index>
        41</index></_>
    <_>
      <sv_count>1</sv_count>
      <rho>1.4536502551147339e+000</rho>
      <alpha>
        1.</alpha>
      <index>
        42</index></_>
    <_>
      <sv_count>1</sv_count>
      <rho>1.4611899255638047e+001</rho>
      <alpha>
        1.</alpha>
      <index>
        43</index></_>
    <_>
      <sv_count>1</sv_count>
      <rho>1.7627661576318964e+001</rho>
      <alpha>
        1.</alpha>
      <index>
        44</index></_>
    <_>
      <sv_count>1</sv_count>
      <rho>1.8748837710243777e+001</rho>
      <alpha>
        1.</alpha>
      <index>
        45</index></_>
    <_>
      <sv_count>1</sv_count>
      <rho>2.6014675011861206e+000</rho>
      <alpha>
        1.</alpha>
      <index>
        46</index></_>
    <_>
      <sv_count>1</sv_count>
      <rho>3.8421470113742892e+001</rho>
      <alpha>
        1.</alpha>
      <index>
        47</index></_>
    <_>
      <sv_count>1</sv_count>
      <rho>1.9504270028466745e+001</rho>
      <alpha>
        1.</alpha>
      <index>
        48</index></_>
    <_>
      <sv_count>1</sv_count>
      <rho>1.5878944807764460e+001</rho>
      <alpha>
        1.</alpha>
      <index>
        49</index></_>
    <_>
      <sv_count>1</sv_count>
      <rho>1.7264726343239108e+001</rho>
      <alpha>
        1.</alpha>
      <index>
        50</index></_>
    <_>
      <sv_count>1</sv_count>
      <rho>1.4126090263956000e+001</rho>
      <alpha>
        1.</alpha>
      <index>
        51</index></_>
    <_>
      <sv_count>1</sv_count>
      <rho>7.7595703874079183e+000</rho>
      <alpha>
        1.</alpha>
      <index>
        52</index></_>
    <_>
      <sv_count>1</sv_count>
      <rho>1.0009071320307985e+001</rho>
      <alpha>
        1.</alpha>
      <index>
        53</index></_>
    <_>
      <sv_count>1</sv_count>
      <rho>2.0496058462865651e+001</rho>
      <alpha>
        1.</alpha>
      <index>
        54</index></_>
    <_>
      <sv_count>1</sv_count>
      <rho>1.5262330892391685e+001</rho>
      <alpha>
        1.</alpha>
      <index>
        55</index></_>
    <_>
      <sv_count>1</sv_count>
      <rho>1.7377352320384347e+001</rho>
      <alpha>
        1.</alpha>
      <index>
        56</index></_>
    <_>
      <sv_count>1</sv_count>
      <rho>-7.7422844085116269e+000</rho>
      <alpha>
        1.</alpha>
      <index>
        57</index></_>
    <_>
      <sv_count>1</sv_count>
      <rho>1.1698594562071603e+001</rho>
      <alpha>
        1.</alpha>
      <index>
        58</index></_>
    <_>
      <sv_count>1</sv_count>
      <rho>9.9509886943394363e+000</rho>
      <alpha>
        1.</alpha>
      <index>
        59</index></_>
    <_>
      <sv_count>1</sv_count>
      <rho>1.3010202664363669e+001</rho>
      <alpha>
        1.</alpha>
      <index>
        60</index></_>
    <_>
      <sv_count>1</sv_count>
      <rho>1.4630440118501330e+001</rho>
      <alpha>
        1.</alpha>
      <index>
        61</index></_>
    <_>
      <sv_count>1</sv_count>
      <rho>2.0004779206259688e+001</rho>
      <alpha>
        1.</alpha>
      <index>
        62</index></_>
    <_>
      <sv_count>1</sv_count>
      <rho>-1.2399038077828600e+001</rho>
      <alpha>
        1.</alpha>
      <index>
        63</index></_>
    <_>
      <sv_count>1</sv_count>
      <rho>1.0444784923429170e+001</rho>
      <alpha>
        1.</alpha>
      <index>
        64</index></_>
    <_>
      <sv_count>1</sv_count>
      <rho>-1.3182728246398858e+001</rho>
      <alpha>
        1.</alpha>
      <index>
        65</index></_>
    <_>
      <sv_count>1</sv_count>
      <rho>-2.0415731930346222e+001</rho>
      <alpha>
        1.</alpha>
      <index>
        66</index></_>
    <_>
      <sv_count>1</sv_count>
      <rho>-1.3963292376017698e+001</rho>
      <alpha>
        1.</alpha>
      <index>
        67</index></_>
    <_>
      <sv_count>1</sv_count>
      <rho>-1.4741346594843511e+001</rho>
      <alpha>
        1.</alpha>
      <index>
        68</index></_>
    <_>
      <sv_count>1</sv_count>
      <rho>-1.1691843986883720e+001</rho>
      <alpha>
        1.</alpha>
      <index>
        69</index></_>
    <_>
      <sv_count>1</sv_count>
      <rho>-1.4919822930731462e+001</rho>
      <alpha>
        1.</alpha>
      <index>
        70</index></_>
    <_>
      <sv_count>1</sv_count>
      <rho>-6.9430819222044615e+000</rho>
      <alpha>
        1.</alpha>
      <index>
        71</index></_>
    <_>
      <sv_count>1</sv_count>
      <rho>1.3807554965713631e+000</rho>
      <alpha>
        1.</alpha>
      <index>
        72</index></_>
    <_>
      <sv_count>1</sv_count>
      <rho>-1.2543188602024763e+001</rho>
      <alpha>
        1.</alpha>
      <index>
        73</index></_>
    <_>
      <sv_count>1</sv_count>
      <rho>-2.7401806690474569e+001</rho>
      <alpha>
        1.</alpha>
      <index>
        74</index></_>
    <_>
      <sv_count>1</sv_count>
      <rho>-3.4650280755345086e-001</rho>
      <alpha>
        1.</alpha>
      <index>
        75</index></_>
    <_>
      <sv_count>1</sv_count>
      <rho>-1.0481174761311816e+001</rho>
      <alpha>
        1.</alpha>
      <index>
        76</index></_>
    <_>
      <sv_count>1</sv_count>
      <rho>-2.3762720531833740e+001</rho>
      <alpha>
        1.</alpha>
      <index>
        77</index></_>
    <_>
      <sv_count>1</sv_count>
      <rho>-1.1482115348491504e+001</rho>
      <alpha>
        1.</alpha>
      <index>
        78</index></_>
    <_>
      <sv_count>1</sv_count>
      <rho>-1.7259329418537683e+000</rho>
      <alpha>
        1.</alpha>
      <index>
        79</index></_>
    <_>
      <sv_count>1</sv_count>
      <rho>4.3386571282720077e+000</rho>
      <alpha>
        1.</alpha>
      <index>
        80</index></_>
    <_>
      <sv_count>1</sv_count>
      <rho>1.2745156845189385e+001</rho>
      <alpha>
        1.</alpha>
      <index>
        81</index></_>
    <_>
      <sv_count>1</sv_count>
      <rho>-1.6874549337386533e+001</rho>
      <alpha>
        1.</alpha>
      <index>
        82</index></_>
    <_>
      <sv_count>1</sv_count>
      <rho>-9.5804317288996437e+000</rho>
      <alpha>
        1.</alpha>
      <index>
        83</index></_>
    <_>
      <sv_count>1</sv_count>
      <rho>-1.0505984862549337e+001</rho>
      <alpha>
        1.</alpha>
      <index>
        84</index></_>
    <_>
      <sv_count>1</sv_count>
      <rho>-1.7913286635565278e+001</rho>
      <alpha>
        1.</alpha>
      <index>
        85</index></_>
    <_>
      <sv_count>1</sv_count>
      <rho>-5.8470359011815720e+000</rho>
      <alpha>
        1.</alpha>
      <index>
        86</index></_>
    <_>
      <sv_count>1</sv_count>
      <rho>2.0765357633051851e+000</rho>
      <alpha>
        1.</alpha>
      <index>
        87</index></_>
    <_>
      <sv_count>1</sv_count>
      <rho>8.5041749744030550e+000</rho>
      <alpha>
        1.</alpha>
      <index>
        88</index></_>
    <_>
      <sv_count>1</sv_count>
      <rho>1.7208914429549154e+001</rho>
      <alpha>
        1.</alpha>
      <index>
        89</index></_>
    <_>
      <sv_count>1</sv_count>
      <rho>-7.2409459946507617e+000</rho>
      <alpha>
        1.</alpha>
      <index>
        90</index></_>
    <_>
      <sv_count>1</sv_count>
      <rho>-1.5876014584026564e+001</rho>
      <alpha>
        1.</alpha>
      <index>
        91</index></_>
    <_>
      <sv_count>1</sv_count>
      <rho>-1.0249873070782438e+000</rho>
      <alpha>
        1.</alpha>
      <index>
        92</index></_>
    <_>
      <sv_count>1</sv_count>
      <rho>6.3923842332713923e+000</rho>
      <alpha>
        1.</alpha>
      <index>
        93</index></_>
    <_>
      <sv_count>1</sv_count>
      <rho>8.3760809705351509e+000</rho>
      <alpha>
        1.</alpha>
      <index>
        94</index></_>
    <_>
      <sv_count>1</sv_count>
      <rho>1.0377350778235510e+001</rho>
      <alpha>
        1.</alpha>
      <index>
        95</index></_>
    <_>
      <sv_count>1</sv_count>
      <rho>1.4655593667546185e+001</rho>
      <alpha>
        1.</alpha>
      <index>
        96</index></_>
    <_>
      <sv_count>1</sv_count>
      <rho>-4.0243766150184364e+000</rho>
      <alpha>
        1.</alpha>
      <index>
        97</index></_>
    <_>
      <sv_count>1</sv_count>
      <rho>8.0861991101078807e+000</rho>
      <alpha>
        1.</alpha>
      <index>
        98</index></_>
    <_>
      <sv_count>1</sv_count>
      <rho>1.1138458379836592e+001</rho>
      <alpha>
        1.</alpha>
      <index>
        99</index></_>
    <_>
      <sv_count>1</sv_count>
      <rho>1.8146911405743083e+001</rho>
      <alpha>
        1.</alpha>
      <index>
        100</index></_>
    <_>
      <sv_count>1</sv_count>
      <rho>3.0834497095038898e+001</rho>
      <alpha>
        1.</alpha>
      <index>
        101</index></_>
    <_>
      <sv_count>1</sv_count>
      <rho>1.5241647079560606e+001</rho>
      <alpha>
        1.</alpha>
      <index>
        102</index></_>
    <_>
      <sv_count>1</sv_count>
      <rho>-5.7311669707020485e+000</rho>
      <alpha>
        1.</alpha>
      <index>
        103</index></_>
    <_>
      <sv_count>1</sv_count>
      <rho>7.8519097151901862e+000</rho>
      <alpha>
        1.</alpha>
      <index>
        104</index></_>
    <_>
      <sv_count>1</sv_count>
      <rho>4.8428467790334437e+000</rho>
      <alpha>
        1.</alpha>
      <index>
        105</index></_>
    <_>
      <sv_count>1</sv_count>
      <rho>1.1983147648452404e+001</rho>
      <alpha>
        1.</alpha>
      <index>
        106</index></_>
    <_>
      <sv_count>1</sv_count>
      <rho>1.4126030187855678e+001</rho>
      <alpha>
        1.</alpha>
      <index>
        107</index></_>
    <_>
      <sv_count>1</sv_count>
      <rho>-9.5726533304022841e+000</rho>
      <alpha>
        1.</alpha>
      <index>
        108</index></_>
    <_>
      <sv_count>1</sv_count>
      <rho>4.0811147442237372e+000</rho>
      <alpha>
        1.</alpha>
      <index>
        109</index></_>
    <_>
      <sv_count>1</sv_count>
      <rho>2.0833949767065619e+001</rho>
      <alpha>
        1.</alpha>
      <index>
        110</index></_>
    <_>
      <sv_count>1</sv_count>
      <rho>1.6153844705554576e+001</rho>
      <alpha>
        1.</alpha>
      <index>
        111</index></_>
    <_>
      <sv_count>1</sv_count>
      <rho>-1.4825958715228147e+001</rho>
      <alpha>
        1.</alpha>
      <index>
        112</index></_>
    <_>
      <sv_count>1</sv_count>
      <rho>-2.2363464680564187e+000</rho>
      <alpha>
        1.</alpha>
      <index>
        113</index></_>
    <_>
      <sv_count>1</sv_count>
      <rho>-4.3786380582888440e-001</rho>
      <alpha>
        1.</alpha>
      <index>
        114</index></_>
    <_>
      <sv_count>1</sv_count>
      <rho>-1.6640614567723432e+001</rho>
      <alpha>
        1.</alpha>
      <index>
        115</index></_>
    <_>
      <sv_count>1</sv_count>
      <rho>-9.3098595685152770e+000</rho>
      <alpha>
        1.</alpha>
      <index>
        116</index></_>
    <_>
      <sv_count>1</sv_count>
      <rho>-1.1774703769217568e+001</rho>
      <alpha>
        1.</alpha>
      <index>
        117</index></_>
    <_>
      <sv_count>1</sv_count>
      <rho>-1.9988302663247861e+001</rho>
      <alpha>
        1.</alpha>
      <index>
        118</index></_>
    <_>
      <sv_count>1</sv_count>
      <rho>1.6269640579912210e+001</rho>
      <alpha>
        1.</alpha>
      <index>
        119</index></_></decision_functions></my_svm>
</opencv_storage>
